genomestart 5813
trait 1 0.00711357 0.0161043 0.0858545 0.0656547 0.0493413 0.0768121 0.0218661 0.0590363 
node 1 1 1 1 0
node 2 1 1 1 0
node 3 1 1 1 0
node 4 1 1 1 0
node 5 1 1 1 0
node 6 1 1 1 0
node 7 1 1 1 0
node 8 1 1 1 0
node 9 1 1 1 0
node 10 1 1 1 0
node 11 1 1 1 0
node 12 1 1 1 0
node 13 1 1 1 0
node 14 1 1 1 0
node 15 1 1 1 0
node 16 1 1 1 0
node 17 1 1 1 0
node 18 1 1 1 0
node 19 1 1 3 0
node 20 1 0 2 0
node 21 1 0 2 0
node 28 1 0 0 0
node 33 1 0 0 0
node 35 1 0 0 0
node 36 1 0 0 0
node 37 1 0 0 0
node 53 1 0 0 0
node 56 1 0 0 0
node 68 1 0 0 0
node 69 1 0 0 0
gene 1 1 20 -0.166085 0 1 -0.166085 1
gene 1 2 20 0.0615053 0 2 0.0615053 1
gene 1 3 20 0.915016 0 3 0.915016 1
gene 1 4 20 0.628607 0 4 0.628607 1
gene 1 5 20 -0.329981 0 5 -0.329981 1
gene 1 6 20 -0.0964651 0 6 -0.0964651 0
gene 1 7 20 -0.847198 0 7 -0.847198 1
gene 1 8 20 -0.0461329 0 8 -0.0461329 1
gene 1 9 20 -0.612088 0 9 -0.612088 1
gene 1 10 20 0.474803 0 10 0.474803 1
gene 1 11 20 -0.28962 0 11 -0.28962 1
gene 1 12 20 0.659829 0 12 0.659829 1
gene 1 13 20 0.117142 0 13 0.117142 1
gene 1 14 20 0.0491439 0 14 0.0491439 1
gene 1 15 20 -0.12397 0 15 -0.12397 1
gene 1 16 20 0.906713 0 16 0.906713 1
gene 1 17 20 0.283153 0 17 0.283153 0
gene 1 18 20 -0.364829 0 18 -0.364829 1
gene 1 19 20 0.905693 0 19 0.905693 1
gene 1 1 21 0.841065 0 20 0.841065 1
gene 1 2 21 0.336538 0 21 0.336538 1
gene 1 3 21 -0.0381204 0 22 -0.0381204 1
gene 1 4 21 -1.40857 0 23 -1.40857 1
gene 1 5 21 1.46912 0 24 1.46912 1
gene 1 6 21 -0.346315 0 25 -0.346315 1
gene 1 7 21 -0.019383 0 26 -0.019383 1
gene 1 8 21 0.249112 0 27 0.249112 1
gene 1 9 21 -0.137469 0 28 -0.137469 1
gene 1 10 21 -0.128864 0 29 -0.128864 1
gene 1 11 21 0.207058 0 30 0.207058 1
gene 1 12 21 -0.456746 0 31 -0.456746 1
gene 1 13 21 -0.382945 0 32 -0.382945 1
gene 1 14 21 1.50572 0 33 1.50572 1
gene 1 15 21 1.64879 0 34 1.64879 1
gene 1 16 21 0.43496 0 35 0.43496 1
gene 1 17 21 -0.287045 0 36 -0.287045 1
gene 1 18 21 -1.12061 0 37 -1.12061 1
gene 1 19 21 -0.216549 0 38 -0.216549 1
gene 1 21 20 -0.70258 0 43 -0.70258 1
gene 1 18 28 -0.31975 0 56 -0.31975 1
gene 1 28 20 0.188887 0 57 0.188887 0
gene 1 13 28 0.780533 0 62 0.780533 1
gene 1 14 28 0.0421863 0 66 0.0421863 0
gene 1 10 28 0.686238 0 68 0.686238 1
gene 1 17 33 0.315887 0 73 0.315887 1
gene 1 33 20 0.100208 0 74 0.100208 1
gene 1 20 21 -0.356963 1 80 -0.356963 1
gene 1 18 35 0.429237 0 81 0.429237 1
gene 1 35 21 0.492059 0 82 0.492059 1
gene 1 6 36 -0.258915 0 83 -0.258915 1
gene 1 36 20 0.39443 0 84 0.39443 1
gene 1 28 37 -0.731529 0 86 -0.731529 1
gene 1 37 20 -0.457928 0 87 -0.457928 1
gene 1 37 35 -0.52939 0 133 -0.52939 1
gene 1 10 37 -0.0238718 0 151 -0.0238718 1
gene 1 4 28 -0.137657 0 152 -0.137657 1
gene 1 28 35 0.382042 0 160 0.382042 1
gene 1 4 35 1.12703 0 161 1.12703 0
gene 1 13 53 -1.36067 0 164 -1.36067 1
gene 1 53 20 -0.375625 0 165 -0.375625 1
gene 1 14 56 -0.323923 0 180 -0.323923 1
gene 1 56 28 1.73933 0 181 1.73933 1
gene 1 1 33 -0.610702 0 204 -0.610702 1
gene 1 10 33 0.339419 0 206 0.339419 1
gene 1 13 37 -0.895688 0 207 -0.895688 1
gene 1 33 37 -0.413722 0 215 -0.413722 1
gene 1 21 53 0.226745 0 230 0.226745 1
gene 1 35 35 -0.37849 1 249 -0.37849 1
gene 1 4 68 0.626848 0 255 0.626848 1
gene 1 68 35 -0.022573 0 256 -0.022573 1
gene 1 18 69 -0.456502 0 258 -0.456502 1
gene 1 69 28 0.23258 0 259 0.23258 1
gene 1 28 33 -0.158066 0 267 -0.158066 1
gene 1 15 68 -0.435527 0 288 -0.435527 1
gene 1 68 56 -0.0278502 0 291 -0.0278502 1
genomeend 5813
genomestart 6038
trait 1 0 0.377088 0.045789 0.00689329 0.465996 0.0768121 0.296966 0.0137852 
node 1 1 1 1 0
node 2 1 1 1 0
node 3 1 1 1 0
node 4 1 1 1 0
node 5 1 1 1 0
node 6 1 1 1 0
node 7 1 1 1 0
node 8 1 1 1 0
node 9 1 1 1 0
node 10 1 1 1 0
node 11 1 1 1 0
node 12 1 1 1 0
node 13 1 1 1 0
node 14 1 1 1 0
node 15 1 1 1 0
node 16 1 1 1 0
node 17 1 1 1 0
node 18 1 1 1 0
node 19 1 1 3 0
node 20 1 0 2 0
node 21 1 0 2 0
node 28 1 0 0 0
node 33 1 0 0 0
node 35 1 0 0 0
node 36 1 0 0 0
node 37 1 0 0 0
node 49 1 0 0 0
node 52 1 0 0 0
node 53 1 0 0 0
node 56 1 0 0 0
node 67 1 0 0 0
node 68 1 0 0 0
node 69 1 0 0 0
node 73 1 0 0 0
node 86 1 0 0 0
gene 1 1 20 -0.0119732 0 1 -0.0119732 1
gene 1 2 20 -0.289 0 2 -0.289 1
gene 1 3 20 1.50455 0 3 1.50455 1
gene 1 4 20 -0.266838 0 4 -0.266838 1
gene 1 5 20 0.233496 0 5 0.233496 0
gene 1 6 20 -1.00174 0 6 -1.00174 1
gene 1 7 20 0.0792884 0 7 0.0792884 1
gene 1 8 20 -0.40984 0 8 -0.40984 1
gene 1 9 20 -0.217787 0 9 -0.217787 1
gene 1 10 20 -0.0303708 0 10 -0.0303708 1
gene 1 11 20 0.356311 0 11 0.356311 1
gene 1 12 20 -0.00122623 0 12 -0.00122623 1
gene 1 13 20 1.04099 0 13 1.04099 1
gene 1 14 20 -1.28769 0 14 -1.28769 0
gene 1 15 20 0.557018 0 15 0.557018 1
gene 1 16 20 0.938083 0 16 0.938083 1
gene 1 17 20 -0.0643315 0 17 -0.0643315 0
gene 1 18 20 0.165126 0 18 0.165126 1
gene 1 19 20 3 0 19 3 1
gene 1 1 21 0.232489 0 20 0.232489 1
gene 1 2 21 0.293764 0 21 0.293764 1
gene 1 3 21 0.799129 0 22 0.799129 1
gene 1 4 21 -1.11809 0 23 -1.11809 1
gene 1 5 21 0.557843 0 24 0.557843 1
gene 1 6 21 -0.407526 0 25 -0.407526 1
gene 1 7 21 0.0115666 0 26 0.0115666 1
gene 1 8 21 -0.404931 0 27 -0.404931 1
gene 1 9 21 -1.76396 0 28 -1.76396 1
gene 1 10 21 -0.0270401 0 29 -0.0270401 1
gene 1 11 21 2.6843 0 30 2.6843 1
gene 1 12 21 -0.641331 0 31 -0.641331 1
gene 1 13 21 -0.819908 0 32 -0.819908 1
gene 1 14 21 -0.151741 0 33 -0.151741 1
gene 1 15 21 -0.417749 0 34 -0.417749 1
gene 1 16 21 -0.708012 0 35 -0.708012 1
gene 1 17 21 0.173966 0 36 0.173966 1
gene 1 18 21 -1.166 0 37 -1.166 0
gene 1 19 21 -0.895961 0 38 -0.895961 1
gene 1 21 20 0.296734 0 43 0.296734 1
gene 1 18 28 -0.311226 0 56 -0.311226 1
gene 1 28 20 -0.823238 0 57 -0.823238 0
gene 1 13 28 -0.173506 0 62 -0.173506 1
gene 1 14 28 -0.328985 0 66 -0.328985 0
gene 1 10 28 0.491391 0 68 0.491391 1
gene 1 17 33 -0.0528092 0 73 -0.0528092 1
gene 1 33 20 -0.0125084 0 74 -0.0125084 1
gene 1 20 21 -0.23685 1 80 -0.23685 1
gene 1 18 35 0.130341 0 81 0.130341 1
gene 1 35 21 0.0756931 0 82 0.0756931 1
gene 1 6 36 -0.0228088 0 83 -0.0228088 1
gene 1 36 20 0.283142 0 84 0.283142 1
gene 1 28 37 -0.708688 0 86 -0.708688 1
gene 1 37 20 0.107801 0 87 0.107801 1
gene 1 21 49 0.591548 0 131 0.591548 1
gene 1 49 20 1.27773 0 132 1.27773 1
gene 1 37 35 -0.425097 0 133 -0.425097 1
gene 1 10 37 -0.0971861 0 151 -0.0971861 1
gene 1 4 28 1.01036 0 152 1.01036 1
gene 1 14 52 0.00127605 0 158 0.00127605 1
gene 1 52 20 1.02851 0 159 1.02851 1
gene 1 28 35 -0.783836 0 160 -0.783836 1
gene 1 4 35 -0.280933 0 161 -0.280933 1
gene 1 13 53 -0.591687 0 164 -0.591687 1
gene 1 53 20 0.0693253 0 165 0.0693253 1
gene 1 14 56 0.266454 0 180 0.266454 1
gene 1 56 28 0.607508 0 181 0.607508 1
gene 1 1 33 -1.84767 0 204 -1.84767 1
gene 1 10 33 0.132095 0 206 0.132095 0
gene 1 13 37 -0.447445 0 207 -0.447445 1
gene 1 33 37 0.262299 0 215 0.262299 1
gene 1 21 53 0.415821 0 230 0.415821 1
gene 1 5 67 -0.273745 0 244 -0.273745 1
gene 1 67 20 0.929616 0 245 0.929616 1
gene 1 35 35 -0.263992 1 249 -0.263992 1
gene 1 4 68 -0.279462 0 255 -0.279462 1
gene 1 68 35 1.79129 0 256 1.79129 1
gene 1 18 69 0.287944 0 258 0.287944 1
gene 1 69 28 -0.373896 0 259 -0.373896 1
gene 1 10 73 1.42107 0 275 1.42107 1
gene 1 73 33 0.0349113 0 276 0.0349113 1
gene 1 15 68 -0.760794 0 288 -0.760794 1
gene 1 10 35 -0.170905 0 313 -0.170905 1
gene 1 33 69 0.310711 0 340 0.310711 1
gene 1 35 86 1 1 345 1 1
gene 1 86 35 0.554308 0 346 0.554308 1
gene 1 16 53 -0.354961 0 354 -0.354961 1
genomeend 6038
genomestart 6049
trait 1 0.00711357 0.0161043 0.0858545 0.0656547 0.0493413 0.0768121 0.0218661 0.0590363 
node 1 1 1 1 0
node 2 1 1 1 0
node 3 1 1 1 0
node 4 1 1 1 0
node 5 1 1 1 0
node 6 1 1 1 0
node 7 1 1 1 0
node 8 1 1 1 0
node 9 1 1 1 0
node 10 1 1 1 0
node 11 1 1 1 0
node 12 1 1 1 0
node 13 1 1 1 0
node 14 1 1 1 0
node 15 1 1 1 0
node 16 1 1 1 0
node 17 1 1 1 0
node 18 1 1 1 0
node 19 1 1 3 0
node 20 1 0 2 0
node 21 1 0 2 0
node 28 1 0 0 0
node 33 1 0 0 0
node 35 1 0 0 0
node 36 1 0 0 0
node 37 1 0 0 0
node 53 1 0 0 0
node 56 1 0 0 0
node 68 1 0 0 0
node 69 1 0 0 0
gene 1 1 20 0.188084 0 1 0.188084 1
gene 1 2 20 0.0180131 0 2 0.0180131 1
gene 1 3 20 0.881961 0 3 0.881961 1
gene 1 4 20 0.397772 0 4 0.397772 1
gene 1 5 20 -0.444331 0 5 -0.444331 1
gene 1 6 20 -0.482876 0 6 -0.482876 0
gene 1 7 20 -0.992807 0 7 -0.992807 1
gene 1 8 20 -0.306217 0 8 -0.306217 1
gene 1 9 20 -0.393883 0 9 -0.393883 1
gene 1 10 20 0.0158062 0 10 0.0158062 1
gene 1 11 20 -0.032709 0 11 -0.032709 1
gene 1 12 20 0.470341 0 12 0.470341 1
gene 1 13 20 0.505983 0 13 0.505983 1
gene 1 14 20 0.238717 0 14 0.238717 1
gene 1 15 20 0.15977 0 15 0.15977 1
gene 1 16 20 0.232931 0 16 0.232931 1
gene 1 17 20 0.731359 0 17 0.731359 0
gene 1 18 20 -0.921835 0 18 -0.921835 1
gene 1 19 20 1.76206 0 19 1.76206 1
gene 1 1 21 0.556887 0 20 0.556887 1
gene 1 2 21 0.190195 0 21 0.190195 1
gene 1 3 21 0.105299 0 22 0.105299 1
gene 1 4 21 -0.964906 0 23 -0.964906 1
gene 1 5 21 1.19977 0 24 1.19977 1
gene 1 6 21 -0.529733 0 25 -0.529733 1
gene 1 7 21 -0.0519385 0 26 -0.0519385 1
gene 1 8 21 0.150326 0 27 0.150326 1
gene 1 9 21 0.112859 0 28 0.112859 1
gene 1 10 21 0.204034 0 29 0.204034 1
gene 1 11 21 -0.340005 0 30 -0.340005 1
gene 1 12 21 -0.552865 0 31 -0.552865 1
gene 1 13 21 -0.462888 0 32 -0.462888 1
gene 1 14 21 1.86247 0 33 1.86247 1
gene 1 15 21 1.92914 0 34 1.92914 1
gene 1 16 21 0.472201 0 35 0.472201 1
gene 1 17 21 -0.295016 0 36 -0.295016 1
gene 1 18 21 -0.664068 0 37 -0.664068 1
gene 1 19 21 -0.471976 0 38 -0.471976 1
gene 1 21 20 -0.609983 0 43 -0.609983 1
gene 1 18 28 -0.227579 0 56 -0.227579 1
gene 1 28 20 0.222524 0 57 0.222524 0
gene 1 13 28 0.519929 0 62 0.519929 1
gene 1 14 28 -0.0845701 0 66 -0.0845701 0
gene 1 10 28 0.564269 0 68 0.564269 1
gene 1 17 33 0.31198 0 73 0.31198 1
gene 1 33 20 0.0499736 0 74 0.0499736 1
gene 1 20 21 0.113596 1 80 0.113596 1
gene 1 18 35 0.72001 0 81 0.72001 1
gene 1 35 21 0.28864 0 82 0.28864 1
gene 1 6 36 0.158448 0 83 0.158448 1
gene 1 36 20 -0.117432 0 84 -0.117432 1
gene 1 28 37 0.0164851 0 86 0.0164851 1
gene 1 37 20 -0.467308 0 87 -0.467308 1
gene 1 37 35 -0.367298 0 133 -0.367298 1
gene 1 10 37 -0.047861 0 151 -0.047861 1
gene 1 4 28 -0.462065 0 152 -0.462065 1
gene 1 28 35 0.308491 0 160 0.308491 1
gene 1 4 35 0.751848 0 161 0.751848 0
gene 1 13 53 -1.004 0 164 -1.004 1
gene 1 53 20 0.104436 0 165 0.104436 1
gene 1 14 56 -0.702175 0 180 -0.702175 1
gene 1 56 28 1.95646 0 181 1.95646 1
gene 1 1 33 -0.31742 0 204 -0.31742 1
gene 1 10 33 0.380333 0 206 0.380333 1
gene 1 13 37 -0.987769 0 207 -0.987769 1
gene 1 33 37 -0.51532 0 215 -0.51532 1
gene 1 21 53 0.0743362 0 230 0.0743362 1
gene 1 35 35 0.0360484 1 249 0.0360484 1
gene 1 4 68 0.112715 0 255 0.112715 1
gene 1 68 35 0.134587 0 256 0.134587 1
gene 1 18 69 -0.467286 0 258 -0.467286 1
gene 1 69 28 0.482553 0 259 0.482553 1
gene 1 28 33 -0.451964 0 267 -0.451964 1
gene 1 15 68 -0.602589 0 288 -0.602589 1
gene 1 68 56 0.385734 0 291 0.385734 1
gene 1 33 53 -0.823401 0 362 -0.823401 1
genomeend 6049
genomestart 6077
trait 1 0 0.377088 0 0.00689329 0.465996 0.0768121 0 0.0137852 
node 1 1 1 1 0
node 2 1 1 1 0
node 3 1 1 1 0
node 4 1 1 1 0
node 5 1 1 1 0
node 6 1 1 1 0
node 7 1 1 1 0
node 8 1 1 1 0
node 9 1 1 1 0
node 10 1 1 1 0
node 11 1 1 1 0
node 12 1 1 1 0
node 13 1 1 1 0
node 14 1 1 1 0
node 15 1 1 1 0
node 16 1 1 1 0
node 17 1 1 1 0
node 18 1 1 1 0
node 19 1 1 3 0
node 20 1 0 2 0
node 21 1 0 2 0
node 28 1 0 0 0
node 33 1 0 0 0
node 35 1 0 0 0
node 36 1 0 0 0
node 37 1 0 0 0
node 49 1 0 0 0
node 52 1 0 0 0
node 53 1 0 0 0
node 56 1 0 0 0
node 67 1 0 0 0
node 68 1 0 0 0
node 69 1 0 0 0
node 73 1 0 0 0
node 86 1 0 0 0
gene 1 1 20 0.351911 0 1 0.351911 1
gene 1 2 20 0.037612 0 2 0.037612 1
gene 1 3 20 1.59038 0 3 1.59038 1
gene 1 4 20 -0.367944 0 4 -0.367944 1
gene 1 5 20 0.490475 0 5 0.490475 1
gene 1 6 20 -0.629033 0 6 -0.629033 0
gene 1 7 20 -0.192823 0 7 -0.192823 1
gene 1 8 20 0.0951394 0 8 0.0951394 1
gene 1 9 20 0.113923 0 9 0.113923 1
gene 1 10 20 -0.644891 0 10 -0.644891 1
gene 1 11 20 0.212857 0 11 0.212857 1
gene 1 12 20 -0.191154 0 12 -0.191154 1
gene 1 13 20 1.35537 0 13 1.35537 1
gene 1 14 20 -1.64274 0 14 -1.64274 0
gene 1 15 20 0.191875 0 15 0.191875 1
gene 1 16 20 1.527 0 16 1.527 1
gene 1 17 20 -0.785782 0 17 -0.785782 1
gene 1 18 20 0.335161 0 18 0.335161 1
gene 1 19 20 3 0 19 3 1
gene 1 1 21 -0.0497187 0 20 -0.0497187 1
gene 1 2 21 -0.0695346 0 21 -0.0695346 1
gene 1 3 21 1.2177 0 22 1.2177 1
gene 1 4 21 -1.24616 0 23 -1.24616 1
gene 1 5 21 0.195506 0 24 0.195506 1
gene 1 6 21 -0.280065 0 25 -0.280065 1
gene 1 7 21 0.347457 0 26 0.347457 1
gene 1 8 21 -0.0798954 0 27 -0.0798954 1
gene 1 9 21 -2.07903 0 28 -2.07903 1
gene 1 10 21 -0.097557 0 29 -0.097557 1
gene 1 11 21 2.50792 0 30 2.50792 1
gene 1 12 21 -0.0485576 0 31 -0.0485576 1
gene 1 13 21 -0.9709 0 32 -0.9709 1
gene 1 14 21 -0.586248 0 33 -0.586248 1
gene 1 15 21 -0.572886 0 34 -0.572886 1
gene 1 16 21 -0.48102 0 35 -0.48102 1
gene 1 17 21 0.706303 0 36 0.706303 1
gene 1 18 21 -1.46445 0 37 -1.46445 0
gene 1 19 21 -0.528562 0 38 -0.528562 1
gene 1 21 20 0.16669 0 43 0.16669 1
gene 1 18 28 0.0144491 0 56 0.0144491 1
gene 1 28 20 -0.995466 0 57 -0.995466 0
gene 1 13 28 -0.292322 0 62 -0.292322 1
gene 1 14 28 -0.365783 0 66 -0.365783 0
gene 1 10 28 0.596103 0 68 0.596103 1
gene 1 17 33 0.471888 0 73 0.471888 1
gene 1 33 20 -0.215202 0 74 -0.215202 1
gene 1 20 21 0.315062 1 80 0.315062 1
gene 1 18 35 0.612274 0 81 0.612274 1
gene 1 35 21 -0.118143 0 82 -0.118143 1
gene 1 6 36 -0.279513 0 83 -0.279513 1
gene 1 36 20 0.400513 0 84 0.400513 1
gene 1 28 37 -0.519031 0 86 -0.519031 1
gene 1 37 20 -0.256638 0 87 -0.256638 1
gene 1 21 49 0.712009 0 131 0.712009 1
gene 1 49 20 1.67608 0 132 1.67608 1
gene 1 37 35 -0.0222037 0 133 -0.0222037 1
gene 1 10 37 0.315543 0 151 0.315543 1
gene 1 4 28 0.705213 0 152 0.705213 1
gene 1 14 52 0.355177 0 158 0.355177 1
gene 1 52 20 0.651592 0 159 0.651592 1
gene 1 28 35 -0.253432 0 160 -0.253432 1
gene 1 4 35 -0.43162 0 161 -0.43162 1
gene 1 13 53 -0.693243 0 164 -0.693243 1
gene 1 53 20 0.128234 0 165 0.128234 1
gene 1 14 56 0.612878 0 180 0.612878 1
gene 1 56 28 0.212972 0 181 0.212972 1
gene 1 1 33 -1.17654 0 204 -1.17654 1
gene 1 10 33 0.311043 0 206 0.311043 0
gene 1 13 37 -0.988531 0 207 -0.988531 1
gene 1 33 37 -0.0898181 0 215 -0.0898181 1
gene 1 21 53 0.345912 0 230 0.345912 1
gene 1 5 67 -0.629665 0 244 -0.629665 1
gene 1 67 20 0.929616 0 245 0.929616 1
gene 1 35 35 -0.379847 1 249 -0.379847 1
gene 1 4 68 -0.0303403 0 255 -0.0303403 1
gene 1 68 35 -0.084371 0 256 -0.084371 1
gene 1 18 69 0.190079 0 258 0.190079 1
gene 1 69 28 0.123008 0 259 0.123008 1
gene 1 10 73 1.20694 0 275 1.20694 1
gene 1 73 33 0.395493 0 276 0.395493 1
gene 1 15 68 -0.821771 0 288 -0.821771 1
gene 1 10 35 0.0518213 0 313 0.0518213 1
gene 1 33 69 0.0789806 0 340 0.0789806 1
gene 1 35 86 0.618763 1 345 0.618763 1
gene 1 86 35 0.425258 0 346 0.425258 1
gene 1 16 53 -0.0847106 0 354 -0.0847106 1
genomeend 6077
genomestart 6108
trait 1 0.00711357 0.0161043 0.0858545 0.0656547 0.0493413 0.0768121 0.0218661 0.0590363 
node 1 1 1 1 0
node 2 1 1 1 0
node 3 1 1 1 0
node 4 1 1 1 0
node 5 1 1 1 0
node 6 1 1 1 0
node 7 1 1 1 0
node 8 1 1 1 0
node 9 1 1 1 0
node 10 1 1 1 0
node 11 1 1 1 0
node 12 1 1 1 0
node 13 1 1 1 0
node 14 1 1 1 0
node 15 1 1 1 0
node 16 1 1 1 0
node 17 1 1 1 0
node 18 1 1 1 0
node 19 1 1 3 0
node 20 1 0 2 0
node 21 1 0 2 0
node 28 1 0 0 0
node 33 1 0 0 0
node 35 1 0 0 0
node 36 1 0 0 0
node 37 1 0 0 0
node 53 1 0 0 0
node 56 1 0 0 0
node 68 1 0 0 0
node 69 1 0 0 0
gene 1 1 20 -0.190011 0 1 -0.190011 1
gene 1 2 20 0.257077 0 2 0.257077 1
gene 1 3 20 1.26427 0 3 1.26427 1
gene 1 4 20 1.0267 0 4 1.0267 1
gene 1 5 20 -0.704722 0 5 -0.704722 1
gene 1 6 20 -0.354921 0 6 -0.354921 0
gene 1 7 20 -1.11936 0 7 -1.11936 1
gene 1 8 20 0.115198 0 8 0.115198 1
gene 1 9 20 -0.437037 0 9 -0.437037 1
gene 1 10 20 0.748149 0 10 0.748149 1
gene 1 11 20 -0.371028 0 11 -0.371028 1
gene 1 12 20 0.969794 0 12 0.969794 1
gene 1 13 20 -0.0511472 0 13 -0.0511472 1
gene 1 14 20 -0.0695883 0 14 -0.0695883 1
gene 1 15 20 0.312497 0 15 0.312497 1
gene 1 16 20 0.606351 0 16 0.606351 1
gene 1 17 20 0.283977 0 17 0.283977 0
gene 1 18 20 -0.55433 0 18 -0.55433 1
gene 1 19 20 1.24277 0 19 1.24277 1
gene 1 1 21 0.884959 0 20 0.884959 1
gene 1 2 21 0.51765 0 21 0.51765 1
gene 1 3 21 -0.0464742 0 22 -0.0464742 1
gene 1 4 21 -1.73653 0 23 -1.73653 1
gene 1 5 21 1.94581 0 24 1.94581 1
gene 1 6 21 -0.385108 0 25 -0.385108 1
gene 1 7 21 0.297249 0 26 0.297249 1
gene 1 8 21 0.596259 0 27 0.596259 1
gene 1 9 21 0.264434 0 28 0.264434 1
gene 1 10 21 -0.538759 0 29 -0.538759 1
gene 1 11 21 -0.278791 0 30 -0.278791 1
gene 1 12 21 -0.947823 0 31 -0.947823 1
gene 1 13 21 0.0968037 0 32 0.0968037 1
gene 1 14 21 1.59775 0 33 1.59775 1
gene 1 15 21 1.24206 0 34 1.24206 1
gene 1 16 21 0.30071 0 35 0.30071 1
gene 1 17 21 -0.101465 0 36 -0.101465 1
gene 1 18 21 -1.37397 0 37 -1.37397 1
gene 1 19 21 -0.448527 0 38 -0.448527 1
gene 1 21 20 -1.13174 0 43 -1.13174 1
gene 1 18 28 -0.425013 0 56 -0.425013 1
gene 1 28 20 0.17601 0 57 0.17601 0
gene 1 13 28 0.585917 0 62 0.585917 1
gene 1 14 28 0.308669 0 66 0.308669 0
gene 1 10 28 0.524437 0 68 0.524437 1
gene 1 17 33 0.551468 0 73 0.551468 1
gene 1 33 20 0.0861259 0 74 0.0861259 1
gene 1 20 21 0.0374195 1 80 0.0374195 1
gene 1 18 35 0.762432 0 81 0.762432 1
gene 1 35 21 0.102941 0 82 0.102941 1
gene 1 6 36 -0.0960042 0 83 -0.0960042 1
gene 1 36 20 0.648795 0 84 0.648795 1
gene 1 28 37 -0.252928 0 86 -0.252928 1
gene 1 37 20 0.0064063 0 87 0.0064063 1
gene 1 37 35 -0.466447 0 133 -0.466447 1
gene 1 10 37 -0.161721 0 151 -0.161721 1
gene 1 4 28 -0.0316711 0 152 -0.0316711 1
gene 1 28 35 -0.0177262 0 160 -0.0177262 1
gene 1 4 35 1.14017 0 161 1.14017 0
gene 1 13 53 -1.50243 0 164 -1.50243 1
gene 1 53 20 -0.53852 0 165 -0.53852 1
gene 1 14 56 -0.558579 0 180 -0.558579 1
gene 1 56 28 1.73933 0 181 1.73933 1
gene 1 1 33 -0.900126 0 204 -0.900126 1
gene 1 10 33 -0.424186 0 206 -0.424186 1
gene 1 13 37 -0.594099 0 207 -0.594099 1
gene 1 33 37 -0.786079 0 215 -0.786079 1
gene 1 21 53 0.148112 0 230 0.148112 1
gene 1 35 35 -0.277235 1 249 -0.277235 1
gene 1 4 68 0.626848 0 255 0.626848 1
gene 1 68 35 -0.022573 0 256 -0.022573 1
gene 1 18 69 -0.254086 0 258 -0.254086 1
gene 1 69 28 0.630831 0 259 0.630831 1
gene 1 28 33 -0.455426 0 267 -0.455426 1
gene 1 15 68 0.0248016 0 288 0.0248016 1
gene 1 68 56 0.218926 0 291 0.218926 1
genomeend 6108
genomestart 6214
trait 1 0 0.377088 0.045789 0.00689329 0.465996 0.0768121 0.296966 0.0137852 
node 1 1 1 1 0
node 2 1 1 1 0
node 3 1 1 1 0
node 4 1 1 1 0
node 5 1 1 1 0
node 6 1 1 1 0
node 7 1 1 1 0
node 8 1 1 1 0
node 9 1 1 1 0
node 10 1 1 1 0
node 11 1 1 1 0
node 12 1 1 1 0
node 13 1 1 1 0
node 14 1 1 1 0
node 15 1 1 1 0
node 16 1 1 1 0
node 17 1 1 1 0
node 18 1 1 1 0
node 19 1 1 3 0
node 20 1 0 2 0
node 21 1 0 2 0
node 28 1 0 0 0
node 33 1 0 0 0
node 35 1 0 0 0
node 36 1 0 0 0
node 37 1 0 0 0
node 49 1 0 0 0
node 52 1 0 0 0
node 53 1 0 0 0
node 56 1 0 0 0
node 60 1 0 0 0
node 67 1 0 0 0
node 68 1 0 0 0
node 69 1 0 0 0
gene 1 1 20 -0.231394 0 1 -0.231394 1
gene 1 2 20 0.695399 0 2 0.695399 1
gene 1 3 20 1.22272 0 3 1.22272 1
gene 1 4 20 0.0949577 0 4 0.0949577 1
gene 1 5 20 0.244586 0 5 0.244586 1
gene 1 6 20 -0.0227744 0 6 -0.0227744 0
gene 1 7 20 0.508856 0 7 0.508856 1
gene 1 8 20 -0.0622497 0 8 -0.0622497 1
gene 1 9 20 0.0382294 0 9 0.0382294 1
gene 1 10 20 -0.898221 0 10 -0.898221 1
gene 1 11 20 0.483806 0 11 0.483806 1
gene 1 12 20 -0.149064 0 12 -0.149064 1
gene 1 13 20 0.935339 0 13 0.935339 1
gene 1 14 20 -1.00067 0 14 -1.00067 0
gene 1 15 20 0.994475 0 15 0.994475 1
gene 1 16 20 1.05532 0 16 1.05532 1
gene 1 17 20 -0.364596 0 17 -0.364596 0
gene 1 18 20 0.616062 0 18 0.616062 1
gene 1 19 20 2.71614 0 19 2.71614 1
gene 1 1 21 0.0934597 0 20 0.0934597 1
gene 1 2 21 0.372325 0 21 0.372325 1
gene 1 3 21 0.554746 0 22 0.554746 1
gene 1 4 21 -0.679868 0 23 -0.679868 1
gene 1 5 21 -0.216164 0 24 -0.216164 1
gene 1 6 21 -0.197885 0 25 -0.197885 1
gene 1 7 21 0.876209 0 26 0.876209 1
gene 1 8 21 -0.381031 0 27 -0.381031 1
gene 1 9 21 -1.67892 0 28 -1.67892 1
gene 1 10 21 -0.597857 0 29 -0.597857 1
gene 1 11 21 2.73621 0 30 2.73621 1
gene 1 12 21 -0.906163 0 31 -0.906163 1
gene 1 13 21 -1.22101 0 32 -1.22101 1
gene 1 14 21 0.0401433 0 33 0.0401433 1
gene 1 15 21 -0.573186 0 34 -0.573186 1
gene 1 16 21 -0.701881 0 35 -0.701881 1
gene 1 17 21 0.859113 0 36 0.859113 1
gene 1 18 21 -1.203 0 37 -1.203 1
gene 1 19 21 -0.504545 0 38 -0.504545 1
gene 1 21 20 0.0858428 0 43 0.0858428 0
gene 1 18 28 -0.426307 0 56 -0.426307 1
gene 1 28 20 -1.26956 0 57 -1.26956 0
gene 1 13 28 -1.01155 0 62 -1.01155 1
gene 1 14 28 -0.685188 0 66 -0.685188 1
gene 1 10 28 0.457001 0 68 0.457001 1
gene 1 17 33 0.215219 0 73 0.215219 1
gene 1 33 20 0.0934898 0 74 0.0934898 1
gene 1 20 21 -0.0955424 1 80 -0.0955424 1
gene 1 18 35 -0.289535 0 81 -0.289535 1
gene 1 35 21 0.0609216 0 82 0.0609216 1
gene 1 6 36 -0.495002 0 83 -0.495002 1
gene 1 36 20 0.469331 0 84 0.469331 1
gene 1 28 37 0.000471473 0 86 0.000471473 0
gene 1 37 20 -0.0347575 0 87 -0.0347575 1
gene 1 21 49 1.08378 0 131 1.08378 1
gene 1 49 20 1.19176 0 132 1.19176 1
gene 1 37 35 -0.820347 0 133 -0.820347 1
gene 1 10 37 0.0440781 0 151 0.0440781 1
gene 1 4 28 0.66461 0 152 0.66461 1
gene 1 14 52 0.0806984 0 158 0.0806984 1
gene 1 52 20 0.42628 0 159 0.42628 1
gene 1 28 35 -0.870778 0 160 -0.870778 1
gene 1 4 35 0.133455 0 161 0.133455 1
gene 1 13 53 -0.146916 0 164 -0.146916 1
gene 1 53 20 0.196329 0 165 0.196329 1
gene 1 14 56 0.454565 0 180 0.454565 1
gene 1 56 28 0.702262 0 181 0.702262 1
gene 1 28 60 0.788662 0 190 0.788662 1
gene 1 60 37 0.194366 0 191 0.194366 1
gene 1 1 33 -1.46346 0 204 -1.46346 1
gene 1 10 33 0.691107 0 206 0.691107 1
gene 1 13 37 0.274751 0 207 0.274751 1
gene 1 33 37 0.662661 0 215 0.662661 1
gene 1 21 53 0.276002 0 230 0.276002 1
gene 1 5 67 -0.256696 0 244 -0.256696 1
gene 1 67 20 0.531648 0 245 0.531648 1
gene 1 35 35 0.614364 1 249 0.614364 1
gene 1 4 68 0.676303 0 255 0.676303 1
gene 1 68 35 0.844293 0 256 0.844293 1
gene 1 18 69 0.0922139 0 258 0.0922139 1
gene 1 69 28 -0.253813 0 259 -0.253813 1
gene 1 15 68 -0.426551 0 288 -0.426551 1
gene 1 10 35 0.514623 0 313 0.514623 1
gene 1 33 69 0.393417 0 340 0.393417 1
gene 1 13 52 0.400123 0 347 0.400123 1
genomeend 6214
genomestart 6246
trait 1 0 0.377088 0.0228945 0.00689329 0.465996 0.0768121 0.148483 0.0137852 
node 1 1 1 1 0
node 2 1 1 1 0
node 3 1 1 1 0
node 4 1 1 1 0
node 5 1 1 1 0
node 6 1 1 1 0
node 7 1 1 1 0
node 8 1 1 1 0
node 9 1 1 1 0
node 10 1 1 1 0
node 11 1 1 1 0
node 12 1 1 1 0
node 13 1 1 1 0
node 14 1 1 1 0
node 15 1 1 1 0
node 16 1 1 1 0
node 17 1 1 1 0
node 18 1 1 1 0
node 19 1 1 3 0
node 20 1 0 2 0
node 21 1 0 2 0
node 28 1 0 0 0
node 33 1 0 0 0
node 35 1 0 0 0
node 36 1 0 0 0
node 37 1 0 0 0
node 49 1 0 0 0
node 52 1 0 0 0
node 53 1 0 0 0
node 56 1 0 0 0
node 67 1 0 0 0
node 68 1 0 0 0
node 69 1 0 0 0
node 73 1 0 0 0
node 86 1 0 0 0
gene 1 1 20 0.351911 0 1 0.351911 1
gene 1 2 20 0.037612 0 2 0.037612 1
gene 1 3 20 1.15331 0 3 1.15331 1
gene 1 4 20 -0.367944 0 4 -0.367944 1
gene 1 5 20 0.490475 0 5 0.490475 1
gene 1 6 20 -0.629033 0 6 -0.629033 0
gene 1 7 20 0.05423 0 7 0.05423 1
gene 1 8 20 0.0499216 0 8 0.0499216 1
gene 1 9 20 0.113923 0 9 0.113923 1
gene 1 10 20 -0.644891 0 10 -0.644891 1
gene 1 11 20 0.0753833 0 11 0.0753833 1
gene 1 12 20 0.382662 0 12 0.382662 1
gene 1 13 20 1.35537 0 13 1.35537 1
gene 1 14 20 -1.64274 0 14 -1.64274 0
gene 1 15 20 0.412197 0 15 0.412197 1
gene 1 16 20 1.527 0 16 1.527 1
gene 1 17 20 -0.423722 0 17 -0.423722 0
gene 1 18 20 0.335161 0 18 0.335161 1
gene 1 19 20 3 0 19 3 1
gene 1 1 21 -0.0445569 0 20 -0.0445569 1
gene 1 2 21 -0.00926567 0 21 -0.00926567 1
gene 1 3 21 1.2177 0 22 1.2177 1
gene 1 4 21 -1.24616 0 23 -1.24616 1
gene 1 5 21 0.195506 0 24 0.195506 1
gene 1 6 21 -0.280065 0 25 -0.280065 1
gene 1 7 21 0.347457 0 26 0.347457 1
gene 1 8 21 0.0128214 0 27 0.0128214 1
gene 1 9 21 -0.744549 0 28 -0.744549 1
gene 1 10 21 -0.097557 0 29 -0.097557 1
gene 1 11 21 2.50792 0 30 2.50792 1
gene 1 12 21 -0.0485576 0 31 -0.0485576 1
gene 1 13 21 -0.9709 0 32 -0.9709 1
gene 1 14 21 -0.586248 0 33 -0.586248 1
gene 1 15 21 -0.572886 0 34 -0.572886 1
gene 1 16 21 -0.847421 0 35 -0.847421 1
gene 1 17 21 0.706303 0 36 0.706303 1
gene 1 18 21 -1.46445 0 37 -1.46445 0
gene 1 19 21 -0.393561 0 38 -0.393561 1
gene 1 21 20 0.16669 0 43 0.16669 0
gene 1 18 28 -0.156748 0 56 -0.156748 1
gene 1 28 20 -0.859972 0 57 -0.859972 1
gene 1 13 28 -0.17612 0 62 -0.17612 1
gene 1 14 28 -0.502634 0 66 -0.502634 0
gene 1 10 28 0.871318 0 68 0.871318 1
gene 1 17 33 0.471888 0 73 0.471888 1
gene 1 33 20 -0.215202 0 74 -0.215202 1
gene 1 20 21 0.268882 1 80 0.268882 1
gene 1 18 35 0.612274 0 81 0.612274 1
gene 1 35 21 -0.0752279 0 82 -0.0752279 1
gene 1 6 36 -0.279513 0 83 -0.279513 1
gene 1 36 20 0.493952 0 84 0.493952 1
gene 1 28 37 -0.447455 0 86 -0.447455 1
gene 1 37 20 -0.17456 0 87 -0.17456 1
gene 1 21 49 0.963102 0 131 0.963102 1
gene 1 49 20 1.67608 0 132 1.67608 1
gene 1 37 35 -0.0222037 0 133 -0.0222037 1
gene 1 10 37 0.315543 0 151 0.315543 1
gene 1 4 28 0.705213 0 152 0.705213 1
gene 1 14 52 0.210731 0 158 0.210731 1
gene 1 52 20 0.611491 0 159 0.611491 1
gene 1 28 35 -0.773623 0 160 -0.773623 1
gene 1 4 35 -0.167203 0 161 -0.167203 1
gene 1 13 53 -0.30927 0 164 -0.30927 1
gene 1 53 20 0.128234 0 165 0.128234 1
gene 1 14 56 -0.0529427 0 180 -0.0529427 1
gene 1 56 28 0.212972 0 181 0.212972 1
gene 1 1 33 -1.17654 0 204 -1.17654 1
gene 1 10 33 0.338431 0 206 0.338431 0
gene 1 13 37 -0.988531 0 207 -0.988531 1
gene 1 33 37 0.517858 0 215 0.517858 1
gene 1 21 53 0.345912 0 230 0.345912 1
gene 1 5 67 -0.629665 0 244 -0.629665 1
gene 1 67 20 0.929616 0 245 0.929616 1
gene 1 35 35 -0.379847 1 249 -0.379847 0
gene 1 4 68 0.0782272 0 255 0.0782272 1
gene 1 68 35 -0.084371 0 256 -0.084371 1
gene 1 18 69 0.190079 0 258 0.190079 1
gene 1 69 28 -0.278555 0 259 -0.278555 1
gene 1 10 73 1 0 275 0 1
gene 1 73 33 0.395493 0 276 0.395493 1
gene 1 15 68 -0.821771 0 288 -0.821771 1
gene 1 10 35 0.365222 0 313 0.365222 1
gene 1 33 69 0.124485 0 340 0.124485 1
gene 1 35 86 1 1 345 0 1
gene 1 86 35 0.233926 0 346 0 1
gene 1 16 53 -0.0847106 0 354 -0.0847106 1
genomeend 6246
genomestart 6305
trait 1 0.00711357 0.0161043 0.0858545 0.0656547 0.0493413 0.0768121 0.0218661 0.0590363 
node 1 1 1 1 0
node 2 1 1 1 0
node 3 1 1 1 0
node 4 1 1 1 0
node 5 1 1 1 0
node 6 1 1 1 0
node 7 1 1 1 0
node 8 1 1 1 0
node 9 1 1 1 0
node 10 1 1 1 0
node 11 1 1 1 0
node 12 1 1 1 0
node 13 1 1 1 0
node 14 1 1 1 0
node 15 1 1 1 0
node 16 1 1 1 0
node 17 1 1 1 0
node 18 1 1 1 0
node 19 1 1 3 0
node 20 1 0 2 0
node 21 1 0 2 0
node 28 1 0 0 0
node 33 1 0 0 0
node 35 1 0 0 0
node 36 1 0 0 0
node 37 1 0 0 0
node 53 1 0 0 0
node 56 1 0 0 0
node 68 1 0 0 0
node 69 1 0 0 0
gene 1 1 20 -0.178048 0 1 -0.178048 1
gene 1 2 20 0.159291 0 2 0.159291 1
gene 1 3 20 1.08964 0 3 1.08964 1
gene 1 4 20 0.827654 0 4 0.827654 1
gene 1 5 20 -0.517352 0 5 -0.517352 1
gene 1 6 20 -0.225693 0 6 -0.225693 0
gene 1 7 20 -0.983277 0 7 -0.983277 1
gene 1 8 20 0.0345324 0 8 0.0345324 1
gene 1 9 20 -0.524563 0 9 -0.524563 1
gene 1 10 20 0.611476 0 10 0.611476 1
gene 1 11 20 -0.330324 0 11 -0.330324 1
gene 1 12 20 0.814812 0 12 0.814812 1
gene 1 13 20 0.0329974 0 13 0.0329974 1
gene 1 14 20 -0.0102222 0 14 -0.0102222 1
gene 1 15 20 0.0942635 0 15 0.0942635 1
gene 1 16 20 0.756532 0 16 0.756532 1
gene 1 17 20 0.283565 0 17 0.283565 0
gene 1 18 20 -0.459579 0 18 -0.459579 1
gene 1 19 20 1.07423 0 19 1.07423 1
gene 1 1 21 0.863012 0 20 0.863012 1
gene 1 2 21 0.427094 0 21 0.427094 1
gene 1 3 21 -0.0422973 0 22 -0.0422973 1
gene 1 4 21 -1.57255 0 23 -1.57255 1
gene 1 5 21 1.70747 0 24 1.70747 1
gene 1 6 21 -0.365712 0 25 -0.365712 1
gene 1 7 21 0.138933 0 26 0.138933 1
gene 1 8 21 0.422686 0 27 0.422686 1
gene 1 9 21 0.0634825 0 28 0.0634825 1
gene 1 10 21 -0.333811 0 29 -0.333811 1
gene 1 11 21 -0.0358662 0 30 -0.0358662 1
gene 1 12 21 -0.702285 0 31 -0.702285 1
gene 1 13 21 -0.143071 0 32 -0.143071 1
gene 1 14 21 1.55174 0 33 1.55174 1
gene 1 15 21 1.44542 0 34 1.44542 1
gene 1 16 21 0.367835 0 35 0.367835 1
gene 1 17 21 -0.194255 0 36 -0.194255 1
gene 1 18 21 -1.24729 0 37 -1.24729 1
gene 1 19 21 -0.332538 0 38 -0.332538 1
gene 1 21 20 -0.917161 0 43 -0.917161 1
gene 1 18 28 -0.372382 0 56 -0.372382 1
gene 1 28 20 0.182449 0 57 0.182449 0
gene 1 13 28 0.683225 0 62 0.683225 1
gene 1 14 28 0.175428 0 66 0.175428 1
gene 1 10 28 0.605338 0 68 0.605338 1
gene 1 17 33 0.433677 0 73 0.433677 1
gene 1 33 20 0.0931667 0 74 0.0931667 1
gene 1 20 21 -0.159772 1 80 -0.159772 1
gene 1 18 35 0.595835 0 81 0.595835 1
gene 1 35 21 0.2975 0 82 0.2975 1
gene 1 6 36 -0.17746 0 83 -0.17746 1
gene 1 36 20 0.521612 0 84 0.521612 1
gene 1 28 37 -0.492228 0 86 -0.492228 1
gene 1 37 20 -0.225761 0 87 -0.225761 1
gene 1 37 35 -0.497918 0 133 -0.497918 1
gene 1 10 37 -0.0927964 0 151 -0.0927964 1
gene 1 4 28 -0.084664 0 152 -0.084664 1
gene 1 28 35 0.182158 0 160 0.182158 1
gene 1 4 35 1.1336 0 161 1.1336 0
gene 1 13 53 -1.43155 0 164 -1.43155 1
gene 1 53 20 -0.457073 0 165 -0.457073 1
gene 1 14 56 -0.441251 0 180 -0.441251 1
gene 1 56 28 1.73933 0 181 1.73933 1
gene 1 1 33 -0.755414 0 204 -0.755414 1
gene 1 10 33 -0.0423836 0 206 -0.0423836 1
gene 1 13 37 -0.744893 0 207 -0.744893 1
gene 1 33 37 -0.5999 0 215 -0.5999 1
gene 1 21 53 0.187429 0 230 0.187429 1
gene 1 35 35 -0.327862 1 249 -0.327862 1
gene 1 4 68 0.626848 0 255 0.626848 1
gene 1 68 35 -0.022573 0 256 -0.022573 1
gene 1 18 69 -0.355294 0 258 -0.355294 1
gene 1 69 28 0.431706 0 259 0.431706 1
gene 1 28 33 -0.306746 0 267 -0.306746 1
gene 1 15 68 -0.205363 0 288 -0.205363 1
gene 1 68 56 0.0955377 0 291 0.0955377 1
genomeend 6305
genomestart 6340
trait 1 0 0.445698 0.0686836 0.0137866 0.144242 0.489288 0.194333 0.0103389 
node 1 1 1 1 0
node 2 1 1 1 0
node 3 1 1 1 0
node 4 1 1 1 0
node 5 1 1 1 0
node 6 1 1 1 0
node 7 1 1 1 0
node 8 1 1 1 0
node 9 1 1 1 0
node 10 1 1 1 0
node 11 1 1 1 0
node 12 1 1 1 0
node 13 1 1 1 0
node 14 1 1 1 0
node 15 1 1 1 0
node 16 1 1 1 0
node 17 1 1 1 0
node 18 1 1 1 0
node 19 1 1 3 0
node 20 1 0 2 0
node 21 1 0 2 0
node 28 1 0 0 0
node 33 1 0 0 0
node 35 1 0 0 0
node 36 1 0 0 0
node 37 1 0 0 0
node 49 1 0 0 0
node 52 1 0 0 0
node 53 1 0 0 0
node 56 1 0 0 0
node 67 1 0 0 0
node 68 1 0 0 0
node 69 1 0 0 0
node 81 1 0 0 0
node 90 1 0 0 0
gene 1 1 20 -0.657726 0 1 -0.657726 1
gene 1 2 20 0.673238 0 2 0.673238 1
gene 1 3 20 0.193169 0 3 0.193169 1
gene 1 4 20 0.125889 0 4 0.125889 1
gene 1 5 20 0.398304 0 5 0.398304 1
gene 1 6 20 0.122936 0 6 0.122936 0
gene 1 7 20 0.466084 0 7 0.466084 1
gene 1 8 20 -0.337958 0 8 -0.337958 1
gene 1 9 20 -0.711965 0 9 -0.711965 1
gene 1 10 20 -0.809501 0 10 -0.809501 1
gene 1 11 20 0.458861 0 11 0.458861 1
gene 1 12 20 0.481571 0 12 0.481571 1
gene 1 13 20 0.155534 0 13 0.155534 1
gene 1 14 20 -0.535252 0 14 -0.535252 0
gene 1 15 20 -0.748266 0 15 -0.748266 1
gene 1 16 20 -0.0383907 0 16 -0.0383907 1
gene 1 17 20 0.455633 0 17 0.455633 1
gene 1 18 20 -0.0256554 0 18 -0.0256554 1
gene 1 19 20 2.59733 0 19 2.59733 1
gene 1 1 21 -0.0972414 0 20 -0.0972414 1
gene 1 2 21 0.351107 0 21 0.351107 1
gene 1 3 21 -0.0321139 0 22 -0.0321139 1
gene 1 4 21 -0.122606 0 23 -0.122606 1
gene 1 5 21 -0.360451 0 24 -0.360451 1
gene 1 6 21 -0.0880151 0 25 -0.0880151 1
gene 1 7 21 -0.309831 0 26 -0.309831 1
gene 1 8 21 -0.371806 0 27 -0.371806 1
gene 1 9 21 -1.45023 0 28 -1.45023 1
gene 1 10 21 0.0134196 0 29 0.0134196 1
gene 1 11 21 0.0662051 0 30 0.0662051 1
gene 1 12 21 -0.240079 0 31 -0.240079 1
gene 1 13 21 -1.23543 0 32 -1.23543 1
gene 1 14 21 -0.256674 0 33 -0.256674 1
gene 1 15 21 -0.0551074 0 34 -0.0551074 1
gene 1 16 21 -0.200488 0 35 -0.200488 1
gene 1 17 21 0.301066 0 36 0.301066 1
gene 1 18 21 -0.652625 0 37 -0.652625 1
gene 1 19 21 0.442085 0 38 0.442085 1
gene 1 21 20 0.170362 0 43 0.170362 0
gene 1 18 28 -0.0136801 0 56 -0.0136801 1
gene 1 28 20 0.108117 0 57 0.108117 1
gene 1 13 28 1.40632 0 62 1.40632 1
gene 1 14 28 -0.691069 0 66 -0.691069 1
gene 1 10 28 0.625645 0 68 0.625645 0
gene 1 17 33 0.748026 0 73 0.748026 1
gene 1 33 20 -0.548794 0 74 -0.548794 1
gene 1 20 21 0.11519 1 80 0.11519 1
gene 1 18 35 -0.122195 0 81 -0.122195 1
gene 1 35 21 0.184293 0 82 0.184293 1
gene 1 6 36 -0.270031 0 83 -0.270031 1
gene 1 36 20 0.446558 0 84 0.446558 1
gene 1 28 37 -0.0456008 0 86 -0.0456008 1
gene 1 37 20 -0.134147 0 87 -0.134147 1
gene 1 21 49 0.113666 0 131 0.113666 1
gene 1 49 20 0.0905565 0 132 0.0905565 1
gene 1 37 35 0.509673 0 133 0.509673 1
gene 1 10 37 -0.067134 0 151 -0.067134 1
gene 1 4 28 0.514554 0 152 0.514554 1
gene 1 14 52 0.346233 0 158 0.346233 1
gene 1 52 20 0.418485 0 159 0.418485 1
gene 1 28 35 -0.328954 0 160 -0.328954 1
gene 1 4 35 -0.299547 0 161 -0.299547 1
gene 1 13 53 -0.129234 0 164 -0.129234 1
gene 1 53 20 -0.372469 0 165 -0.372469 1
gene 1 14 56 -0.729982 0 180 -0.729982 1
gene 1 56 28 -0.908198 0 181 -0.908198 1
gene 1 1 33 -0.748542 0 204 -0.748542 1
gene 1 10 33 0.147173 0 206 0.147173 1
gene 1 13 37 0.30897 0 207 0.30897 1
gene 1 33 37 -0.365079 0 215 -0.365079 1
gene 1 21 53 0.0960809 0 230 0.0960809 1
gene 1 5 67 0.207719 0 244 0.207719 1
gene 1 67 20 0.6828 0 245 0.6828 1
gene 1 35 35 0.287377 1 249 0.287377 1
gene 1 4 68 1.08226 0 255 1.08226 1
gene 1 68 35 1.29062 0 256 1.29062 1
gene 1 18 69 0.359307 0 258 0.359307 1
gene 1 69 28 -0.234221 0 259 -0.234221 1
gene 1 15 68 0.47705 0 288 0.47705 1
gene 1 13 81 1.84217 0 322 1.84217 1
gene 1 81 28 0.381555 0 323 0.381555 1
gene 1 10 90 1 0 366 0 1
gene 1 90 28 0.187693 0 367 0 1
gene 1 28 36 0.835695 0 368 0.835695 1
genomeend 6340
genomestart 6358
trait 1 0 0.377088 0.045789 0.00689329 0.465996 0.0768121 0.296966 0.0137852 
node 1 1 1 1 0
node 2 1 1 1 0
node 3 1 1 1 0
node 4 1 1 1 0
node 5 1 1 1 0
node 6 1 1 1 0
node 7 1 1 1 0
node 8 1 1 1 0
node 9 1 1 1 0
node 10 1 1 1 0
node 11 1 1 1 0
node 12 1 1 1 0
node 13 1 1 1 0
node 14 1 1 1 0
node 15 1 1 1 0
node 16 1 1 1 0
node 17 1 1 1 0
node 18 1 1 1 0
node 19 1 1 3 0
node 20 1 0 2 0
node 21 1 0 2 0
node 28 1 0 0 0
node 33 1 0 0 0
node 35 1 0 0 0
node 36 1 0 0 0
node 37 1 0 0 0
node 49 1 0 0 0
node 52 1 0 0 0
node 53 1 0 0 0
node 56 1 0 0 0
node 67 1 0 0 0
node 68 1 0 0 0
node 69 1 0 0 0
node 86 1 0 0 0
gene 1 1 20 0.387947 0 1 0.387947 1
gene 1 2 20 0.0739502 0 2 0.0739502 1
gene 1 3 20 0.911012 0 3 0.911012 1
gene 1 4 20 -0.179187 0 4 -0.179187 1
gene 1 5 20 -0.00467594 0 5 -0.00467594 0
gene 1 6 20 -0.344618 0 6 -0.344618 0
gene 1 7 20 0.542576 0 7 0.542576 1
gene 1 8 20 -0.000518425 0 8 -0.000518425 1
gene 1 9 20 -0.484192 0 9 -0.484192 1
gene 1 10 20 -0.378335 0 10 -0.378335 1
gene 1 11 20 0.398576 0 11 0.398576 1
gene 1 12 20 -0.0465981 0 12 -0.0465981 1
gene 1 13 20 1.23943 0 13 1.23943 1
gene 1 14 20 -0.489804 0 14 -0.489804 0
gene 1 15 20 1.00219 0 15 1.00219 1
gene 1 16 20 1.46581 0 16 1.46581 1
gene 1 17 20 -0.566749 0 17 -0.566749 1
gene 1 18 20 -0.160168 0 18 -0.160168 1
gene 1 19 20 1.23709 0 19 1.23709 1
gene 1 1 21 -0.495246 0 20 -0.495246 1
gene 1 2 21 -0.0321801 0 21 -0.0321801 1
gene 1 3 21 0.719923 0 22 0.719923 1
gene 1 4 21 -0.417386 0 23 -0.417386 1
gene 1 5 21 0.619135 0 24 0.619135 1
gene 1 6 21 -0.261773 0 25 -0.261773 1
gene 1 7 21 0.759829 0 26 0.759829 1
gene 1 8 21 0.284828 0 27 0.284828 1
gene 1 9 21 -0.474652 0 28 -0.474652 1
gene 1 10 21 -0.69576 0 29 -0.69576 1
gene 1 11 21 2.55372 0 30 2.55372 1
gene 1 12 21 -0.00338051 0 31 -0.00338051 1
gene 1 13 21 -0.938091 0 32 -0.938091 1
gene 1 14 21 -0.630394 0 33 -0.630394 1
gene 1 15 21 -0.215999 0 34 -0.215999 1
gene 1 16 21 -1.16099 0 35 -1.16099 1
gene 1 17 21 1.02584 0 36 1.02584 1
gene 1 18 21 -0.9499 0 37 -0.9499 1
gene 1 19 21 -0.325571 0 38 -0.325571 1
gene 1 21 20 0.334558 0 43 0.334558 0
gene 1 18 28 -0.553605 0 56 -0.553605 1
gene 1 28 20 -0.437259 0 57 -0.437259 0
gene 1 13 28 -0.446844 0 62 -0.446844 1
gene 1 14 28 -0.0144343 0 66 -0.0144343 0
gene 1 10 28 0.693473 0 68 0.693473 1
gene 1 17 33 0.232353 0 73 0.232353 1
gene 1 33 20 -0.683446 0 74 -0.683446 1
gene 1 20 21 0.402738 1 80 0.402738 1
gene 1 18 35 0.625637 0 81 0.625637 1
gene 1 35 21 0.266793 0 82 0.266793 1
gene 1 6 36 0.292673 0 83 0.292673 1
gene 1 36 20 0.366524 0 84 0.366524 1
gene 1 28 37 -0.819697 0 86 -0.819697 1
gene 1 37 20 -0.442469 0 87 -0.442469 1
gene 1 21 49 0.541005 0 131 0.541005 1
gene 1 49 20 1.34996 0 132 1.34996 1
gene 1 37 35 -0.939829 0 133 -0.939829 1
gene 1 10 37 0.341741 0 151 0.341741 1
gene 1 4 28 0.596433 0 152 0.596433 1
gene 1 14 52 0.481312 0 158 0.481312 1
gene 1 52 20 0.845854 0 159 0.845854 1
gene 1 28 35 -0.66698 0 160 -0.66698 1
gene 1 4 35 -0.249043 0 161 -0.249043 1
gene 1 13 53 0.0724583 0 164 0.0724583 1
gene 1 53 20 -0.308162 0 165 -0.308162 1
gene 1 14 56 -0.130834 0 180 -0.130834 1
gene 1 56 28 0.647775 0 181 0.647775 1
gene 1 1 33 -1.52246 0 204 -1.52246 1
gene 1 10 33 0.941596 0 206 0.941596 1
gene 1 13 37 -0.715871 0 207 -0.715871 1
gene 1 33 37 0.517858 0 215 0.517858 1
gene 1 21 53 0.0480974 0 230 0.0480974 1
gene 1 5 67 -0.190334 0 244 -0.190334 1
gene 1 67 20 0.292788 0 245 0.292788 1
gene 1 35 35 0.740654 1 249 0.740654 1
gene 1 4 68 -0.149003 0 255 -0.149003 1
gene 1 68 35 1.19488 0 256 1.19488 1
gene 1 18 69 -0.282965 0 258 -0.282965 1
gene 1 69 28 -0.0413263 0 259 -0.0413263 1
gene 1 15 68 -0.426551 0 288 -0.426551 1
gene 1 10 35 0.423393 0 313 0.423393 1
gene 1 33 69 -0.0864204 0 340 -0.0864204 1
gene 1 35 86 1.07858 1 345 1.07858 1
gene 1 86 35 0.524909 0 346 0.524909 1
gene 1 16 53 0.0727925 0 354 0.0727925 1
genomeend 6358
genomestart 6360
trait 1 0.00711357 0.0161043 0.0858545 0.0656547 0.0493413 0.0768121 0.0218661 0.0590363 
node 1 1 1 1 0
node 2 1 1 1 0
node 3 1 1 1 0
node 4 1 1 1 0
node 5 1 1 1 0
node 6 1 1 1 0
node 7 1 1 1 0
node 8 1 1 1 0
node 9 1 1 1 0
node 10 1 1 1 0
node 11 1 1 1 0
node 12 1 1 1 0
node 13 1 1 1 0
node 14 1 1 1 0
node 15 1 1 1 0
node 16 1 1 1 0
node 17 1 1 1 0
node 18 1 1 1 0
node 19 1 1 3 0
node 20 1 0 2 0
node 21 1 0 2 0
node 28 1 0 0 0
node 33 1 0 0 0
node 35 1 0 0 0
node 36 1 0 0 0
node 37 1 0 0 0
node 53 1 0 0 0
node 56 1 0 0 0
node 68 1 0 0 0
node 69 1 0 0 0
gene 1 1 20 -0.00822618 0 1 -0.00822618 1
gene 1 2 20 0.264434 0 2 0.264434 1
gene 1 3 20 1.35615 0 3 1.35615 1
gene 1 4 20 1.0267 0 4 1.0267 1
gene 1 5 20 0.187779 0 5 0.187779 1
gene 1 6 20 -0.126908 0 6 -0.126908 0
gene 1 7 20 -0.98127 0 7 -0.98127 1
gene 1 8 20 0.504111 0 8 0.504111 1
gene 1 9 20 0.100195 0 9 0.100195 1
gene 1 10 20 0.748149 0 10 0.748149 1
gene 1 11 20 -0.812991 0 11 -0.812991 1
gene 1 12 20 1.43241 0 12 1.43241 1
gene 1 13 20 0.236064 0 13 0.236064 1
gene 1 14 20 -0.329133 0 14 -0.329133 1
gene 1 15 20 -0.122009 0 15 -0.122009 1
gene 1 16 20 0.256068 0 16 0.256068 1
gene 1 17 20 0.106328 0 17 0.106328 0
gene 1 18 20 -0.893612 0 18 -0.893612 1
gene 1 19 20 0.816579 0 19 0.816579 1
gene 1 1 21 0.513924 0 20 0.513924 1
gene 1 2 21 0.282534 0 21 0.282534 1
gene 1 3 21 0.0924908 0 22 0.0924908 1
gene 1 4 21 -1.82196 0 23 -1.82196 1
gene 1 5 21 1.62155 0 24 1.62155 1
gene 1 6 21 -0.445261 0 25 -0.445261 1
gene 1 7 21 0.779333 0 26 0.779333 1
gene 1 8 21 0.354873 0 27 0.354873 1
gene 1 9 21 0.661161 0 28 0.661161 1
gene 1 10 21 0.0731438 0 29 0.0731438 1
gene 1 11 21 -0.243506 0 30 -0.243506 1
gene 1 12 21 -1.29852 0 31 -1.29852 1
gene 1 13 21 -0.224012 0 32 -0.224012 1
gene 1 14 21 2.0789 0 33 2.0789 1
gene 1 15 21 1.64134 0 34 1.64134 1
gene 1 16 21 0.458801 0 35 0.458801 1
gene 1 17 21 -0.553185 0 36 -0.553185 1
gene 1 18 21 -1.07791 0 37 -1.07791 1
gene 1 19 21 0.162484 0 38 0.162484 1
gene 1 21 20 -0.839318 0 43 -0.839318 1
gene 1 18 28 -0.425013 0 56 -0.425013 1
gene 1 28 20 0.0271787 0 57 0.0271787 0
gene 1 13 28 0.328943 0 62 0.328943 1
gene 1 14 28 -0.0552829 0 66 -0.0552829 0
gene 1 10 28 0.179009 0 68 0.179009 1
gene 1 17 33 0.409789 0 73 0.409789 1
gene 1 33 20 -0.0542483 0 74 -0.0542483 1
gene 1 20 21 -0.382065 1 80 -0.382065 1
gene 1 18 35 1.23382 0 81 1.23382 1
gene 1 35 21 -0.104231 0 82 -0.104231 1
gene 1 6 36 0.197547 0 83 0.197547 1
gene 1 36 20 0.322858 0 84 0.322858 1
gene 1 28 37 -0.250064 0 86 -0.250064 1
gene 1 37 20 0.373447 0 87 0.373447 1
gene 1 37 35 -0.844723 0 133 -0.844723 1
gene 1 10 37 -0.161721 0 151 -0.161721 1
gene 1 4 28 -0.0316711 0 152 -0.0316711 1
gene 1 28 35 -0.189676 0 160 -0.189676 1
gene 1 4 35 1.15235 0 161 1.15235 0
gene 1 13 53 -1.18132 0 164 -1.18132 1
gene 1 53 20 -1.03334 0 165 -1.03334 1
gene 1 14 56 -0.788509 0 180 -0.788509 1
gene 1 56 28 1.52121 0 181 1.52121 1
gene 1 1 33 -0.91575 0 204 -0.91575 1
gene 1 10 33 -0.829793 0 206 -0.829793 1
gene 1 13 37 -0.473132 0 207 -0.473132 1
gene 1 33 37 -0.491312 0 215 -0.491312 1
gene 1 21 53 0.507108 0 230 0.507108 1
gene 1 35 35 0.310325 1 249 0.310325 1
gene 1 4 68 0.979866 0 255 0.979866 1
gene 1 68 35 -0.022573 0 256 -0.022573 1
gene 1 18 69 0.158682 0 258 0.158682 1
gene 1 69 28 0.59405 0 259 0.59405 1
gene 1 28 33 -0.284378 0 267 -0.284378 1
gene 1 15 68 0.0969535 0 288 0.0969535 1
gene 1 68 56 0.537397 0 291 0.537397 1
genomeend 6360
genomestart 6381
trait 1 0 0.377088 0.0228945 0.00689329 0.465996 0.0768121 0.148483 0.0137852 
node 1 1 1 1 0
node 2 1 1 1 0
node 3 1 1 1 0
node 4 1 1 1 0
node 5 1 1 1 0
node 6 1 1 1 0
node 7 1 1 1 0
node 8 1 1 1 0
node 9 1 1 1 0
node 10 1 1 1 0
node 11 1 1 1 0
node 12 1 1 1 0
node 13 1 1 1 0
node 14 1 1 1 0
node 15 1 1 1 0
node 16 1 1 1 0
node 17 1 1 1 0
node 18 1 1 1 0
node 19 1 1 3 0
node 20 1 0 2 0
node 21 1 0 2 0
node 28 1 0 0 0
node 33 1 0 0 0
node 35 1 0 0 0
node 36 1 0 0 0
node 37 1 0 0 0
node 49 1 0 0 0
node 52 1 0 0 0
node 53 1 0 0 0
node 56 1 0 0 0
node 67 1 0 0 0
node 68 1 0 0 0
node 69 1 0 0 0
node 73 1 0 0 0
node 86 1 0 0 0
gene 1 1 20 0.482807 0 1 0.482807 1
gene 1 2 20 -0.0701959 0 2 -0.0701959 1
gene 1 3 20 0.742139 0 3 0.742139 1
gene 1 4 20 -0.635813 0 4 -0.635813 1
gene 1 5 20 0.39022 0 5 0.39022 1
gene 1 6 20 -1.10964 0 6 -1.10964 0
gene 1 7 20 0.542413 0 7 0.542413 1
gene 1 8 20 0.00581192 0 8 0.00581192 1
gene 1 9 20 -0.290707 0 9 -0.290707 1
gene 1 10 20 -0.509729 0 10 -0.509729 1
gene 1 11 20 -0.315466 0 11 -0.315466 1
gene 1 12 20 0.843721 0 12 0.843721 1
gene 1 13 20 1.18526 0 13 1.18526 1
gene 1 14 20 -1.6179 0 14 -1.6179 0
gene 1 15 20 0.253713 0 15 0.253713 1
gene 1 16 20 2.00244 0 16 2.00244 1
gene 1 17 20 -0.896792 0 17 -0.896792 0
gene 1 18 20 0.0566873 0 18 0.0566873 1
gene 1 19 20 2.83117 0 19 2.83117 1
gene 1 1 21 0.0891659 0 20 0.0891659 1
gene 1 2 21 0.307903 0 21 0.307903 1
gene 1 3 21 1.32902 0 22 1.32902 1
gene 1 4 21 -1.74208 0 23 -1.74208 1
gene 1 5 21 0.682433 0 24 0.682433 1
gene 1 6 21 -0.141465 0 25 -0.141465 1
gene 1 7 21 0.236387 0 26 0.236387 1
gene 1 8 21 0.246705 0 27 0.246705 1
gene 1 9 21 -0.381517 0 28 -0.381517 1
gene 1 10 21 -0.58512 0 29 -0.58512 1
gene 1 11 21 2.83658 0 30 2.83658 1
gene 1 12 21 0.34132 0 31 0.34132 1
gene 1 13 21 -1.01137 0 32 -1.01137 1
gene 1 14 21 -0.320072 0 33 -0.320072 1
gene 1 15 21 -0.953279 0 34 -0.953279 1
gene 1 16 21 -0.448742 0 35 -0.448742 1
gene 1 17 21 0.298466 0 36 0.298466 1
gene 1 18 21 -1.85795 0 37 -1.85795 0
gene 1 19 21 -0.851887 0 38 -0.851887 1
gene 1 21 20 -0.240951 0 43 -0.240951 0
gene 1 18 28 0.0404142 0 56 0.0404142 1
gene 1 28 20 -0.670112 0 57 -0.670112 1
gene 1 13 28 0.0839058 0 62 0.0839058 1
gene 1 14 28 -0.0718761 0 66 -0.0718761 0
gene 1 10 28 0.404923 0 68 0.404923 1
gene 1 17 33 0.362279 0 73 0.362279 1
gene 1 33 20 -0.654565 0 74 -0.654565 1
gene 1 20 21 0.412437 1 80 0.412437 1
gene 1 18 35 0.554795 0 81 0.554795 1
gene 1 35 21 -0.28302 0 82 -0.28302 1
gene 1 6 36 -0.526231 0 83 -0.526231 1
gene 1 36 20 0.20046 0 84 0.20046 1
gene 1 28 37 -0.583683 0 86 -0.583683 1
gene 1 37 20 -0.52962 0 87 -0.52962 1
gene 1 21 49 0.947617 0 131 0.947617 1
gene 1 49 20 1.38753 0 132 1.38753 1
gene 1 37 35 0.45936 0 133 0.45936 1
gene 1 10 37 -0.0389797 0 151 -0.0389797 1
gene 1 4 28 0.642597 0 152 0.642597 1
gene 1 14 52 0.507649 0 158 0.507649 1
gene 1 52 20 0.216402 0 159 0.216402 1
gene 1 28 35 -1.11402 0 160 -1.11402 1
gene 1 4 35 0.179042 0 161 0.179042 1
gene 1 13 53 -0.338419 0 164 -0.338419 1
gene 1 53 20 0.627355 0 165 0.627355 1
gene 1 14 56 0.0894162 0 180 0.0894162 1
gene 1 56 28 -0.190764 0 181 -0.190764 1
gene 1 1 33 -1.11194 0 204 -1.11194 1
gene 1 10 33 0.448142 0 206 0.448142 0
gene 1 13 37 -1.33677 0 207 -1.33677 1
gene 1 33 37 0.600131 0 215 0.600131 1
gene 1 21 53 0.112215 0 230 0.112215 1
gene 1 5 67 -0.629665 0 244 -0.629665 1
gene 1 67 20 0.929616 0 245 0.929616 1
gene 1 35 35 -0.379847 1 249 -0.379847 0
gene 1 4 68 -0.226188 0 255 -0.226188 1
gene 1 68 35 -0.084371 0 256 -0.084371 1
gene 1 18 69 0.236157 0 258 0.236157 1
gene 1 69 28 -0.278555 0 259 -0.278555 1
gene 1 10 73 0.775207 0 275 0.775207 1
gene 1 73 33 0.287774 0 276 0.287774 1
gene 1 15 68 -0.979696 0 288 -0.979696 1
gene 1 10 35 0.51396 0 313 0.51396 1
gene 1 33 69 0.242246 0 340 0.242246 1
gene 1 35 86 1 1 345 1 1
gene 1 86 35 0.545492 0 346 0.545492 1
gene 1 16 53 -0.532096 0 354 -0.532096 1
genomeend 6381
genomestart 6450
trait 1 0.00711357 0.0161043 0.0858545 0.0656547 0.0493413 0.0768121 0.0218661 0.0590363 
node 1 1 1 1 0
node 2 1 1 1 0
node 3 1 1 1 0
node 4 1 1 1 0
node 5 1 1 1 0
node 6 1 1 1 0
node 7 1 1 1 0
node 8 1 1 1 0
node 9 1 1 1 0
node 10 1 1 1 0
node 11 1 1 1 0
node 12 1 1 1 0
node 13 1 1 1 0
node 14 1 1 1 0
node 15 1 1 1 0
node 16 1 1 1 0
node 17 1 1 1 0
node 18 1 1 1 0
node 19 1 1 3 0
node 20 1 0 2 0
node 21 1 0 2 0
node 28 1 0 0 0
node 33 1 0 0 0
node 35 1 0 0 0
node 36 1 0 0 0
node 37 1 0 0 0
node 53 1 0 0 0
node 56 1 0 0 0
node 68 1 0 0 0
node 69 1 0 0 0
gene 1 1 20 0.37673 0 1 0.37673 1
gene 1 2 20 0.760239 0 2 0.760239 1
gene 1 3 20 1.23251 0 3 1.23251 1
gene 1 4 20 1.03218 0 4 1.03218 1
gene 1 5 20 0.561481 0 5 0.561481 1
gene 1 6 20 -0.390935 0 6 -0.390935 0
gene 1 7 20 -0.773003 0 7 -0.773003 1
gene 1 8 20 0.691615 0 8 0.691615 1
gene 1 9 20 -0.312764 0 9 -0.312764 1
gene 1 10 20 0.489564 0 10 0.489564 1
gene 1 11 20 -0.983331 0 11 -0.983331 1
gene 1 12 20 1.74273 0 12 1.74273 1
gene 1 13 20 0.0729005 0 13 0.0729005 1
gene 1 14 20 0.254572 0 14 0.254572 1
gene 1 15 20 0.437167 0 15 0.437167 1
gene 1 16 20 0.450138 0 16 0.450138 1
gene 1 17 20 0.450968 0 17 0.450968 0
gene 1 18 20 -1.3109 0 18 -1.3109 1
gene 1 19 20 0.481387 0 19 0.481387 1
gene 1 1 21 0.513924 0 20 0.513924 1
gene 1 2 21 -0.167964 0 21 -0.167964 1
gene 1 3 21 0.485756 0 22 0.485756 1
gene 1 4 21 -1.83864 0 23 -1.83864 1
gene 1 5 21 2.10327 0 24 2.10327 1
gene 1 6 21 -0.0917917 0 25 -0.0917917 1
gene 1 7 21 0.860351 0 26 0.860351 1
gene 1 8 21 0.354873 0 27 0.354873 1
gene 1 9 21 0.385156 0 28 0.385156 1
gene 1 10 21 0.0731438 0 29 0.0731438 1
gene 1 11 21 -0.728444 0 30 -0.728444 1
gene 1 12 21 -0.827729 0 31 -0.827729 1
gene 1 13 21 -0.0940017 0 32 -0.0940017 1
gene 1 14 21 2.03738 0 33 2.03738 1
gene 1 15 21 1.14285 0 34 1.14285 1
gene 1 16 21 0.897085 0 35 0.897085 1
gene 1 17 21 -0.371418 0 36 -0.371418 1
gene 1 18 21 -0.697935 0 37 -0.697935 1
gene 1 19 21 0.162484 0 38 0.162484 1
gene 1 21 20 -1.18811 0 43 -1.18811 1
gene 1 18 28 -0.25255 0 56 -0.25255 1
gene 1 28 20 0.0926996 0 57 0.0926996 0
gene 1 13 28 0.254183 0 62 0.254183 1
gene 1 14 28 -0.178216 0 66 -0.178216 0
gene 1 10 28 0.619545 0 68 0.619545 1
gene 1 17 33 0.0199439 0 73 0.0199439 1
gene 1 33 20 -0.0542483 0 74 -0.0542483 1
gene 1 20 21 -0.382065 1 80 -0.382065 1
gene 1 18 35 1.04698 0 81 1.04698 1
gene 1 35 21 -0.550744 0 82 -0.550744 1
gene 1 6 36 0.437201 0 83 0.437201 1
gene 1 36 20 0.580403 0 84 0.580403 1
gene 1 28 37 -0.250064 0 86 -0.250064 1
gene 1 37 20 0.55474 0 87 0.55474 1
gene 1 37 35 -0.741984 0 133 -0.741984 1
gene 1 10 37 -0.173013 0 151 -0.173013 1
gene 1 4 28 -0.46755 0 152 -0.46755 1
gene 1 28 35 -0.644912 0 160 -0.644912 1
gene 1 4 35 1.15235 0 161 1.15235 0
gene 1 13 53 0.155452 0 164 0.155452 1
gene 1 53 20 0.210514 0 165 0.210514 1
gene 1 14 56 -0.634308 0 180 -0.634308 1
gene 1 56 28 0.314281 0 181 0.314281 1
gene 1 1 33 -0.443325 0 204 -0.443325 1
gene 1 10 33 -0.829793 0 206 -0.829793 1
gene 1 13 37 -0.828039 0 207 -0.828039 1
gene 1 33 37 -0.53114 0 215 -0.53114 1
gene 1 21 53 0.142196 0 230 0.142196 1
gene 1 35 35 -0.299915 1 249 -0.299915 1
gene 1 4 68 -0.301035 0 255 -0.301035 1
gene 1 68 35 -0.164081 0 256 -0.164081 1
gene 1 18 69 0.478114 0 258 0.478114 1
gene 1 69 28 0.257997 0 259 0.257997 1
gene 1 28 33 -0.0373086 0 267 -0.0373086 1
gene 1 15 68 0.0114538 0 288 0.0114538 1
gene 1 68 56 0.110575 0 291 0.110575 1
genomeend 6450
genomestart 6495
trait 1 0 0.0165484 0.0890935 0.188977 0.00481536 0.0484914 0.237521 0.0103761 
node 1 1 1 1 0
node 2 1 1 1 0
node 3 1 1 1 0
node 4 1 1 1 0
node 5 1 1 1 0
node 6 1 1 1 0
node 7 1 1 1 0
node 8 1 1 1 0
node 9 1 1 1 0
node 10 1 1 1 0
node 11 1 1 1 0
node 12 1 1 1 0
node 13 1 1 1 0
node 14 1 1 1 0
node 15 1 1 1 0
node 16 1 1 1 0
node 17 1 1 1 0
node 18 1 1 1 0
node 19 1 1 3 0
node 20 1 0 2 0
node 21 1 0 2 0
node 23 1 0 0 0
node 28 1 0 0 0
node 31 1 0 0 0
node 33 1 0 0 0
node 35 1 0 0 0
node 37 1 0 0 0
node 45 1 0 0 0
node 49 1 0 0 0
node 53 1 0 0 0
node 56 1 0 0 0
node 63 1 0 0 0
gene 1 1 20 -1.36161 0 1 -1.36161 1
gene 1 2 20 1.37204 0 2 1.37204 1
gene 1 3 20 0.437931 0 3 0.437931 1
gene 1 4 20 0.324281 0 4 0.324281 1
gene 1 5 20 -0.111363 0 5 -0.111363 1
gene 1 6 20 0.247088 0 6 0.247088 1
gene 1 7 20 0.336881 0 7 0.336881 1
gene 1 8 20 0.240938 0 8 0.240938 1
gene 1 9 20 -0.702566 0 9 -0.702566 1
gene 1 10 20 -0.463155 0 10 -0.463155 0
gene 1 11 20 0.314992 0 11 0.314992 1
gene 1 12 20 -0.704449 0 12 -0.704449 1
gene 1 13 20 -0.935165 0 13 -0.935165 0
gene 1 14 20 -0.155993 0 14 -0.155993 1
gene 1 15 20 0.765276 0 15 0.765276 1
gene 1 16 20 1.7778 0 16 1.7778 1
gene 1 17 20 -1.15447 0 17 -1.15447 0
gene 1 18 20 -0.957554 0 18 -0.957554 0
gene 1 19 20 3 0 19 3 1
gene 1 1 21 -0.557891 0 20 -0.557891 1
gene 1 2 21 0.480778 0 21 0.480778 1
gene 1 3 21 -0.466525 0 22 -0.466525 1
gene 1 4 21 0.699268 0 23 0.699268 1
gene 1 5 21 -0.00314908 0 24 -0.00314908 1
gene 1 6 21 -0.286581 0 25 -0.286581 1
gene 1 7 21 0.130089 0 26 0.130089 1
gene 1 8 21 0.0781864 0 27 0.0781864 1
gene 1 9 21 -1.31353 0 28 -1.31353 1
gene 1 10 21 0.568652 0 29 0.568652 1
gene 1 11 21 0.129746 0 30 0.129746 1
gene 1 12 21 -0.474068 0 31 -0.474068 1
gene 1 13 21 -0.0273106 0 32 -0.0273106 1
gene 1 14 21 2.56531 0 33 2.56531 0
gene 1 15 21 -0.0855768 0 34 -0.0855768 1
gene 1 16 21 1.27769 0 35 1.27769 1
gene 1 17 21 -0.219116 0 36 -0.219116 1
gene 1 18 21 -1.22162 0 37 -1.22162 1
gene 1 19 21 -0.518868 0 38 -0.518868 1
gene 1 15 23 -0.180785 0 41 -0.180785 1
gene 1 23 20 -1.0182 0 42 -1.0182 1
gene 1 21 20 -0.700322 0 43 -0.700322 0
gene 1 18 28 0.549719 0 56 0.549719 1
gene 1 28 20 0.590043 0 57 0.590043 1
gene 1 13 28 -0.0833201 0 62 -0.0833201 1
gene 1 14 31 0.215548 0 64 0.215548 1
gene 1 31 21 1.5237 0 65 1.5237 1
gene 1 14 28 -1.08823 0 66 -1.08823 1
gene 1 10 28 1.60708 0 68 1.60708 1
gene 1 17 33 -0.325102 0 73 -0.325102 1
gene 1 33 20 0.928758 0 74 0.928758 1
gene 1 20 21 0.355251 1 80 0.355251 1
gene 1 18 35 2.3873 0 81 2.3873 1
gene 1 35 21 -0.948384 0 82 -0.948384 1
gene 1 28 37 -1.14448 0 86 -1.14448 1
gene 1 37 20 0.395218 0 87 0.395218 1
gene 1 2 28 -0.437569 0 99 -0.437569 1
gene 1 10 45 2.00492 0 116 2.00492 1
gene 1 45 20 -0.382762 0 117 -0.382762 1
gene 1 21 49 0.922464 0 131 0.922464 1
gene 1 49 20 0.895419 0 132 0.895419 1
gene 1 37 35 -0.842152 0 133 -0.842152 1
gene 1 19 33 0.185107 0 141 0.185107 1
gene 1 10 37 1.88372 0 151 1.88372 1
gene 1 4 28 -0.267193 0 152 -0.267193 1
gene 1 28 35 0.0952794 0 160 0.0952794 1
gene 1 4 35 0.468496 0 161 0.468496 1
gene 1 13 53 2.05556 0 164 2.05556 1
gene 1 53 20 -0.318546 0 165 -0.318546 1
gene 1 13 33 -0.644828 0 168 -0.644828 1
gene 1 14 56 0.447726 0 180 0.447726 1
gene 1 56 28 -1.02697 0 181 -1.02697 1
gene 1 1 33 -0.243598 0 204 -0.243598 1
gene 1 10 33 0.23295 0 206 0.23295 1
gene 1 33 37 -0.426298 0 215 -0.426298 1
gene 1 37 63 -0.28754 0 217 -0.28754 1
gene 1 63 35 0.178449 0 218 0.178449 1
gene 1 21 53 -0.00351677 0 230 -0.00351677 1
gene 1 28 28 0.180328 1 236 0.180328 1
gene 1 35 35 -0.431146 1 249 -0.431146 1
gene 1 18 37 -0.0377011 0 250 -0.0377011 1
gene 1 21 21 -0.292471 1 251 -0.292471 1
gene 1 6 33 0.105248 0 280 0.105248 1
genomeend 6495
genomestart 6500
trait 1 0 0.377088 0.045789 0.00689329 0.465996 0.0768121 0.296966 0.0137852 
node 1 1 1 1 0
node 2 1 1 1 0
node 3 1 1 1 0
node 4 1 1 1 0
node 5 1 1 1 0
node 6 1 1 1 0
node 7 1 1 1 0
node 8 1 1 1 0
node 9 1 1 1 0
node 10 1 1 1 0
node 11 1 1 1 0
node 12 1 1 1 0
node 13 1 1 1 0
node 14 1 1 1 0
node 15 1 1 1 0
node 16 1 1 1 0
node 17 1 1 1 0
node 18 1 1 1 0
node 19 1 1 3 0
node 20 1 0 2 0
node 21 1 0 2 0
node 28 1 0 0 0
node 33 1 0 0 0
node 35 1 0 0 0
node 36 1 0 0 0
node 37 1 0 0 0
node 49 1 0 0 0
node 52 1 0 0 0
node 53 1 0 0 0
node 56 1 0 0 0
node 60 1 0 0 0
node 67 1 0 0 0
node 68 1 0 0 0
node 69 1 0 0 0
gene 1 1 20 0.188198 0 1 0.188198 1
gene 1 2 20 0.404766 0 2 0.404766 1
gene 1 3 20 0.74835 0 3 0.74835 1
gene 1 4 20 -0.147917 0 4 -0.147917 1
gene 1 5 20 0.151689 0 5 0.151689 1
gene 1 6 20 -0.0918937 0 6 -0.0918937 0
gene 1 7 20 0.605694 0 7 0.605694 1
gene 1 8 20 0.317679 0 8 0.317679 1
gene 1 9 20 0.0254923 0 9 0.0254923 1
gene 1 10 20 -0.645348 0 10 -0.645348 1
gene 1 11 20 0.846005 0 11 0.846005 1
gene 1 12 20 -0.176984 0 12 -0.176984 1
gene 1 13 20 0.762995 0 13 0.762995 1
gene 1 14 20 -1.1977 0 14 -1.1977 0
gene 1 15 20 0.911164 0 15 0.911164 1
gene 1 16 20 1.02432 0 16 1.02432 1
gene 1 17 20 -0.68046 0 17 -0.68046 0
gene 1 18 20 0.388784 0 18 0.388784 1
gene 1 19 20 2.81778 0 19 2.81778 1
gene 1 1 21 0.435906 0 20 0.435906 1
gene 1 2 21 0.0357406 0 21 0.0357406 1
gene 1 3 21 0.799593 0 22 0.799593 1
gene 1 4 21 -0.626623 0 23 -0.626623 1
gene 1 5 21 -0.258548 0 24 -0.258548 1
gene 1 6 21 -0.161217 0 25 -0.161217 1
gene 1 7 21 0.988903 0 26 0.988903 1
gene 1 8 21 0.0379667 0 27 0.0379667 1
gene 1 9 21 -1.29034 0 28 -1.29034 1
gene 1 10 21 -0.22616 0 29 -0.22616 1
gene 1 11 21 2.83423 0 30 2.83423 1
gene 1 12 21 -0.987491 0 31 -0.987491 1
gene 1 13 21 -1.44309 0 32 -1.44309 1
gene 1 14 21 -0.203569 0 33 -0.203569 1
gene 1 15 21 -0.976939 0 34 -0.976939 1
gene 1 16 21 -1.04865 0 35 -1.04865 1
gene 1 17 21 0.918101 0 36 0.918101 1
gene 1 18 21 -0.848423 0 37 -0.848423 1
gene 1 19 21 -0.0805957 0 38 -0.0805957 1
gene 1 21 20 0.0423424 0 43 0.0423424 0
gene 1 18 28 -0.832238 0 56 -0.832238 1
gene 1 28 20 -1.13243 0 57 -1.13243 0
gene 1 13 28 -1.19653 0 62 -1.19653 1
gene 1 14 28 -0.633351 0 66 -0.633351 1
gene 1 10 28 0.781533 0 68 0.781533 1
gene 1 17 33 0.644711 0 73 0.644711 1
gene 1 33 20 -0.301268 0 74 -0.301268 1
gene 1 20 21 -0.59004 1 80 -0.59004 1
gene 1 18 35 0.0361069 0 81 0.0361069 1
gene 1 35 21 0.169852 0 82 0.169852 1
gene 1 6 36 -0.71235 0 83 -0.71235 1
gene 1 36 20 0.497187 0 84 0.497187 1
gene 1 28 37 -0.125166 0 86 -0.125166 0
gene 1 37 20 0.115237 0 87 0.115237 1
gene 1 21 49 0.632464 0 131 0.632464 1
gene 1 49 20 1.35067 0 132 1.35067 1
gene 1 37 35 -0.49248 0 133 -0.49248 1
gene 1 10 37 0.0828696 0 151 0.0828696 1
gene 1 4 28 1.12752 0 152 1.12752 1
gene 1 14 52 -0.221818 0 158 -0.221818 1
gene 1 52 20 0.288181 0 159 0.288181 1
gene 1 28 35 -1.24083 0 160 -1.24083 1
gene 1 4 35 0.438621 0 161 0.438621 1
gene 1 13 53 0.328503 0 164 0.328503 1
gene 1 53 20 0.472442 0 165 0.472442 1
gene 1 14 56 0.861923 0 180 0.861923 1
gene 1 56 28 0.352402 0 181 0.352402 1
gene 1 28 60 0.743622 0 190 0.743622 1
gene 1 60 37 0.091238 0 191 0.091238 1
gene 1 1 33 -1.46346 0 204 -1.46346 1
gene 1 10 33 0.691107 0 206 0.691107 1
gene 1 13 37 0.359987 0 207 0.359987 1
gene 1 33 37 0.662661 0 215 0.662661 1
gene 1 21 53 0.139973 0 230 0.139973 1
gene 1 5 67 -0.0137836 0 244 -0.0137836 1
gene 1 67 20 -0.16974 0 245 -0.16974 1
gene 1 35 35 0.208275 1 249 0.208275 1
gene 1 4 68 0.700609 0 255 0.700609 1
gene 1 68 35 1.16004 0 256 1.16004 1
gene 1 18 69 0.0828996 0 258 0.0828996 1
gene 1 69 28 -0.404829 0 259 -0.404829 1
gene 1 15 68 -0.426551 0 288 -0.426551 1
gene 1 10 35 0.713168 0 313 0.713168 1
gene 1 33 69 0.197131 0 340 0.197131 1
gene 1 13 52 0.400123 0 347 0.400123 1
genomeend 6500
genomestart 6505
trait 1 0 0.445698 0.0686836 0.0137866 0.144242 0.489288 0.194333 0.0103389 
node 1 1 1 1 0
node 2 1 1 1 0
node 3 1 1 1 0
node 4 1 1 1 0
node 5 1 1 1 0
node 6 1 1 1 0
node 7 1 1 1 0
node 8 1 1 1 0
node 9 1 1 1 0
node 10 1 1 1 0
node 11 1 1 1 0
node 12 1 1 1 0
node 13 1 1 1 0
node 14 1 1 1 0
node 15 1 1 1 0
node 16 1 1 1 0
node 17 1 1 1 0
node 18 1 1 1 0
node 19 1 1 3 0
node 20 1 0 2 0
node 21 1 0 2 0
node 28 1 0 0 0
node 33 1 0 0 0
node 35 1 0 0 0
node 36 1 0 0 0
node 37 1 0 0 0
node 49 1 0 0 0
node 52 1 0 0 0
node 53 1 0 0 0
node 56 1 0 0 0
node 67 1 0 0 0
node 68 1 0 0 0
node 69 1 0 0 0
node 81 1 0 0 0
node 90 1 0 0 0
gene 1 1 20 -0.510152 0 1 -0.510152 1
gene 1 2 20 0.635938 0 2 0.635938 1
gene 1 3 20 0.060839 0 3 0.060839 1
gene 1 4 20 0.113911 0 4 0.113911 1
gene 1 5 20 -0.109666 0 5 -0.109666 1
gene 1 6 20 0.248881 0 6 0.248881 0
gene 1 7 20 0.312206 0 7 0.312206 1
gene 1 8 20 -0.263197 0 8 -0.263197 1
gene 1 9 20 -0.0659705 0 9 -0.0659705 1
gene 1 10 20 -0.672727 0 10 -0.672727 1
gene 1 11 20 0.415473 0 11 0.415473 1
gene 1 12 20 0.357309 0 12 0.357309 1
gene 1 13 20 0.18741 0 13 0.18741 1
gene 1 14 20 -0.273205 0 14 -0.273205 0
gene 1 15 20 -0.752666 0 15 -0.752666 1
gene 1 16 20 -0.205964 0 16 -0.205964 1
gene 1 17 20 0.525406 0 17 0.525406 1
gene 1 18 20 0.006772 0 18 0.006772 1
gene 1 19 20 2.67131 0 19 2.67131 1
gene 1 1 21 0.0584139 0 20 0.0584139 1
gene 1 2 21 0.204344 0 21 0.204344 1
gene 1 3 21 -0.0693194 0 22 -0.0693194 1
gene 1 4 21 0.184015 0 23 0.184015 1
gene 1 5 21 -0.395377 0 24 -0.395377 1
gene 1 6 21 -0.182822 0 25 -0.182822 1
gene 1 7 21 0.171595 0 26 0.171595 1
gene 1 8 21 -0.147399 0 27 -0.147399 1
gene 1 9 21 -1.51718 0 28 -1.51718 1
gene 1 10 21 -0.00354542 0 29 -0.00354542 1
gene 1 11 21 0.302474 0 30 0.302474 1
gene 1 12 21 -0.244087 0 31 -0.244087 1
gene 1 13 21 -1.3017 0 32 -1.3017 1
gene 1 14 21 -0.343023 0 33 -0.343023 1
gene 1 15 21 0.141103 0 34 0.141103 1
gene 1 16 21 0.132523 0 35 0.132523 1
gene 1 17 21 0.432373 0 36 0.432373 1
gene 1 18 21 -0.812454 0 37 -0.812454 1
gene 1 19 21 0.552371 0 38 0.552371 1
gene 1 21 20 0.161663 0 43 0.161663 0
gene 1 18 28 -0.168653 0 56 -0.168653 1
gene 1 28 20 0.0920522 0 57 0.0920522 1
gene 1 13 28 0.439808 0 62 0.439808 1
gene 1 14 28 -0.464282 0 66 -0.464282 1
gene 1 10 28 0.757918 0 68 0.757918 1
gene 1 17 33 0.313475 0 73 0.313475 1
gene 1 33 20 -0.805625 0 74 -0.805625 1
gene 1 20 21 0.203874 1 80 0.203874 1
gene 1 18 35 0.420636 0 81 0.420636 1
gene 1 35 21 -0.118972 0 82 -0.118972 1
gene 1 6 36 -0.05434 0 83 -0.05434 1
gene 1 36 20 0.429441 0 84 0.429441 1
gene 1 28 37 -0.181856 0 86 -0.181856 1
gene 1 37 20 -0.170309 0 87 -0.170309 1
gene 1 21 49 0.352347 0 131 0.352347 1
gene 1 49 20 0.0609207 0 132 0.0609207 1
gene 1 37 35 0.630089 0 133 0.630089 1
gene 1 10 37 -0.306763 0 151 -0.306763 1
gene 1 4 28 0.541718 0 152 0.541718 1
gene 1 14 52 -0.0706855 0 158 -0.0706855 1
gene 1 52 20 0.0164347 0 159 0.0164347 1
gene 1 28 35 -0.367686 0 160 -0.367686 1
gene 1 4 35 -0.149159 0 161 -0.149159 1
gene 1 13 53 -0.197731 0 164 -0.197731 1
gene 1 53 20 -0.162914 0 165 -0.162914 1
gene 1 14 56 -0.900688 0 180 -0.900688 1
gene 1 56 28 -0.746859 0 181 -0.746859 1
gene 1 1 33 -0.525057 0 204 -0.525057 1
gene 1 10 33 0.191457 0 206 0.191457 1
gene 1 13 37 0.29686 0 207 0.29686 1
gene 1 33 37 -0.126102 0 215 -0.126102 1
gene 1 21 53 0.288717 0 230 0.288717 1
gene 1 5 67 0.312304 0 244 0.312304 1
gene 1 67 20 0.92358 0 245 0.92358 1
gene 1 35 35 0.425067 1 249 0.425067 1
gene 1 4 68 0.669724 0 255 0.669724 1
gene 1 68 35 0.399057 0 256 0.399057 1
gene 1 18 69 0.52088 0 258 0.52088 1
gene 1 69 28 -0.394556 0 259 -0.394556 1
gene 1 15 68 0.47705 0 288 0.47705 1
gene 1 13 81 1.90933 0 322 1.90933 1
gene 1 81 28 0.461441 0 323 0.461441 1
gene 1 10 90 0.804158 0 366 0.804158 1
gene 1 90 28 -0.0102116 0 367 -0.0102116 1
gene 1 28 36 0.952944 0 368 0.952944 1
genomeend 6505
genomestart 6510
trait 1 0 0.377088 0.0343418 0.00689329 0.465996 0.0768121 0.222725 0.0137852 
node 1 1 1 1 0
node 2 1 1 1 0
node 3 1 1 1 0
node 4 1 1 1 0
node 5 1 1 1 0
node 6 1 1 1 0
node 7 1 1 1 0
node 8 1 1 1 0
node 9 1 1 1 0
node 10 1 1 1 0
node 11 1 1 1 0
node 12 1 1 1 0
node 13 1 1 1 0
node 14 1 1 1 0
node 15 1 1 1 0
node 16 1 1 1 0
node 17 1 1 1 0
node 18 1 1 1 0
node 19 1 1 3 0
node 20 1 0 2 0
node 21 1 0 2 0
node 28 1 0 0 0
node 33 1 0 0 0
node 35 1 0 0 0
node 36 1 0 0 0
node 37 1 0 0 0
node 49 1 0 0 0
node 52 1 0 0 0
node 53 1 0 0 0
node 56 1 0 0 0
node 67 1 0 0 0
node 68 1 0 0 0
node 69 1 0 0 0
node 73 1 0 0 0
node 86 1 0 0 0
gene 1 1 20 0.766491 0 1 0.766491 1
gene 1 2 20 -0.228044 0 2 -0.228044 1
gene 1 3 20 1.32684 0 3 1.32684 1
gene 1 4 20 -0.20978 0 4 -0.20978 1
gene 1 5 20 -0.174213 0 5 -0.174213 0
gene 1 6 20 -1.013 0 6 -1.013 0
gene 1 7 20 -0.0296433 0 7 -0.0296433 1
gene 1 8 20 -0.138006 0 8 -0.138006 1
gene 1 9 20 0.0346544 0 9 0.0346544 1
gene 1 10 20 -0.309636 0 10 -0.309636 1
gene 1 11 20 0.101001 0 11 0.101001 1
gene 1 12 20 0.388963 0 12 0.388963 1
gene 1 13 20 1.11215 0 13 1.11215 1
gene 1 14 20 -1.57683 0 14 -1.57683 0
gene 1 15 20 0.642754 0 15 0.642754 1
gene 1 16 20 1.76103 0 16 1.76103 1
gene 1 17 20 -0.288019 0 17 -0.288019 0
gene 1 18 20 0.339611 0 18 0.339611 1
gene 1 19 20 2.2708 0 19 2.2708 1
gene 1 1 21 0.0824567 0 20 0.0824567 1
gene 1 2 21 0.606001 0 21 0.606001 1
gene 1 3 21 1.16833 0 22 1.16833 1
gene 1 4 21 -1.61237 0 23 -1.61237 1
gene 1 5 21 0.628872 0 24 0.628872 1
gene 1 6 21 -0.02647 0 25 -0.02647 1
gene 1 7 21 0.656487 0 26 0.656487 1
gene 1 8 21 0.106588 0 27 0.106588 1
gene 1 9 21 -1.17098 0 28 -1.17098 1
gene 1 10 21 -0.695815 0 29 -0.695815 1
gene 1 11 21 2.58546 0 30 2.58546 1
gene 1 12 21 -0.447155 0 31 -0.447155 1
gene 1 13 21 -0.430441 0 32 -0.430441 1
gene 1 14 21 -0.617814 0 33 -0.617814 1
gene 1 15 21 -0.677843 0 34 -0.677843 1
gene 1 16 21 -0.186998 0 35 -0.186998 1
gene 1 17 21 0.851163 0 36 0.851163 1
gene 1 18 21 -1.3565 0 37 -1.3565 0
gene 1 19 21 -0.962048 0 38 -0.962048 1
gene 1 21 20 -0.395102 0 43 -0.395102 1
gene 1 18 28 -0.387299 0 56 -0.387299 1
gene 1 28 20 -0.571194 0 57 -0.571194 0
gene 1 13 28 -0.514266 0 62 -0.514266 1
gene 1 14 28 -0.444864 0 66 -0.444864 0
gene 1 10 28 0.608195 0 68 0.608195 1
gene 1 17 33 0.64184 0 73 0.64184 1
gene 1 33 20 -0.448728 0 74 -0.448728 1
gene 1 20 21 0.388328 1 80 0.388328 1
gene 1 18 35 0.359029 0 81 0.359029 1
gene 1 35 21 -0.0242 0 82 -0.0242 1
gene 1 6 36 0.107374 0 83 0.107374 1
gene 1 36 20 0.117687 0 84 0.117687 1
gene 1 28 37 -0.861975 0 86 -0.861975 1
gene 1 37 20 -0.389147 0 87 -0.389147 1
gene 1 21 49 0.781546 0 131 0.781546 1
gene 1 49 20 1.6609 0 132 1.6609 1
gene 1 37 35 -0.264655 0 133 -0.264655 1
gene 1 10 37 -0.398896 0 151 -0.398896 1
gene 1 4 28 0.35621 0 152 0.35621 1
gene 1 14 52 0.743644 0 158 0.743644 1
gene 1 52 20 0.874732 0 159 0.874732 1
gene 1 28 35 -0.989417 0 160 -0.989417 1
gene 1 4 35 0.0490446 0 161 0.0490446 1
gene 1 13 53 -0.274179 0 164 -0.274179 1
gene 1 53 20 0.826692 0 165 0.826692 1
gene 1 14 56 0.136167 0 180 0.136167 1
gene 1 56 28 0.17145 0 181 0.17145 1
gene 1 1 33 -1.18478 0 204 -1.18478 1
gene 1 10 33 1.00325 0 206 1.00325 0
gene 1 13 37 -0.810358 0 207 -0.810358 1
gene 1 33 37 0.558995 0 215 0.558995 1
gene 1 21 53 0.194108 0 230 0.194108 1
gene 1 5 67 -0.398716 0 244 -0.398716 1
gene 1 67 20 -0.0729694 0 245 -0.0729694 1
gene 1 35 35 0.447833 1 249 0.447833 1
gene 1 4 68 -0.316838 0 255 -0.316838 1
gene 1 68 35 1.03309 0 256 1.03309 1
gene 1 18 69 0.164186 0 258 0.164186 1
gene 1 69 28 -0.29755 0 259 -0.29755 1
gene 1 10 73 0.408161 0 275 0.408161 1
gene 1 73 33 0.287774 0 276 0.287774 1
gene 1 15 68 -0.475255 0 288 -0.475255 1
gene 1 10 35 0.468677 0 313 0.468677 1
gene 1 33 69 0.139253 0 340 0.139253 1
gene 1 35 86 0.852745 1 345 0.852745 1
gene 1 86 35 0.660194 0 346 0.660194 1
gene 1 16 53 -0.756298 0 354 -0.756298 1
genomeend 6510
genomestart 6513
trait 1 0 0.445698 0.0686836 0.0137866 0.144242 0.489288 0.194333 0.0103389 
node 1 1 1 1 0
node 2 1 1 1 0
node 3 1 1 1 0
node 4 1 1 1 0
node 5 1 1 1 0
node 6 1 1 1 0
node 7 1 1 1 0
node 8 1 1 1 0
node 9 1 1 1 0
node 10 1 1 1 0
node 11 1 1 1 0
node 12 1 1 1 0
node 13 1 1 1 0
node 14 1 1 1 0
node 15 1 1 1 0
node 16 1 1 1 0
node 17 1 1 1 0
node 18 1 1 1 0
node 19 1 1 3 0
node 20 1 0 2 0
node 21 1 0 2 0
node 28 1 0 0 0
node 33 1 0 0 0
node 35 1 0 0 0
node 36 1 0 0 0
node 37 1 0 0 0
node 49 1 0 0 0
node 52 1 0 0 0
node 53 1 0 0 0
node 56 1 0 0 0
node 67 1 0 0 0
node 68 1 0 0 0
node 69 1 0 0 0
node 81 1 0 0 0
node 90 1 0 0 0
gene 1 1 20 -0.362577 0 1 -0.362577 1
gene 1 2 20 0.102934 0 2 0.102934 1
gene 1 3 20 0.0505061 0 3 0.0505061 1
gene 1 4 20 -0.0543289 0 4 -0.0543289 1
gene 1 5 20 -0.3048 0 5 -0.3048 1
gene 1 6 20 0.103721 0 6 0.103721 0
gene 1 7 20 0.427781 0 7 0.427781 1
gene 1 8 20 -0.131813 0 8 -0.131813 1
gene 1 9 20 -1.03211 0 9 -1.03211 1
gene 1 10 20 -0.741552 0 10 -0.741552 1
gene 1 11 20 0.534797 0 11 0.534797 1
gene 1 12 20 0.481571 0 12 0.481571 1
gene 1 13 20 0.347586 0 13 0.347586 1
gene 1 14 20 -0.211138 0 14 -0.211138 0
gene 1 15 20 -0.551957 0 15 -0.551957 1
gene 1 16 20 -0.461221 0 16 -0.461221 1
gene 1 17 20 0.932483 0 17 0.932483 1
gene 1 18 20 -0.0227878 0 18 -0.0227878 1
gene 1 19 20 2.74528 0 19 2.74528 1
gene 1 1 21 0.238157 0 20 0.238157 1
gene 1 2 21 0.471625 0 21 0.471625 1
gene 1 3 21 -0.106525 0 22 -0.106525 1
gene 1 4 21 0.456897 0 23 0.456897 1
gene 1 5 21 -0.334265 0 24 -0.334265 1
gene 1 6 21 0.300986 0 25 0.300986 1
gene 1 7 21 -0.0703406 0 26 -0.0703406 1
gene 1 8 21 -0.0924258 0 27 -0.0924258 1
gene 1 9 21 -1.64955 0 28 -1.64955 1
gene 1 10 21 -0.438854 0 29 -0.438854 1
gene 1 11 21 0.991492 0 30 0.991492 1
gene 1 12 21 -0.100683 0 31 -0.100683 1
gene 1 13 21 -1.45506 0 32 -1.45506 1
gene 1 14 21 -0.256674 0 33 -0.256674 1
gene 1 15 21 0.792745 0 34 0.792745 1
gene 1 16 21 0.251625 0 35 0.251625 1
gene 1 17 21 0.37404 0 36 0.37404 1
gene 1 18 21 -0.652625 0 37 -0.652625 1
gene 1 19 21 0.323218 0 38 0.323218 1
gene 1 21 20 0.0694357 0 43 0.0694357 0
gene 1 18 28 -0.0523271 0 56 -0.0523271 1
gene 1 28 20 0.703166 0 57 0.703166 1
gene 1 13 28 0.917913 0 62 0.917913 1
gene 1 14 28 -0.775034 0 66 -0.775034 1
gene 1 10 28 1.11924 0 68 1.11924 0
gene 1 17 33 1.0723 0 73 1.0723 1
gene 1 33 20 -1.0229 0 74 -1.0229 1
gene 1 20 21 -0.0970689 1 80 -0.0970689 1
gene 1 18 35 0.863264 0 81 0.863264 1
gene 1 35 21 -0.382394 0 82 -0.382394 1
gene 1 6 36 0.161351 0 83 0.161351 1
gene 1 36 20 0.809671 0 84 0.809671 1
gene 1 28 37 -0.31811 0 86 -0.31811 1
gene 1 37 20 -0.134147 0 87 -0.134147 1
gene 1 21 49 0.113666 0 131 0.113666 1
gene 1 49 20 0.287795 0 132 0.287795 1
gene 1 37 35 0.47807 0 133 0.47807 1
gene 1 10 37 -0.229319 0 151 -0.229319 1
gene 1 4 28 0.6114 0 152 0.6114 1
gene 1 14 52 -0.790017 0 158 -0.790017 1
gene 1 52 20 -0.483986 0 159 -0.483986 1
gene 1 28 35 -0.696525 0 160 -0.696525 1
gene 1 4 35 -0.382462 0 161 -0.382462 1
gene 1 13 53 -0.406511 0 164 -0.406511 1
gene 1 53 20 0.450006 0 165 0.450006 1
gene 1 14 56 -0.806275 0 180 -0.806275 1
gene 1 56 28 -0.802921 0 181 -0.802921 1
gene 1 1 33 -0.271118 0 204 -0.271118 1
gene 1 10 33 0.303991 0 206 0.303991 1
gene 1 13 37 0.978907 0 207 0.978907 1
gene 1 33 37 -0.264568 0 215 -0.264568 1
gene 1 21 53 0.481353 0 230 0.481353 1
gene 1 5 67 0.0232927 0 244 0.0232927 1
gene 1 67 20 0.694566 0 245 0.694566 1
gene 1 35 35 0.515403 1 249 0.515403 1
gene 1 4 68 0.905197 0 255 0.905197 1
gene 1 68 35 -0.0960568 0 256 -0.0960568 1
gene 1 18 69 0.780558 0 258 0.780558 1
gene 1 69 28 -0.163741 0 259 -0.163741 1
gene 1 15 68 0.47705 0 288 0.47705 1
gene 1 13 81 1.84217 0 322 1.84217 1
gene 1 81 28 0.270734 0 323 0.270734 1
gene 1 10 90 0.608317 0 366 0.608317 1
gene 1 90 28 0.145632 0 367 0.145632 1
gene 1 28 36 0.912315 0 368 0.912315 1
genomeend 6513
genomestart 6566
trait 1 0 0.23795 0.0286182 0.938797 0.465996 0.0768121 0.185604 0 
node 1 1 1 1 0
node 2 1 1 1 0
node 3 1 1 1 0
node 4 1 1 1 0
node 5 1 1 1 0
node 6 1 1 1 0
node 7 1 1 1 0
node 8 1 1 1 0
node 9 1 1 1 0
node 10 1 1 1 0
node 11 1 1 1 0
node 12 1 1 1 0
node 13 1 1 1 0
node 14 1 1 1 0
node 15 1 1 1 0
node 16 1 1 1 0
node 17 1 1 1 0
node 18 1 1 1 0
node 19 1 1 3 0
node 20 1 0 2 0
node 21 1 0 2 0
node 28 1 0 0 0
node 33 1 0 0 0
node 35 1 0 0 0
node 36 1 0 0 0
node 37 1 0 0 0
node 49 1 0 0 0
node 52 1 0 0 0
node 53 1 0 0 0
node 56 1 0 0 0
node 67 1 0 0 0
node 68 1 0 0 0
node 69 1 0 0 0
node 73 1 0 0 0
node 86 1 0 0 0
gene 1 1 20 0.766491 0 1 0.766491 1
gene 1 2 20 -0.0701959 0 2 -0.0701959 1
gene 1 3 20 0.742139 0 3 0.742139 1
gene 1 4 20 -0.635813 0 4 -0.635813 1
gene 1 5 20 -0.174213 0 5 -0.174213 0
gene 1 6 20 -1.013 0 6 -1.013 0
gene 1 7 20 0.542413 0 7 0.542413 1
gene 1 8 20 0.00581192 0 8 0.00581192 1
gene 1 9 20 -0.290707 0 9 -0.290707 1
gene 1 10 20 -0.509729 0 10 -0.509729 1
gene 1 11 20 0.101001 0 11 0.101001 1
gene 1 12 20 0.843721 0 12 0.843721 1
gene 1 13 20 1.18526 0 13 1.18526 1
gene 1 14 20 -1.57683 0 14 -1.57683 0
gene 1 15 20 0.253713 0 15 0.253713 1
gene 1 16 20 2.00244 0 16 2.00244 1
gene 1 17 20 -0.288019 0 17 -0.288019 0
gene 1 18 20 0.0566873 0 18 0.0566873 1
gene 1 19 20 2.83117 0 19 2.83117 1
gene 1 1 21 0.0891659 0 20 0.0891659 1
gene 1 2 21 0.606001 0 21 0.606001 1
gene 1 3 21 1.16833 0 22 1.16833 1
gene 1 4 21 -1.74208 0 23 -1.74208 1
gene 1 5 21 0.682433 0 24 0.682433 1
gene 1 6 21 -0.141465 0 25 -0.141465 1
gene 1 7 21 0.656487 0 26 0.656487 1
gene 1 8 21 0.246705 0 27 0.246705 1
gene 1 9 21 -1.17098 0 28 -1.17098 1
gene 1 10 21 -0.695815 0 29 -0.695815 1
gene 1 11 21 2.58546 0 30 2.58546 1
gene 1 12 21 0.34132 0 31 0.34132 1
gene 1 13 21 -1.01137 0 32 -1.01137 1
gene 1 14 21 -0.320072 0 33 -0.320072 1
gene 1 15 21 -0.953279 0 34 -0.953279 1
gene 1 16 21 -0.448742 0 35 -0.448742 1
gene 1 17 21 0.851163 0 36 0.851163 1
gene 1 18 21 -1.3565 0 37 -1.3565 0
gene 1 19 21 -0.851887 0 38 -0.851887 1
gene 1 21 20 -0.395102 0 43 -0.395102 0
gene 1 18 28 0.0404142 0 56 0.0404142 1
gene 1 28 20 -0.571194 0 57 -0.571194 0
gene 1 13 28 -0.514266 0 62 -0.514266 1
gene 1 14 28 -0.444864 0 66 -0.444864 0
gene 1 10 28 0.404923 0 68 0.404923 1
gene 1 17 33 0.362279 0 73 0.362279 1
gene 1 33 20 -0.654565 0 74 -0.654565 1
gene 1 20 21 0.412437 1 80 0.412437 1
gene 1 18 35 0.359029 0 81 0.359029 1
gene 1 35 21 -0.28302 0 82 -0.28302 1
gene 1 6 36 -0.526231 0 83 -0.526231 1
gene 1 36 20 0.20046 0 84 0.20046 1
gene 1 28 37 -0.583683 0 86 -0.583683 1
gene 1 37 20 -0.52962 0 87 -0.52962 1
gene 1 21 49 0.781546 0 131 0.781546 1
gene 1 49 20 1.6609 0 132 1.6609 1
gene 1 37 35 -0.264655 0 133 -0.264655 1
gene 1 10 37 -0.0389797 0 151 -0.0389797 1
gene 1 4 28 0.35621 0 152 0.35621 1
gene 1 14 52 0.507649 0 158 0.507649 1
gene 1 52 20 0.216402 0 159 0.216402 1
gene 1 28 35 -1.11402 0 160 -1.11402 1
gene 1 4 35 0.0490446 0 161 0.0490446 1
gene 1 13 53 -0.338419 0 164 -0.338419 1
gene 1 53 20 0.627355 0 165 0.627355 1
gene 1 14 56 0.136167 0 180 0.136167 1
gene 1 56 28 -0.190764 0 181 -0.190764 1
gene 1 1 33 -1.11194 0 204 -1.11194 1
gene 1 10 33 0.448142 0 206 0.448142 0
gene 1 13 37 -0.810358 0 207 -0.810358 1
gene 1 33 37 0.600131 0 215 0.600131 1
gene 1 21 53 0.194108 0 230 0.194108 1
gene 1 5 67 -0.398716 0 244 -0.398716 1
gene 1 67 20 -0.0729694 0 245 -0.0729694 1
gene 1 35 35 0.447833 1 249 0.447833 0
gene 1 4 68 -0.226188 0 255 -0.226188 1
gene 1 68 35 1.03309 0 256 1.03309 1
gene 1 18 69 0.236157 0 258 0.236157 1
gene 1 69 28 -0.278555 0 259 -0.278555 1
gene 1 10 73 0.408161 0 275 0.408161 1
gene 1 73 33 0.287774 0 276 0.287774 1
gene 1 15 68 -0.979696 0 288 -0.979696 1
gene 1 10 35 0.51396 0 313 0.51396 1
gene 1 33 69 0.242246 0 340 0.242246 1
gene 1 35 86 0.852745 1 345 0.852745 1
gene 1 86 35 0.545492 0 346 0.545492 1
gene 1 16 53 -0.532096 0 354 -0.532096 1
genomeend 6566
genomestart 6621
trait 1 0 0.377088 0.0343418 0.00689329 0.465996 0.0768121 0.222725 0.0137852 
node 1 1 1 1 0
node 2 1 1 1 0
node 3 1 1 1 0
node 4 1 1 1 0
node 5 1 1 1 0
node 6 1 1 1 0
node 7 1 1 1 0
node 8 1 1 1 0
node 9 1 1 1 0
node 10 1 1 1 0
node 11 1 1 1 0
node 12 1 1 1 0
node 13 1 1 1 0
node 14 1 1 1 0
node 15 1 1 1 0
node 16 1 1 1 0
node 17 1 1 1 0
node 18 1 1 1 0
node 19 1 1 3 0
node 20 1 0 2 0
node 21 1 0 2 0
node 28 1 0 0 0
node 33 1 0 0 0
node 35 1 0 0 0
node 36 1 0 0 0
node 37 1 0 0 0
node 49 1 0 0 0
node 52 1 0 0 0
node 53 1 0 0 0
node 56 1 0 0 0
node 67 1 0 0 0
node 68 1 0 0 0
node 69 1 0 0 0
node 73 1 0 0 0
node 86 1 0 0 0
gene 1 1 20 0.911841 0 1 0.911841 1
gene 1 2 20 -0.726736 0 2 -0.726736 1
gene 1 3 20 1.14377 0 3 1.14377 1
gene 1 4 20 0.172078 0 4 0.172078 1
gene 1 5 20 -0.55554 0 5 -0.55554 0
gene 1 6 20 -1.14349 0 6 -1.14349 0
gene 1 7 20 0.353312 0 7 0.353312 1
gene 1 8 20 0.201268 0 8 0.201268 1
gene 1 9 20 0.0325404 0 9 0.0325404 1
gene 1 10 20 0.107906 0 10 0.107906 1
gene 1 11 20 -0.0632473 0 11 -0.0632473 1
gene 1 12 20 0.24774 0 12 0.24774 1
gene 1 13 20 1.59178 0 13 1.59178 1
gene 1 14 20 -2.0147 0 14 -2.0147 0
gene 1 15 20 0.610949 0 15 0.610949 1
gene 1 16 20 1.35633 0 16 1.35633 1
gene 1 17 20 -0.208874 0 17 -0.208874 0
gene 1 18 20 0.218505 0 18 0.218505 1
gene 1 19 20 2.67893 0 19 2.67893 1
gene 1 1 21 0.347509 0 20 0.347509 1
gene 1 2 21 0.578237 0 21 0.578237 1
gene 1 3 21 0.739211 0 22 0.739211 1
gene 1 4 21 -1.9048 0 23 -1.9048 1
gene 1 5 21 0.206807 0 24 0.206807 1
gene 1 6 21 0.278889 0 25 0.278889 1
gene 1 7 21 0.250694 0 26 0.250694 1
gene 1 8 21 0.243412 0 27 0.243412 1
gene 1 9 21 -1.1563 0 28 -1.1563 1
gene 1 10 21 -0.786611 0 29 -0.786611 1
gene 1 11 21 2.88154 0 30 2.88154 1
gene 1 12 21 -0.781333 0 31 -0.781333 1
gene 1 13 21 -0.875709 0 32 -0.875709 1
gene 1 14 21 -0.463358 0 33 -0.463358 1
gene 1 15 21 -0.683063 0 34 -0.683063 1
gene 1 16 21 -0.485151 0 35 -0.485151 1
gene 1 17 21 0.846482 0 36 0.846482 1
gene 1 18 21 -1.19449 0 37 -1.19449 0
gene 1 19 21 -0.597821 0 38 -0.597821 1
gene 1 21 20 -0.217824 0 43 -0.217824 1
gene 1 18 28 -0.254016 0 56 -0.254016 1
gene 1 28 20 -0.798676 0 57 -0.798676 0
gene 1 13 28 -0.271892 0 62 -0.271892 1
gene 1 14 28 -0.362787 0 66 -0.362787 0
gene 1 10 28 1.01017 0 68 1.01017 1
gene 1 17 33 1.04719 0 73 1.04719 1
gene 1 33 20 -0.644682 0 74 -0.644682 1
gene 1 20 21 0.530383 1 80 0.530383 1
gene 1 18 35 -0.0266507 0 81 -0.0266507 1
gene 1 35 21 -0.0136779 0 82 -0.0136779 1
gene 1 6 36 0.0373812 0 83 0.0373812 1
gene 1 36 20 0.0347359 0 84 0.0347359 1
gene 1 28 37 -0.567106 0 86 -0.567106 1
gene 1 37 20 -0.498526 0 87 -0.498526 1
gene 1 21 49 1.19089 0 131 1.19089 1
gene 1 49 20 1.34925 0 132 1.34925 1
gene 1 37 35 -0.661379 0 133 -0.661379 1
gene 1 10 37 -0.494509 0 151 -0.494509 1
gene 1 4 28 0.596083 0 152 0.596083 1
gene 1 14 52 0.990748 0 158 0.990748 1
gene 1 52 20 0.786115 0 159 0.786115 1
gene 1 28 35 -1.43831 0 160 -1.43831 1
gene 1 4 35 0.0803889 0 161 0.0803889 1
gene 1 13 53 -0.630164 0 164 -0.630164 1
gene 1 53 20 1.21137 0 165 1.21137 1
gene 1 14 56 -0.103657 0 180 -0.103657 1
gene 1 56 28 0.482099 0 181 0.482099 1
gene 1 1 33 -0.843837 0 204 -0.843837 1
gene 1 10 33 0.77315 0 206 0.77315 0
gene 1 13 37 -0.410635 0 207 -0.410635 1
gene 1 33 37 0.384189 0 215 0.384189 1
gene 1 21 53 -0.0600431 0 230 -0.0600431 1
gene 1 5 67 -0.893738 0 244 -0.893738 1
gene 1 67 20 -0.0790923 0 245 -0.0790923 1
gene 1 35 35 0.760725 1 249 0.760725 1
gene 1 4 68 -0.320824 0 255 -0.320824 1
gene 1 68 35 1.03309 0 256 1.03309 1
gene 1 18 69 0.164186 0 258 0.164186 1
gene 1 69 28 0.113348 0 259 0.113348 1
gene 1 10 73 -0.224959 0 275 -0.224959 1
gene 1 73 33 -0.17754 0 276 -0.17754 1
gene 1 15 68 -0.665172 0 288 -0.665172 1
gene 1 10 35 0.731197 0 313 0.731197 1
gene 1 33 69 0.139253 0 340 0.139253 1
gene 1 35 86 0.104849 1 345 0.104849 1
gene 1 86 35 0.660194 0 346 0.660194 1
gene 1 16 53 -0.312756 0 354 -0.312756 1
genomeend 6621
genomestart 6637
trait 1 0 0.377088 0.0171709 0.00689329 0.465996 0.0768121 0.111362 0.0137852 
node 1 1 1 1 0
node 2 1 1 1 0
node 3 1 1 1 0
node 4 1 1 1 0
node 5 1 1 1 0
node 6 1 1 1 0
node 7 1 1 1 0
node 8 1 1 1 0
node 9 1 1 1 0
node 10 1 1 1 0
node 11 1 1 1 0
node 12 1 1 1 0
node 13 1 1 1 0
node 14 1 1 1 0
node 15 1 1 1 0
node 16 1 1 1 0
node 17 1 1 1 0
node 18 1 1 1 0
node 19 1 1 3 0
node 20 1 0 2 0
node 21 1 0 2 0
node 28 1 0 0 0
node 33 1 0 0 0
node 35 1 0 0 0
node 36 1 0 0 0
node 37 1 0 0 0
node 49 1 0 0 0
node 52 1 0 0 0
node 53 1 0 0 0
node 56 1 0 0 0
node 67 1 0 0 0
node 68 1 0 0 0
node 69 1 0 0 0
node 73 1 0 0 0
node 86 1 0 0 0
node 93 1 0 0 0
gene 1 1 20 0.766491 0 1 0.766491 1
gene 1 2 20 0.037612 0 2 0.037612 1
gene 1 3 20 1.59038 0 3 1.59038 1
gene 1 4 20 -0.367944 0 4 -0.367944 1
gene 1 5 20 -0.174213 0 5 -0.174213 0
gene 1 6 20 -1.013 0 6 -1.013 0
gene 1 7 20 -0.192823 0 7 -0.192823 1
gene 1 8 20 -0.138006 0 8 -0.138006 1
gene 1 9 20 0.0346544 0 9 0.0346544 1
gene 1 10 20 -0.644891 0 10 -0.644891 1
gene 1 11 20 0.212857 0 11 0.212857 1
gene 1 12 20 -0.191154 0 12 -0.191154 1
gene 1 13 20 1.11215 0 13 1.11215 1
gene 1 14 20 -1.57683 0 14 -1.57683 0
gene 1 15 20 0.191875 0 15 0.191875 1
gene 1 16 20 1.527 0 16 1.527 1
gene 1 17 20 -0.288019 0 17 -0.288019 0
gene 1 18 20 0.335161 0 18 0.335161 1
gene 1 19 20 2.2708 0 19 2.2708 1
gene 1 1 21 0.0824567 0 20 0.0824567 1
gene 1 2 21 -0.0695346 0 21 -0.0695346 1
gene 1 3 21 1.16833 0 22 1.16833 1
gene 1 4 21 -1.24616 0 23 -1.24616 1
gene 1 5 21 0.628872 0 24 0.628872 1
gene 1 6 21 -0.02647 0 25 -0.02647 1
gene 1 7 21 0.656487 0 26 0.656487 1
gene 1 8 21 -0.0798954 0 27 -0.0798954 1
gene 1 9 21 -2.07903 0 28 -2.07903 1
gene 1 10 21 -0.695815 0 29 -0.695815 1
gene 1 11 21 2.58546 0 30 2.58546 1
gene 1 12 21 -0.447155 0 31 -0.447155 1
gene 1 13 21 -0.9709 0 32 -0.9709 1
gene 1 14 21 -0.586248 0 33 -0.586248 1
gene 1 15 21 -0.572886 0 34 -0.572886 1
gene 1 16 21 -0.48102 0 35 -0.48102 1
gene 1 17 21 0.706303 0 36 0.706303 1
gene 1 18 21 -1.46445 0 37 -1.46445 0
gene 1 19 21 -0.962048 0 38 -0.962048 1
gene 1 21 20 0.16669 0 43 0.16669 1
gene 1 18 28 -0.387299 0 56 -0.387299 1
gene 1 28 20 -0.571194 0 57 -0.571194 0
gene 1 13 28 -0.514266 0 62 -0.514266 1
gene 1 14 28 -0.444864 0 66 -0.444864 0
gene 1 10 28 0.596103 0 68 0.596103 1
gene 1 17 33 0.64184 0 73 0.64184 1
gene 1 33 20 -0.448728 0 74 -0.448728 1
gene 1 20 21 0.315062 1 80 0.315062 1
gene 1 18 35 0.359029 0 81 0.359029 1
gene 1 35 21 -0.0242 0 82 -0.0242 1
gene 1 6 36 -0.279513 0 83 -0.279513 1
gene 1 36 20 0.117687 0 84 0.117687 1
gene 1 28 37 -0.861975 0 86 -0.861975 1
gene 1 37 20 -0.256638 0 87 -0.256638 1
gene 1 21 49 0.712009 0 131 0.712009 1
gene 1 49 20 1.6609 0 132 1.6609 1
gene 1 37 35 -0.0222037 0 133 -0.0222037 1
gene 1 10 37 -0.398896 0 151 -0.398896 1
gene 1 4 28 0.705213 0 152 0.705213 1
gene 1 14 52 0.743644 0 158 0.743644 1
gene 1 52 20 0.874732 0 159 0.874732 1
gene 1 28 35 -0.253432 0 160 -0.253432 1
gene 1 4 35 0.0490446 0 161 0.0490446 1
gene 1 13 53 -0.274179 0 164 -0.274179 1
gene 1 53 20 0.826692 0 165 0.826692 1
gene 1 14 56 0.136167 0 180 0.136167 1
gene 1 56 28 0.212972 0 181 0.212972 1
gene 1 1 33 -1.18478 0 204 -1.18478 1
gene 1 10 33 1.00325 0 206 1.00325 0
gene 1 13 37 -0.988531 0 207 -0.988531 1
gene 1 33 37 -0.0898181 0 215 -0.0898181 1
gene 1 21 53 0.194108 0 230 0.194108 1
gene 1 5 67 -0.398716 0 244 -0.398716 0
gene 1 67 20 0.929616 0 245 0.929616 1
gene 1 35 35 -0.379847 1 249 -0.379847 1
gene 1 4 68 -0.316838 0 255 -0.316838 1
gene 1 68 35 1.03309 0 256 1.03309 1
gene 1 18 69 0.164186 0 258 0.164186 1
gene 1 69 28 -0.29755 0 259 -0.29755 1
gene 1 10 73 1.20694 0 275 1.20694 1
gene 1 73 33 0.395493 0 276 0.395493 1
gene 1 15 68 -0.821771 0 288 -0.821771 1
gene 1 10 35 0.0518213 0 313 0.0518213 1
gene 1 33 69 0.139253 0 340 0.139253 1
gene 1 35 86 0.852745 1 345 0.852745 1
gene 1 86 35 0.425258 0 346 0.425258 1
gene 1 16 53 -0.756298 0 354 -0.756298 1
gene 1 5 93 1 0 388 0 1
gene 1 93 67 -0.119615 0 389 0 1
genomeend 6637
genomestart 6644
trait 1 0 0.377088 0.045789 0.00689329 0.465996 0.0768121 0.296966 0.0137852 
node 1 1 1 1 0
node 2 1 1 1 0
node 3 1 1 1 0
node 4 1 1 1 0
node 5 1 1 1 0
node 6 1 1 1 0
node 7 1 1 1 0
node 8 1 1 1 0
node 9 1 1 1 0
node 10 1 1 1 0
node 11 1 1 1 0
node 12 1 1 1 0
node 13 1 1 1 0
node 14 1 1 1 0
node 15 1 1 1 0
node 16 1 1 1 0
node 17 1 1 1 0
node 18 1 1 1 0
node 19 1 1 3 0
node 20 1 0 2 0
node 21 1 0 2 0
node 28 1 0 0 0
node 33 1 0 0 0
node 35 1 0 0 0
node 36 1 0 0 0
node 37 1 0 0 0
node 49 1 0 0 0
node 52 1 0 0 0
node 53 1 0 0 0
node 56 1 0 0 0
node 67 1 0 0 0
node 68 1 0 0 0
node 69 1 0 0 0
node 86 1 0 0 0
gene 1 1 20 0.616688 0 1 0.616688 1
gene 1 2 20 -0.383123 0 2 -0.383123 1
gene 1 3 20 1.23509 0 3 1.23509 1
gene 1 4 20 -0.0394404 0 4 -0.0394404 1
gene 1 5 20 -0.500429 0 5 -0.500429 0
gene 1 6 20 -0.594991 0 6 -0.594991 0
gene 1 7 20 0.0861781 0 7 0.0861781 1
gene 1 8 20 -0.500464 0 8 -0.500464 1
gene 1 9 20 -0.157176 0 9 -0.157176 1
gene 1 10 20 -0.221448 0 10 -0.221448 1
gene 1 11 20 0.813624 0 11 0.813624 1
gene 1 12 20 -0.307055 0 12 -0.307055 1
gene 1 13 20 1.66671 0 13 1.66671 1
gene 1 14 20 -0.240817 0 14 -0.240817 0
gene 1 15 20 0.52564 0 15 0.52564 1
gene 1 16 20 1.10821 0 16 1.10821 1
gene 1 17 20 -0.480222 0 17 -0.480222 1
gene 1 18 20 0.336776 0 18 0.336776 1
gene 1 19 20 0.795889 0 19 0.795889 1
gene 1 1 21 -0.666931 0 20 -0.666931 1
gene 1 2 21 0.289006 0 21 0.289006 1
gene 1 3 21 0.661013 0 22 0.661013 1
gene 1 4 21 -0.745147 0 23 -0.745147 1
gene 1 5 21 0.646614 0 24 0.646614 1
gene 1 6 21 -0.403857 0 25 -0.403857 1
gene 1 7 21 0.536319 0 26 0.536319 1
gene 1 8 21 -0.0308541 0 27 -0.0308541 1
gene 1 9 21 -0.678845 0 28 -0.678845 1
gene 1 10 21 -0.312036 0 29 -0.312036 1
gene 1 11 21 2.79705 0 30 2.79705 1
gene 1 12 21 -0.396339 0 31 -0.396339 1
gene 1 13 21 -1.03555 0 32 -1.03555 1
gene 1 14 21 -0.773271 0 33 -0.773271 1
gene 1 15 21 -0.594076 0 34 -0.594076 1
gene 1 16 21 -1.64119 0 35 -1.64119 1
gene 1 17 21 1.10221 0 36 1.10221 1
gene 1 18 21 -0.59704 0 37 -0.59704 1
gene 1 19 21 -0.561229 0 38 -0.561229 1
gene 1 21 20 0.138462 0 43 0.138462 0
gene 1 18 28 -0.626082 0 56 -0.626082 1
gene 1 28 20 -0.608917 0 57 -0.608917 0
gene 1 13 28 -0.449775 0 62 -0.449775 1
gene 1 14 28 -0.332946 0 66 -0.332946 0
gene 1 10 28 0.446 0 68 0.446 1
gene 1 17 33 0.186909 0 73 0.186909 1
gene 1 33 20 -0.67082 0 74 -0.67082 1
gene 1 20 21 0.14241 1 80 0.14241 1
gene 1 18 35 0.685733 0 81 0.685733 1
gene 1 35 21 0.311952 0 82 0.311952 1
gene 1 6 36 0.356441 0 83 0.356441 1
gene 1 36 20 0.367839 0 84 0.367839 1
gene 1 28 37 -0.569232 0 86 -0.569232 1
gene 1 37 20 0.0429622 0 87 0.0429622 1
gene 1 21 49 0.898615 0 131 0.898615 1
gene 1 49 20 0.943179 0 132 0.943179 1
gene 1 37 35 -1.10414 0 133 -1.10414 1
gene 1 10 37 -0.15783 0 151 -0.15783 1
gene 1 4 28 0.678455 0 152 0.678455 1
gene 1 14 52 0.791099 0 158 0.791099 1
gene 1 52 20 0.706841 0 159 0.706841 1
gene 1 28 35 -1.05197 0 160 -1.05197 1
gene 1 4 35 -0.568254 0 161 -0.568254 1
gene 1 13 53 -0.287499 0 164 -0.287499 1
gene 1 53 20 -0.507705 0 165 -0.507705 1
gene 1 14 56 0.368624 0 180 0.368624 1
gene 1 56 28 0.833564 0 181 0.833564 1
gene 1 1 33 -1.33549 0 204 -1.33549 1
gene 1 10 33 1.22597 0 206 1.22597 1
gene 1 13 37 -1.08432 0 207 -1.08432 1
gene 1 33 37 0.517858 0 215 0.517858 1
gene 1 21 53 0.0480974 0 230 0.0480974 1
gene 1 5 67 -0.409957 0 244 -0.409957 1
gene 1 67 20 -0.487829 0 245 -0.487829 1
gene 1 35 35 0.478994 1 249 0.478994 1
gene 1 4 68 0.149935 0 255 0.149935 1
gene 1 68 35 1.19488 0 256 1.19488 1
gene 1 18 69 -0.434015 0 258 -0.434015 1
gene 1 69 28 0.203867 0 259 0.203867 1
gene 1 15 68 -0.107166 0 288 -0.107166 1
gene 1 10 35 0.87394 0 313 0.87394 1
gene 1 33 69 -0.291356 0 340 -0.291356 1
gene 1 35 86 0.678773 1 345 0.678773 1
gene 1 86 35 0.524909 0 346 0.524909 1
gene 1 16 53 0.490442 0 354 0.490442 1
genomeend 6644
genomestart 6662
trait 1 0 0.445698 0.0686836 0.0137866 0.144242 0.489288 0.194333 0.0103389 
node 1 1 1 1 0
node 2 1 1 1 0
node 3 1 1 1 0
node 4 1 1 1 0
node 5 1 1 1 0
node 6 1 1 1 0
node 7 1 1 1 0
node 8 1 1 1 0
node 9 1 1 1 0
node 10 1 1 1 0
node 11 1 1 1 0
node 12 1 1 1 0
node 13 1 1 1 0
node 14 1 1 1 0
node 15 1 1 1 0
node 16 1 1 1 0
node 17 1 1 1 0
node 18 1 1 1 0
node 19 1 1 3 0
node 20 1 0 2 0
node 21 1 0 2 0
node 28 1 0 0 0
node 33 1 0 0 0
node 35 1 0 0 0
node 36 1 0 0 0
node 37 1 0 0 0
node 49 1 0 0 0
node 52 1 0 0 0
node 53 1 0 0 0
node 56 1 0 0 0
node 67 1 0 0 0
node 68 1 0 0 0
node 69 1 0 0 0
node 81 1 0 0 0
node 90 1 0 0 0
gene 1 1 20 -0.362577 0 1 -0.362577 1
gene 1 2 20 0.102934 0 2 0.102934 1
gene 1 3 20 0.0505061 0 3 0.0505061 1
gene 1 4 20 -0.0543289 0 4 -0.0543289 1
gene 1 5 20 -0.3048 0 5 -0.3048 1
gene 1 6 20 0.103721 0 6 0.103721 0
gene 1 7 20 0.427781 0 7 0.427781 1
gene 1 8 20 -0.131813 0 8 -0.131813 1
gene 1 9 20 -1.03211 0 9 -1.03211 1
gene 1 10 20 -0.741552 0 10 -0.741552 1
gene 1 11 20 0.534797 0 11 0.534797 1
gene 1 12 20 0.481571 0 12 0.481571 1
gene 1 13 20 0.347586 0 13 0.347586 1
gene 1 14 20 -0.211138 0 14 -0.211138 0
gene 1 15 20 -0.551957 0 15 -0.551957 1
gene 1 16 20 -0.461221 0 16 -0.461221 1
gene 1 17 20 0.932483 0 17 0.932483 1
gene 1 18 20 -0.0227878 0 18 -0.0227878 1
gene 1 19 20 2.74528 0 19 2.74528 1
gene 1 1 21 0.238157 0 20 0.238157 1
gene 1 2 21 0.471625 0 21 0.471625 1
gene 1 3 21 -0.106525 0 22 -0.106525 1
gene 1 4 21 0.456897 0 23 0.456897 1
gene 1 5 21 -0.334265 0 24 -0.334265 1
gene 1 6 21 0.300986 0 25 0.300986 1
gene 1 7 21 -0.0703406 0 26 -0.0703406 1
gene 1 8 21 -0.0924258 0 27 -0.0924258 1
gene 1 9 21 -1.64955 0 28 -1.64955 1
gene 1 10 21 -0.438854 0 29 -0.438854 1
gene 1 11 21 0.991492 0 30 0.991492 1
gene 1 12 21 -0.100683 0 31 -0.100683 1
gene 1 13 21 -1.45506 0 32 -1.45506 1
gene 1 14 21 -0.256674 0 33 -0.256674 1
gene 1 15 21 0.792745 0 34 0.792745 1
gene 1 16 21 0.251625 0 35 0.251625 1
gene 1 17 21 0.37404 0 36 0.37404 1
gene 1 18 21 -0.652625 0 37 -0.652625 1
gene 1 19 21 0.323218 0 38 0.323218 1
gene 1 21 20 0.0694357 0 43 0.0694357 0
gene 1 18 28 -0.0523271 0 56 -0.0523271 1
gene 1 28 20 0.703166 0 57 0.703166 1
gene 1 13 28 0.917913 0 62 0.917913 1
gene 1 14 28 -0.775034 0 66 -0.775034 1
gene 1 10 28 1.11924 0 68 1.11924 0
gene 1 17 33 1.0723 0 73 1.0723 1
gene 1 33 20 -1.0229 0 74 -1.0229 1
gene 1 20 21 -0.0970689 1 80 -0.0970689 1
gene 1 18 35 0.863264 0 81 0.863264 1
gene 1 35 21 -0.382394 0 82 -0.382394 1
gene 1 6 36 0.161351 0 83 0.161351 1
gene 1 36 20 0.809671 0 84 0.809671 1
gene 1 28 37 -0.31811 0 86 -0.31811 1
gene 1 37 20 -0.134147 0 87 -0.134147 1
gene 1 21 49 0.113666 0 131 0.113666 1
gene 1 49 20 0.287795 0 132 0.287795 1
gene 1 37 35 0.47807 0 133 0.47807 1
gene 1 10 37 -0.229319 0 151 -0.229319 1
gene 1 4 28 0.6114 0 152 0.6114 1
gene 1 14 52 -0.790017 0 158 -0.790017 1
gene 1 52 20 -0.483986 0 159 -0.483986 1
gene 1 28 35 -0.696525 0 160 -0.696525 1
gene 1 4 35 -0.382462 0 161 -0.382462 1
gene 1 13 53 -0.406511 0 164 -0.406511 1
gene 1 53 20 0.450006 0 165 0.450006 1
gene 1 14 56 -0.806275 0 180 -0.806275 1
gene 1 56 28 -0.802921 0 181 -0.802921 1
gene 1 1 33 -0.271118 0 204 -0.271118 1
gene 1 10 33 0.303991 0 206 0.303991 1
gene 1 13 37 0.978907 0 207 0.978907 1
gene 1 33 37 -0.264568 0 215 -0.264568 1
gene 1 21 53 0.481353 0 230 0.481353 1
gene 1 5 67 0.0232927 0 244 0.0232927 1
gene 1 67 20 0.694566 0 245 0.694566 1
gene 1 35 35 0.515403 1 249 0.515403 1
gene 1 4 68 0.905197 0 255 0.905197 1
gene 1 68 35 -0.0960568 0 256 -0.0960568 1
gene 1 18 69 0.780558 0 258 0.780558 1
gene 1 69 28 -0.163741 0 259 -0.163741 1
gene 1 15 68 0.47705 0 288 0.47705 1
gene 1 13 81 1.84217 0 322 1.84217 1
gene 1 81 28 0.270734 0 323 0.270734 1
gene 1 10 90 0.608317 0 366 0.608317 1
gene 1 90 28 0.145632 0 367 0.145632 1
gene 1 28 36 0.912315 0 368 0.912315 1
genomeend 6662
genomestart 6663
trait 1 0 0.377088 0.045789 0.00689329 0.465996 0.0768121 0.296966 0.0137852 
node 1 1 1 1 0
node 2 1 1 1 0
node 3 1 1 1 0
node 4 1 1 1 0
node 5 1 1 1 0
node 6 1 1 1 0
node 7 1 1 1 0
node 8 1 1 1 0
node 9 1 1 1 0
node 10 1 1 1 0
node 11 1 1 1 0
node 12 1 1 1 0
node 13 1 1 1 0
node 14 1 1 1 0
node 15 1 1 1 0
node 16 1 1 1 0
node 17 1 1 1 0
node 18 1 1 1 0
node 19 1 1 3 0
node 20 1 0 2 0
node 21 1 0 2 0
node 28 1 0 0 0
node 33 1 0 0 0
node 35 1 0 0 0
node 36 1 0 0 0
node 37 1 0 0 0
node 49 1 0 0 0
node 52 1 0 0 0
node 53 1 0 0 0
node 56 1 0 0 0
node 67 1 0 0 0
node 68 1 0 0 0
node 69 1 0 0 0
node 73 1 0 0 0
node 86 1 0 0 0
node 94 1 0 0 0
gene 1 1 20 -0.0119732 0 1 -0.0119732 1
gene 1 2 20 -0.289 0 2 -0.289 1
gene 1 3 20 1.50455 0 3 1.50455 1
gene 1 4 20 -0.266838 0 4 -0.266838 1
gene 1 5 20 0.233496 0 5 0.233496 0
gene 1 6 20 -1.00174 0 6 -1.00174 1
gene 1 7 20 0.0792884 0 7 0.0792884 1
gene 1 8 20 -0.40984 0 8 -0.40984 1
gene 1 9 20 -0.217787 0 9 -0.217787 1
gene 1 10 20 -0.0303708 0 10 -0.0303708 1
gene 1 11 20 0.356311 0 11 0.356311 1
gene 1 12 20 -0.00122623 0 12 -0.00122623 1
gene 1 13 20 1.04099 0 13 1.04099 1
gene 1 14 20 -1.28769 0 14 -1.28769 0
gene 1 15 20 0.557018 0 15 0.557018 1
gene 1 16 20 0.938083 0 16 0.938083 1
gene 1 17 20 -0.0643315 0 17 -0.0643315 0
gene 1 18 20 0.165126 0 18 0.165126 1
gene 1 19 20 3 0 19 3 1
gene 1 1 21 0.232489 0 20 0.232489 1
gene 1 2 21 0.293764 0 21 0.293764 1
gene 1 3 21 0.799129 0 22 0.799129 1
gene 1 4 21 -1.11809 0 23 -1.11809 1
gene 1 5 21 0.557843 0 24 0.557843 1
gene 1 6 21 -0.407526 0 25 -0.407526 1
gene 1 7 21 0.0115666 0 26 0.0115666 1
gene 1 8 21 -0.404931 0 27 -0.404931 1
gene 1 9 21 -1.76396 0 28 -1.76396 1
gene 1 10 21 -0.0270401 0 29 -0.0270401 1
gene 1 11 21 2.6843 0 30 2.6843 1
gene 1 12 21 -0.641331 0 31 -0.641331 1
gene 1 13 21 -0.819908 0 32 -0.819908 1
gene 1 14 21 -0.151741 0 33 -0.151741 1
gene 1 15 21 -0.417749 0 34 -0.417749 1
gene 1 16 21 -0.708012 0 35 -0.708012 1
gene 1 17 21 0.173966 0 36 0.173966 1
gene 1 18 21 -1.166 0 37 -1.166 0
gene 1 19 21 -0.895961 0 38 -0.895961 1
gene 1 21 20 0.296734 0 43 0.296734 1
gene 1 18 28 -0.311226 0 56 -0.311226 1
gene 1 28 20 -0.823238 0 57 -0.823238 0
gene 1 13 28 -0.173506 0 62 -0.173506 1
gene 1 14 28 -0.328985 0 66 -0.328985 0
gene 1 10 28 0.491391 0 68 0.491391 1
gene 1 17 33 -0.0528092 0 73 -0.0528092 1
gene 1 33 20 -0.0125084 0 74 -0.0125084 1
gene 1 20 21 -0.23685 1 80 -0.23685 1
gene 1 18 35 0.130341 0 81 0.130341 1
gene 1 35 21 0.0756931 0 82 0.0756931 1
gene 1 6 36 -0.0228088 0 83 -0.0228088 1
gene 1 36 20 0.283142 0 84 0.283142 1
gene 1 28 37 -0.708688 0 86 -0.708688 1
gene 1 37 20 0.107801 0 87 0.107801 1
gene 1 21 49 0.591548 0 131 0.591548 1
gene 1 49 20 1.27773 0 132 1.27773 1
gene 1 37 35 -0.425097 0 133 -0.425097 1
gene 1 10 37 -0.0971861 0 151 -0.0971861 1
gene 1 4 28 1.01036 0 152 1.01036 1
gene 1 14 52 0.00127605 0 158 0.00127605 1
gene 1 52 20 1.02851 0 159 1.02851 1
gene 1 28 35 -0.783836 0 160 -0.783836 1
gene 1 4 35 -0.280933 0 161 -0.280933 1
gene 1 13 53 -0.591687 0 164 -0.591687 1
gene 1 53 20 0.0693253 0 165 0.0693253 1
gene 1 14 56 0.266454 0 180 0.266454 1
gene 1 56 28 0.607508 0 181 0.607508 1
gene 1 1 33 -1.84767 0 204 -1.84767 1
gene 1 10 33 0.132095 0 206 0.132095 0
gene 1 13 37 -0.447445 0 207 -0.447445 1
gene 1 33 37 0.262299 0 215 0.262299 1
gene 1 21 53 0.415821 0 230 0.415821 1
gene 1 5 67 -0.273745 0 244 -0.273745 1
gene 1 67 20 0.929616 0 245 0.929616 0
gene 1 35 35 -0.263992 1 249 -0.263992 1
gene 1 4 68 -0.279462 0 255 -0.279462 1
gene 1 68 35 1.79129 0 256 1.79129 1
gene 1 18 69 0.287944 0 258 0.287944 1
gene 1 69 28 -0.373896 0 259 -0.373896 1
gene 1 10 73 1.42107 0 275 1.42107 1
gene 1 73 33 0.0349113 0 276 0.0349113 1
gene 1 15 68 -0.760794 0 288 -0.760794 1
gene 1 10 35 -0.170905 0 313 -0.170905 1
gene 1 33 69 0.310711 0 340 0.310711 1
gene 1 35 86 1 1 345 1 1
gene 1 86 35 0.554308 0 346 0.554308 1
gene 1 16 53 -0.354961 0 354 -0.354961 1
gene 1 67 94 1 0 392 0 1
gene 1 94 20 0.278885 0 393 0 1
genomeend 6663
genomestart 6679
trait 1 0 0.0165484 0.0890935 0.188977 0.00481536 0.0484914 0.237521 0.0103761 
node 1 1 1 1 0
node 2 1 1 1 0
node 3 1 1 1 0
node 4 1 1 1 0
node 5 1 1 1 0
node 6 1 1 1 0
node 7 1 1 1 0
node 8 1 1 1 0
node 9 1 1 1 0
node 10 1 1 1 0
node 11 1 1 1 0
node 12 1 1 1 0
node 13 1 1 1 0
node 14 1 1 1 0
node 15 1 1 1 0
node 16 1 1 1 0
node 17 1 1 1 0
node 18 1 1 1 0
node 19 1 1 3 0
node 20 1 0 2 0
node 21 1 0 2 0
node 23 1 0 0 0
node 28 1 0 0 0
node 31 1 0 0 0
node 33 1 0 0 0
node 35 1 0 0 0
node 37 1 0 0 0
node 45 1 0 0 0
node 49 1 0 0 0
node 53 1 0 0 0
node 56 1 0 0 0
node 63 1 0 0 0
gene 1 1 20 -1.39397 0 1 -1.39397 1
gene 1 2 20 1.23721 0 2 1.23721 1
gene 1 3 20 0.168819 0 3 0.168819 1
gene 1 4 20 0.72947 0 4 0.72947 1
gene 1 5 20 -0.111317 0 5 -0.111317 1
gene 1 6 20 -0.178969 0 6 -0.178969 1
gene 1 7 20 0.531437 0 7 0.531437 1
gene 1 8 20 0.343671 0 8 0.343671 1
gene 1 9 20 -0.39743 0 9 -0.39743 1
gene 1 10 20 -0.633784 0 10 -0.633784 0
gene 1 11 20 0.443933 0 11 0.443933 1
gene 1 12 20 -1.09354 0 12 -1.09354 1
gene 1 13 20 -0.447533 0 13 -0.447533 0
gene 1 14 20 0.0194042 0 14 0.0194042 1
gene 1 15 20 0.803674 0 15 0.803674 1
gene 1 16 20 1.70764 0 16 1.70764 1
gene 1 17 20 -1.50974 0 17 -1.50974 0
gene 1 18 20 -0.960474 0 18 -0.960474 0
gene 1 19 20 2.8661 0 19 2.8661 1
gene 1 1 21 -0.152549 0 20 -0.152549 1
gene 1 2 21 0.722089 0 21 0.722089 1
gene 1 3 21 -0.951956 0 22 -0.951956 1
gene 1 4 21 0.627383 0 23 0.627383 1
gene 1 5 21 -0.40582 0 24 -0.40582 1
gene 1 6 21 -0.216837 0 25 -0.216837 1
gene 1 7 21 0.519216 0 26 0.519216 1
gene 1 8 21 -0.150711 0 27 -0.150711 1
gene 1 9 21 -1.77349 0 28 -1.77349 1
gene 1 10 21 0.825528 0 29 0.825528 1
gene 1 11 21 0.103317 0 30 0.103317 1
gene 1 12 21 -0.219139 0 31 -0.219139 1
gene 1 13 21 0.127824 0 32 0.127824 1
gene 1 14 21 2.09711 0 33 2.09711 0
gene 1 15 21 -0.260527 0 34 -0.260527 1
gene 1 16 21 1.36062 0 35 1.36062 1
gene 1 17 21 -0.65246 0 36 -0.65246 1
gene 1 18 21 -1.1116 0 37 -1.1116 1
gene 1 19 21 -0.0214346 0 38 -0.0214346 1
gene 1 15 23 0.305311 0 41 0.305311 1
gene 1 23 20 -0.544922 0 42 -0.544922 1
gene 1 21 20 -0.517495 0 43 -0.517495 0
gene 1 18 28 0.990682 0 56 0.990682 1
gene 1 28 20 0.723811 0 57 0.723811 1
gene 1 13 28 -0.0454905 0 62 -0.0454905 1
gene 1 14 31 -0.0453604 0 64 -0.0453604 1
gene 1 31 21 1.07846 0 65 1.07846 1
gene 1 14 28 -1.52767 0 66 -1.52767 1
gene 1 10 28 1.79747 0 68 1.79747 1
gene 1 17 33 -0.419673 0 73 -0.419673 1
gene 1 33 20 1.12905 0 74 1.12905 1
gene 1 20 21 0.474082 1 80 0.474082 1
gene 1 18 35 2.86644 0 81 2.86644 1
gene 1 35 21 -1.13779 0 82 -1.13779 1
gene 1 28 37 -1.33135 0 86 -1.33135 1
gene 1 37 20 -0.0475037 0 87 -0.0475037 1
gene 1 2 28 -0.870288 0 99 -0.870288 1
gene 1 10 45 2.16485 0 116 2.16485 1
gene 1 45 20 0.0426198 0 117 0.0426198 1
gene 1 21 49 0.913817 0 131 0.913817 1
gene 1 49 20 0.50774 0 132 0.50774 1
gene 1 37 35 -0.423407 0 133 -0.423407 1
gene 1 19 33 -0.254164 0 141 -0.254164 1
gene 1 10 37 1.66174 0 151 1.66174 1
gene 1 4 28 -0.101101 0 152 -0.101101 1
gene 1 28 35 -0.0395069 0 160 -0.0395069 1
gene 1 4 35 0.184854 0 161 0.184854 1
gene 1 13 53 0.188108 0 164 0.188108 1
gene 1 53 20 0.243666 0 165 0.243666 1
gene 1 13 33 -0.0161759 0 168 -0.0161759 1
gene 1 14 56 0.780998 0 180 0.780998 1
gene 1 56 28 0.185005 0 181 0.185005 1
gene 1 1 33 -0.243598 0 204 -0.243598 1
gene 1 10 33 0.23295 0 206 0.23295 1
gene 1 33 37 -0.0123742 0 215 -0.0123742 1
gene 1 37 63 -0.208486 0 217 -0.208486 1
gene 1 63 35 0.636211 0 218 0.636211 1
gene 1 21 53 -0.27952 0 230 -0.27952 1
gene 1 28 28 0.626608 1 236 0.626608 1
gene 1 35 35 -0.431146 1 249 -0.431146 1
gene 1 18 37 0.0110325 0 250 0.0110325 1
gene 1 21 21 -0.292471 1 251 -0.292471 1
gene 1 6 33 0.0479415 0 280 0.0479415 1
genomeend 6679
genomestart 6686
trait 1 0 0.23795 0.0286182 0.938797 0.465996 0.0768121 0.185604 0 
node 1 1 1 1 0
node 2 1 1 1 0
node 3 1 1 1 0
node 4 1 1 1 0
node 5 1 1 1 0
node 6 1 1 1 0
node 7 1 1 1 0
node 8 1 1 1 0
node 9 1 1 1 0
node 10 1 1 1 0
node 11 1 1 1 0
node 12 1 1 1 0
node 13 1 1 1 0
node 14 1 1 1 0
node 15 1 1 1 0
node 16 1 1 1 0
node 17 1 1 1 0
node 18 1 1 1 0
node 19 1 1 3 0
node 20 1 0 2 0
node 21 1 0 2 0
node 28 1 0 0 0
node 33 1 0 0 0
node 35 1 0 0 0
node 36 1 0 0 0
node 37 1 0 0 0
node 49 1 0 0 0
node 52 1 0 0 0
node 53 1 0 0 0
node 56 1 0 0 0
node 67 1 0 0 0
node 68 1 0 0 0
node 69 1 0 0 0
node 73 1 0 0 0
node 86 1 0 0 0
gene 1 1 20 0.766491 0 1 0.766491 1
gene 1 2 20 -0.0701959 0 2 -0.0701959 1
gene 1 3 20 0.742139 0 3 0.742139 1
gene 1 4 20 -0.635813 0 4 -0.635813 1
gene 1 5 20 -0.174213 0 5 -0.174213 0
gene 1 6 20 -1.013 0 6 -1.013 0
gene 1 7 20 0.542413 0 7 0.542413 1
gene 1 8 20 0.00581192 0 8 0.00581192 1
gene 1 9 20 -0.290707 0 9 -0.290707 1
gene 1 10 20 -0.509729 0 10 -0.509729 1
gene 1 11 20 0.101001 0 11 0.101001 1
gene 1 12 20 0.843721 0 12 0.843721 1
gene 1 13 20 1.18526 0 13 1.18526 1
gene 1 14 20 -1.57683 0 14 -1.57683 0
gene 1 15 20 0.253713 0 15 0.253713 1
gene 1 16 20 2.00244 0 16 2.00244 1
gene 1 17 20 -0.288019 0 17 -0.288019 0
gene 1 18 20 0.0566873 0 18 0.0566873 1
gene 1 19 20 2.83117 0 19 2.83117 1
gene 1 1 21 0.0891659 0 20 0.0891659 1
gene 1 2 21 0.606001 0 21 0.606001 1
gene 1 3 21 1.16833 0 22 1.16833 1
gene 1 4 21 -1.74208 0 23 -1.74208 1
gene 1 5 21 0.682433 0 24 0.682433 1
gene 1 6 21 -0.141465 0 25 -0.141465 1
gene 1 7 21 0.656487 0 26 0.656487 1
gene 1 8 21 0.246705 0 27 0.246705 1
gene 1 9 21 -1.17098 0 28 -1.17098 1
gene 1 10 21 -0.695815 0 29 -0.695815 1
gene 1 11 21 2.58546 0 30 2.58546 1
gene 1 12 21 0.34132 0 31 0.34132 1
gene 1 13 21 -1.01137 0 32 -1.01137 1
gene 1 14 21 -0.320072 0 33 -0.320072 1
gene 1 15 21 -0.953279 0 34 -0.953279 1
gene 1 16 21 -0.448742 0 35 -0.448742 1
gene 1 17 21 0.851163 0 36 0.851163 1
gene 1 18 21 -1.3565 0 37 -1.3565 0
gene 1 19 21 -0.851887 0 38 -0.851887 1
gene 1 21 20 -0.395102 0 43 -0.395102 0
gene 1 18 28 0.0404142 0 56 0.0404142 1
gene 1 28 20 -0.571194 0 57 -0.571194 0
gene 1 13 28 -0.514266 0 62 -0.514266 1
gene 1 14 28 -0.444864 0 66 -0.444864 0
gene 1 10 28 0.404923 0 68 0.404923 1
gene 1 17 33 0.362279 0 73 0.362279 1
gene 1 33 20 -0.654565 0 74 -0.654565 1
gene 1 20 21 0.412437 1 80 0.412437 1
gene 1 18 35 0.359029 0 81 0.359029 1
gene 1 35 21 -0.28302 0 82 -0.28302 1
gene 1 6 36 -0.526231 0 83 -0.526231 1
gene 1 36 20 0.20046 0 84 0.20046 1
gene 1 28 37 -0.583683 0 86 -0.583683 1
gene 1 37 20 -0.52962 0 87 -0.52962 1
gene 1 21 49 0.781546 0 131 0.781546 1
gene 1 49 20 1.6609 0 132 1.6609 1
gene 1 37 35 -0.264655 0 133 -0.264655 1
gene 1 10 37 -0.0389797 0 151 -0.0389797 1
gene 1 4 28 0.35621 0 152 0.35621 1
gene 1 14 52 0.507649 0 158 0.507649 1
gene 1 52 20 0.216402 0 159 0.216402 1
gene 1 28 35 -1.11402 0 160 -1.11402 1
gene 1 4 35 0.0490446 0 161 0.0490446 1
gene 1 13 53 -0.338419 0 164 -0.338419 1
gene 1 53 20 0.627355 0 165 0.627355 1
gene 1 14 56 0.136167 0 180 0.136167 1
gene 1 56 28 -0.190764 0 181 -0.190764 1
gene 1 1 33 -1.11194 0 204 -1.11194 1
gene 1 10 33 0.448142 0 206 0.448142 0
gene 1 13 37 -0.810358 0 207 -0.810358 1
gene 1 33 37 0.600131 0 215 0.600131 1
gene 1 21 53 0.194108 0 230 0.194108 1
gene 1 5 67 -0.398716 0 244 -0.398716 1
gene 1 67 20 -0.0729694 0 245 -0.0729694 1
gene 1 35 35 0.447833 1 249 0.447833 0
gene 1 4 68 -0.226188 0 255 -0.226188 1
gene 1 68 35 1.03309 0 256 1.03309 1
gene 1 18 69 0.236157 0 258 0.236157 1
gene 1 69 28 -0.278555 0 259 -0.278555 1
gene 1 10 73 0.408161 0 275 0.408161 1
gene 1 73 33 0.287774 0 276 0.287774 1
gene 1 15 68 -0.979696 0 288 -0.979696 1
gene 1 10 35 0.51396 0 313 0.51396 1
gene 1 33 69 0.242246 0 340 0.242246 1
gene 1 35 86 0.852745 1 345 0.852745 1
gene 1 86 35 0.545492 0 346 0.545492 1
gene 1 16 53 -0.532096 0 354 -0.532096 1
genomeend 6686
genomestart 6687
trait 1 0.00711357 0.0161043 0.0858545 0.0656547 0.0493413 0.0768121 0.0218661 0.0590363 
node 1 1 1 1 0
node 2 1 1 1 0
node 3 1 1 1 0
node 4 1 1 1 0
node 5 1 1 1 0
node 6 1 1 1 0
node 7 1 1 1 0
node 8 1 1 1 0
node 9 1 1 1 0
node 10 1 1 1 0
node 11 1 1 1 0
node 12 1 1 1 0
node 13 1 1 1 0
node 14 1 1 1 0
node 15 1 1 1 0
node 16 1 1 1 0
node 17 1 1 1 0
node 18 1 1 1 0
