genomestart 4850
trait 1 0 0.0165484 0.0916173 0.0119324 0.00513639 0.0689655 0.0217338 0.0138348 
node 1 1 1 1 0
node 2 1 1 1 0
node 3 1 1 1 0
node 4 1 1 1 0
node 5 1 1 1 0
node 6 1 1 1 0
node 7 1 1 1 0
node 8 1 1 1 0
node 9 1 1 1 0
node 10 1 1 1 0
node 11 1 1 1 0
node 12 1 1 1 0
node 13 1 1 1 0
node 14 1 1 1 0
node 15 1 1 1 0
node 16 1 1 1 0
node 17 1 1 1 0
node 18 1 1 1 0
node 19 1 1 3 0
node 20 1 0 2 0
node 21 1 0 2 0
node 23 1 0 0 0
node 28 1 0 0 0
node 33 1 0 0 0
node 35 1 0 0 0
node 37 1 0 0 0
node 45 1 0 0 0
node 53 1 0 0 0
node 56 1 0 0 0
gene 1 1 20 -0.474537 0 1 -0.474537 1
gene 1 2 20 -0.0504209 0 2 -0.0504209 1
gene 1 3 20 0.50798 0 3 0.50798 1
gene 1 4 20 -0.0696232 0 4 -0.0696232 1
gene 1 5 20 1.00079 0 5 1.00079 1
gene 1 6 20 -0.620201 0 6 -0.620201 1
gene 1 7 20 0.175166 0 7 0.175166 1
gene 1 8 20 0.00223596 0 8 0.00223596 1
gene 1 9 20 -0.498717 0 9 -0.498717 1
gene 1 10 20 -1.06984 0 10 -1.06984 0
gene 1 11 20 -0.418875 0 11 -0.418875 1
gene 1 12 20 -0.502371 0 12 -0.502371 1
gene 1 13 20 0.247547 0 13 0.247547 0
gene 1 14 20 -0.0856186 0 14 -0.0856186 1
gene 1 15 20 0.0910334 0 15 0.0910334 1
gene 1 16 20 -0.451779 0 16 -0.451779 1
gene 1 17 20 -0.224168 0 17 -0.224168 0
gene 1 18 20 0.207825 0 18 0.207825 0
gene 1 19 20 1.21446 0 19 1.21446 1
gene 1 1 21 0.0260926 0 20 0.0260926 1
gene 1 2 21 1.12475 0 21 1.12475 1
gene 1 3 21 0.442219 0 22 0.442219 1
gene 1 4 21 -0.448165 0 23 -0.448165 1
gene 1 5 21 -0.240264 0 24 -0.240264 1
gene 1 6 21 -0.348563 0 25 -0.348563 1
gene 1 7 21 -0.213028 0 26 -0.213028 1
gene 1 8 21 0.478882 0 27 0.478882 1
gene 1 9 21 -2.6126 0 28 -2.6126 1
gene 1 10 21 2.25649 0 29 2.25649 1
gene 1 11 21 -0.226926 0 30 -0.226926 1
gene 1 12 21 0.134872 0 31 0.134872 1
gene 1 13 21 0.525388 0 32 0.525388 1
gene 1 14 21 1.93903 0 33 1.93903 1
gene 1 15 21 0.286492 0 34 0.286492 1
gene 1 16 21 0.912066 0 35 0.912066 1
gene 1 17 21 -0.668464 0 36 -0.668464 1
gene 1 18 21 -1.67254 0 37 -1.67254 0
gene 1 19 21 -1.08694 0 38 -1.08694 1
gene 1 15 23 0.26977 0 41 0.26977 1
gene 1 23 20 0.105088 0 42 0.105088 1
gene 1 21 20 0.439521 0 43 0.439521 1
gene 1 18 28 0.433099 0 56 0.433099 1
gene 1 28 20 0.407962 0 57 0.407962 1
gene 1 13 28 1.92725 0 62 1.92725 1
gene 1 14 28 -0.117273 0 66 -0.117273 1
gene 1 10 28 -0.0777026 0 68 -0.0777026 1
gene 1 17 33 1.09148 0 73 1.09148 1
gene 1 33 20 -0.299639 0 74 -0.299639 1
gene 1 20 21 0.19167 1 80 0.19167 1
gene 1 18 35 -0.419253 0 81 -0.419253 1
gene 1 35 21 0.45209 0 82 0.45209 1
gene 1 28 37 0.179569 0 86 0.179569 1
gene 1 37 20 0.518108 0 87 0.518108 1
gene 1 10 45 -0.103664 0 116 -0.103664 1
gene 1 45 20 -0.384282 0 117 -0.384282 1
gene 1 37 35 -0.7209 0 133 -0.7209 1
gene 1 10 37 -0.102665 0 151 -0.102665 1
gene 1 4 28 -0.0715766 0 152 -0.0715766 1
gene 1 28 35 0.335359 0 160 0.335359 1
gene 1 4 35 -0.0310321 0 161 -0.0310321 1
gene 1 13 53 -0.419887 0 164 -0.419887 1
gene 1 53 20 0.408743 0 165 0.408743 1
gene 1 14 56 -0.390118 0 180 -0.390118 1
gene 1 56 28 0.513823 0 181 0.513823 1
gene 1 1 33 -0.52897 0 204 -0.52897 1
gene 1 10 33 0.33602 0 206 0.33602 1
gene 1 33 37 -0.409098 0 215 -0.409098 1
gene 1 21 53 0.591339 0 230 0.591339 1
gene 1 28 28 0.975564 1 236 0.975564 1
gene 1 35 35 0.520938 1 249 0.520938 1
gene 1 18 37 -1.28343 0 250 -1.28343 1
gene 1 21 21 0.241219 1 251 0.241219 1
genomeend 4850
genomestart 4852
trait 1 0 0.0165484 0.0916173 0.0119324 0.00513639 0.0689655 0.0217338 0.0138348 
node 1 1 1 1 0
node 2 1 1 1 0
node 3 1 1 1 0
node 4 1 1 1 0
node 5 1 1 1 0
node 6 1 1 1 0
node 7 1 1 1 0
node 8 1 1 1 0
node 9 1 1 1 0
node 10 1 1 1 0
node 11 1 1 1 0
node 12 1 1 1 0
node 13 1 1 1 0
node 14 1 1 1 0
node 15 1 1 1 0
node 16 1 1 1 0
node 17 1 1 1 0
node 18 1 1 1 0
node 19 1 1 3 0
node 20 1 0 2 0
node 21 1 0 2 0
node 23 1 0 0 0
node 28 1 0 0 0
node 33 1 0 0 0
node 35 1 0 0 0
node 37 1 0 0 0
node 45 1 0 0 0
node 53 1 0 0 0
node 56 1 0 0 0
gene 1 1 20 -0.29707 0 1 -0.29707 1
gene 1 2 20 0.183088 0 2 0.183088 1
gene 1 3 20 0.793381 0 3 0.793381 1
gene 1 4 20 -0.221114 0 4 -0.221114 1
gene 1 5 20 0.560682 0 5 0.560682 1
gene 1 6 20 -0.873885 0 6 -0.873885 1
gene 1 7 20 0.149358 0 7 0.149358 1
gene 1 8 20 -0.417434 0 8 -0.417434 1
gene 1 9 20 -0.498717 0 9 -0.498717 1
gene 1 10 20 -0.778286 0 10 -0.778286 0
gene 1 11 20 -0.418875 0 11 -0.418875 1
gene 1 12 20 -0.706525 0 12 -0.706525 1
gene 1 13 20 -0.127881 0 13 -0.127881 0
gene 1 14 20 -0.503811 0 14 -0.503811 1
gene 1 15 20 0.0910334 0 15 0.0910334 1
gene 1 16 20 0.974057 0 16 0.974057 1
gene 1 17 20 0.220119 0 17 0.220119 0
gene 1 18 20 0.207825 0 18 0.207825 0
gene 1 19 20 1.21446 0 19 1.21446 1
gene 1 1 21 -0.0118195 0 20 -0.0118195 1
gene 1 2 21 1.52685 0 21 1.52685 1
gene 1 3 21 0.676875 0 22 0.676875 1
gene 1 4 21 -0.321134 0 23 -0.321134 1
gene 1 5 21 -0.0416017 0 24 -0.0416017 1
gene 1 6 21 -0.0186018 0 25 -0.0186018 1
gene 1 7 21 -0.504321 0 26 -0.504321 1
gene 1 8 21 0.0734445 0 27 0.0734445 1
gene 1 9 21 -2.90576 0 28 -2.90576 1
gene 1 10 21 1.85551 0 29 1.85551 1
gene 1 11 21 -0.724115 0 30 -0.724115 1
gene 1 12 21 -0.0693839 0 31 -0.0693839 1
gene 1 13 21 0.354838 0 32 0.354838 1
gene 1 14 21 2.06853 0 33 2.06853 1
gene 1 15 21 0.271328 0 34 0.271328 1
gene 1 16 21 0.894393 0 35 0.894393 1
gene 1 17 21 -0.598979 0 36 -0.598979 1
gene 1 18 21 -1.1821 0 37 -1.1821 0
gene 1 19 21 -1.57397 0 38 -1.57397 1
gene 1 15 23 0.61576 0 41 0.61576 1
gene 1 23 20 -0.311305 0 42 -0.311305 1
gene 1 21 20 0.689319 0 43 0.689319 1
gene 1 18 28 -0.341419 0 56 -0.341419 1
gene 1 28 20 0.763904 0 57 0.763904 1
gene 1 13 28 1.47093 0 62 1.47093 1
gene 1 14 28 -0.977481 0 66 -0.977481 1
gene 1 10 28 0.41497 0 68 0.41497 1
gene 1 17 33 0.658617 0 73 0.658617 1
gene 1 33 20 -0.248708 0 74 -0.248708 1
gene 1 20 21 0.0584656 1 80 0.0584656 1
gene 1 18 35 1.83833 0 81 1.83833 1
gene 1 35 21 0.160083 0 82 0.160083 1
gene 1 28 37 -0.0360751 0 86 -0.0360751 1
gene 1 37 20 0.518108 0 87 0.518108 1
gene 1 10 45 0.419129 0 116 0.419129 1
gene 1 45 20 -0.768996 0 117 -0.768996 1
gene 1 37 35 -0.229264 0 133 -0.229264 1
gene 1 10 37 -0.102665 0 151 -0.102665 1
gene 1 4 28 -0.0715766 0 152 -0.0715766 1
gene 1 28 35 0.0310179 0 160 0.0310179 1
gene 1 4 35 -0.456677 0 161 -0.456677 1
gene 1 13 53 1.47914 0 164 1.47914 1
gene 1 53 20 0.13326 0 165 0.13326 1
gene 1 14 56 -0.356066 0 180 -0.356066 1
gene 1 56 28 0.490186 0 181 0.490186 1
gene 1 1 33 -0.938658 0 204 -0.938658 1
gene 1 10 33 -0.0313094 0 206 -0.0313094 1
gene 1 33 37 -0.0471391 0 215 -0.0471391 1
gene 1 21 53 0.207072 0 230 0.207072 1
gene 1 28 28 0.761111 1 236 0.761111 1
gene 1 35 35 0.520938 1 249 0.520938 1
gene 1 18 37 -0.921312 0 250 -0.921312 1
gene 1 21 21 0.306087 1 251 0.306087 1
gene 1 6 33 0.828612 0 280 0.828612 1
gene 1 53 45 0.816106 0 296 0.816106 1
genomeend 4852
genomestart 4936
trait 1 0 0.0165484 0.0916173 0.0119324 0.00513639 0.0689655 0.0217338 0.0138348 
node 1 1 1 1 0
node 2 1 1 1 0
node 3 1 1 1 0
node 4 1 1 1 0
node 5 1 1 1 0
node 6 1 1 1 0
node 7 1 1 1 0
node 8 1 1 1 0
node 9 1 1 1 0
node 10 1 1 1 0
node 11 1 1 1 0
node 12 1 1 1 0
node 13 1 1 1 0
node 14 1 1 1 0
node 15 1 1 1 0
node 16 1 1 1 0
node 17 1 1 1 0
node 18 1 1 1 0
node 19 1 1 3 0
node 20 1 0 2 0
node 21 1 0 2 0
node 23 1 0 0 0
node 28 1 0 0 0
node 33 1 0 0 0
node 35 1 0 0 0
node 37 1 0 0 0
node 45 1 0 0 0
node 53 1 0 0 0
node 56 1 0 0 0
gene 1 1 20 -0.0305055 0 1 -0.0305055 1
gene 1 2 20 0.102787 0 2 0.102787 1
gene 1 3 20 0.780711 0 3 0.780711 1
gene 1 4 20 0.205023 0 4 0.205023 1
gene 1 5 20 0.371684 0 5 0.371684 1
gene 1 6 20 -1.06262 0 6 -1.06262 1
gene 1 7 20 -0.0660444 0 7 -0.0660444 1
gene 1 8 20 -0.277984 0 8 -0.277984 1
gene 1 9 20 -0.767336 0 9 -0.767336 1
gene 1 10 20 -0.869028 0 10 -0.869028 0
gene 1 11 20 -0.793661 0 11 -0.793661 1
gene 1 12 20 -0.716448 0 12 -0.716448 1
gene 1 13 20 0.057988 0 13 0.057988 0
gene 1 14 20 -0.0159108 0 14 -0.0159108 1
gene 1 15 20 0.299869 0 15 0.299869 1
gene 1 16 20 0.990225 0 16 0.990225 1
gene 1 17 20 -0.196037 0 17 -0.196037 0
gene 1 18 20 0.662924 0 18 0.662924 0
gene 1 19 20 0.999117 0 19 0.999117 1
gene 1 1 21 -0.125088 0 20 -0.125088 1
gene 1 2 21 1.65828 0 21 1.65828 1
gene 1 3 21 0.357109 0 22 0.357109 1
gene 1 4 21 -0.247069 0 23 -0.247069 1
gene 1 5 21 -0.351258 0 24 -0.351258 1
gene 1 6 21 0.0633481 0 25 0.0633481 1
gene 1 7 21 -0.853004 0 26 -0.853004 1
gene 1 8 21 0.248248 0 27 0.248248 1
gene 1 9 21 -2.56769 0 28 -2.56769 1
gene 1 10 21 1.86348 0 29 1.86348 1
gene 1 11 21 -0.252165 0 30 -0.252165 1
gene 1 12 21 -0.310518 0 31 -0.310518 1
gene 1 13 21 0.973838 0 32 0.973838 1
gene 1 14 21 2.14945 0 33 2.14945 1
gene 1 15 21 -0.0926415 0 34 -0.0926415 1
gene 1 16 21 1.25388 0 35 1.25388 1
gene 1 17 21 -1.11948 0 36 -1.11948 1
gene 1 18 21 -1.56506 0 37 -1.56506 0
gene 1 19 21 -1.38193 0 38 -1.38193 1
gene 1 15 23 0.315425 0 41 0.315425 1
gene 1 23 20 0.158167 0 42 0.158167 1
gene 1 21 20 0.576468 0 43 0.576468 1
gene 1 18 28 -0.0265208 0 56 -0.0265208 1
gene 1 28 20 0.661276 0 57 0.661276 1
gene 1 13 28 0.988157 0 62 0.988157 1
gene 1 14 28 -0.937428 0 66 -0.937428 1
gene 1 10 28 0.475809 0 68 0.475809 1
gene 1 17 33 0.85793 0 73 0.85793 1
gene 1 33 20 -0.391842 0 74 -0.391842 1
gene 1 20 21 -0.00587418 1 80 -0.00587418 1
gene 1 18 35 1.52859 0 81 1.52859 1
gene 1 35 21 0.468104 0 82 0.468104 1
gene 1 28 37 0.338759 0 86 0.338759 1
gene 1 37 20 0.59002 0 87 0.59002 1
gene 1 10 45 -0.45807 0 116 -0.45807 1
gene 1 45 20 -0.331368 0 117 -0.331368 1
gene 1 37 35 -0.455823 0 133 -0.455823 1
gene 1 10 37 -0.101718 0 151 -0.101718 1
gene 1 4 28 0.205609 0 152 0.205609 1
gene 1 28 35 -0.340291 0 160 -0.340291 1
gene 1 4 35 0.310033 0 161 0.310033 1
gene 1 13 53 1.50877 0 164 1.50877 1
gene 1 53 20 -0.0797098 0 165 -0.0797098 1
gene 1 14 56 -0.77232 0 180 -0.77232 1
gene 1 56 28 0.326342 0 181 0.326342 1
gene 1 1 33 -0.155319 0 204 -0.155319 1
gene 1 10 33 0.258517 0 206 0.258517 1
gene 1 33 37 -0.601769 0 215 -0.601769 1
gene 1 33 28 -0.0219903 0 221 -0.0219903 1
gene 1 21 53 0.420461 0 230 0.420461 1
gene 1 28 28 0.795824 1 236 0.795824 1
gene 1 35 35 0.435029 1 249 0.435029 1
gene 1 18 37 -1.28343 0 250 -1.28343 1
gene 1 21 21 0.123778 1 251 0.123778 1
gene 1 6 33 0.930893 0 280 0.930893 1
gene 1 53 45 1.27618 0 296 1.27618 1
genomeend 4936
genomestart 4943
trait 1 0 0.017178 0.0915781 0.0137866 0.00577368 0.0768121 0.0218661 0.0137852 
node 1 1 1 1 0
node 2 1 1 1 0
node 3 1 1 1 0
node 4 1 1 1 0
node 5 1 1 1 0
node 6 1 1 1 0
node 7 1 1 1 0
node 8 1 1 1 0
node 9 1 1 1 0
node 10 1 1 1 0
node 11 1 1 1 0
node 12 1 1 1 0
node 13 1 1 1 0
node 14 1 1 1 0
node 15 1 1 1 0
node 16 1 1 1 0
node 17 1 1 1 0
node 18 1 1 1 0
node 19 1 1 3 0
node 20 1 0 2 0
node 21 1 0 2 0
node 28 1 0 0 0
node 33 1 0 0 0
node 35 1 0 0 0
node 36 1 0 0 0
node 37 1 0 0 0
node 53 1 0 0 0
node 56 1 0 0 0
node 68 1 0 0 0
node 69 1 0 0 0
gene 1 1 20 -0.552695 0 1 -0.552695 1
gene 1 2 20 -0.0889004 0 2 -0.0889004 1
gene 1 3 20 1.25016 0 3 1.25016 1
gene 1 4 20 0.923107 0 4 0.923107 1
gene 1 5 20 0.357607 0 5 0.357607 1
gene 1 6 20 -0.147164 0 6 -0.147164 0
gene 1 7 20 0.717536 0 7 0.717536 1
gene 1 8 20 0.0319672 0 8 0.0319672 1
gene 1 9 20 -1.10456 0 9 -1.10456 1
gene 1 10 20 -0.52778 0 10 -0.52778 1
gene 1 11 20 -0.161944 0 11 -0.161944 1
gene 1 12 20 0.311976 0 12 0.311976 1
gene 1 13 20 -0.28068 0 13 -0.28068 1
gene 1 14 20 -0.446327 0 14 -0.446327 1
gene 1 15 20 -0.93655 0 15 -0.93655 1
gene 1 16 20 1.28447 0 16 1.28447 1
gene 1 17 20 0.695073 0 17 0.695073 0
gene 1 18 20 0.00705031 0 18 0.00705031 1
gene 1 19 20 2.41579 0 19 2.41579 1
gene 1 1 21 0.100044 0 20 0.100044 1
gene 1 2 21 0.812115 0 21 0.812115 1
gene 1 3 21 0.134656 0 22 0.134656 1
gene 1 4 21 0.101115 0 23 0.101115 1
gene 1 5 21 0.455491 0 24 0.455491 1
gene 1 6 21 -0.883311 0 25 -0.883311 1
gene 1 7 21 -0.471064 0 26 -0.471064 1
gene 1 8 21 -0.0137163 0 27 -0.0137163 1
gene 1 9 21 -2.58596 0 28 -2.58596 1
gene 1 10 21 1.3968 0 29 1.3968 1
gene 1 11 21 -0.449682 0 30 -0.449682 1
gene 1 12 21 0.400236 0 31 0.400236 1
gene 1 13 21 0.878642 0 32 0.878642 1
gene 1 14 21 2.02189 0 33 2.02189 1
gene 1 15 21 0.231144 0 34 0.231144 1
gene 1 16 21 0.711088 0 35 0.711088 1
gene 1 17 21 0.316484 0 36 0.316484 1
gene 1 18 21 -1.16797 0 37 -1.16797 0
gene 1 19 21 -0.773571 0 38 -0.773571 1
gene 1 21 20 1.67689 0 43 1.67689 1
gene 1 18 28 -0.209045 0 56 -0.209045 1
gene 1 28 20 0.898774 0 57 0.898774 0
gene 1 13 28 1.05868 0 62 1.05868 1
gene 1 14 28 -0.720086 0 66 -0.720086 0
gene 1 10 28 0.532745 0 68 0.532745 1
gene 1 17 33 -0.577454 0 73 -0.577454 1
gene 1 33 20 0.262119 0 74 0.262119 1
gene 1 20 21 0.00266037 1 80 0.00266037 1
gene 1 18 35 2.26546 0 81 2.26546 1
gene 1 35 21 -0.393718 0 82 -0.393718 1
gene 1 6 36 1.47028 0 83 1.47028 1
gene 1 36 20 -0.00108401 0 84 -0.00108401 1
gene 1 28 37 -0.0207819 0 86 -0.0207819 1
gene 1 37 20 -0.83351 0 87 -0.83351 1
gene 1 37 35 -0.039963 0 133 -0.039963 1
gene 1 10 37 -0.27885 0 151 -0.27885 1
gene 1 4 28 0.269811 0 152 0.269811 1
gene 1 28 35 0.961738 0 160 0.961738 1
gene 1 4 35 -0.00542924 0 161 -0.00542924 0
gene 1 13 53 1.77204 0 164 1.77204 1
gene 1 53 20 -0.12321 0 165 -0.12321 1
gene 1 14 56 -1.20488 0 180 -1.20488 1
gene 1 56 28 0.0467889 0 181 0.0467889 1
gene 1 1 33 -0.938658 0 204 -0.938658 1
gene 1 10 33 0.0581631 0 206 0.0581631 1
gene 1 13 37 -1.19812 0 207 -1.19812 1
gene 1 33 37 0.269349 0 215 0.269349 1
gene 1 21 53 -0.328849 0 230 -0.328849 1
gene 1 35 35 0.0764128 1 249 0.0764128 1
gene 1 4 68 0.758229 0 255 0.758229 1
gene 1 68 35 0.337354 0 256 0.337354 1
gene 1 18 69 -0.45002 0 258 -0.45002 1
gene 1 69 28 0.455268 0 259 0.455268 1
gene 1 15 68 0.804576 0 288 0.804576 1
gene 1 68 56 -0.274285 0 291 -0.274285 1
genomeend 4943
genomestart 4955
trait 1 0 0.017178 0.0915781 0.0137866 0.00577368 0.0768121 0.0218661 0.0137852 
node 1 1 1 1 0
node 2 1 1 1 0
node 3 1 1 1 0
node 4 1 1 1 0
node 5 1 1 1 0
node 6 1 1 1 0
node 7 1 1 1 0
node 8 1 1 1 0
node 9 1 1 1 0
node 10 1 1 1 0
node 11 1 1 1 0
node 12 1 1 1 0
node 13 1 1 1 0
node 14 1 1 1 0
node 15 1 1 1 0
node 16 1 1 1 0
node 17 1 1 1 0
node 18 1 1 1 0
node 19 1 1 3 0
node 20 1 0 2 0
node 21 1 0 2 0
node 28 1 0 0 0
node 33 1 0 0 0
node 35 1 0 0 0
node 36 1 0 0 0
node 37 1 0 0 0
node 53 1 0 0 0
node 56 1 0 0 0
node 68 1 0 0 0
node 69 1 0 0 0
gene 1 1 20 -0.39607 0 1 -0.39607 1
gene 1 2 20 0.280173 0 2 0.280173 1
gene 1 3 20 1.22825 0 3 1.22825 1
gene 1 4 20 0.525753 0 4 0.525753 1
gene 1 5 20 -0.166823 0 5 -0.166823 1
gene 1 6 20 0.0110924 0 6 0.0110924 1
gene 1 7 20 0.0222436 0 7 0.0222436 1
gene 1 8 20 0.15634 0 8 0.15634 1
gene 1 9 20 -2.01591 0 9 -2.01591 1
gene 1 10 20 -0.589238 0 10 -0.589238 1
gene 1 11 20 0.00933998 0 11 0.00933998 1
gene 1 12 20 -0.443468 0 12 -0.443468 1
gene 1 13 20 0.119409 0 13 0.119409 1
gene 1 14 20 -0.514494 0 14 -0.514494 1
gene 1 15 20 -0.0457297 0 15 -0.0457297 1
gene 1 16 20 1.34834 0 16 1.34834 1
gene 1 17 20 0.857052 0 17 0.857052 0
gene 1 18 20 -0.890905 0 18 -0.890905 1
gene 1 19 20 2.40685 0 19 2.40685 1
gene 1 1 21 -0.427455 0 20 -0.427455 1
gene 1 2 21 1.21699 0 21 1.21699 1
gene 1 3 21 0.728676 0 22 0.728676 1
gene 1 4 21 -0.259463 0 23 -0.259463 1
gene 1 5 21 0.319622 0 24 0.319622 1
gene 1 6 21 -0.110295 0 25 -0.110295 1
gene 1 7 21 -0.411561 0 26 -0.411561 1
gene 1 8 21 -0.224732 0 27 -0.224732 1
gene 1 9 21 -3 0 28 -3 1
gene 1 10 21 1.19088 0 29 1.19088 1
gene 1 11 21 -0.51739 0 30 -0.51739 1
gene 1 12 21 -0.320592 0 31 -0.320592 1
gene 1 13 21 0.248211 0 32 0.248211 1
gene 1 14 21 1.94497 0 33 1.94497 1
gene 1 15 21 0.39619 0 34 0.39619 1
gene 1 16 21 0.089113 0 35 0.089113 1
gene 1 17 21 0.285819 0 36 0.285819 1
gene 1 18 21 -0.847864 0 37 -0.847864 0
gene 1 19 21 -1.60414 0 38 -1.60414 1
gene 1 21 20 0.810668 0 43 0.810668 1
gene 1 18 28 -0.0481518 0 56 -0.0481518 1
gene 1 28 20 0.751328 0 57 0.751328 0
gene 1 13 28 1.36118 0 62 1.36118 1
gene 1 14 28 -0.771309 0 66 -0.771309 1
gene 1 10 28 0.256204 0 68 0.256204 1
gene 1 17 33 0.0386372 0 73 0.0386372 1
gene 1 33 20 0.14482 0 74 0.14482 1
gene 1 20 21 0.742698 1 80 0.742698 1
gene 1 18 35 2.07154 0 81 2.07154 1
gene 1 35 21 -0.167146 0 82 -0.167146 1
gene 1 6 36 1.28153 0 83 1.28153 1
gene 1 36 20 -0.885259 0 84 -0.885259 1
gene 1 28 37 0.304385 0 86 0.304385 1
gene 1 37 20 0.0270549 0 87 0.0270549 1
gene 1 37 35 -0.840413 0 133 -0.840413 1
gene 1 10 37 -0.194262 0 151 -0.194262 1
gene 1 4 28 -0.338495 0 152 -0.338495 1
gene 1 28 35 -0.0915466 0 160 -0.0915466 1
gene 1 4 35 -0.193735 0 161 -0.193735 0
gene 1 13 53 1.91928 0 164 1.91928 1
gene 1 53 20 0.631476 0 165 0.631476 1
gene 1 14 56 -0.427985 0 180 -0.427985 1
gene 1 56 28 0.712316 0 181 0.712316 1
gene 1 1 33 0.108698 0 204 0.108698 1
gene 1 10 33 0.198663 0 206 0.198663 1
gene 1 13 37 -0.808798 0 207 -0.808798 1
gene 1 33 37 0.203564 0 215 0.203564 1
gene 1 21 53 -0.0889058 0 230 -0.0889058 1
gene 1 35 35 -0.0440926 1 249 -0.0440926 1
gene 1 4 68 0.746418 0 255 0.746418 1
gene 1 68 35 0.126304 0 256 0.126304 1
gene 1 18 69 -0.251107 0 258 -0.251107 1
gene 1 69 28 0.394719 0 259 0.394719 1
gene 1 15 68 0.661594 0 288 0.661594 1
gene 1 68 56 0.166438 0 291 0.166438 1
genomeend 4955
genomestart 4989
trait 1 0 0.017178 0.0915781 0.0137866 0.00577368 0.0768121 0.0218661 0.0137852 
node 1 1 1 1 0
node 2 1 1 1 0
node 3 1 1 1 0
node 4 1 1 1 0
node 5 1 1 1 0
node 6 1 1 1 0
node 7 1 1 1 0
node 8 1 1 1 0
node 9 1 1 1 0
node 10 1 1 1 0
node 11 1 1 1 0
node 12 1 1 1 0
node 13 1 1 1 0
node 14 1 1 1 0
node 15 1 1 1 0
node 16 1 1 1 0
node 17 1 1 1 0
node 18 1 1 1 0
node 19 1 1 3 0
node 20 1 0 2 0
node 21 1 0 2 0
node 28 1 0 0 0
node 33 1 0 0 0
node 35 1 0 0 0
node 36 1 0 0 0
node 37 1 0 0 0
node 53 1 0 0 0
node 56 1 0 0 0
node 68 1 0 0 0
node 69 1 0 0 0
gene 1 1 20 -0.160981 0 1 -0.160981 1
gene 1 2 20 0.0566632 0 2 0.0566632 1
gene 1 3 20 1.11114 0 3 1.11114 1
gene 1 4 20 0.913877 0 4 0.913877 1
gene 1 5 20 0.649614 0 5 0.649614 1
gene 1 6 20 0.164503 0 6 0.164503 0
gene 1 7 20 0.601713 0 7 0.601713 1
gene 1 8 20 -0.0183188 0 8 -0.0183188 1
gene 1 9 20 -1.45023 0 9 -1.45023 1
gene 1 10 20 -0.23811 0 10 -0.23811 1
gene 1 11 20 -0.314786 0 11 -0.314786 1
gene 1 12 20 -0.0448545 0 12 -0.0448545 1
gene 1 13 20 -0.447434 0 13 -0.447434 1
gene 1 14 20 -0.266841 0 14 -0.266841 1
gene 1 15 20 -0.826884 0 15 -0.826884 1
gene 1 16 20 0.696982 0 16 0.696982 1
gene 1 17 20 0.777432 0 17 0.777432 0
gene 1 18 20 0.22309 0 18 0.22309 1
gene 1 19 20 2.67725 0 19 2.67725 1
gene 1 1 21 0.0300719 0 20 0.0300719 1
gene 1 2 21 0.298136 0 21 0.298136 1
gene 1 3 21 0.299712 0 22 0.299712 1
gene 1 4 21 0.292505 0 23 0.292505 1
gene 1 5 21 0.247825 0 24 0.247825 1
gene 1 6 21 -0.645686 0 25 -0.645686 1
gene 1 7 21 -0.327093 0 26 -0.327093 1
gene 1 8 21 -0.00638411 0 27 -0.00638411 1
gene 1 9 21 -2.79298 0 28 -2.79298 1
gene 1 10 21 1.36962 0 29 1.36962 1
gene 1 11 21 -0.345407 0 30 -0.345407 1
gene 1 12 21 0.379508 0 31 0.379508 1
gene 1 13 21 0.938102 0 32 0.938102 1
gene 1 14 21 2.03162 0 33 2.03162 1
gene 1 15 21 -0.0728607 0 34 -0.0728607 1
gene 1 16 21 0.638875 0 35 0.638875 1
gene 1 17 21 0.226132 0 36 0.226132 1
gene 1 18 21 -1.00984 0 37 -1.00984 1
gene 1 19 21 -0.169073 0 38 -0.169073 1
gene 1 21 20 1.7267 0 43 1.7267 1
gene 1 18 28 -0.107934 0 56 -0.107934 1
gene 1 28 20 0.68792 0 57 0.68792 1
gene 1 13 28 0.859143 0 62 0.859143 1
gene 1 14 28 -0.838597 0 66 -0.838597 1
gene 1 10 28 0.216152 0 68 0.216152 1
gene 1 17 33 -0.431663 0 73 -0.431663 1
gene 1 33 20 -0.0984418 0 74 -0.0984418 1
gene 1 20 21 0.0745104 1 80 0.0745104 1
gene 1 18 35 1.1406 0 81 1.1406 1
gene 1 35 21 -0.216969 0 82 -0.216969 1
gene 1 6 36 1.43917 0 83 1.43917 1
gene 1 36 20 -0.189542 0 84 -0.189542 1
gene 1 28 37 0.0321128 0 86 0.0321128 1
gene 1 37 20 -0.553898 0 87 -0.553898 1
gene 1 37 35 -0.243196 0 133 -0.243196 1
gene 1 10 37 -0.312624 0 151 -0.312624 1
gene 1 4 28 -0.138089 0 152 -0.138089 1
gene 1 28 35 0.706737 0 160 0.706737 1
gene 1 4 35 -0.22406 0 161 -0.22406 0
gene 1 13 53 1.5639 0 164 1.5639 1
gene 1 53 20 -0.0131981 0 165 -0.0131981 1
gene 1 14 56 -0.747761 0 180 -0.747761 1
gene 1 56 28 0.441862 0 181 0.441862 1
gene 1 1 33 -1.09788 0 204 -1.09788 1
gene 1 10 33 0.445222 0 206 0.445222 1
gene 1 13 37 -0.67873 0 207 -0.67873 1
gene 1 33 37 0.164826 0 215 0.164826 1
gene 1 21 53 -0.598747 0 230 -0.598747 1
gene 1 35 35 -0.0197807 1 249 -0.0197807 1
gene 1 4 68 0.970831 0 255 0.970831 1
gene 1 68 35 0.240481 0 256 0.240481 1
gene 1 18 69 -0.000580393 0 258 -0.000580393 1
gene 1 69 28 0.69048 0 259 0.69048 1
gene 1 15 68 0.682595 0 288 0.682595 1
gene 1 68 56 -0.189173 0 291 -0.189173 1
genomeend 4989
genomestart 5005
trait 1 0 0.017178 0.0915781 0.0137866 0.00577368 0.0768121 0.0218661 0.0137852 
node 1 1 1 1 0
node 2 1 1 1 0
node 3 1 1 1 0
node 4 1 1 1 0
node 5 1 1 1 0
node 6 1 1 1 0
node 7 1 1 1 0
node 8 1 1 1 0
node 9 1 1 1 0
node 10 1 1 1 0
node 11 1 1 1 0
node 12 1 1 1 0
node 13 1 1 1 0
node 14 1 1 1 0
node 15 1 1 1 0
node 16 1 1 1 0
node 17 1 1 1 0
node 18 1 1 1 0
node 19 1 1 3 0
node 20 1 0 2 0
node 21 1 0 2 0
node 28 1 0 0 0
node 33 1 0 0 0
node 35 1 0 0 0
node 36 1 0 0 0
node 37 1 0 0 0
node 49 1 0 0 0
node 52 1 0 0 0
node 53 1 0 0 0
node 56 1 0 0 0
node 67 1 0 0 0
node 68 1 0 0 0
node 69 1 0 0 0
node 78 1 0 0 0
gene 1 1 20 -0.479019 0 1 -0.479019 1
gene 1 2 20 0.757084 0 2 0.757084 1
gene 1 3 20 1.40638 0 3 1.40638 1
gene 1 4 20 0.259984 0 4 0.259984 1
gene 1 5 20 0.188411 0 5 0.188411 0
gene 1 6 20 0.124667 0 6 0.124667 0
gene 1 7 20 0.861243 0 7 0.861243 1
gene 1 8 20 -0.767304 0 8 -0.767304 1
gene 1 9 20 -1.93272 0 9 -1.93272 1
gene 1 10 20 -0.940157 0 10 -0.940157 1
gene 1 11 20 0.336364 0 11 0.336364 1
gene 1 12 20 0.374699 0 12 0.374699 1
gene 1 13 20 -0.799839 0 13 -0.799839 1
gene 1 14 20 -0.13547 0 14 -0.13547 0
gene 1 15 20 -1.0142 0 15 -1.0142 1
gene 1 16 20 0.306639 0 16 0.306639 1
gene 1 17 20 0.637041 0 17 0.637041 0
gene 1 18 20 0.316611 0 18 0.316611 1
gene 1 19 20 2.85587 0 19 2.85587 1
gene 1 1 21 -0.168283 0 20 -0.168283 1
gene 1 2 21 1.86753 0 21 1.86753 1
gene 1 3 21 -0.107403 0 22 -0.107403 1
gene 1 4 21 0.636042 0 23 0.636042 1
gene 1 5 21 -0.691781 0 24 -0.691781 1
gene 1 6 21 -0.257959 0 25 -0.257959 1
gene 1 7 21 0.512866 0 26 0.512866 1
gene 1 8 21 -0.0890111 0 27 -0.0890111 1
gene 1 9 21 -2.32352 0 28 -2.32352 1
gene 1 10 21 1.48337 0 29 1.48337 1
gene 1 11 21 0.31941 0 30 0.31941 1
gene 1 12 21 -0.604621 0 31 -0.604621 1
gene 1 13 21 -0.493429 0 32 -0.493429 1
gene 1 14 21 0.142019 0 33 0.142019 1
gene 1 15 21 -0.237901 0 34 -0.237901 1
gene 1 16 21 0.0590298 0 35 0.0590298 1
gene 1 17 21 0.368049 0 36 0.368049 1
gene 1 18 21 -1.41647 0 37 -1.41647 0
gene 1 19 21 -0.720547 0 38 -0.720547 1
gene 1 21 20 0.85538 0 43 0.85538 0
gene 1 18 28 -0.636035 0 56 -0.636035 1
gene 1 28 20 -0.490842 0 57 -0.490842 0
gene 1 13 28 1.35732 0 62 1.35732 1
gene 1 14 28 -1.41524 0 66 -1.41524 0
gene 1 10 28 0.694187 0 68 0.694187 1
gene 1 17 33 1.26843 0 73 1.26843 1
gene 1 33 20 0.242815 0 74 0.242815 1
gene 1 20 21 0.0509794 1 80 0.0509794 1
gene 1 18 35 0.36899 0 81 0.36899 1
gene 1 35 21 -0.318164 0 82 -0.318164 1
gene 1 6 36 -0.245073 0 83 -0.245073 1
gene 1 36 20 0.188121 0 84 0.188121 1
gene 1 28 37 -0.333687 0 86 -0.333687 1
gene 1 37 20 -0.0904919 0 87 -0.0904919 1
gene 1 21 49 0.0689584 0 131 0.0689584 1
gene 1 49 20 0.403919 0 132 0.403919 1
gene 1 37 35 -0.274407 0 133 -0.274407 1
gene 1 10 37 0.730139 0 151 0.730139 1
gene 1 4 28 0.11308 0 152 0.11308 1
gene 1 14 52 1.10364 0 158 1.10364 1
gene 1 52 20 0.323448 0 159 0.323448 1
gene 1 28 35 0.514506 0 160 0.514506 1
gene 1 4 35 -0.606441 0 161 -0.606441 1
gene 1 13 53 1.64373 0 164 1.64373 0
gene 1 53 20 -0.532448 0 165 -0.532448 1
gene 1 14 56 -0.0573645 0 180 -0.0573645 1
gene 1 56 28 -0.0241438 0 181 -0.0241438 1
gene 1 1 33 -0.860318 0 204 -0.860318 1
gene 1 10 33 0.291448 0 206 0.291448 1
gene 1 13 37 -1.91955 0 207 -1.91955 1
gene 1 33 37 0.0647498 0 215 0.0647498 1
gene 1 21 53 -0.567695 0 230 -0.567695 1
gene 1 5 67 0.983658 0 244 0.983658 1
gene 1 67 20 -0.521947 0 245 -0.521947 1
gene 1 35 35 -0.0391616 1 249 -0.0391616 1
gene 1 4 68 1.15576 0 255 1.15576 1
gene 1 68 35 0.706977 0 256 0.706977 1
gene 1 18 69 -0.102021 0 258 -0.102021 1
gene 1 69 28 -0.125728 0 259 -0.125728 1
gene 1 15 68 0.900272 0 288 0.900272 1
gene 1 13 78 1 0 304 0 1
gene 1 78 53 0.49312 0 305 0 1
genomeend 5005
genomestart 5067
trait 1 0 0.0165484 0.0916173 0.0119324 0.00513639 0.0689655 0.0217338 0.0138348 
node 1 1 1 1 0
node 2 1 1 1 0
node 3 1 1 1 0
node 4 1 1 1 0
node 5 1 1 1 0
node 6 1 1 1 0
node 7 1 1 1 0
node 8 1 1 1 0
node 9 1 1 1 0
node 10 1 1 1 0
node 11 1 1 1 0
node 12 1 1 1 0
node 13 1 1 1 0
node 14 1 1 1 0
node 15 1 1 1 0
node 16 1 1 1 0
node 17 1 1 1 0
node 18 1 1 1 0
node 19 1 1 3 0
node 20 1 0 2 0
node 21 1 0 2 0
node 23 1 0 0 0
node 28 1 0 0 0
node 33 1 0 0 0
node 35 1 0 0 0
node 37 1 0 0 0
node 45 1 0 0 0
node 53 1 0 0 0
node 56 1 0 0 0
gene 1 1 20 -0.22428 0 1 -0.22428 1
gene 1 2 20 -0.119509 0 2 -0.119509 1
gene 1 3 20 0.975609 0 3 0.975609 1
gene 1 4 20 0.0786529 0 4 0.0786529 1
gene 1 5 20 0.218816 0 5 0.218816 1
gene 1 6 20 -1.36924 0 6 -1.36924 1
gene 1 7 20 0.567343 0 7 0.567343 1
gene 1 8 20 -0.713975 0 8 -0.713975 1
gene 1 9 20 -0.66602 0 9 -0.66602 1
gene 1 10 20 -0.441174 0 10 -0.441174 0
gene 1 11 20 0.0735554 0 11 0.0735554 1
gene 1 12 20 -0.263091 0 12 -0.263091 1
gene 1 13 20 0.346891 0 13 0.346891 0
gene 1 14 20 -0.732668 0 14 -0.732668 1
gene 1 15 20 0.374831 0 15 0.374831 1
gene 1 16 20 0.918389 0 16 0.918389 1
gene 1 17 20 0.459813 0 17 0.459813 0
gene 1 18 20 -0.221008 0 18 -0.221008 0
gene 1 19 20 1.50286 0 19 1.50286 1
gene 1 1 21 0.157375 0 20 0.157375 1
gene 1 2 21 1.26019 0 21 1.26019 1
gene 1 3 21 0.536493 0 22 0.536493 1
gene 1 4 21 -0.43963 0 23 -0.43963 1
gene 1 5 21 0.436036 0 24 0.436036 1
gene 1 6 21 -0.413262 0 25 -0.413262 1
gene 1 7 21 -0.706261 0 26 -0.706261 1
gene 1 8 21 0.267298 0 27 0.267298 1
gene 1 9 21 -2.60688 0 28 -2.60688 1
gene 1 10 21 2.14384 0 29 2.14384 1
gene 1 11 21 -1.17637 0 30 -1.17637 1
gene 1 12 21 -0.0313291 0 31 -0.0313291 1
gene 1 13 21 0.293686 0 32 0.293686 1
gene 1 14 21 2.1314 0 33 2.1314 1
gene 1 15 21 0.689211 0 34 0.689211 1
gene 1 16 21 0.945008 0 35 0.945008 1
gene 1 17 21 -0.411533 0 36 -0.411533 1
gene 1 18 21 -1.2506 0 37 -1.2506 0
gene 1 19 21 -2.0347 0 38 -2.0347 1
gene 1 15 23 0.646591 0 41 0.646591 1
gene 1 23 20 -0.719614 0 42 -0.719614 1
gene 1 21 20 1.09964 0 43 1.09964 1
gene 1 18 28 0.053972 0 56 0.053972 1
gene 1 28 20 0.719589 0 57 0.719589 1
gene 1 13 28 1.84475 0 62 1.84475 1
gene 1 14 28 -0.51516 0 66 -0.51516 1
gene 1 10 28 0.325184 0 68 0.325184 1
gene 1 17 33 0.704634 0 73 0.704634 1
gene 1 33 20 -0.737541 0 74 -0.737541 1
gene 1 20 21 0.499176 1 80 0.499176 1
gene 1 18 35 2.00037 0 81 2.00037 1
gene 1 35 21 0.45274 0 82 0.45274 1
gene 1 28 37 0.0311467 0 86 0.0311467 1
gene 1 37 20 1.01254 0 87 1.01254 1
gene 1 10 45 0.397662 0 116 0.397662 1
gene 1 45 20 -0.808831 0 117 -0.808831 1
gene 1 37 35 -0.328123 0 133 -0.328123 1
gene 1 10 37 -0.231437 0 151 -0.231437 1
gene 1 4 28 -0.179076 0 152 -0.179076 1
gene 1 28 35 0.330676 0 160 0.330676 1
gene 1 4 35 -0.206006 0 161 -0.206006 1
gene 1 13 53 -0.368966 0 164 -0.368966 1
gene 1 53 20 -0.278031 0 165 -0.278031 1
gene 1 14 56 -0.344038 0 180 -0.344038 1
gene 1 56 28 0.977563 0 181 0.977563 1
gene 1 1 33 -0.46683 0 204 -0.46683 1
gene 1 10 33 -0.0313094 0 206 -0.0313094 1
gene 1 33 37 -0.467204 0 215 -0.467204 1
gene 1 21 53 0.239608 0 230 0.239608 1
gene 1 28 28 0.343138 1 236 0.343138 1
gene 1 35 35 -0.256836 1 249 -0.256836 1
gene 1 18 37 0.00145257 0 250 0.00145257 1
gene 1 21 21 0.108572 1 251 0.108572 1
gene 1 6 33 0.828612 0 280 0.828612 1
genomeend 5067
genomestart 5076
trait 1 0 0.476172 0.0915781 0.0137866 0.244562 0.0768121 0.510933 0.0137852 
node 1 1 1 1 0
node 2 1 1 1 0
node 3 1 1 1 0
node 4 1 1 1 0
node 5 1 1 1 0
node 6 1 1 1 0
node 7 1 1 1 0
node 8 1 1 1 0
node 9 1 1 1 0
node 10 1 1 1 0
node 11 1 1 1 0
node 12 1 1 1 0
node 13 1 1 1 0
node 14 1 1 1 0
node 15 1 1 1 0
node 16 1 1 1 0
node 17 1 1 1 0
node 18 1 1 1 0
node 19 1 1 3 0
node 20 1 0 2 0
node 21 1 0 2 0
node 28 1 0 0 0
node 33 1 0 0 0
node 35 1 0 0 0
node 36 1 0 0 0
node 37 1 0 0 0
node 49 1 0 0 0
node 52 1 0 0 0
node 53 1 0 0 0
node 56 1 0 0 0
node 67 1 0 0 0
node 68 1 0 0 0
node 69 1 0 0 0
gene 1 1 20 -0.479019 0 1 -0.479019 1
gene 1 2 20 0.430615 0 2 0.430615 1
gene 1 3 20 1.40638 0 3 1.40638 1
gene 1 4 20 0.259984 0 4 0.259984 1
gene 1 5 20 0.188411 0 5 0.188411 0
gene 1 6 20 0.124667 0 6 0.124667 0
gene 1 7 20 0.590742 0 7 0.590742 1
gene 1 8 20 -0.376677 0 8 -0.376677 1
gene 1 9 20 -1.8571 0 9 -1.8571 1
gene 1 10 20 -0.475309 0 10 -0.475309 1
gene 1 11 20 0.336364 0 11 0.336364 1
gene 1 12 20 0.0775047 0 12 0.0775047 1
gene 1 13 20 -0.858942 0 13 -0.858942 1
gene 1 14 20 -0.465655 0 14 -0.465655 0
gene 1 15 20 -1.0142 0 15 -1.0142 1
gene 1 16 20 0.306639 0 16 0.306639 1
gene 1 17 20 0.544065 0 17 0.544065 0
gene 1 18 20 -0.12502 0 18 -0.12502 1
gene 1 19 20 2.54269 0 19 2.54269 1
gene 1 1 21 -0.168283 0 20 -0.168283 1
gene 1 2 21 1.9518 0 21 1.9518 1
gene 1 3 21 -0.0328625 0 22 -0.0328625 1
gene 1 4 21 0.361179 0 23 0.361179 1
gene 1 5 21 -0.691781 0 24 -0.691781 1
gene 1 6 21 -0.257959 0 25 -0.257959 1
gene 1 7 21 0.395148 0 26 0.395148 1
gene 1 8 21 -0.0890111 0 27 -0.0890111 1
gene 1 9 21 -2.32352 0 28 -2.32352 1
gene 1 10 21 1.0211 0 29 1.0211 1
gene 1 11 21 0.189011 0 30 0.189011 1
gene 1 12 21 -0.604621 0 31 -0.604621 1
gene 1 13 21 -0.493429 0 32 -0.493429 1
gene 1 14 21 0.142019 0 33 0.142019 1
gene 1 15 21 0.177403 0 34 0.177403 1
gene 1 16 21 0.0826193 0 35 0.0826193 1
gene 1 17 21 0.368049 0 36 0.368049 1
gene 1 18 21 -1.41647 0 37 -1.41647 0
gene 1 19 21 -0.841447 0 38 -0.841447 1
gene 1 21 20 1.17908 0 43 1.17908 0
gene 1 18 28 -0.636035 0 56 -0.636035 1
gene 1 28 20 -0.490842 0 57 -0.490842 0
gene 1 13 28 1.28952 0 62 1.28952 1
gene 1 14 28 -1.63287 0 66 -1.63287 0
gene 1 10 28 0.694187 0 68 0.694187 1
gene 1 17 33 1.26843 0 73 1.26843 1
gene 1 33 20 0.242815 0 74 0.242815 1
gene 1 20 21 0.186191 1 80 0.186191 1
gene 1 18 35 0.499057 0 81 0.499057 1
gene 1 35 21 -0.57576 0 82 -0.57576 1
gene 1 6 36 -0.245073 0 83 -0.245073 1
gene 1 36 20 0.188121 0 84 0.188121 1
gene 1 28 37 -0.377974 0 86 -0.377974 1
gene 1 37 20 0.330994 0 87 0.330994 1
gene 1 21 49 0.0689584 0 131 0.0689584 1
gene 1 49 20 0.18384 0 132 0.18384 1
gene 1 37 35 -0.274407 0 133 -0.274407 1
gene 1 10 37 0.378163 0 151 0.378163 1
gene 1 4 28 0.11308 0 152 0.11308 1
gene 1 14 52 0.668611 0 158 0.668611 1
gene 1 52 20 0.323448 0 159 0.323448 1
gene 1 28 35 0.514506 0 160 0.514506 1
gene 1 4 35 -0.606441 0 161 -0.606441 1
gene 1 13 53 1.64373 0 164 1.64373 1
gene 1 53 20 -0.237775 0 165 -0.237775 1
gene 1 14 56 -0.968654 0 180 -0.968654 1
gene 1 56 28 -0.0241438 0 181 -0.0241438 1
gene 1 1 33 -0.860318 0 204 -0.860318 1
gene 1 10 33 0.291448 0 206 0.291448 1
gene 1 13 37 -1.91955 0 207 -1.91955 1
gene 1 33 37 0.446625 0 215 0.446625 1
gene 1 21 53 -0.227427 0 230 -0.227427 1
gene 1 5 67 0.983658 0 244 0.983658 1
gene 1 67 20 -0.521947 0 245 -0.521947 1
gene 1 35 35 -0.0391616 1 249 -0.0391616 1
gene 1 4 68 1.15576 0 255 1.15576 1
gene 1 68 35 0.706977 0 256 0.706977 1
gene 1 18 69 -0.102021 0 258 -0.102021 1
gene 1 69 28 -0.125728 0 259 -0.125728 1
gene 1 15 68 0.900272 0 288 0.900272 1
genomeend 5076
genomestart 5087
trait 1 0 0.017178 0.0915781 0.0137866 0.00577368 0.0768121 0.0218661 0.0137852 
node 1 1 1 1 0
node 2 1 1 1 0
node 3 1 1 1 0
node 4 1 1 1 0
node 5 1 1 1 0
node 6 1 1 1 0
node 7 1 1 1 0
node 8 1 1 1 0
node 9 1 1 1 0
node 10 1 1 1 0
node 11 1 1 1 0
node 12 1 1 1 0
node 13 1 1 1 0
node 14 1 1 1 0
node 15 1 1 1 0
node 16 1 1 1 0
node 17 1 1 1 0
node 18 1 1 1 0
node 19 1 1 3 0
node 20 1 0 2 0
node 21 1 0 2 0
node 28 1 0 0 0
node 33 1 0 0 0
node 35 1 0 0 0
node 36 1 0 0 0
node 37 1 0 0 0
node 49 1 0 0 0
node 52 1 0 0 0
node 53 1 0 0 0
node 56 1 0 0 0
node 67 1 0 0 0
node 68 1 0 0 0
node 69 1 0 0 0
gene 1 1 20 -0.12385 0 1 -0.12385 1
gene 1 2 20 1.15049 0 2 1.15049 1
gene 1 3 20 1.79575 0 3 1.79575 1
gene 1 4 20 -0.117917 0 4 -0.117917 1
gene 1 5 20 0.623212 0 5 0.623212 1
gene 1 6 20 -0.214592 0 6 -0.214592 0
gene 1 7 20 0.901324 0 7 0.901324 1
gene 1 8 20 -0.542392 0 8 -0.542392 1
gene 1 9 20 -1.96636 0 9 -1.96636 1
gene 1 10 20 -0.863802 0 10 -0.863802 1
gene 1 11 20 0.627878 0 11 0.627878 1
gene 1 12 20 0.652846 0 12 0.652846 1
gene 1 13 20 -0.401975 0 13 -0.401975 1
gene 1 14 20 0.00806563 0 14 0.00806563 0
gene 1 15 20 -1.29405 0 15 -1.29405 1
gene 1 16 20 0.40043 0 16 0.40043 1
gene 1 17 20 1.02984 0 17 1.02984 0
gene 1 18 20 0.667517 0 18 0.667517 1
gene 1 19 20 2.80536 0 19 2.80536 1
gene 1 1 21 0.197071 0 20 0.197071 1
gene 1 2 21 2.18011 0 21 2.18011 1
gene 1 3 21 -0.0737817 0 22 -0.0737817 1
gene 1 4 21 0.146538 0 23 0.146538 1
gene 1 5 21 -1.13439 0 24 -1.13439 1
gene 1 6 21 -0.037848 0 25 -0.037848 1
gene 1 7 21 0.716199 0 26 0.716199 1
gene 1 8 21 -0.158199 0 27 -0.158199 1
gene 1 9 21 -2.10163 0 28 -2.10163 1
gene 1 10 21 1.65138 0 29 1.65138 1
gene 1 11 21 0.634144 0 30 0.634144 1
gene 1 12 21 -0.910956 0 31 -0.910956 1
gene 1 13 21 -0.925104 0 32 -0.925104 1
gene 1 14 21 0.144889 0 33 0.144889 1
gene 1 15 21 -0.259982 0 34 -0.259982 1
gene 1 16 21 -0.308177 0 35 -0.308177 1
gene 1 17 21 0.0365037 0 36 0.0365037 1
gene 1 18 21 -1.41253 0 37 -1.41253 1
gene 1 19 21 -1.17182 0 38 -1.17182 1
gene 1 21 20 1.32665 0 43 1.32665 1
gene 1 18 28 -0.735301 0 56 -0.735301 1
gene 1 28 20 -0.599798 0 57 -0.599798 1
gene 1 13 28 1.34487 0 62 1.34487 1
gene 1 14 28 -1.85595 0 66 -1.85595 0
gene 1 10 28 1.18805 0 68 1.18805 1
gene 1 17 33 1.76198 0 73 1.76198 1
gene 1 33 20 0.399004 0 74 0.399004 1
gene 1 20 21 0.550287 1 80 0.550287 1
gene 1 18 35 -0.0957439 0 81 -0.0957439 1
gene 1 35 21 -0.183932 0 82 -0.183932 1
gene 1 6 36 -0.0164103 0 83 -0.0164103 1
gene 1 36 20 0.339042 0 84 0.339042 1
gene 1 28 37 -0.450371 0 86 -0.450371 1
gene 1 37 20 -0.0282749 0 87 -0.0282749 1
gene 1 21 49 -0.257197 0 131 -0.257197 1
gene 1 49 20 0.831159 0 132 0.831159 1
gene 1 37 35 -0.360894 0 133 -0.360894 1
gene 1 10 37 1.0744 0 151 1.0744 1
gene 1 4 28 -0.131424 0 152 -0.131424 1
gene 1 14 52 0.985907 0 158 0.985907 1
gene 1 52 20 0.486927 0 159 0.486927 1
gene 1 28 35 0.5544 0 160 0.5544 1
gene 1 4 35 -0.881534 0 161 -0.881534 1
gene 1 13 53 1.22461 0 164 1.22461 1
gene 1 53 20 -0.772041 0 165 -0.772041 1
gene 1 14 56 0.130641 0 180 0.130641 1
gene 1 56 28 0.26382 0 181 0.26382 1
gene 1 1 33 -0.604753 0 204 -0.604753 1
gene 1 10 33 0.291448 0 206 0.291448 1
gene 1 13 37 -2.15389 0 207 -2.15389 1
gene 1 33 37 0.0647498 0 215 0.0647498 1
gene 1 21 53 -0.697538 0 230 -0.697538 1
gene 1 5 67 0.532383 0 244 0.532383 1
gene 1 67 20 -0.0275152 0 245 -0.0275152 1
gene 1 35 35 0.35368 1 249 0.35368 1
gene 1 4 68 1.25415 0 255 1.25415 1
gene 1 68 35 0.667621 0 256 0.667621 1
gene 1 18 69 -0.400744 0 258 -0.400744 1
gene 1 69 28 0.359356 0 259 0.359356 1
gene 1 15 68 1.25749 0 288 1.25749 1
genomeend 5087
genomestart 5116
trait 1 0 0.0165484 0.0903554 0.100339 0.00513639 0.0603448 0.129627 0.0121055 
node 1 1 1 1 0
node 2 1 1 1 0
node 3 1 1 1 0
node 4 1 1 1 0
node 5 1 1 1 0
node 6 1 1 1 0
node 7 1 1 1 0
node 8 1 1 1 0
node 9 1 1 1 0
node 10 1 1 1 0
node 11 1 1 1 0
node 12 1 1 1 0
node 13 1 1 1 0
node 14 1 1 1 0
node 15 1 1 1 0
node 16 1 1 1 0
node 17 1 1 1 0
node 18 1 1 1 0
node 19 1 1 3 0
node 20 1 0 2 0
node 21 1 0 2 0
node 23 1 0 0 0
node 28 1 0 0 0
node 31 1 0 0 0
node 33 1 0 0 0
node 35 1 0 0 0
node 37 1 0 0 0
node 45 1 0 0 0
node 53 1 0 0 0
node 56 1 0 0 0
node 63 1 0 0 0
gene 1 1 20 -0.632458 0 1 -0.632458 1
gene 1 2 20 0.43471 0 2 0.43471 1
gene 1 3 20 0.772727 0 3 0.772727 1
gene 1 4 20 -0.176782 0 4 -0.176782 1
gene 1 5 20 0.166828 0 5 0.166828 1
gene 1 6 20 -1.00921 0 6 -1.00921 1
gene 1 7 20 0.612215 0 7 0.612215 1
gene 1 8 20 0.0302517 0 8 0.0302517 1
gene 1 9 20 -0.330596 0 9 -0.330596 1
gene 1 10 20 -1.13141 0 10 -1.13141 0
gene 1 11 20 0.26991 0 11 0.26991 1
gene 1 12 20 -0.915148 0 12 -0.915148 1
gene 1 13 20 0.175886 0 13 0.175886 0
gene 1 14 20 -0.0910757 0 14 -0.0910757 1
gene 1 15 20 0.00542553 0 15 0.00542553 1
gene 1 16 20 1.11066 0 16 1.11066 1
gene 1 17 20 0.0991144 0 17 0.0991144 0
gene 1 18 20 -0.493132 0 18 -0.493132 1
gene 1 19 20 0.657452 0 19 0.657452 1
gene 1 1 21 -0.503087 0 20 -0.503087 1
gene 1 2 21 1.73384 0 21 1.73384 1
gene 1 3 21 0.319729 0 22 0.319729 1
gene 1 4 21 -0.180324 0 23 -0.180324 1
gene 1 5 21 0.146198 0 24 0.146198 1
gene 1 6 21 0.0859607 0 25 0.0859607 1
gene 1 7 21 -0.837047 0 26 -0.837047 1
gene 1 8 21 0.480489 0 27 0.480489 1
gene 1 9 21 -3 0 28 -3 1
gene 1 10 21 1.85255 0 29 1.85255 1
gene 1 11 21 -0.407236 0 30 -0.407236 1
gene 1 12 21 0.525513 0 31 0.525513 1
gene 1 13 21 0.0378318 0 32 0.0378318 1
gene 1 14 21 2.68325 0 33 2.68325 0
gene 1 15 21 0.171353 0 34 0.171353 1
gene 1 16 21 1.14908 0 35 1.14908 1
gene 1 17 21 -0.742632 0 36 -0.742632 1
gene 1 18 21 -0.697489 0 37 -0.697489 0
gene 1 19 21 -1.51671 0 38 -1.51671 1
gene 1 15 23 1.08225 0 41 1.08225 1
gene 1 23 20 -0.176767 0 42 -0.176767 1
gene 1 21 20 0.796816 0 43 0.796816 1
gene 1 18 28 -0.0285423 0 56 -0.0285423 1
gene 1 28 20 1.33593 0 57 1.33593 1
gene 1 13 28 1.66777 0 62 1.66777 1
gene 1 14 31 0.520467 0 64 0.520467 1
gene 1 31 21 0.383028 0 65 0.383028 1
gene 1 14 28 -1.13063 0 66 -1.13063 1
gene 1 10 28 0.392952 0 68 0.392952 1
gene 1 17 33 0.697199 0 73 0.697199 1
gene 1 33 20 -0.154416 0 74 -0.154416 1
gene 1 20 21 -0.00211068 1 80 -0.00211068 1
gene 1 18 35 1.93093 0 81 1.93093 1
gene 1 35 21 -0.453664 0 82 -0.453664 1
gene 1 28 37 0.319102 0 86 0.319102 1
gene 1 37 20 0.844844 0 87 0.844844 1
gene 1 2 28 0.196888 0 99 0.196888 1
gene 1 10 45 0.345159 0 116 0.345159 1
gene 1 45 20 -1.24438 0 117 -1.24438 1
gene 1 37 35 -0.131571 0 133 -0.131571 1
gene 1 10 37 0.0521164 0 151 0.0521164 1
gene 1 4 28 -0.580922 0 152 -0.580922 1
gene 1 28 35 0.157826 0 160 0.157826 1
gene 1 4 35 -0.125002 0 161 -0.125002 1
gene 1 13 53 1.1709 0 164 1.1709 1
gene 1 53 20 0.13326 0 165 0.13326 1
gene 1 14 56 -0.568911 0 180 -0.568911 1
gene 1 56 28 0.540526 0 181 0.540526 1
gene 1 1 33 -0.488249 0 204 -0.488249 1
gene 1 10 33 -0.208654 0 206 -0.208654 1
gene 1 33 37 0.356913 0 215 0.356913 1
gene 1 37 63 -0.223149 0 217 -0.223149 1
gene 1 63 35 0.998433 0 218 0.998433 1
gene 1 21 53 -0.186166 0 230 -0.186166 1
gene 1 28 28 0.575593 1 236 0.575593 1
gene 1 35 35 0.312575 1 249 0.312575 1
gene 1 18 37 -0.909424 0 250 -0.909424 1
gene 1 21 21 0.306087 1 251 0.306087 1
gene 1 6 33 0.318043 0 280 0.318043 1
gene 1 53 45 1.20294 0 296 1.20294 1
genomeend 5116
genomestart 5118
trait 1 0 0.017178 0.0915781 0.0137866 0.00577368 0.0768121 0.0218661 0.0137852 
node 1 1 1 1 0
node 2 1 1 1 0
node 3 1 1 1 0
node 4 1 1 1 0
node 5 1 1 1 0
node 6 1 1 1 0
node 7 1 1 1 0
node 8 1 1 1 0
node 9 1 1 1 0
node 10 1 1 1 0
node 11 1 1 1 0
node 12 1 1 1 0
node 13 1 1 1 0
node 14 1 1 1 0
node 15 1 1 1 0
node 16 1 1 1 0
node 17 1 1 1 0
node 18 1 1 1 0
node 19 1 1 3 0
node 20 1 0 2 0
node 21 1 0 2 0
node 28 1 0 0 0
node 33 1 0 0 0
node 35 1 0 0 0
node 36 1 0 0 0
node 37 1 0 0 0
node 49 1 0 0 0
node 52 1 0 0 0
node 53 1 0 0 0
node 56 1 0 0 0
node 67 1 0 0 0
node 68 1 0 0 0
node 69 1 0 0 0
gene 1 1 20 -0.479019 0 1 -0.479019 1
gene 1 2 20 0.757084 0 2 0.757084 1
gene 1 3 20 1.40638 0 3 1.40638 1
gene 1 4 20 0.259984 0 4 0.259984 1
gene 1 5 20 0.188411 0 5 0.188411 0
gene 1 6 20 0.124667 0 6 0.124667 0
gene 1 7 20 0.861243 0 7 0.861243 1
gene 1 8 20 -0.767304 0 8 -0.767304 1
gene 1 9 20 -1.93272 0 9 -1.93272 1
gene 1 10 20 -0.940157 0 10 -0.940157 1
gene 1 11 20 0.336364 0 11 0.336364 1
gene 1 12 20 0.374699 0 12 0.374699 1
gene 1 13 20 -0.799839 0 13 -0.799839 1
gene 1 14 20 -0.13547 0 14 -0.13547 0
gene 1 15 20 -1.0142 0 15 -1.0142 1
gene 1 16 20 0.306639 0 16 0.306639 1
gene 1 17 20 0.637041 0 17 0.637041 0
gene 1 18 20 0.316611 0 18 0.316611 1
gene 1 19 20 2.85587 0 19 2.85587 1
gene 1 1 21 -0.168283 0 20 -0.168283 1
gene 1 2 21 1.86753 0 21 1.86753 1
gene 1 3 21 -0.107403 0 22 -0.107403 1
gene 1 4 21 0.636042 0 23 0.636042 1
gene 1 5 21 -0.691781 0 24 -0.691781 1
gene 1 6 21 -0.257959 0 25 -0.257959 1
gene 1 7 21 0.512866 0 26 0.512866 1
gene 1 8 21 -0.0890111 0 27 -0.0890111 1
gene 1 9 21 -2.32352 0 28 -2.32352 1
gene 1 10 21 1.48337 0 29 1.48337 1
gene 1 11 21 0.31941 0 30 0.31941 1
gene 1 12 21 -0.604621 0 31 -0.604621 1
gene 1 13 21 -0.493429 0 32 -0.493429 1
gene 1 14 21 0.142019 0 33 0.142019 1
gene 1 15 21 -0.237901 0 34 -0.237901 1
gene 1 16 21 0.0590298 0 35 0.0590298 1
gene 1 17 21 0.368049 0 36 0.368049 1
gene 1 18 21 -1.41647 0 37 -1.41647 0
gene 1 19 21 -0.720547 0 38 -0.720547 1
gene 1 21 20 0.85538 0 43 0.85538 0
gene 1 18 28 -0.636035 0 56 -0.636035 1
gene 1 28 20 -0.490842 0 57 -0.490842 0
gene 1 13 28 1.35732 0 62 1.35732 1
gene 1 14 28 -1.41524 0 66 -1.41524 0
gene 1 10 28 0.694187 0 68 0.694187 1
gene 1 17 33 1.26843 0 73 1.26843 1
gene 1 33 20 0.242815 0 74 0.242815 1
gene 1 20 21 0.0509794 1 80 0.0509794 1
gene 1 18 35 0.36899 0 81 0.36899 1
gene 1 35 21 -0.318164 0 82 -0.318164 1
gene 1 6 36 -0.245073 0 83 -0.245073 1
gene 1 36 20 0.188121 0 84 0.188121 1
gene 1 28 37 -0.333687 0 86 -0.333687 1
gene 1 37 20 -0.0904919 0 87 -0.0904919 1
gene 1 21 49 0.0689584 0 131 0.0689584 1
gene 1 49 20 0.403919 0 132 0.403919 1
gene 1 37 35 -0.274407 0 133 -0.274407 1
gene 1 10 37 0.730139 0 151 0.730139 1
gene 1 4 28 0.11308 0 152 0.11308 1
gene 1 14 52 1.10364 0 158 1.10364 1
gene 1 52 20 0.323448 0 159 0.323448 1
gene 1 28 35 0.514506 0 160 0.514506 1
gene 1 4 35 -0.606441 0 161 -0.606441 1
gene 1 13 53 1.64373 0 164 1.64373 1
gene 1 53 20 -0.532448 0 165 -0.532448 1
gene 1 14 56 -0.0573645 0 180 -0.0573645 1
gene 1 56 28 -0.0241438 0 181 -0.0241438 1
gene 1 1 33 -0.860318 0 204 -0.860318 1
gene 1 10 33 0.291448 0 206 0.291448 1
gene 1 13 37 -1.91955 0 207 -1.91955 1
gene 1 33 37 0.0647498 0 215 0.0647498 1
gene 1 21 53 -0.567695 0 230 -0.567695 1
gene 1 5 67 0.983658 0 244 0.983658 1
gene 1 67 20 -0.521947 0 245 -0.521947 1
gene 1 35 35 -0.0391616 1 249 -0.0391616 1
gene 1 4 68 1.15576 0 255 1.15576 1
gene 1 68 35 0.706977 0 256 0.706977 1
gene 1 18 69 -0.102021 0 258 -0.102021 1
gene 1 69 28 -0.125728 0 259 -0.125728 1
gene 1 15 68 0.900272 0 288 0.900272 1
genomeend 5118
genomestart 5122
trait 1 0.0569085 0.00858898 0.045789 0.428731 0.354315 0.0768121 0.0218661 0.375794 
node 1 1 1 1 0
node 2 1 1 1 0
node 3 1 1 1 0
node 4 1 1 1 0
node 5 1 1 1 0
node 6 1 1 1 0
node 7 1 1 1 0
node 8 1 1 1 0
node 9 1 1 1 0
node 10 1 1 1 0
node 11 1 1 1 0
node 12 1 1 1 0
node 13 1 1 1 0
node 14 1 1 1 0
node 15 1 1 1 0
node 16 1 1 1 0
node 17 1 1 1 0
node 18 1 1 1 0
node 19 1 1 3 0
node 20 1 0 2 0
node 21 1 0 2 0
node 28 1 0 0 0
node 33 1 0 0 0
node 35 1 0 0 0
node 36 1 0 0 0
node 37 1 0 0 0
node 53 1 0 0 0
node 56 1 0 0 0
node 68 1 0 0 0
node 69 1 0 0 0
gene 1 1 20 0.655928 0 1 0.655928 1
gene 1 2 20 0.754044 0 2 0.754044 1
gene 1 3 20 1.34424 0 3 1.34424 1
gene 1 4 20 0.914931 0 4 0.914931 1
gene 1 5 20 0.253753 0 5 0.253753 1
gene 1 6 20 -0.434275 0 6 -0.434275 1
gene 1 7 20 0.301506 0 7 0.301506 1
gene 1 8 20 -0.329601 0 8 -0.329601 1
gene 1 9 20 -0.766148 0 9 -0.766148 1
gene 1 10 20 -0.904787 0 10 -0.904787 1
gene 1 11 20 0.259398 0 11 0.259398 1
gene 1 12 20 0.178101 0 12 0.178101 1
gene 1 13 20 0.053177 0 13 0.053177 1
gene 1 14 20 0.483518 0 14 0.483518 1
gene 1 15 20 -0.489813 0 15 -0.489813 1
gene 1 16 20 1.01901 0 16 1.01901 1
gene 1 17 20 1.05395 0 17 1.05395 0
gene 1 18 20 -0.25031 0 18 -0.25031 1
gene 1 19 20 2.56565 0 19 2.56565 1
gene 1 1 21 0.390901 0 20 0.390901 1
gene 1 2 21 0.966399 0 21 0.966399 1
gene 1 3 21 0.11214 0 22 0.11214 1
gene 1 4 21 0.318131 0 23 0.318131 1
gene 1 5 21 0.143521 0 24 0.143521 1
gene 1 6 21 -0.530498 0 25 -0.530498 1
gene 1 7 21 0.273744 0 26 0.273744 1
gene 1 8 21 -0.668105 0 27 -0.668105 1
gene 1 9 21 -2.5404 0 28 -2.5404 1
gene 1 10 21 1.97985 0 29 1.97985 1
gene 1 11 21 -0.508001 0 30 -0.508001 1
gene 1 12 21 0.685949 0 31 0.685949 1
gene 1 13 21 1.41867 0 32 1.41867 1
gene 1 14 21 2.02551 0 33 2.02551 1
gene 1 15 21 -0.159432 0 34 -0.159432 1
gene 1 16 21 0.462779 0 35 0.462779 1
gene 1 17 21 -0.108302 0 36 -0.108302 1
gene 1 18 21 -0.111156 0 37 -0.111156 0
gene 1 19 21 -1.28184 0 38 -1.28184 1
gene 1 21 20 2.14168 0 43 2.14168 1
gene 1 18 28 -0.20203 0 56 -0.20203 1
gene 1 28 20 0.617689 0 57 0.617689 0
gene 1 13 28 0.899634 0 62 0.899634 1
gene 1 14 28 -1.29335 0 66 -1.29335 0
gene 1 10 28 -0.387912 0 68 -0.387912 1
gene 1 17 33 -0.184016 0 73 -0.184016 1
gene 1 33 20 0.334365 0 74 0.334365 1
gene 1 20 21 0.0178276 1 80 0.0178276 1
gene 1 18 35 1.40967 0 81 1.40967 1
gene 1 35 21 -0.277019 0 82 -0.277019 1
gene 1 6 36 1.66695 0 83 1.66695 1
gene 1 36 20 -0.279781 0 84 -0.279781 1
gene 1 28 37 0.158727 0 86 0.158727 1
gene 1 37 20 -1.06309 0 87 -1.06309 1
gene 1 37 35 -0.16069 0 133 -0.16069 1
gene 1 10 37 0.107918 0 151 0.107918 1
gene 1 4 28 0.0581703 0 152 0.0581703 1
gene 1 28 35 0.435959 0 160 0.435959 1
gene 1 4 35 -0.326691 0 161 -0.326691 1
gene 1 13 53 1.71587 0 164 1.71587 1
gene 1 53 20 0.901808 0 165 0.901808 1
gene 1 14 56 -0.473078 0 180 -0.473078 1
gene 1 56 28 0.0642885 0 181 0.0642885 1
gene 1 1 33 -0.978464 0 204 -0.978464 1
gene 1 10 33 0.439987 0 206 0.439987 1
gene 1 13 37 -1.26383 0 207 -1.26383 1
gene 1 33 37 -0.276349 0 215 -0.276349 1
gene 1 21 53 -0.399237 0 230 -0.399237 1
gene 1 35 35 -0.244371 1 249 -0.244371 1
gene 1 4 68 1.24246 0 255 1.24246 1
gene 1 68 35 0.313136 0 256 0.313136 1
gene 1 18 69 -0.236561 0 258 -0.236561 1
gene 1 69 28 0.202635 0 259 0.202635 1
gene 1 15 68 0.892533 0 288 0.892533 1
gene 1 68 56 0.237349 0 291 0.237349 1
genomeend 5122
genomestart 5124
trait 1 0 0.0165484 0.0916173 0.0119324 0.00513639 0.0689655 0.0217338 0.0138348 
node 1 1 1 1 0
node 2 1 1 1 0
node 3 1 1 1 0
node 4 1 1 1 0
node 5 1 1 1 0
node 6 1 1 1 0
node 7 1 1 1 0
node 8 1 1 1 0
node 9 1 1 1 0
node 10 1 1 1 0
node 11 1 1 1 0
node 12 1 1 1 0
node 13 1 1 1 0
node 14 1 1 1 0
node 15 1 1 1 0
node 16 1 1 1 0
node 17 1 1 1 0
node 18 1 1 1 0
node 19 1 1 3 0
node 20 1 0 2 0
node 21 1 0 2 0
node 23 1 0 0 0
node 28 1 0 0 0
node 33 1 0 0 0
node 35 1 0 0 0
node 37 1 0 0 0
node 45 1 0 0 0
node 53 1 0 0 0
node 56 1 0 0 0
gene 1 1 20 -0.0903123 0 1 -0.0903123 1
gene 1 2 20 0.13279 0 2 0.13279 1
gene 1 3 20 0.989696 0 3 0.989696 1
gene 1 4 20 -0.0712305 0 4 -0.0712305 1
gene 1 5 20 0.483198 0 5 0.483198 1
gene 1 6 20 -0.994721 0 6 -0.994721 1
gene 1 7 20 0.486096 0 7 0.486096 1
gene 1 8 20 -0.351216 0 8 -0.351216 1
gene 1 9 20 -0.203866 0 9 -0.203866 1
gene 1 10 20 -0.891199 0 10 -0.891199 0
gene 1 11 20 0.311231 0 11 0.311231 1
gene 1 12 20 -0.0893663 0 12 -0.0893663 1
gene 1 13 20 0.482889 0 13 0.482889 1
gene 1 14 20 0.229311 0 14 0.229311 1
gene 1 15 20 -0.0744288 0 15 -0.0744288 1
gene 1 16 20 0.0185748 0 16 0.0185748 1
gene 1 17 20 0.0114463 0 17 0.0114463 0
gene 1 18 20 0.477554 0 18 0.477554 0
gene 1 19 20 0.961674 0 19 0.961674 1
gene 1 1 21 -0.00956407 0 20 -0.00956407 1
gene 1 2 21 1.69764 0 21 1.69764 1
gene 1 3 21 0.896723 0 22 0.896723 1
gene 1 4 21 -0.88759 0 23 -0.88759 1
gene 1 5 21 -0.00510415 0 24 -0.00510415 1
gene 1 6 21 -0.517163 0 25 -0.517163 1
gene 1 7 21 -0.150956 0 26 -0.150956 1
gene 1 8 21 0.37309 0 27 0.37309 1
gene 1 9 21 -2.75632 0 28 -2.75632 1
gene 1 10 21 2.20017 0 29 2.20017 1
gene 1 11 21 -0.684604 0 30 -0.684604 1
gene 1 12 21 0.0840019 0 31 0.0840019 1
gene 1 13 21 0.445348 0 32 0.445348 1
gene 1 14 21 1.61487 0 33 1.61487 1
gene 1 15 21 0.487851 0 34 0.487851 1
gene 1 16 21 1.34584 0 35 1.34584 1
gene 1 17 21 -0.666055 0 36 -0.666055 1
gene 1 18 21 -0.875414 0 37 -0.875414 0
gene 1 19 21 -1.96201 0 38 -1.96201 1
gene 1 15 23 -0.375559 0 41 -0.375559 1
gene 1 23 20 0.258102 0 42 0.258102 1
gene 1 21 20 0.394898 0 43 0.394898 1
gene 1 18 28 -0.145977 0 56 -0.145977 1
gene 1 28 20 0.563775 0 57 0.563775 1
gene 1 13 28 2.13002 0 62 2.13002 1
gene 1 14 28 -0.908604 0 66 -0.908604 1
gene 1 10 28 0.383037 0 68 0.383037 1
gene 1 17 33 0.681626 0 73 0.681626 1
gene 1 33 20 -0.603048 0 74 -0.603048 1
gene 1 20 21 0.698369 1 80 0.698369 1
gene 1 18 35 0.344435 0 81 0.344435 1
gene 1 35 21 0.690719 0 82 0.690719 1
gene 1 28 37 -0.220677 0 86 -0.220677 1
gene 1 37 20 0.765322 0 87 0.765322 1
gene 1 10 45 0.146999 0 116 0.146999 1
gene 1 45 20 -0.569222 0 117 -0.569222 1
gene 1 37 35 -0.677392 0 133 -0.677392 1
gene 1 10 37 -0.363533 0 151 -0.363533 1
gene 1 4 28 -0.327052 0 152 -0.327052 1
gene 1 28 35 -0.434655 0 160 -0.434655 1
gene 1 4 35 0.373574 0 161 0.373574 1
gene 1 13 53 0.715648 0 164 0.715648 1
gene 1 53 20 0.224473 0 165 0.224473 1
gene 1 14 56 0.165763 0 180 0.165763 1
gene 1 56 28 0.71344 0 181 0.71344 1
gene 1 1 33 0.130193 0 204 0.130193 1
gene 1 10 33 -0.0755296 0 206 -0.0755296 1
gene 1 33 37 0.367078 0 215 0.367078 1
gene 1 33 28 -0.236367 0 221 -0.236367 1
gene 1 21 53 0.606818 0 230 0.606818 1
gene 1 28 28 0.659351 1 236 0.659351 1
gene 1 35 35 -0.354764 1 249 -0.354764 1
gene 1 18 37 -0.605237 0 250 -0.605237 1
gene 1 21 21 -0.221815 1 251 -0.221815 1
gene 1 6 33 0.416651 0 280 0.416651 1
gene 1 53 45 1.23651 0 296 1.23651 1
genomeend 5124
genomestart 5126
trait 1 0 0.0165484 0.0916173 0.0119324 0.00513639 0.0689655 0.0217338 0.0138348 
node 1 1 1 1 0
node 2 1 1 1 0
node 3 1 1 1 0
node 4 1 1 1 0
node 5 1 1 1 0
node 6 1 1 1 0
node 7 1 1 1 0
node 8 1 1 1 0
node 9 1 1 1 0
node 10 1 1 1 0
node 11 1 1 1 0
node 12 1 1 1 0
node 13 1 1 1 0
node 14 1 1 1 0
node 15 1 1 1 0
node 16 1 1 1 0
node 17 1 1 1 0
node 18 1 1 1 0
node 19 1 1 3 0
node 20 1 0 2 0
node 21 1 0 2 0
node 23 1 0 0 0
node 28 1 0 0 0
node 33 1 0 0 0
node 35 1 0 0 0
node 37 1 0 0 0
node 45 1 0 0 0
node 53 1 0 0 0
node 56 1 0 0 0
gene 1 1 20 -0.167696 0 1 -0.167696 1
gene 1 2 20 0.0893037 0 2 0.0893037 1
gene 1 3 20 0.115602 0 3 0.115602 1
gene 1 4 20 -0.765028 0 4 -0.765028 1
gene 1 5 20 0.904403 0 5 0.904403 1
gene 1 6 20 -0.247275 0 6 -0.247275 1
gene 1 7 20 -0.216911 0 7 -0.216911 1
gene 1 8 20 -1.1304 0 8 -1.1304 1
gene 1 9 20 -0.758815 0 9 -0.758815 1
gene 1 10 20 -0.980726 0 10 -0.980726 0
gene 1 11 20 -0.769876 0 11 -0.769876 1
gene 1 12 20 -0.0222398 0 12 -0.0222398 1
gene 1 13 20 0.347154 0 13 0.347154 0
gene 1 14 20 0.409574 0 14 0.409574 1
gene 1 15 20 0.517256 0 15 0.517256 1
gene 1 16 20 0.686264 0 16 0.686264 1
gene 1 17 20 0.73089 0 17 0.73089 0
gene 1 18 20 0.526148 0 18 0.526148 0
gene 1 19 20 1.63708 0 19 1.63708 1
gene 1 1 21 0.516939 0 20 0.516939 1
gene 1 2 21 1.79593 0 21 1.79593 1
gene 1 3 21 0.317969 0 22 0.317969 1
gene 1 4 21 -0.810923 0 23 -0.810923 1
gene 1 5 21 -0.308646 0 24 -0.308646 1
gene 1 6 21 0.242144 0 25 0.242144 1
gene 1 7 21 -0.437728 0 26 -0.437728 1
gene 1 8 21 0.0126204 0 27 0.0126204 1
gene 1 9 21 -2.96958 0 28 -2.96958 1
gene 1 10 21 2.09252 0 29 2.09252 1
gene 1 11 21 0.270866 0 30 0.270866 1
gene 1 12 21 0.399031 0 31 0.399031 1
gene 1 13 21 0.39564 0 32 0.39564 1
gene 1 14 21 2.38519 0 33 2.38519 1
gene 1 15 21 0.176296 0 34 0.176296 1
gene 1 16 21 0.626712 0 35 0.626712 1
gene 1 17 21 -0.959091 0 36 -0.959091 1
gene 1 18 21 -1.353 0 37 -1.353 0
gene 1 19 21 -0.98877 0 38 -0.98877 1
gene 1 15 23 -0.0728546 0 41 -0.0728546 1
gene 1 23 20 -0.745241 0 42 -0.745241 1
gene 1 21 20 0.866463 0 43 0.866463 1
gene 1 18 28 0.287167 0 56 0.287167 1
gene 1 28 20 1.22029 0 57 1.22029 1
gene 1 13 28 1.43229 0 62 1.43229 1
gene 1 14 28 0.342997 0 66 0.342997 1
gene 1 10 28 0.344975 0 68 0.344975 1
gene 1 17 33 0.936856 0 73 0.936856 1
gene 1 33 20 0.0833392 0 74 0.0833392 1
gene 1 20 21 -0.245228 1 80 -0.245228 1
gene 1 18 35 1.18002 0 81 1.18002 1
gene 1 35 21 0.0380096 0 82 0.0380096 1
gene 1 28 37 -0.752468 0 86 -0.752468 1
gene 1 37 20 0.567964 0 87 0.567964 1
gene 1 10 45 -0.500914 0 116 -0.500914 1
gene 1 45 20 -0.0971537 0 117 -0.0971537 1
gene 1 37 35 -0.631446 0 133 -0.631446 1
gene 1 10 37 -0.226252 0 151 -0.226252 1
gene 1 4 28 -0.296857 0 152 -0.296857 1
gene 1 28 35 0.446641 0 160 0.446641 1
gene 1 4 35 -0.106149 0 161 -0.106149 1
gene 1 13 53 1.76394 0 164 1.76394 1
gene 1 53 20 0.432882 0 165 0.432882 1
gene 1 14 56 -0.321485 0 180 -0.321485 1
gene 1 56 28 0.420778 0 181 0.420778 1
gene 1 1 33 -0.328494 0 204 -0.328494 1
gene 1 10 33 -0.382173 0 206 -0.382173 1
gene 1 33 37 -0.298461 0 215 -0.298461 1
gene 1 33 28 -0.0219903 0 221 -0.0219903 1
gene 1 21 53 0.1002 0 230 0.1002 1
gene 1 28 28 0.896488 1 236 0.896488 1
gene 1 35 35 0.477983 1 249 0.477983 1
gene 1 18 37 0.413604 0 250 0.413604 1
gene 1 21 21 0.214933 1 251 0.214933 1
gene 1 6 33 1.41291 0 280 1.41291 1
gene 1 53 45 0.0954869 0 296 0.0954869 1
genomeend 5126
genomestart 5133
trait 1 0 0.0165484 0.0916173 0.0119324 0.00513639 0.0689655 0.0217338 0.0138348 
node 1 1 1 1 0
node 2 1 1 1 0
node 3 1 1 1 0
node 4 1 1 1 0
node 5 1 1 1 0
node 6 1 1 1 0
node 7 1 1 1 0
node 8 1 1 1 0
node 9 1 1 1 0
node 10 1 1 1 0
node 11 1 1 1 0
node 12 1 1 1 0
node 13 1 1 1 0
node 14 1 1 1 0
node 15 1 1 1 0
node 16 1 1 1 0
node 17 1 1 1 0
node 18 1 1 1 0
node 19 1 1 3 0
node 20 1 0 2 0
node 21 1 0 2 0
node 23 1 0 0 0
node 28 1 0 0 0
node 33 1 0 0 0
node 35 1 0 0 0
node 37 1 0 0 0
node 45 1 0 0 0
node 53 1 0 0 0
node 56 1 0 0 0
gene 1 1 20 -0.252521 0 1 -0.252521 1
gene 1 2 20 0.0261831 0 2 0.0261831 1
gene 1 3 20 0.644346 0 3 0.644346 1
gene 1 4 20 0.0677001 0 4 0.0677001 1
gene 1 5 20 0.686238 0 5 0.686238 1
gene 1 6 20 -0.841413 0 6 -0.841413 1
gene 1 7 20 0.0545606 0 7 0.0545606 1
gene 1 8 20 -0.137874 0 8 -0.137874 1
gene 1 9 20 -0.633026 0 9 -0.633026 1
gene 1 10 20 -0.969433 0 10 -0.969433 0
gene 1 11 20 -0.606268 0 11 -0.606268 1
gene 1 12 20 -0.609409 0 12 -0.609409 1
gene 1 13 20 0.152767 0 13 0.152767 0
gene 1 14 20 -0.0507647 0 14 -0.0507647 1
gene 1 15 20 0.195451 0 15 0.195451 1
gene 1 16 20 0.269223 0 16 0.269223 1
gene 1 17 20 -0.210103 0 17 -0.210103 0
gene 1 18 20 0.435374 0 18 0.435374 1
gene 1 19 20 1.10679 0 19 1.10679 1
gene 1 1 21 -0.0494979 0 20 -0.0494979 1
gene 1 2 21 1.39152 0 21 1.39152 1
gene 1 3 21 0.399664 0 22 0.399664 1
gene 1 4 21 -0.347617 0 23 -0.347617 1
gene 1 5 21 -0.295761 0 24 -0.295761 1
gene 1 6 21 -0.142607 0 25 -0.142607 1
gene 1 7 21 -0.533016 0 26 -0.533016 1
gene 1 8 21 0.363565 0 27 0.363565 1
gene 1 9 21 -2.59015 0 28 -2.59015 1
gene 1 10 21 2.05998 0 29 2.05998 1
gene 1 11 21 -0.239546 0 30 -0.239546 1
gene 1 12 21 -0.0878231 0 31 -0.0878231 1
gene 1 13 21 0.749613 0 32 0.749613 1
gene 1 14 21 2.04424 0 33 2.04424 1
gene 1 15 21 0.0969252 0 34 0.0969252 1
gene 1 16 21 1.08297 0 35 1.08297 1
gene 1 17 21 -0.893974 0 36 -0.893974 1
gene 1 18 21 -1.6188 0 37 -1.6188 0
gene 1 19 21 -1.23443 0 38 -1.23443 1
gene 1 15 23 0.292597 0 41 0.292597 1
gene 1 23 20 0.131627 0 42 0.131627 1
gene 1 21 20 0.507995 0 43 0.507995 1
gene 1 18 28 0.203289 0 56 0.203289 1
gene 1 28 20 0.534619 0 57 0.534619 1
gene 1 13 28 1.4577 0 62 1.4577 1
gene 1 14 28 -0.52735 0 66 -0.52735 1
gene 1 10 28 0.199053 0 68 0.199053 1
gene 1 17 33 0.974704 0 73 0.974704 1
gene 1 33 20 -0.345741 0 74 -0.345741 1
gene 1 20 21 0.0928981 1 80 0.0928981 1
gene 1 18 35 0.554669 0 81 0.554669 1
gene 1 35 21 0.460097 0 82 0.460097 1
gene 1 28 37 0.259164 0 86 0.259164 1
gene 1 37 20 0.554064 0 87 0.554064 1
gene 1 10 45 -0.280867 0 116 -0.280867 1
gene 1 45 20 -0.357825 0 117 -0.357825 1
gene 1 37 35 -0.588361 0 133 -0.588361 1
gene 1 10 37 -0.102192 0 151 -0.102192 1
gene 1 4 28 0.0670164 0 152 0.0670164 1
gene 1 28 35 -0.002466 0 160 -0.002466 1
gene 1 4 35 0.1395 0 161 0.1395 1
gene 1 13 53 0.544444 0 164 0.544444 1
gene 1 53 20 0.164517 0 165 0.164517 1
gene 1 14 56 -0.581219 0 180 -0.581219 1
gene 1 56 28 0.420082 0 181 0.420082 1
gene 1 1 33 -0.342144 0 204 -0.342144 1
gene 1 10 33 0.297268 0 206 0.297268 1
gene 1 33 37 -0.505433 0 215 -0.505433 1
gene 1 33 28 -0.0219903 0 221 -0.0219903 1
gene 1 21 53 0.5059 0 230 0.5059 1
gene 1 28 28 0.885694 1 236 0.885694 1
gene 1 35 35 0.477983 1 249 0.477983 1
gene 1 18 37 -1.28343 0 250 -1.28343 1
gene 1 21 21 0.182499 1 251 0.182499 1
gene 1 6 33 0.930893 0 280 0.930893 1
gene 1 53 45 1.27618 0 296 1.27618 1
genomeend 5133
genomestart 5134
trait 1 0 0.131927 0.0915781 0.0137866 0.0654707 0.0768121 0.144133 0.0137852 
node 1 1 1 1 0
node 2 1 1 1 0
node 3 1 1 1 0
node 4 1 1 1 0
node 5 1 1 1 0
node 6 1 1 1 0
node 7 1 1 1 0
node 8 1 1 1 0
node 9 1 1 1 0
node 10 1 1 1 0
node 11 1 1 1 0
node 12 1 1 1 0
node 13 1 1 1 0
node 14 1 1 1 0
node 15 1 1 1 0
node 16 1 1 1 0
node 17 1 1 1 0
node 18 1 1 1 0
node 19 1 1 3 0
node 20 1 0 2 0
node 21 1 0 2 0
node 28 1 0 0 0
node 33 1 0 0 0
node 35 1 0 0 0
node 36 1 0 0 0
node 37 1 0 0 0
node 49 1 0 0 0
node 52 1 0 0 0
node 53 1 0 0 0
node 56 1 0 0 0
node 67 1 0 0 0
node 68 1 0 0 0
node 69 1 0 0 0
gene 1 1 20 -0.798695 0 1 -0.798695 1
gene 1 2 20 0.402482 0 2 0.402482 1
gene 1 3 20 1.80036 0 3 1.80036 1
gene 1 4 20 0.276311 0 4 0.276311 1
gene 1 5 20 -0.198839 0 5 -0.198839 0
gene 1 6 20 -0.153983 0 6 -0.153983 0
gene 1 7 20 0.371854 0 7 0.371854 1
gene 1 8 20 -0.661741 0 8 -0.661741 1
gene 1 9 20 -2.05684 0 9 -2.05684 1
gene 1 10 20 -1.43359 0 10 -1.43359 1
gene 1 11 20 0.609225 0 11 0.609225 1
gene 1 12 20 0.163872 0 12 0.163872 1
gene 1 13 20 -0.580363 0 13 -0.580363 1
gene 1 14 20 0.0126538 0 14 0.0126538 0
gene 1 15 20 -1.10436 0 15 -1.10436 1
gene 1 16 20 0.294112 0 16 0.294112 1
gene 1 17 20 0.137939 0 17 0.137939 0
gene 1 18 20 0.654894 0 18 0.654894 1
gene 1 19 20 2.43195 0 19 2.43195 1
gene 1 1 21 -0.562531 0 20 -0.562531 1
gene 1 2 21 1.89611 0 21 1.89611 1
gene 1 3 21 -0.538669 0 22 -0.538669 1
gene 1 4 21 0.499491 0 23 0.499491 1
gene 1 5 21 -0.482902 0 24 -0.482902 1
gene 1 6 21 -0.332498 0 25 -0.332498 1
gene 1 7 21 0.768372 0 26 0.768372 1
gene 1 8 21 -0.455575 0 27 -0.455575 1
gene 1 9 21 -2.54767 0 28 -2.54767 1
gene 1 10 21 1.52394 0 29 1.52394 1
gene 1 11 21 0.50675 0 30 0.50675 1
gene 1 12 21 -0.296754 0 31 -0.296754 1
gene 1 13 21 -0.184806 0 32 -0.184806 1
gene 1 14 21 0.11639 0 33 0.11639 1
gene 1 15 21 -0.452824 0 34 -0.452824 1
gene 1 16 21 -0.198554 0 35 -0.198554 1
gene 1 17 21 0.347945 0 36 0.347945 1
gene 1 18 21 -1.04853 0 37 -1.04853 0
gene 1 19 21 -0.387197 0 38 -0.387197 1
gene 1 21 20 0.654695 0 43 0.654695 0
gene 1 18 28 -0.473084 0 56 -0.473084 1
gene 1 28 20 -0.252536 0 57 -0.252536 0
gene 1 13 28 1.73083 0 62 1.73083 1
gene 1 14 28 -1.75614 0 66 -1.75614 0
gene 1 10 28 0.275522 0 68 0.275522 1
gene 1 17 33 1.52037 0 73 1.52037 1
gene 1 33 20 -0.138929 0 74 -0.138929 1
gene 1 20 21 0.586314 1 80 0.586314 1
gene 1 18 35 0.361731 0 81 0.361731 1
gene 1 35 21 -0.594768 0 82 -0.594768 1
gene 1 6 36 0.159946 0 83 0.159946 1
gene 1 36 20 -0.118325 0 84 -0.118325 1
gene 1 28 37 -0.279902 0 86 -0.279902 1
gene 1 37 20 -0.297884 0 87 -0.297884 1
gene 1 21 49 -0.244436 0 131 -0.244436 1
gene 1 49 20 0.489887 0 132 0.489887 1
gene 1 37 35 -0.00854158 0 133 -0.00854158 1
gene 1 10 37 0.376005 0 151 0.376005 1
gene 1 4 28 0.444958 0 152 0.444958 1
gene 1 14 52 0.604823 0 158 0.604823 1
gene 1 52 20 0.0133563 0 159 0.0133563 1
gene 1 28 35 0.691981 0 160 0.691981 1
gene 1 4 35 -0.649976 0 161 -0.649976 1
gene 1 13 53 1.85826 0 164 1.85826 1
gene 1 53 20 -0.741502 0 165 -0.741502 1
gene 1 14 56 -0.156622 0 180 -0.156622 1
gene 1 56 28 0.35304 0 181 0.35304 1
gene 1 1 33 -0.509361 0 204 -0.509361 1
gene 1 10 33 0.574954 0 206 0.574954 1
gene 1 13 37 -1.91955 0 207 -1.91955 1
gene 1 33 37 0.672619 0 215 0.672619 1
gene 1 21 53 -0.397561 0 230 -0.397561 1
gene 1 5 67 0.983658 0 244 0.983658 1
gene 1 67 20 -0.313742 0 245 -0.313742 1
gene 1 35 35 0.40734 1 249 0.40734 1
gene 1 4 68 0.837667 0 255 0.837667 1
gene 1 68 35 0.706977 0 256 0.706977 1
gene 1 18 69 -0.383683 0 258 -0.383683 1
gene 1 69 28 0.259375 0 259 0.259375 1
gene 1 15 68 0.419489 0 288 0.419489 1
genomeend 5134
genomestart 5137
trait 1 0 0.0165484 0.0890935 0.188746 0.00513639 0.0517242 0.237521 0.0103761 
node 1 1 1 1 0
node 2 1 1 1 0
node 3 1 1 1 0
node 4 1 1 1 0
node 5 1 1 1 0
node 6 1 1 1 0
node 7 1 1 1 0
node 8 1 1 1 0
node 9 1 1 1 0
node 10 1 1 1 0
node 11 1 1 1 0
node 12 1 1 1 0
node 13 1 1 1 0
node 14 1 1 1 0
node 15 1 1 1 0
node 16 1 1 1 0
node 17 1 1 1 0
node 18 1 1 1 0
node 19 1 1 3 0
node 20 1 0 2 0
node 21 1 0 2 0
node 23 1 0 0 0
node 28 1 0 0 0
node 31 1 0 0 0
node 33 1 0 0 0
node 35 1 0 0 0
node 37 1 0 0 0
node 45 1 0 0 0
node 53 1 0 0 0
node 56 1 0 0 0
node 63 1 0 0 0
gene 1 1 20 -0.40899 0 1 -0.40899 1
gene 1 2 20 0.728442 0 2 0.728442 1
gene 1 3 20 0.0562562 0 3 0.0562562 1
gene 1 4 20 0.0132682 0 4 0.0132682 1
gene 1 5 20 0.848938 0 5 0.848938 1
gene 1 6 20 -0.418133 0 6 -0.418133 1
gene 1 7 20 0.0853401 0 7 0.0853401 1
gene 1 8 20 -0.293457 0 8 -0.293457 1
gene 1 9 20 -0.135726 0 9 -0.135726 1
gene 1 10 20 -0.81625 0 10 -0.81625 0
gene 1 11 20 -0.0655267 0 11 -0.0655267 1
gene 1 12 20 -0.670228 0 12 -0.670228 1
gene 1 13 20 -0.732298 0 13 -0.732298 0
gene 1 14 20 -0.904766 0 14 -0.904766 1
gene 1 15 20 0.0494402 0 15 0.0494402 1
gene 1 16 20 1.00728 0 16 1.00728 1
gene 1 17 20 -0.585123 0 17 -0.585123 0
gene 1 18 20 -0.600748 0 18 -0.600748 0
gene 1 19 20 1.02095 0 19 1.02095 1
gene 1 1 21 0.017066 0 20 0.017066 1
gene 1 2 21 0.929395 0 21 0.929395 1
gene 1 3 21 0.165735 0 22 0.165735 1
gene 1 4 21 -0.108619 0 23 -0.108619 1
gene 1 5 21 -0.057312 0 24 -0.057312 1
gene 1 6 21 -0.515378 0 25 -0.515378 1
gene 1 7 21 -0.708935 0 26 -0.708935 1
gene 1 8 21 -0.273158 0 27 -0.273158 1
gene 1 9 21 -2.77286 0 28 -2.77286 1
gene 1 10 21 1.92068 0 29 1.92068 1
gene 1 11 21 -0.27767 0 30 -0.27767 1
gene 1 12 21 0.0175335 0 31 0.0175335 1
gene 1 13 21 0.596252 0 32 0.596252 1
gene 1 14 21 2.55751 0 33 2.55751 0
gene 1 15 21 0.268456 0 34 0.268456 1
gene 1 16 21 0.786862 0 35 0.786862 1
gene 1 17 21 -0.547371 0 36 -0.547371 1
gene 1 18 21 -0.566043 0 37 -0.566043 1
gene 1 19 21 -1.27097 0 38 -1.27097 1
gene 1 15 23 1.07214 0 41 1.07214 1
gene 1 23 20 -1.12203 0 42 -1.12203 1
gene 1 21 20 0.995387 0 43 0.995387 1
gene 1 18 28 0.0130993 0 56 0.0130993 1
gene 1 28 20 1.22599 0 57 1.22599 1
gene 1 13 28 0.713327 0 62 0.713327 1
gene 1 14 31 0.878578 0 64 0.878578 1
gene 1 31 21 1.35119 0 65 1.35119 1
gene 1 14 28 -1.16799 0 66 -1.16799 1
gene 1 10 28 1.42708 0 68 1.42708 1
gene 1 17 33 0.43577 0 73 0.43577 1
gene 1 33 20 0.0774497 0 74 0.0774497 1
gene 1 20 21 0.656196 1 80 0.656196 1
gene 1 18 35 1.72834 0 81 1.72834 1
gene 1 35 21 -0.708152 0 82 -0.708152 1
gene 1 28 37 -0.510746 0 86 -0.510746 1
gene 1 37 20 0.199694 0 87 0.199694 1
gene 1 2 28 -0.0420886 0 99 -0.0420886 1
gene 1 10 45 0.953658 0 116 0.953658 1
gene 1 45 20 -1.38865 0 117 -1.38865 1
gene 1 37 35 -0.491668 0 133 -0.491668 1
gene 1 10 37 0.36641 0 151 0.36641 1
gene 1 4 28 -0.288037 0 152 -0.288037 1
gene 1 28 35 0.981539 0 160 0.981539 1
gene 1 4 35 -0.242041 0 161 -0.242041 1
gene 1 13 53 1.79274 0 164 1.79274 1
gene 1 53 20 0.13326 0 165 0.13326 1
gene 1 14 56 -0.223279 0 180 -0.223279 1
gene 1 56 28 0.800087 0 181 0.800087 1
gene 1 1 33 -0.228777 0 204 -0.228777 1
gene 1 10 33 -0.238587 0 206 -0.238587 1
gene 1 33 37 0.343876 0 215 0.343876 1
gene 1 37 63 -0.194098 0 217 -0.194098 1
gene 1 63 35 0.611011 0 218 0.611011 1
gene 1 21 53 0.394209 0 230 0.394209 1
gene 1 28 28 -0.305029 1 236 -0.305029 1
gene 1 35 35 -0.0517284 1 249 -0.0517284 1
gene 1 18 37 -0.21473 0 250 -0.21473 1
gene 1 21 21 -0.0952147 1 251 -0.0952147 1
gene 1 6 33 -0.277715 0 280 -0.277715 1
genomeend 5137
genomestart 5140
trait 1 0 0.70567 0.0915781 0.0137866 0.363956 0.0768121 0.755467 0.0137852 
node 1 1 1 1 0
node 2 1 1 1 0
node 3 1 1 1 0
node 4 1 1 1 0
node 5 1 1 1 0
node 6 1 1 1 0
node 7 1 1 1 0
node 8 1 1 1 0
node 9 1 1 1 0
node 10 1 1 1 0
node 11 1 1 1 0
node 12 1 1 1 0
node 13 1 1 1 0
node 14 1 1 1 0
node 15 1 1 1 0
node 16 1 1 1 0
node 17 1 1 1 0
node 18 1 1 1 0
node 19 1 1 3 0
node 20 1 0 2 0
node 21 1 0 2 0
node 28 1 0 0 0
node 33 1 0 0 0
node 35 1 0 0 0
node 36 1 0 0 0
node 37 1 0 0 0
node 49 1 0 0 0
node 52 1 0 0 0
node 53 1 0 0 0
node 56 1 0 0 0
node 67 1 0 0 0
node 68 1 0 0 0
node 69 1 0 0 0
gene 1 1 20 -0.479019 0 1 -0.479019 1
gene 1 2 20 0.430615 0 2 0.430615 1
gene 1 3 20 1.40638 0 3 1.40638 1
gene 1 4 20 0.664562 0 4 0.664562 1
gene 1 5 20 0.096681 0 5 0.096681 0
gene 1 6 20 0.124667 0 6 0.124667 0
gene 1 7 20 0.590742 0 7 0.590742 1
gene 1 8 20 -0.376677 0 8 -0.376677 1
gene 1 9 20 -1.8571 0 9 -1.8571 1
gene 1 10 20 -0.475309 0 10 -0.475309 1
gene 1 11 20 -0.0187887 0 11 -0.0187887 1
gene 1 12 20 0.0775047 0 12 0.0775047 1
gene 1 13 20 -0.858942 0 13 -0.858942 1
gene 1 14 20 -0.465655 0 14 -0.465655 0
gene 1 15 20 -0.73624 0 15 -0.73624 1
gene 1 16 20 0.306639 0 16 0.306639 1
gene 1 17 20 0.544065 0 17 0.544065 0
gene 1 18 20 -0.12502 0 18 -0.12502 1
gene 1 19 20 2.54269 0 19 2.54269 1
gene 1 1 21 -0.490206 0 20 -0.490206 1
gene 1 2 21 1.9518 0 21 1.9518 1
gene 1 3 21 -0.0328625 0 22 -0.0328625 1
gene 1 4 21 0.361179 0 23 0.361179 1
gene 1 5 21 -0.691781 0 24 -0.691781 1
gene 1 6 21 0.129361 0 25 0.129361 1
gene 1 7 21 0.395148 0 26 0.395148 1
gene 1 8 21 -0.225631 0 27 -0.225631 1
gene 1 9 21 -2.32352 0 28 -2.32352 1
gene 1 10 21 1.0211 0 29 1.0211 1
gene 1 11 21 0.189011 0 30 0.189011 1
gene 1 12 21 -0.604621 0 31 -0.604621 1
gene 1 13 21 -0.214188 0 32 -0.214188 1
gene 1 14 21 -0.295548 0 33 -0.295548 1
gene 1 15 21 0.177403 0 34 0.177403 1
gene 1 16 21 0.0826193 0 35 0.0826193 1
gene 1 17 21 -0.0619379 0 36 -0.0619379 1
gene 1 18 21 -1.44546 0 37 -1.44546 0
gene 1 19 21 -0.841447 0 38 -0.841447 1
gene 1 21 20 1.17908 0 43 1.17908 0
gene 1 18 28 -0.636035 0 56 -0.636035 1
gene 1 28 20 -0.0569449 0 57 -0.0569449 0
gene 1 13 28 1.28952 0 62 1.28952 1
gene 1 14 28 -1.63287 0 66 -1.63287 0
gene 1 10 28 0.692222 0 68 0.692222 1
gene 1 17 33 1.26843 0 73 1.26843 1
gene 1 33 20 0.242815 0 74 0.242815 1
gene 1 20 21 0.186191 1 80 0.186191 1
gene 1 18 35 0.499057 0 81 0.499057 1
gene 1 35 21 -0.57576 0 82 -0.57576 1
gene 1 6 36 0.19188 0 83 0.19188 1
gene 1 36 20 0.188121 0 84 0.188121 1
gene 1 28 37 -0.377974 0 86 -0.377974 1
gene 1 37 20 0.330994 0 87 0.330994 1
gene 1 21 49 0.47295 0 131 0.47295 1
gene 1 49 20 0.18384 0 132 0.18384 1
gene 1 37 35 -0.619864 0 133 -0.619864 1
gene 1 10 37 0.378163 0 151 0.378163 1
gene 1 4 28 -0.000735236 0 152 -0.000735236 1
gene 1 14 52 0.668611 0 158 0.668611 1
gene 1 52 20 0.323448 0 159 0.323448 1
gene 1 28 35 0.514506 0 160 0.514506 1
gene 1 4 35 -0.889715 0 161 -0.889715 1
gene 1 13 53 1.64373 0 164 1.64373 1
gene 1 53 20 -0.237775 0 165 -0.237775 1
gene 1 14 56 -0.968654 0 180 -0.968654 1
gene 1 56 28 -0.0241438 0 181 -0.0241438 1
gene 1 1 33 -0.559566 0 204 -0.559566 1
gene 1 10 33 0.660204 0 206 0.660204 1
gene 1 13 37 -1.52648 0 207 -1.52648 1
gene 1 33 37 0.446625 0 215 0.446625 1
gene 1 21 53 -0.227427 0 230 -0.227427 1
gene 1 5 67 0.983658 0 244 0.983658 1
gene 1 67 20 -0.521947 0 245 -0.521947 1
gene 1 35 35 -0.0391616 1 249 -0.0391616 1
gene 1 4 68 1.15576 0 255 1.15576 1
gene 1 68 35 0.706977 0 256 0.706977 1
gene 1 18 69 -0.102021 0 258 -0.102021 1
gene 1 69 28 -0.125728 0 259 -0.125728 1
gene 1 15 68 0.900272 0 288 0.900272 1
genomeend 5140
genomestart 5144
trait 1 0 0.017178 0.0915781 0.0137866 0.00577368 0.0768121 0.0218661 0.0137852 
node 1 1 1 1 0
node 2 1 1 1 0
node 3 1 1 1 0
node 4 1 1 1 0
node 5 1 1 1 0
node 6 1 1 1 0
node 7 1 1 1 0
node 8 1 1 1 0
node 9 1 1 1 0
node 10 1 1 1 0
node 11 1 1 1 0
node 12 1 1 1 0
node 13 1 1 1 0
node 14 1 1 1 0
node 15 1 1 1 0
node 16 1 1 1 0
node 17 1 1 1 0
node 18 1 1 1 0
node 19 1 1 3 0
node 20 1 0 2 0
node 21 1 0 2 0
node 28 1 0 0 0
node 33 1 0 0 0
node 35 1 0 0 0
node 36 1 0 0 0
node 37 1 0 0 0
node 53 1 0 0 0
node 56 1 0 0 0
node 68 1 0 0 0
node 69 1 0 0 0
gene 1 1 20 -0.200012 0 1 -0.200012 1
gene 1 2 20 0.771883 0 2 0.771883 1
gene 1 3 20 0.890134 0 3 0.890134 1
gene 1 4 20 -0.604053 0 4 -0.604053 1
gene 1 5 20 0.204545 0 5 0.204545 1
gene 1 6 20 0.737533 0 6 0.737533 0
gene 1 7 20 -0.239587 0 7 -0.239587 1
gene 1 8 20 -0.300212 0 8 -0.300212 1
gene 1 9 20 -1.42871 0 9 -1.42871 1
gene 1 10 20 -0.429797 0 10 -0.429797 1
gene 1 11 20 0.367434 0 11 0.367434 1
gene 1 12 20 -0.10809 0 12 -0.10809 1
gene 1 13 20 -0.191996 0 13 -0.191996 1
gene 1 14 20 -0.0526736 0 14 -0.0526736 1
gene 1 15 20 -0.783391 0 15 -0.783391 1
gene 1 16 20 1.91757 0 16 1.91757 1
gene 1 17 20 1.40396 0 17 1.40396 0
gene 1 18 20 0.344448 0 18 0.344448 1
gene 1 19 20 2.95718 0 19 2.95718 1
gene 1 1 21 0.662356 0 20 0.662356 1
gene 1 2 21 0.0639342 0 21 0.0639342 1
gene 1 3 21 0.343448 0 22 0.343448 1
gene 1 4 21 -0.730833 0 23 -0.730833 1
gene 1 5 21 -0.143022 0 24 -0.143022 1
gene 1 6 21 -0.317036 0 25 -0.317036 1
gene 1 7 21 -0.452612 0 26 -0.452612 1
gene 1 8 21 0.0478793 0 27 0.0478793 1
gene 1 9 21 -1.97976 0 28 -1.97976 1
gene 1 10 21 1.3264 0 29 1.3264 1
gene 1 11 21 -0.475189 0 30 -0.475189 1
gene 1 12 21 -0.64012 0 31 -0.64012 1
gene 1 13 21 -0.031176 0 32 -0.031176 1
gene 1 14 21 0.186133 0 33 0.186133 1
gene 1 15 21 -0.0712288 0 34 -0.0712288 1
gene 1 16 21 0.392998 0 35 0.392998 1
gene 1 17 21 1.00967 0 36 1.00967 1
gene 1 18 21 0.314935 0 37 0.314935 0
gene 1 19 21 -0.0717763 0 38 -0.0717763 1
gene 1 21 20 0.821198 0 43 0.821198 1
gene 1 18 28 0.0309748 0 56 0.0309748 1
gene 1 28 20 0.257265 0 57 0.257265 0
gene 1 13 28 0.992043 0 62 0.992043 1
gene 1 14 28 -0.911424 0 66 -0.911424 0
gene 1 10 28 0.105927 0 68 0.105927 1
gene 1 17 33 -0.0794235 0 73 -0.0794235 1
gene 1 33 20 0.62591 0 74 0.62591 1
gene 1 20 21 0.61184 1 80 0.61184 1
gene 1 18 35 2.0942 0 81 2.0942 1
gene 1 35 21 -0.494657 0 82 -0.494657 1
gene 1 6 36 1.79016 0 83 1.79016 1
gene 1 36 20 0.0803516 0 84 0.0803516 1
gene 1 28 37 -0.249793 0 86 -0.249793 1
gene 1 37 20 0.221482 0 87 0.221482 1
gene 1 37 35 0.846776 0 133 0.846776 1
gene 1 10 37 0.297333 0 151 0.297333 1
gene 1 4 28 0.723233 0 152 0.723233 1
gene 1 28 35 -0.139518 0 160 -0.139518 1
gene 1 4 35 -0.689255 0 161 -0.689255 0
gene 1 13 53 1.4782 0 164 1.4782 1
gene 1 53 20 -0.618186 0 165 -0.618186 1
gene 1 14 56 -0.8406 0 180 -0.8406 1
gene 1 56 28 0.0067775 0 181 0.0067775 1
gene 1 1 33 0.358441 0 204 0.358441 1
gene 1 10 33 -0.135488 0 206 -0.135488 1
gene 1 13 37 -1.15452 0 207 -1.15452 1
gene 1 33 37 0.35242 0 215 0.35242 1
gene 1 21 53 -0.068289 0 230 -0.068289 1
gene 1 35 35 0.110472 1 249 0.110472 1
gene 1 4 68 0.840786 0 255 0.840786 1
gene 1 68 35 0.298282 0 256 0.298282 1
gene 1 18 69 -0.631513 0 258 -0.631513 1
gene 1 69 28 0.266448 0 259 0.266448 1
gene 1 15 68 0.883758 0 288 0.883758 1
gene 1 68 56 0.109341 0 291 0.109341 1
genomeend 5144
genomestart 5145
trait 1 0 0.476172 0.0915781 0.0137866 0.244562 0.0768121 0.510933 0.0137852 
node 1 1 1 1 0
node 2 1 1 1 0
node 3 1 1 1 0
node 4 1 1 1 0
node 5 1 1 1 0
node 6 1 1 1 0
node 7 1 1 1 0
node 8 1 1 1 0
node 9 1 1 1 0
node 10 1 1 1 0
node 11 1 1 1 0
node 12 1 1 1 0
node 13 1 1 1 0
node 14 1 1 1 0
node 15 1 1 1 0
node 16 1 1 1 0
node 17 1 1 1 0
node 18 1 1 1 0
node 19 1 1 3 0
node 20 1 0 2 0
node 21 1 0 2 0
node 28 1 0 0 0
node 33 1 0 0 0
node 35 1 0 0 0
node 36 1 0 0 0
node 37 1 0 0 0
node 49 1 0 0 0
node 52 1 0 0 0
node 53 1 0 0 0
node 56 1 0 0 0
node 67 1 0 0 0
node 68 1 0 0 0
node 69 1 0 0 0
gene 1 1 20 -0.309236 0 1 -0.309236 1
gene 1 2 20 0.790552 0 2 0.790552 1
gene 1 3 20 1.58826 0 3 1.58826 1
gene 1 4 20 0.273322 0 4 0.273322 1
gene 1 5 20 0.359947 0 5 0.359947 1
gene 1 6 20 -0.169388 0 6 -0.169388 0
gene 1 7 20 0.746033 0 7 0.746033 1
gene 1 8 20 -0.459534 0 8 -0.459534 1
gene 1 9 20 -1.91173 0 9 -1.91173 1
gene 1 10 20 -0.669555 0 10 -0.669555 1
gene 1 11 20 0.304545 0 11 0.304545 1
gene 1 12 20 0.365175 0 12 0.365175 1
gene 1 13 20 -0.630459 0 13 -0.630459 1
gene 1 14 20 -0.228795 0 14 -0.228795 1
gene 1 15 20 -1.01515 0 15 -1.01515 1
gene 1 16 20 0.366631 0 16 0.366631 1
gene 1 17 20 0.786954 0 17 0.786954 0
gene 1 18 20 0.271248 0 18 0.271248 1
gene 1 19 20 2.67402 0 19 2.67402 1
gene 1 1 21 -0.146567 0 20 -0.146567 1
gene 1 2 21 2.06596 0 21 2.06596 1
gene 1 3 21 -0.0533221 0 22 -0.0533221 1
gene 1 4 21 0.253858 0 23 0.253858 1
gene 1 5 21 -0.674168 0 24 -0.674168 1
gene 1 6 21 0.0457564 0 25 0.0457564 1
gene 1 7 21 0.555674 0 26 0.555674 1
gene 1 8 21 -0.191915 0 27 -0.191915 1
gene 1 9 21 -2.24646 0 28 -2.24646 1
gene 1 10 21 1.33624 0 29 1.33624 1
gene 1 11 21 0.411577 0 30 0.411577 1
gene 1 12 21 -0.60071 0 31 -0.60071 1
gene 1 13 21 -0.569646 0 32 -0.569646 1
gene 1 14 21 -0.0753294 0 33 -0.0753294 1
gene 1 15 21 -0.0412899 0 34 -0.0412899 1
gene 1 16 21 -0.112779 0 35 -0.112779 1
gene 1 17 21 -0.0127171 0 36 -0.0127171 1
gene 1 18 21 -1.42899 0 37 -1.42899 0
gene 1 19 21 -1.00663 0 38 -1.00663 1
gene 1 21 20 1.25286 0 43 1.25286 0
gene 1 18 28 -0.608473 0 56 -0.608473 1
gene 1 28 20 -0.328371 0 57 -0.328371 0
gene 1 13 28 1.31719 0 62 1.31719 1
gene 1 14 28 -1.74441 0 66 -1.74441 1
gene 1 10 28 0.940137 0 68 0.940137 1
gene 1 17 33 1.43071 0 73 1.43071 1
gene 1 33 20 0.315562 0 74 0.315562 1
gene 1 20 21 0.368239 1 80 0.368239 1
gene 1 18 35 0.201657 0 81 0.201657 1
gene 1 35 21 -0.379846 0 82 -0.379846 1
gene 1 6 36 0.0877348 0 83 0.0877348 1
gene 1 36 20 0.311582 0 84 0.311582 1
gene 1 28 37 -0.414172 0 86 -0.414172 1
gene 1 37 20 0.151359 0 87 0.151359 1
gene 1 21 49 0.107877 0 131 0.107877 1
gene 1 49 20 0.507499 0 132 0.507499 1
gene 1 37 35 -0.490379 0 133 -0.490379 1
gene 1 10 37 0.726281 0 151 0.726281 1
gene 1 4 28 -0.0660798 0 152 -0.0660798 1
gene 1 14 52 0.827259 0 158 0.827259 1
gene 1 52 20 0.43481 0 159 0.43481 1
gene 1 28 35 0.439875 0 160 0.439875 1
gene 1 4 35 -0.885625 0 161 -0.885625 1
gene 1 13 53 1.52547 0 164 1.52547 1
gene 1 53 20 -0.504908 0 165 -0.504908 1
gene 1 14 56 -0.419006 0 180 -0.419006 1
gene 1 56 28 0.0387133 0 181 0.0387133 1
gene 1 1 33 -0.58216 0 204 -0.58216 1
gene 1 10 33 0.475826 0 206 0.475826 1
gene 1 13 37 -1.84019 0 207 -1.84019 1
gene 1 33 37 0.255687 0 215 0.255687 1
gene 1 21 53 -0.462483 0 230 -0.462483 1
gene 1 5 67 0.75802 0 244 0.75802 1
gene 1 67 20 -0.274731 0 245 -0.274731 1
gene 1 35 35 0.157259 1 249 0.157259 1
gene 1 4 68 1.20496 0 255 1.20496 1
gene 1 68 35 0.687299 0 256 0.687299 1
gene 1 18 69 -0.389244 0 258 -0.389244 1
gene 1 69 28 0.116814 0 259 0.116814 1
gene 1 15 68 0.831745 0 288 0.831745 1
genomeend 5145
genomestart 5147
trait 1 0 0.017178 0.0915781 0.0137866 0.00577368 0.0768121 0.0218661 0.0137852 
node 1 1 1 1 0
node 2 1 1 1 0
node 3 1 1 1 0
node 4 1 1 1 0
node 5 1 1 1 0
node 6 1 1 1 0
node 7 1 1 1 0
node 8 1 1 1 0
node 9 1 1 1 0
node 10 1 1 1 0
node 11 1 1 1 0
node 12 1 1 1 0
node 13 1 1 1 0
node 14 1 1 1 0
node 15 1 1 1 0
node 16 1 1 1 0
node 17 1 1 1 0
node 18 1 1 1 0
node 19 1 1 3 0
node 20 1 0 2 0
node 21 1 0 2 0
node 28 1 0 0 0
node 33 1 0 0 0
node 35 1 0 0 0
node 36 1 0 0 0
node 37 1 0 0 0
node 49 1 0 0 0
node 52 1 0 0 0
node 53 1 0 0 0
node 56 1 0 0 0
node 67 1 0 0 0
node 68 1 0 0 0
node 69 1 0 0 0
gene 1 1 20 -0.12385 0 1 -0.12385 1
gene 1 2 20 1.15049 0 2 1.15049 1
gene 1 3 20 1.79575 0 3 1.79575 1
gene 1 4 20 -0.117917 0 4 -0.117917 1
gene 1 5 20 0.623212 0 5 0.623212 1
gene 1 6 20 -0.214592 0 6 -0.214592 0
gene 1 7 20 0.901324 0 7 0.901324 1
gene 1 8 20 -0.542392 0 8 -0.542392 1
gene 1 9 20 -1.96636 0 9 -1.96636 1
gene 1 10 20 -0.863802 0 10 -0.863802 1
gene 1 11 20 0.627878 0 11 0.627878 1
gene 1 12 20 0.652846 0 12 0.652846 1
gene 1 13 20 -0.401975 0 13 -0.401975 1
gene 1 14 20 0.00806563 0 14 0.00806563 0
gene 1 15 20 -1.29405 0 15 -1.29405 1
gene 1 16 20 0.40043 0 16 0.40043 1
gene 1 17 20 1.02984 0 17 1.02984 0
gene 1 18 20 0.667517 0 18 0.667517 1
gene 1 19 20 2.80536 0 19 2.80536 1
gene 1 1 21 0.197071 0 20 0.197071 1
gene 1 2 21 2.18011 0 21 2.18011 1
gene 1 3 21 -0.0737817 0 22 -0.0737817 1
gene 1 4 21 0.146538 0 23 0.146538 1
gene 1 5 21 -1.13439 0 24 -1.13439 1
gene 1 6 21 -0.037848 0 25 -0.037848 1
gene 1 7 21 0.716199 0 26 0.716199 1
gene 1 8 21 -0.158199 0 27 -0.158199 1
gene 1 9 21 -2.10163 0 28 -2.10163 1
gene 1 10 21 1.65138 0 29 1.65138 1
gene 1 11 21 0.634144 0 30 0.634144 1
gene 1 12 21 -0.910956 0 31 -0.910956 1
gene 1 13 21 -0.925104 0 32 -0.925104 1
gene 1 14 21 0.144889 0 33 0.144889 1
gene 1 15 21 -0.259982 0 34 -0.259982 1
gene 1 16 21 -0.308177 0 35 -0.308177 1
gene 1 17 21 0.0365037 0 36 0.0365037 1
gene 1 18 21 -1.41253 0 37 -1.41253 1
gene 1 19 21 -1.17182 0 38 -1.17182 1
gene 1 21 20 1.32665 0 43 1.32665 1
gene 1 18 28 -0.735301 0 56 -0.735301 1
gene 1 28 20 -0.599798 0 57 -0.599798 1
gene 1 13 28 1.34487 0 62 1.34487 1
gene 1 14 28 -1.85595 0 66 -1.85595 0
gene 1 10 28 1.18805 0 68 1.18805 1
gene 1 17 33 1.76198 0 73 1.76198 1
gene 1 33 20 0.399004 0 74 0.399004 1
gene 1 20 21 0.550287 1 80 0.550287 1
gene 1 18 35 -0.0957439 0 81 -0.0957439 1
gene 1 35 21 -0.183932 0 82 -0.183932 1
gene 1 6 36 -0.0164103 0 83 -0.0164103 1
gene 1 36 20 0.339042 0 84 0.339042 1
gene 1 28 37 -0.450371 0 86 -0.450371 1
gene 1 37 20 -0.0282749 0 87 -0.0282749 1
gene 1 21 49 -0.257197 0 131 -0.257197 1
gene 1 49 20 0.831159 0 132 0.831159 1
gene 1 37 35 -0.360894 0 133 -0.360894 1
gene 1 10 37 1.0744 0 151 1.0744 1
gene 1 4 28 -0.131424 0 152 -0.131424 1
gene 1 14 52 0.985907 0 158 0.985907 1
gene 1 52 20 0.486927 0 159 0.486927 1
gene 1 28 35 0.5544 0 160 0.5544 1
gene 1 4 35 -0.881534 0 161 -0.881534 1
gene 1 13 53 1.22461 0 164 1.22461 1
gene 1 53 20 -0.772041 0 165 -0.772041 1
gene 1 14 56 0.130641 0 180 0.130641 1
gene 1 56 28 0.26382 0 181 0.26382 1
gene 1 1 33 -0.604753 0 204 -0.604753 1
gene 1 10 33 0.291448 0 206 0.291448 1
gene 1 13 37 -2.15389 0 207 -2.15389 1
gene 1 33 37 0.0647498 0 215 0.0647498 1
gene 1 21 53 -0.697538 0 230 -0.697538 1
gene 1 5 67 0.532383 0 244 0.532383 1
gene 1 67 20 -0.0275152 0 245 -0.0275152 1
gene 1 35 35 0.35368 1 249 0.35368 1
gene 1 4 68 1.25415 0 255 1.25415 1
gene 1 68 35 0.667621 0 256 0.667621 1
gene 1 18 69 -0.400744 0 258 -0.400744 1
gene 1 69 28 0.359356 0 259 0.359356 1
gene 1 15 68 1.25749 0 288 1.25749 1
gene 1 2 68 -0.0651787 0 311 -0.0651787 1
genomeend 5147
genomestart 5151
trait 1 0 0.246675 0.0915781 0.0137866 0.125168 0.0768121 0.2664 0.0137852 
node 1 1 1 1 0
node 2 1 1 1 0
node 3 1 1 1 0
node 4 1 1 1 0
node 5 1 1 1 0
node 6 1 1 1 0
node 7 1 1 1 0
node 8 1 1 1 0
node 9 1 1 1 0
node 10 1 1 1 0
node 11 1 1 1 0
node 12 1 1 1 0
node 13 1 1 1 0
node 14 1 1 1 0
node 15 1 1 1 0
node 16 1 1 1 0
node 17 1 1 1 0
node 18 1 1 1 0
node 19 1 1 3 0
node 20 1 0 2 0
node 21 1 0 2 0
node 28 1 0 0 0
node 33 1 0 0 0
node 35 1 0 0 0
node 36 1 0 0 0
node 37 1 0 0 0
node 49 1 0 0 0
node 52 1 0 0 0
node 53 1 0 0 0
node 56 1 0 0 0
node 67 1 0 0 0
node 68 1 0 0 0
node 69 1 0 0 0
gene 1 1 20 -0.479019 0 1 -0.479019 1
gene 1 2 20 0.59385 0 2 0.59385 1
gene 1 3 20 1.40638 0 3 1.40638 1
gene 1 4 20 0.259984 0 4 0.259984 1
gene 1 5 20 0.188411 0 5 0.188411 0
gene 1 6 20 0.124667 0 6 0.124667 1
gene 1 7 20 0.725992 0 7 0.725992 1
gene 1 8 20 -0.57199 0 8 -0.57199 1
gene 1 9 20 -1.89491 0 9 -1.89491 1
gene 1 10 20 -0.707733 0 10 -0.707733 1
gene 1 11 20 0.336364 0 11 0.336364 1
gene 1 12 20 0.226102 0 12 0.226102 1
gene 1 13 20 -0.829391 0 13 -0.829391 1
gene 1 14 20 -0.300563 0 14 -0.300563 0
gene 1 15 20 -1.0142 0 15 -1.0142 1
gene 1 16 20 0.306639 0 16 0.306639 1
gene 1 17 20 0.590553 0 17 0.590553 0
gene 1 18 20 0.0957955 0 18 0.0957955 1
gene 1 19 20 2.69928 0 19 2.69928 1
gene 1 1 21 -0.168283 0 20 -0.168283 1
gene 1 2 21 1.90967 0 21 1.90967 1
gene 1 3 21 -0.0701325 0 22 -0.0701325 1
gene 1 4 21 0.498611 0 23 0.498611 1
gene 1 5 21 -0.691781 0 24 -0.691781 1
gene 1 6 21 -0.257959 0 25 -0.257959 1
gene 1 7 21 0.454007 0 26 0.454007 1
gene 1 8 21 -0.0890111 0 27 -0.0890111 1
gene 1 9 21 -2.32352 0 28 -2.32352 1
gene 1 10 21 1.25223 0 29 1.25223 1
gene 1 11 21 0.25421 0 30 0.25421 1
gene 1 12 21 -0.604621 0 31 -0.604621 1
gene 1 13 21 -0.493429 0 32 -0.493429 1
gene 1 14 21 0.142019 0 33 0.142019 1
gene 1 15 21 -0.0302495 0 34 -0.0302495 1
gene 1 16 21 0.0708245 0 35 0.0708245 1
gene 1 17 21 0.368049 0 36 0.368049 1
gene 1 18 21 -1.41647 0 37 -1.41647 0
gene 1 19 21 -0.780997 0 38 -0.780997 1
gene 1 21 20 1.01723 0 43 1.01723 0
gene 1 18 28 -0.636035 0 56 -0.636035 1
gene 1 28 20 -0.490842 0 57 -0.490842 0
gene 1 13 28 1.32342 0 62 1.32342 1
gene 1 14 28 -1.52406 0 66 -1.52406 0
gene 1 10 28 0.694187 0 68 0.694187 1
gene 1 17 33 1.26843 0 73 1.26843 1
gene 1 33 20 0.242815 0 74 0.242815 1
gene 1 20 21 0.118585 1 80 0.118585 1
gene 1 18 35 0.434024 0 81 0.434024 1
gene 1 35 21 -0.446962 0 82 -0.446962 1
gene 1 6 36 -0.245073 0 83 -0.245073 1
gene 1 36 20 0.188121 0 84 0.188121 1
gene 1 28 37 -0.35583 0 86 -0.35583 1
gene 1 37 20 0.120251 0 87 0.120251 1
gene 1 21 49 0.0689584 0 131 0.0689584 1
gene 1 49 20 0.293879 0 132 0.293879 1
gene 1 37 35 -0.274407 0 133 -0.274407 1
gene 1 10 37 0.554151 0 151 0.554151 1
gene 1 4 28 0.11308 0 152 0.11308 1
gene 1 14 52 0.886124 0 158 0.886124 1
gene 1 52 20 0.323448 0 159 0.323448 1
gene 1 28 35 0.514506 0 160 0.514506 1
gene 1 4 35 -0.606441 0 161 -0.606441 1
gene 1 13 53 1.64373 0 164 1.64373 1
gene 1 53 20 -0.385112 0 165 -0.385112 1
gene 1 14 56 -0.513009 0 180 -0.513009 1
gene 1 56 28 -0.0241438 0 181 -0.0241438 1
gene 1 1 33 -0.860318 0 204 -0.860318 1
gene 1 10 33 0.291448 0 206 0.291448 1
gene 1 13 37 -1.91955 0 207 -1.91955 1
gene 1 33 37 0.255687 0 215 0.255687 1
gene 1 21 53 -0.397561 0 230 -0.397561 1
gene 1 5 67 0.983658 0 244 0.983658 1
gene 1 67 20 -0.521947 0 245 -0.521947 1
gene 1 35 35 -0.0391616 1 249 -0.0391616 1
gene 1 4 68 1.15576 0 255 1.15576 1
gene 1 68 35 0.706977 0 256 0.706977 1
gene 1 18 69 -0.102021 0 258 -0.102021 1
gene 1 69 28 -0.125728 0 259 -0.125728 1
gene 1 15 68 0.900272 0 288 0.900272 1
genomeend 5151
genomestart 5152
trait 1 0 0.017178 0.0915781 0.0137866 0.00577368 0.0768121 0.0218661 0.0137852 
node 1 1 1 1 0
node 2 1 1 1 0
node 3 1 1 1 0
node 4 1 1 1 0
node 5 1 1 1 0
node 6 1 1 1 0
node 7 1 1 1 0
node 8 1 1 1 0
node 9 1 1 1 0
node 10 1 1 1 0
node 11 1 1 1 0
node 12 1 1 1 0
node 13 1 1 1 0
node 14 1 1 1 0
node 15 1 1 1 0
node 16 1 1 1 0
node 17 1 1 1 0
node 18 1 1 1 0
node 19 1 1 3 0
node 20 1 0 2 0
node 21 1 0 2 0
node 28 1 0 0 0
node 33 1 0 0 0
node 35 1 0 0 0
node 36 1 0 0 0
node 37 1 0 0 0
node 49 1 0 0 0
node 52 1 0 0 0
node 53 1 0 0 0
node 56 1 0 0 0
node 67 1 0 0 0
node 68 1 0 0 0
node 69 1 0 0 0
node 78 1 0 0 0
gene 1 1 20 -0.479019 0 1 -0.479019 1
gene 1 2 20 0.757084 0 2 0.757084 1
gene 1 3 20 1.40638 0 3 1.40638 1
gene 1 4 20 0.259984 0 4 0.259984 1
gene 1 5 20 0.188411 0 5 0.188411 0
gene 1 6 20 0.124667 0 6 0.124667 0
gene 1 7 20 0.861243 0 7 0.861243 1
gene 1 8 20 -0.767304 0 8 -0.767304 1
gene 1 9 20 -1.93272 0 9 -1.93272 1
gene 1 10 20 -0.940157 0 10 -0.940157 1
gene 1 11 20 0.336364 0 11 0.336364 1
gene 1 12 20 0.374699 0 12 0.374699 1
gene 1 13 20 -0.799839 0 13 -0.799839 1
gene 1 14 20 -0.13547 0 14 -0.13547 0
gene 1 15 20 -1.0142 0 15 -1.0142 1
gene 1 16 20 0.306639 0 16 0.306639 1
gene 1 17 20 0.637041 0 17 0.637041 0
gene 1 18 20 0.316611 0 18 0.316611 1
gene 1 19 20 2.85587 0 19 2.85587 1
gene 1 1 21 -0.168283 0 20 -0.168283 1
gene 1 2 21 1.86753 0 21 1.86753 1
gene 1 3 21 -0.107403 0 22 -0.107403 1
gene 1 4 21 0.636042 0 23 0.636042 1
gene 1 5 21 -0.691781 0 24 -0.691781 1
gene 1 6 21 -0.257959 0 25 -0.257959 1
gene 1 7 21 0.512866 0 26 0.512866 1
gene 1 8 21 -0.0890111 0 27 -0.0890111 1
gene 1 9 21 -2.32352 0 28 -2.32352 1
gene 1 10 21 1.48337 0 29 1.48337 1
gene 1 11 21 0.31941 0 30 0.31941 1
gene 1 12 21 -0.604621 0 31 -0.604621 1
gene 1 13 21 -0.493429 0 32 -0.493429 1
gene 1 14 21 0.142019 0 33 0.142019 1
gene 1 15 21 -0.237901 0 34 -0.237901 1
gene 1 16 21 0.0590298 0 35 0.0590298 1
gene 1 17 21 0.368049 0 36 0.368049 1
gene 1 18 21 -1.41647 0 37 -1.41647 0
gene 1 19 21 -0.720547 0 38 -0.720547 1
gene 1 21 20 0.85538 0 43 0.85538 0
gene 1 18 28 -0.636035 0 56 -0.636035 1
gene 1 28 20 -0.490842 0 57 -0.490842 0
gene 1 13 28 1.35732 0 62 1.35732 1
gene 1 14 28 -1.41524 0 66 -1.41524 0
gene 1 10 28 0.694187 0 68 0.694187 1
gene 1 17 33 1.26843 0 73 1.26843 1
gene 1 33 20 0.242815 0 74 0.242815 1
gene 1 20 21 0.0509794 1 80 0.0509794 1
gene 1 18 35 0.36899 0 81 0.36899 1
gene 1 35 21 -0.318164 0 82 -0.318164 1
gene 1 6 36 -0.245073 0 83 -0.245073 1
gene 1 36 20 0.188121 0 84 0.188121 1
gene 1 28 37 -0.333687 0 86 -0.333687 1
gene 1 37 20 -0.0904919 0 87 -0.0904919 1
gene 1 21 49 0.0689584 0 131 0.0689584 1
gene 1 49 20 0.403919 0 132 0.403919 1
gene 1 37 35 -0.274407 0 133 -0.274407 1
gene 1 10 37 0.730139 0 151 0.730139 1
gene 1 4 28 0.11308 0 152 0.11308 1
gene 1 14 52 1.10364 0 158 1.10364 1
gene 1 52 20 0.323448 0 159 0.323448 1
gene 1 28 35 0.514506 0 160 0.514506 1
gene 1 4 35 -0.606441 0 161 -0.606441 1
gene 1 13 53 1.64373 0 164 1.64373 0
gene 1 53 20 -0.532448 0 165 -0.532448 1
gene 1 14 56 -0.0573645 0 180 -0.0573645 1
gene 1 56 28 -0.0241438 0 181 -0.0241438 1
gene 1 1 33 -0.860318 0 204 -0.860318 1
gene 1 10 33 0.291448 0 206 0.291448 1
gene 1 13 37 -1.91955 0 207 -1.91955 1
gene 1 33 37 0.0647498 0 215 0.0647498 1
gene 1 21 53 -0.567695 0 230 -0.567695 1
gene 1 5 67 0.983658 0 244 0.983658 1
gene 1 67 20 -0.521947 0 245 -0.521947 1
gene 1 35 35 -0.0391616 1 249 -0.0391616 1
gene 1 4 68 1.15576 0 255 1.15576 1
gene 1 68 35 0.706977 0 256 0.706977 1
gene 1 18 69 -0.102021 0 258 -0.102021 1
gene 1 69 28 -0.125728 0 259 -0.125728 1
gene 1 15 68 0.900272 0 288 0.900272 1
gene 1 13 78 1 0 304 0 1
gene 1 78 53 0.49312 0 305 0 1
genomeend 5152
genomestart 5157
trait 1 0 0.0165484 0.0916173 0.0119324 0.00513639 0.0689655 0.0217338 0.0138348 
node 1 1 1 1 0
node 2 1 1 1 0
node 3 1 1 1 0
node 4 1 1 1 0
node 5 1 1 1 0
node 6 1 1 1 0
node 7 1 1 1 0
node 8 1 1 1 0
node 9 1 1 1 0
node 10 1 1 1 0
node 11 1 1 1 0
node 12 1 1 1 0
node 13 1 1 1 0
node 14 1 1 1 0
node 15 1 1 1 0
node 16 1 1 1 0
node 17 1 1 1 0
node 18 1 1 1 0
node 19 1 1 3 0
node 20 1 0 2 0
node 21 1 0 2 0
node 23 1 0 0 0
node 28 1 0 0 0
node 33 1 0 0 0
node 35 1 0 0 0
node 37 1 0 0 0
node 45 1 0 0 0
node 53 1 0 0 0
node 56 1 0 0 0
gene 1 1 20 -0.474537 0 1 -0.474537 1
gene 1 2 20 -0.0504209 0 2 -0.0504209 1
gene 1 3 20 0.780711 0 3 0.780711 1
gene 1 4 20 -0.0696232 0 4 -0.0696232 1
gene 1 5 20 0.371684 0 5 0.371684 1
gene 1 6 20 -0.620201 0 6 -0.620201 1
gene 1 7 20 0.175166 0 7 0.175166 1
gene 1 8 20 -0.277984 0 8 -0.277984 1
gene 1 9 20 -0.498717 0 9 -0.498717 1
gene 1 10 20 -1.06984 0 10 -1.06984 0
gene 1 11 20 -0.418875 0 11 -0.418875 1
gene 1 12 20 -0.502371 0 12 -0.502371 1
gene 1 13 20 0.247547 0 13 0.247547 0
gene 1 14 20 -0.0856186 0 14 -0.0856186 1
gene 1 15 20 0.0910334 0 15 0.0910334 1
gene 1 16 20 0.990225 0 16 0.990225 1
gene 1 17 20 -0.224168 0 17 -0.224168 0
gene 1 18 20 0.207825 0 18 0.207825 0
gene 1 19 20 1.21446 0 19 1.21446 1
gene 1 1 21 0.0260926 0 20 0.0260926 1
gene 1 2 21 1.65828 0 21 1.65828 1
gene 1 3 21 0.357109 0 22 0.357109 1
gene 1 4 21 -0.448165 0 23 -0.448165 1
gene 1 5 21 -0.240264 0 24 -0.240264 1
gene 1 6 21 0.0633481 0 25 0.0633481 1
gene 1 7 21 -0.213028 0 26 -0.213028 1
gene 1 8 21 0.248248 0 27 0.248248 1
gene 1 9 21 -2.56769 0 28 -2.56769 1
gene 1 10 21 2.25649 0 29 2.25649 1
gene 1 11 21 -0.226926 0 30 -0.226926 1
gene 1 12 21 -0.310518 0 31 -0.310518 1
gene 1 13 21 0.973838 0 32 0.973838 1
gene 1 14 21 2.14945 0 33 2.14945 1
gene 1 15 21 0.286492 0 34 0.286492 1
gene 1 16 21 0.912066 0 35 0.912066 1
gene 1 17 21 -0.668464 0 36 -0.668464 1
gene 1 18 21 -1.67254 0 37 -1.67254 0
gene 1 19 21 -1.08694 0 38 -1.08694 1
gene 1 15 23 0.315425 0 41 0.315425 1
gene 1 23 20 0.105088 0 42 0.105088 1
gene 1 21 20 0.576468 0 43 0.576468 1
gene 1 18 28 0.433099 0 56 0.433099 1
gene 1 28 20 0.661276 0 57 0.661276 1
gene 1 13 28 0.988157 0 62 0.988157 1
gene 1 14 28 -0.117273 0 66 -0.117273 1
gene 1 10 28 -0.0777026 0 68 -0.0777026 1
gene 1 17 33 1.09148 0 73 1.09148 1
gene 1 33 20 -0.299639 0 74 -0.299639 1
gene 1 20 21 0.19167 1 80 0.19167 1
gene 1 18 35 1.52859 0 81 1.52859 1
gene 1 35 21 0.468104 0 82 0.468104 1
gene 1 28 37 0.338759 0 86 0.338759 1
gene 1 37 20 0.59002 0 87 0.59002 1
gene 1 10 45 -0.103664 0 116 -0.103664 1
gene 1 45 20 -0.331368 0 117 -0.331368 1
gene 1 37 35 -0.7209 0 133 -0.7209 1
gene 1 10 37 -0.101718 0 151 -0.101718 1
gene 1 4 28 -0.0715766 0 152 -0.0715766 1
gene 1 28 35 -0.340291 0 160 -0.340291 1
gene 1 4 35 0.310033 0 161 0.310033 1
gene 1 13 53 -0.419887 0 164 -0.419887 1
gene 1 53 20 -0.0797098 0 165 -0.0797098 1
gene 1 14 56 -0.77232 0 180 -0.77232 1
gene 1 56 28 0.326342 0 181 0.326342 1
gene 1 1 33 -0.155319 0 204 -0.155319 1
gene 1 10 33 0.33602 0 206 0.33602 1
gene 1 33 37 -0.601769 0 215 -0.601769 1
gene 1 33 28 -0.0219903 0 221 -0.0219903 1
gene 1 21 53 0.420461 0 230 0.420461 1
gene 1 28 28 0.975564 1 236 0.975564 1
gene 1 35 35 0.435029 1 249 0.435029 1
gene 1 18 37 -1.28343 0 250 -1.28343 1
gene 1 21 21 0.123778 1 251 0.123778 1
gene 1 6 33 0.930893 0 280 0.930893 1
gene 1 53 45 1.27618 0 296 1.27618 1
gene 1 37 21 -0.779064 0 312 -0.779064 1
genomeend 5157
genomestart 5159
trait 1 0 0.0165484 0.0909864 0.0561357 0.00513639 0.0646552 0.0756805 0.0129701 
node 1 1 1 1 0
node 2 1 1 1 0
node 3 1 1 1 0
node 4 1 1 1 0
node 5 1 1 1 0
node 6 1 1 1 0
node 7 1 1 1 0
node 8 1 1 1 0
node 9 1 1 1 0
node 10 1 1 1 0
node 11 1 1 1 0
node 12 1 1 1 0
node 13 1 1 1 0
node 14 1 1 1 0
node 15 1 1 1 0
node 16 1 1 1 0
node 17 1 1 1 0
node 18 1 1 1 0
node 19 1 1 3 0
node 20 1 0 2 0
node 21 1 0 2 0
node 23 1 0 0 0
node 28 1 0 0 0
node 31 1 0 0 0
node 33 1 0 0 0
node 35 1 0 0 0
node 37 1 0 0 0
node 45 1 0 0 0
node 53 1 0 0 0
node 56 1 0 0 0
node 63 1 0 0 0
gene 1 1 20 -0.362656 0 1 -0.362656 1
gene 1 2 20 -0.170268 0 2 -0.170268 1
gene 1 3 20 0.839418 0 3 0.839418 1
gene 1 4 20 -0.176782 0 4 -0.176782 1
gene 1 5 20 0.371684 0 5 0.371684 1
gene 1 6 20 -1.16068 0 6 -1.16068 1
gene 1 7 20 -0.381485 0 7 -0.381485 1
gene 1 8 20 -0.287966 0 8 -0.287966 1
gene 1 9 20 -0.767336 0 9 -0.767336 1
gene 1 10 20 -1.37741 0 10 -1.37741 0
gene 1 11 20 0.492829 0 11 0.492829 1
gene 1 12 20 -0.47543 0 12 -0.47543 1
gene 1 13 20 0.224398 0 13 0.224398 0
gene 1 14 20 0.171871 0 14 0.171871 1
gene 1 15 20 -0.102757 0 15 -0.102757 1
gene 1 16 20 1.11066 0 16 1.11066 1
gene 1 17 20 -0.349883 0 17 -0.349883 0
gene 1 18 20 0.640868 0 18 0.640868 0
gene 1 19 20 0.836016 0 19 0.836016 1
gene 1 1 21 -0.240379 0 20 -0.240379 1
gene 1 2 21 1.63021 0 21 1.63021 1
gene 1 3 21 0.26322 0 22 0.26322 1
gene 1 4 21 0.217374 0 23 0.217374 1
gene 1 5 21 0.272213 0 24 0.272213 1
gene 1 6 21 0.190285 0 25 0.190285 1
gene 1 7 21 -1.09366 0 26 -1.09366 1
gene 1 8 21 0.184287 0 27 0.184287 1
gene 1 9 21 -2.39416 0 28 -2.39416 1
gene 1 10 21 1.86348 0 29 1.86348 1
gene 1 11 21 -0.038537 0 30 -0.038537 1
gene 1 12 21 -0.100814 0 31 -0.100814 1
gene 1 13 21 0.478485 0 32 0.478485 1
gene 1 14 21 2.40648 0 33 2.40648 0
gene 1 15 21 0.490367 0 34 0.490367 1
gene 1 16 21 1.08924 0 35 1.08924 1
gene 1 17 21 -0.8744 0 36 -0.8744 1
gene 1 18 21 -0.638365 0 37 -0.638365 0
gene 1 19 21 -1.39901 0 38 -1.39901 1
gene 1 15 23 0.21751 0 41 0.21751 1
gene 1 23 20 -0.288038 0 42 -0.288038 1
gene 1 21 20 1.03788 0 43 1.03788 1
gene 1 18 28 0.328492 0 56 0.328492 1
gene 1 28 20 1.23701 0 57 1.23701 1
gene 1 13 28 1.48537 0 62 1.48537 1
gene 1 14 31 0.333393 0 64 0.333393 1
gene 1 31 21 0.383028 0 65 0.383028 1
gene 1 14 28 -0.450536 0 66 -0.450536 1
gene 1 10 28 0.857491 0 68 0.857491 1
gene 1 17 33 0.85793 0 73 0.85793 1
gene 1 33 20 0.0191026 0 74 0.0191026 1
gene 1 20 21 -0.268565 1 80 -0.268565 1
gene 1 18 35 2.05473 0 81 2.05473 1
gene 1 35 21 -0.387431 0 82 -0.387431 1
gene 1 28 37 0.168925 0 86 0.168925 1
gene 1 37 20 0.485138 0 87 0.485138 1
gene 1 2 28 0.144205 0 99 0.144205 1
gene 1 10 45 -0.770341 0 116 -0.770341 1
gene 1 45 20 -1.41856 0 117 -1.41856 1
gene 1 37 35 -0.455823 0 133 -0.455823 1
gene 1 10 37 0.432565 0 151 0.432565 1
gene 1 4 28 -0.171226 0 152 -0.171226 1
gene 1 28 35 0.503713 0 160 0.503713 1
gene 1 4 35 -0.0902887 0 161 -0.0902887 1
gene 1 13 53 0.813144 0 164 0.813144 1
gene 1 53 20 -0.364472 0 165 -0.364472 1
gene 1 14 56 -0.584797 0 180 -0.584797 1
gene 1 56 28 1.02799 0 181 1.02799 1
gene 1 1 33 -0.178165 0 204 -0.178165 1
gene 1 10 33 -0.208654 0 206 -0.208654 1
gene 1 33 37 -0.574616 0 215 -0.574616 1
gene 1 37 63 -0.223149 0 217 -0.223149 1
gene 1 63 35 -0.0404156 0 218 -0.0404156 1
gene 1 33 28 0.152203 0 221 0.152203 1
gene 1 21 53 -0.186166 0 230 -0.186166 1
gene 1 28 28 0.513968 1 236 0.513968 1
gene 1 35 35 0.0872069 1 249 0.0872069 1
gene 1 18 37 -1.18182 0 250 -1.18182 1
gene 1 21 21 0.680199 1 251 0.680199 1
gene 1 6 33 0.834601 0 280 0.834601 1
gene 1 53 45 0.955017 0 296 0.955017 1
genomeend 5159
genomestart 5160
trait 1 0 0.935167 0.0915781 0.0137866 0.48335 0.0768121 1 0.0137852 
node 1 1 1 1 0
node 2 1 1 1 0
node 3 1 1 1 0
node 4 1 1 1 0
node 5 1 1 1 0
node 6 1 1 1 0
node 7 1 1 1 0
node 8 1 1 1 0
node 9 1 1 1 0
node 10 1 1 1 0
node 11 1 1 1 0
node 12 1 1 1 0
node 13 1 1 1 0
node 14 1 1 1 0
node 15 1 1 1 0
node 16 1 1 1 0
node 17 1 1 1 0
node 18 1 1 1 0
node 19 1 1 3 0
node 20 1 0 2 0
node 21 1 0 2 0
node 28 1 0 0 0
node 33 1 0 0 0
node 35 1 0 0 0
node 36 1 0 0 0
node 37 1 0 0 0
node 49 1 0 0 0
node 52 1 0 0 0
node 53 1 0 0 0
node 56 1 0 0 0
node 67 1 0 0 0
node 68 1 0 0 0
node 69 1 0 0 0
gene 1 1 20 -0.394764 0 1 -0.394764 1
gene 1 2 20 0.269726 0 2 0.269726 1
gene 1 3 20 1.7948 0 3 1.7948 1
gene 1 4 20 0.784414 0 4 0.784414 1
gene 1 5 20 0.165608 0 5 0.165608 0
gene 1 6 20 -0.24111 0 6 -0.24111 0
gene 1 7 20 1.08812 0 7 1.08812 1
gene 1 8 20 -0.133072 0 8 -0.133072 1
gene 1 9 20 -1.96122 0 9 -1.96122 1
gene 1 10 20 -0.00394861 0 10 -0.00394861 1
gene 1 11 20 -0.0737572 0 11 -0.0737572 1
gene 1 12 20 0.332089 0 12 0.332089 1
gene 1 13 20 -0.653945 0 13 -0.653945 1
gene 1 14 20 -0.489337 0 14 -0.489337 0
gene 1 15 20 -1.08088 0 15 -1.08088 1
gene 1 16 20 0.399619 0 16 0.399619 1
gene 1 17 20 0.214729 0 17 0.214729 0
gene 1 18 20 0.0229507 0 18 0.0229507 1
gene 1 19 20 2.11642 0 19 2.11642 1
gene 1 1 21 -0.666646 0 20 -0.666646 1
gene 1 2 21 2.29781 0 21 2.29781 1
gene 1 3 21 -0.213142 0 22 -0.213142 1
gene 1 4 21 0.748996 0 23 0.748996 1
gene 1 5 21 -0.382682 0 24 -0.382682 1
gene 1 6 21 0.219805 0 25 0.219805 1
gene 1 7 21 0.844737 0 26 0.844737 1
gene 1 8 21 -0.5151 0 27 -0.5151 1
gene 1 9 21 -2.0416 0 28 -2.0416 1
gene 1 10 21 0.799159 0 29 0.799159 1
gene 1 11 21 0.606431 0 30 0.606431 1
gene 1 12 21 -0.750376 0 31 -0.750376 1
gene 1 13 21 -0.486085 0 32 -0.486085 1
gene 1 14 21 -0.440747 0 33 -0.440747 1
gene 1 15 21 -0.203428 0 34 -0.203428 1
gene 1 16 21 0.228326 0 35 0.228326 1
gene 1 17 21 -0.313641 0 36 -0.313641 1
gene 1 18 21 -1.2902 0 37 -1.2902 0
gene 1 19 21 -0.486947 0 38 -0.486947 1
gene 1 21 20 1.58747 0 43 1.58747 0
gene 1 18 28 -0.434255 0 56 -0.434255 1
gene 1 28 20 -0.0316664 0 57 -0.0316664 0
gene 1 13 28 1.73475 0 62 1.73475 1
gene 1 14 28 -1.828 0 66 -1.828 0
gene 1 10 28 0.426149 0 68 0.426149 1
gene 1 17 33 1.26005 0 73 1.26005 1
gene 1 33 20 0.421834 0 74 0.421834 1
gene 1 20 21 -0.131484 1 80 -0.131484 1
gene 1 18 35 0.0613819 0 81 0.0613819 1
gene 1 35 21 -0.475919 0 82 -0.475919 1
gene 1 6 36 0.0799035 0 83 0.0799035 1
gene 1 36 20 0.387368 0 84 0.387368 1
gene 1 28 37 -0.679183 0 86 -0.679183 1
gene 1 37 20 0.393323 0 87 0.393323 1
gene 1 21 49 0.412276 0 131 0.412276 1
gene 1 49 20 -0.174366 0 132 -0.174366 1
gene 1 37 35 -0.21555 0 133 -0.21555 1
gene 1 10 37 -0.0456796 0 151 -0.0456796 1
gene 1 4 28 0.213041 0 152 0.213041 1
gene 1 14 52 1.04761 0 158 1.04761 1
gene 1 52 20 0.744054 0 159 0.744054 1
gene 1 28 35 0.369368 0 160 0.369368 1
gene 1 4 35 -0.905497 0 161 -0.905497 1
gene 1 13 53 1.48962 0 164 1.48962 1
gene 1 53 20 -0.0505067 0 165 -0.0505067 1
gene 1 14 56 -0.148768 0 180 -0.148768 1
gene 1 56 28 -0.377367 0 181 -0.377367 1
gene 1 1 33 -0.559566 0 204 -0.559566 1
gene 1 10 33 0.660204 0 206 0.660204 1
gene 1 13 37 -0.326175 0 207 -0.326175 1
gene 1 33 37 0.0824003 0 215 0.0824003 1
gene 1 21 53 -0.308221 0 230 -0.308221 1
gene 1 5 67 0.983658 0 244 0.983658 1
gene 1 67 20 0.371759 0 245 0.371759 1
gene 1 35 35 -0.446688 1 249 -0.446688 1
gene 1 4 68 1.18597 0 255 1.18597 1
gene 1 68 35 0.303199 0 256 0.303199 1
gene 1 18 69 -0.177256 0 258 -0.177256 1
gene 1 69 28 0.0438732 0 259 0.0438732 1
gene 1 15 68 0.730982 0 288 0.730982 1
genomeend 5160
genomestart 5161
trait 1 0 0.017178 0.0915781 0.0137866 0.00577368 0.0768121 0.0218661 0.0137852 
node 1 1 1 1 0
node 2 1 1 1 0
node 3 1 1 1 0
node 4 1 1 1 0
node 5 1 1 1 0
node 6 1 1 1 0
node 7 1 1 1 0
node 8 1 1 1 0
node 9 1 1 1 0
node 10 1 1 1 0
node 11 1 1 1 0
node 12 1 1 1 0
node 13 1 1 1 0
node 14 1 1 1 0
node 15 1 1 1 0
node 16 1 1 1 0
node 17 1 1 1 0
node 18 1 1 1 0
node 19 1 1 3 0
node 20 1 0 2 0
node 21 1 0 2 0
node 28 1 0 0 0
node 33 1 0 0 0
node 35 1 0 0 0
node 36 1 0 0 0
node 37 1 0 0 0
node 53 1 0 0 0
node 56 1 0 0 0
node 68 1 0 0 0
node 69 1 0 0 0
gene 1 1 20 -0.642464 0 1 -0.642464 1
gene 1 2 20 -0.36559 0 2 -0.36559 1
gene 1 3 20 0.897758 0 3 0.897758 1
gene 1 4 20 0.623643 0 4 0.623643 1
gene 1 5 20 0.896401 0 5 0.896401 1
gene 1 6 20 0.306906 0 6 0.306906 0
gene 1 7 20 0.555769 0 7 0.555769 1
gene 1 8 20 -0.405412 0 8 -0.405412 1
gene 1 9 20 -1.7512 0 9 -1.7512 1
gene 1 10 20 -0.691131 0 10 -0.691131 1
gene 1 11 20 -0.184839 0 11 -0.184839 1
gene 1 12 20 -0.226202 0 12 -0.226202 1
gene 1 13 20 -0.921254 0 13 -0.921254 1
gene 1 14 20 -0.580032 0 14 -0.580032 1
gene 1 15 20 -0.413606 0 15 -0.413606 1
gene 1 16 20 0.319917 0 16 0.319917 1
gene 1 17 20 0.959213 0 17 0.959213 0
gene 1 18 20 0.371197 0 18 0.371197 1
gene 1 19 20 2.28887 0 19 2.28887 1
gene 1 1 21 0.0404277 0 20 0.0404277 1
gene 1 2 21 0.0638768 0 21 0.0638768 1
gene 1 3 21 0.772717 0 22 0.772717 1
gene 1 4 21 0.52385 0 23 0.52385 1
gene 1 5 21 -0.20402 0 24 -0.20402 1
gene 1 6 21 -0.707132 0 25 -0.707132 1
gene 1 7 21 -0.498468 0 26 -0.498468 1
gene 1 8 21 0.10809 0 27 0.10809 1
gene 1 9 21 -2.35883 0 28 -2.35883 1
gene 1 10 21 1.68169 0 29 1.68169 1
gene 1 11 21 -0.361355 0 30 -0.361355 1
gene 1 12 21 0.0254474 0 31 0.0254474 1
gene 1 13 21 1.14946 0 32 1.14946 1
gene 1 14 21 1.8383 0 33 1.8383 1
gene 1 15 21 -0.246899 0 34 -0.246899 1
gene 1 16 21 0.797543 0 35 0.797543 1
gene 1 17 21 0.526989 0 36 0.526989 1
gene 1 18 21 -0.625429 0 37 -0.625429 1
gene 1 19 21 -0.337311 0 38 -0.337311 1
gene 1 21 20 1.66918 0 43 1.66918 1
gene 1 18 28 -0.0948704 0 56 -0.0948704 1
gene 1 28 20 0.559891 0 57 0.559891 1
gene 1 13 28 0.772993 0 62 0.772993 1
gene 1 14 28 -0.874901 0 66 -0.874901 1
gene 1 10 28 -0.0187125 0 68 -0.0187125 1
gene 1 17 33 -0.89527 0 73 -0.89527 1
gene 1 33 20 -0.288876 0 74 -0.288876 1
gene 1 20 21 0.446164 1 80 0.446164 1
gene 1 18 35 0.917176 0 81 0.917176 1
gene 1 35 21 -0.297957 0 82 -0.297957 1
gene 1 6 36 1.82256 0 83 1.82256 1
gene 1 36 20 -0.0249712 0 84 -0.0249712 1
gene 1 28 37 0.104345 0 86 0.104345 1
gene 1 37 20 -0.431403 0 87 -0.431403 1
gene 1 37 35 0.21075 0 133 0.21075 1
gene 1 10 37 -0.564747 0 151 -0.564747 1
gene 1 4 28 -0.559261 0 152 -0.559261 1
gene 1 28 35 0.808138 0 160 0.808138 1
gene 1 4 35 -0.704568 0 161 -0.704568 0
gene 1 13 53 1.67697 0 164 1.67697 1
gene 1 53 20 0.225992 0 165 0.225992 1
gene 1 14 56 -1.00757 0 180 -1.00757 1
gene 1 56 28 0.441862 0 181 0.441862 1
gene 1 1 33 -1.54244 0 204 -1.54244 1
gene 1 10 33 -0.0719102 0 206 -0.0719102 1
gene 1 13 37 -0.763207 0 207 -0.763207 1
gene 1 33 37 -0.159004 0 215 -0.159004 1
gene 1 21 53 -0.598747 0 230 -0.598747 1
gene 1 35 35 0.361197 1 249 0.361197 1
gene 1 4 68 0.290017 0 255 0.290017 1
gene 1 68 35 -0.0610167 0 256 -0.0610167 1
gene 1 18 69 -0.000580393 0 258 -0.000580393 1
gene 1 69 28 0.129945 0 259 0.129945 1
gene 1 15 68 0.206656 0 288 0.206656 1
gene 1 68 56 -0.189173 0 291 -0.189173 1
genomeend 5161
genomestart 5162
trait 1 0 0.017178 0.0915781 0.0137866 0.00577368 0.0768121 0.0218661 0.0137852 
node 1 1 1 1 0
node 2 1 1 1 0
node 3 1 1 1 0
node 4 1 1 1 0
node 5 1 1 1 0
node 6 1 1 1 0
node 7 1 1 1 0
node 8 1 1 1 0
node 9 1 1 1 0
node 10 1 1 1 0
node 11 1 1 1 0
node 12 1 1 1 0
node 13 1 1 1 0
node 14 1 1 1 0
node 15 1 1 1 0
node 16 1 1 1 0
node 17 1 1 1 0
node 18 1 1 1 0
node 19 1 1 3 0
node 20 1 0 2 0
node 21 1 0 2 0
node 28 1 0 0 0
