genomestart 6728
trait 1 0.00711357 0.0161043 0.0858545 0.0656547 0.0493413 0.0768121 0.0218661 0.0590363 
node 1 1 1 1 0
node 2 1 1 1 0
node 3 1 1 1 0
node 4 1 1 1 0
node 5 1 1 1 0
node 6 1 1 1 0
node 7 1 1 1 0
node 8 1 1 1 0
node 9 1 1 1 0
node 10 1 1 1 0
node 11 1 1 1 0
node 12 1 1 1 0
node 13 1 1 1 0
node 14 1 1 1 0
node 15 1 1 1 0
node 16 1 1 1 0
node 17 1 1 1 0
node 18 1 1 1 0
node 19 1 1 3 0
node 20 1 0 2 0
node 21 1 0 2 0
node 28 1 0 0 0
node 33 1 0 0 0
node 35 1 0 0 0
node 36 1 0 0 0
node 37 1 0 0 0
node 53 1 0 0 0
node 56 1 0 0 0
node 68 1 0 0 0
node 69 1 0 0 0
gene 1 1 20 0.481304 0 1 0.481304 1
gene 1 2 20 0.205481 0 2 0.205481 1
gene 1 3 20 0.909331 0 3 0.909331 1
gene 1 4 20 0.297329 0 4 0.297329 1
gene 1 5 20 -0.52734 0 5 -0.52734 1
gene 1 6 20 -0.535447 0 6 -0.535447 1
gene 1 7 20 -0.820002 0 7 -0.820002 1
gene 1 8 20 0.689221 0 8 0.689221 1
gene 1 9 20 0.196109 0 9 0.196109 1
gene 1 10 20 0.404438 0 10 0.404438 1
gene 1 11 20 -0.0265999 0 11 -0.0265999 1
gene 1 12 20 1.14032 0 12 1.14032 1
gene 1 13 20 0.646082 0 13 0.646082 1
gene 1 14 20 -0.23382 0 14 -0.23382 1
gene 1 15 20 0.690923 0 15 0.690923 1
gene 1 16 20 0.514474 0 16 0.514474 1
gene 1 17 20 0.117957 0 17 0.117957 0
gene 1 18 20 -0.284101 0 18 -0.284101 1
gene 1 19 20 1.01953 0 19 1.01953 1
gene 1 1 21 0.275893 0 20 0.275893 1
gene 1 2 21 1.07533 0 21 1.07533 1
gene 1 3 21 -0.415111 0 22 -0.415111 1
gene 1 4 21 -1.98993 0 23 -1.98993 1
gene 1 5 21 1.95934 0 24 1.95934 1
gene 1 6 21 -0.278454 0 25 -0.278454 1
gene 1 7 21 -0.00279802 0 26 -0.00279802 1
gene 1 8 21 0.177739 0 27 0.177739 1
gene 1 9 21 -0.157755 0 28 -0.157755 1
gene 1 10 21 0.232755 0 29 0.232755 1
gene 1 11 21 -0.103589 0 30 -0.103589 1
gene 1 12 21 -1.01354 0 31 -1.01354 1
gene 1 13 21 -0.287381 0 32 -0.287381 1
gene 1 14 21 1.49853 0 33 1.49853 1
gene 1 15 21 1.02873 0 34 1.02873 1
gene 1 16 21 0.129055 0 35 0.129055 1
gene 1 17 21 0.0326054 0 36 0.0326054 1
gene 1 18 21 -0.870588 0 37 -0.870588 1
gene 1 19 21 0.113478 0 38 0.113478 1
gene 1 21 20 -0.712084 0 43 -0.712084 1
gene 1 18 28 -0.411934 0 56 -0.411934 1
gene 1 28 20 0.675827 0 57 0.675827 0
gene 1 13 28 0.934112 0 62 0.934112 1
gene 1 14 28 -0.0522892 0 66 -0.0522892 1
gene 1 10 28 0.706406 0 68 0.706406 1
gene 1 17 33 -0.2111 0 73 -0.2111 1
gene 1 33 20 -0.104928 0 74 -0.104928 1
gene 1 20 21 -0.792793 1 80 -0.792793 1
gene 1 18 35 0.316484 0 81 0.316484 1
gene 1 35 21 -0.22748 0 82 -0.22748 1
gene 1 6 36 -0.0716312 0 83 -0.0716312 1
gene 1 36 20 0.445347 0 84 0.445347 1
gene 1 28 37 -0.132871 0 86 -0.132871 1
gene 1 37 20 0.273658 0 87 0.273658 1
gene 1 37 35 -0.816089 0 133 -0.816089 1
gene 1 10 37 -0.361047 0 151 -0.361047 1
gene 1 4 28 -0.240332 0 152 -0.240332 1
gene 1 28 35 -0.290607 0 160 -0.290607 1
gene 1 4 35 1.31629 0 161 1.31629 0
gene 1 13 53 -1.24555 0 164 -1.24555 1
gene 1 53 20 -0.190512 0 165 -0.190512 1
gene 1 14 56 -0.638691 0 180 -0.638691 1
gene 1 56 28 0.983707 0 181 0.983707 1
gene 1 1 33 -0.517788 0 204 -0.517788 1
gene 1 10 33 -0.17262 0 206 -0.17262 1
gene 1 13 37 0.111425 0 207 0.111425 1
gene 1 33 37 -0.73911 0 215 -0.73911 1
gene 1 21 53 0.293935 0 230 0.293935 1
gene 1 35 35 -0.302548 1 249 -0.302548 1
gene 1 4 68 0.431923 0 255 0.431923 1
gene 1 68 35 -0.388213 0 256 -0.388213 1
gene 1 18 69 -0.384204 0 258 -0.384204 1
gene 1 69 28 -0.0915123 0 259 -0.0915123 1
gene 1 28 33 0.152769 0 267 0.152769 1
gene 1 15 68 -0.0667253 0 288 -0.0667253 1
gene 1 68 56 0.54837 0 291 0.54837 1
genomeend 6728
genomestart 6729
trait 1 0.00711357 0.0161043 0.0858545 0.0656547 0.0493413 0.0768121 0.0218661 0.0590363 
node 1 1 1 1 0
node 2 1 1 1 0
node 3 1 1 1 0
node 4 1 1 1 0
node 5 1 1 1 0
node 6 1 1 1 0
node 7 1 1 1 0
node 8 1 1 1 0
node 9 1 1 1 0
node 10 1 1 1 0
node 11 1 1 1 0
node 12 1 1 1 0
node 13 1 1 1 0
node 14 1 1 1 0
node 15 1 1 1 0
node 16 1 1 1 0
node 17 1 1 1 0
node 18 1 1 1 0
node 19 1 1 3 0
node 20 1 0 2 0
node 21 1 0 2 0
node 28 1 0 0 0
node 33 1 0 0 0
node 35 1 0 0 0
node 36 1 0 0 0
node 37 1 0 0 0
node 53 1 0 0 0
node 56 1 0 0 0
node 68 1 0 0 0
node 69 1 0 0 0
gene 1 1 20 0.266317 0 1 0.266317 1
gene 1 2 20 0.534258 0 2 0.534258 1
gene 1 3 20 1.25632 0 3 1.25632 1
gene 1 4 20 0.861442 0 4 0.861442 1
gene 1 5 20 0.118243 0 5 0.118243 1
gene 1 6 20 -0.506736 0 6 -0.506736 0
gene 1 7 20 -1.02316 0 7 -1.02316 1
gene 1 8 20 0.606592 0 8 0.606592 1
gene 1 9 20 -0.133764 0 9 -0.133764 1
gene 1 10 20 0.802379 0 10 0.802379 1
gene 1 11 20 -0.553199 0 11 -0.553199 1
gene 1 12 20 1.23683 0 12 1.23683 1
gene 1 13 20 0.23461 0 13 0.23461 1
gene 1 14 20 0.133714 0 14 0.133714 1
gene 1 15 20 0.525684 0 15 0.525684 1
gene 1 16 20 0.476604 0 16 0.476604 1
gene 1 17 20 0.376534 0 17 0.376534 0
gene 1 18 20 -0.815219 0 18 -0.815219 1
gene 1 19 20 0.957768 0 19 0.957768 1
gene 1 1 21 0.485883 0 20 0.485883 1
gene 1 2 21 0.286864 0 21 0.286864 1
gene 1 3 21 0.321175 0 22 0.321175 1
gene 1 4 21 -1.91553 0 23 -1.91553 1
gene 1 5 21 2.21632 0 24 2.21632 1
gene 1 6 21 -0.411423 0 25 -0.411423 1
gene 1 7 21 0.818916 0 26 0.818916 1
gene 1 8 21 0.574353 0 27 0.574353 1
gene 1 9 21 0.475978 0 28 0.475978 1
gene 1 10 21 -0.00239251 0 29 -0.00239251 1
gene 1 11 21 -0.507094 0 30 -0.507094 1
gene 1 12 21 -1.10916 0 31 -1.10916 1
gene 1 13 21 0.103871 0 32 0.103871 1
gene 1 14 21 1.6933 0 33 1.6933 1
gene 1 15 21 1.37067 0 34 1.37067 1
gene 1 16 21 0.702689 0 35 0.702689 1
gene 1 17 21 -0.0842081 0 36 -0.0842081 1
gene 1 18 21 -0.827349 0 37 -0.827349 1
gene 1 19 21 -0.0707778 0 38 -0.0707778 1
gene 1 21 20 -1.00148 0 43 -1.00148 1
gene 1 18 28 -0.564244 0 56 -0.564244 1
gene 1 28 20 0.282153 0 57 0.282153 1
gene 1 13 28 0.405395 0 62 0.405395 1
gene 1 14 28 0.0780197 0 66 0.0780197 0
gene 1 10 28 0.432764 0 68 0.432764 1
gene 1 17 33 0.0486567 0 73 0.0486567 1
gene 1 33 20 0.0612852 0 74 0.0612852 1
gene 1 20 21 -0.413215 1 80 -0.413215 1
gene 1 18 35 0.760132 0 81 0.760132 1
gene 1 35 21 -0.380868 0 82 -0.380868 1
gene 1 6 36 0.408911 0 83 0.408911 1
gene 1 36 20 0.421859 0 84 0.421859 1
gene 1 28 37 -0.335024 0 86 -0.335024 1
gene 1 37 20 0.419727 0 87 0.419727 1
gene 1 37 35 -0.536947 0 133 -0.536947 1
gene 1 10 37 -0.404158 0 151 -0.404158 1
gene 1 4 28 -0.479424 0 152 -0.479424 1
gene 1 28 35 -0.222448 0 160 -0.222448 1
gene 1 4 35 0.908633 0 161 0.908633 0
gene 1 13 53 -0.465617 0 164 -0.465617 1
gene 1 53 20 -0.255988 0 165 -0.255988 1
gene 1 14 56 -0.794684 0 180 -0.794684 1
gene 1 56 28 0.155345 0 181 0.155345 1
gene 1 1 33 -0.83469 0 204 -0.83469 1
gene 1 10 33 -0.566324 0 206 -0.566324 1
gene 1 13 37 -0.719421 0 207 -0.719421 1
gene 1 33 37 -0.65861 0 215 -0.65861 1
gene 1 21 53 0.271319 0 230 0.271319 1
gene 1 35 35 -0.288575 1 249 -0.288575 1
gene 1 4 68 0.130101 0 255 0.130101 1
gene 1 68 35 -0.064043 0 256 -0.064043 1
gene 1 18 69 0.147924 0 258 0.147924 1
gene 1 69 28 0.108922 0 259 0.108922 1
gene 1 28 33 -0.212507 0 267 -0.212507 1
gene 1 15 68 -0.162042 0 288 -0.162042 1
gene 1 68 56 0.164751 0 291 0.164751 1
genomeend 6729
genomestart 6748
trait 1 0 0.445698 0.0686836 0.0137866 0.144242 0.489288 0.194333 0.0103389 
node 1 1 1 1 0
node 2 1 1 1 0
node 3 1 1 1 0
node 4 1 1 1 0
node 5 1 1 1 0
node 6 1 1 1 0
node 7 1 1 1 0
node 8 1 1 1 0
node 9 1 1 1 0
node 10 1 1 1 0
node 11 1 1 1 0
node 12 1 1 1 0
node 13 1 1 1 0
node 14 1 1 1 0
node 15 1 1 1 0
node 16 1 1 1 0
node 17 1 1 1 0
node 18 1 1 1 0
node 19 1 1 3 0
node 20 1 0 2 0
node 21 1 0 2 0
node 28 1 0 0 0
node 33 1 0 0 0
node 35 1 0 0 0
node 36 1 0 0 0
node 37 1 0 0 0
node 49 1 0 0 0
node 52 1 0 0 0
node 53 1 0 0 0
node 56 1 0 0 0
node 67 1 0 0 0
node 68 1 0 0 0
node 69 1 0 0 0
node 81 1 0 0 0
node 90 1 0 0 0
gene 1 1 20 -0.0304387 0 1 -0.0304387 1
gene 1 2 20 -0.126746 0 2 -0.126746 1
gene 1 3 20 0.191178 0 3 0.191178 1
gene 1 4 20 0.0126269 0 4 0.0126269 1
gene 1 5 20 0.58571 0 5 0.58571 1
gene 1 6 20 -0.153471 0 6 -0.153471 0
gene 1 7 20 0.290936 0 7 0.290936 1
gene 1 8 20 -0.297458 0 8 -0.297458 1
gene 1 9 20 0.257051 0 9 0.257051 1
gene 1 10 20 -0.424686 0 10 -0.424686 1
gene 1 11 20 0.287311 0 11 0.287311 1
gene 1 12 20 1.01103 0 12 1.01103 1
gene 1 13 20 0.137708 0 13 0.137708 1
gene 1 14 20 -0.34003 0 14 -0.34003 1
gene 1 15 20 -0.493796 0 15 -0.493796 1
gene 1 16 20 -0.263622 0 16 -0.263622 1
gene 1 17 20 0.172851 0 17 0.172851 1
gene 1 18 20 -0.637224 0 18 -0.637224 1
gene 1 19 20 2.82189 0 19 2.82189 1
gene 1 1 21 0.183042 0 20 0.183042 1
gene 1 2 21 1.24269 0 21 1.24269 1
gene 1 3 21 -0.0664149 0 22 -0.0664149 1
gene 1 4 21 -0.231461 0 23 -0.231461 1
gene 1 5 21 -0.533285 0 24 -0.533285 1
gene 1 6 21 0.306808 0 25 0.306808 1
gene 1 7 21 -0.111944 0 26 -0.111944 1
gene 1 8 21 -0.301509 0 27 -0.301509 1
gene 1 9 21 -1.63183 0 28 -1.63183 1
gene 1 10 21 0.340444 0 29 0.340444 1
gene 1 11 21 0.347706 0 30 0.347706 1
gene 1 12 21 -0.10715 0 31 -0.10715 1
gene 1 13 21 -1.64208 0 32 -1.64208 1
gene 1 14 21 -0.624418 0 33 -0.624418 1
gene 1 15 21 0.888953 0 34 0.888953 1
gene 1 16 21 0.0348935 0 35 0.0348935 1
gene 1 17 21 0.0431423 0 36 0.0431423 1
gene 1 18 21 -1.02137 0 37 -1.02137 1
gene 1 19 21 -0.300258 0 38 -0.300258 1
gene 1 21 20 -0.176122 0 43 -0.176122 1
gene 1 18 28 -0.41811 0 56 -0.41811 1
gene 1 28 20 0.791223 0 57 0.791223 1
gene 1 13 28 1.1267 0 62 1.1267 1
gene 1 14 28 -1.31136 0 66 -1.31136 1
gene 1 10 28 0.646184 0 68 0.646184 0
gene 1 17 33 1.25786 0 73 1.25786 1
gene 1 33 20 -0.358321 0 74 -0.358321 1
gene 1 20 21 0.0859698 1 80 0.0859698 1
gene 1 18 35 0.794086 0 81 0.794086 1
gene 1 35 21 -0.166882 0 82 -0.166882 1
gene 1 6 36 -0.253674 0 83 -0.253674 1
gene 1 36 20 0.344117 0 84 0.344117 1
gene 1 28 37 -0.468132 0 86 -0.468132 1
gene 1 37 20 -0.591278 0 87 -0.591278 1
gene 1 21 49 0.0703226 0 131 0.0703226 1
gene 1 49 20 0.279802 0 132 0.279802 1
gene 1 37 35 0.777663 0 133 0.777663 1
gene 1 10 37 0.443115 0 151 0.443115 1
gene 1 4 28 -0.142768 0 152 -0.142768 1
gene 1 14 52 -0.279944 0 158 -0.279944 1
gene 1 52 20 -0.336691 0 159 -0.336691 1
gene 1 28 35 -0.437064 0 160 -0.437064 1
gene 1 4 35 0.171143 0 161 0.171143 1
gene 1 13 53 0.14454 0 164 0.14454 1
gene 1 53 20 -0.668389 0 165 -0.668389 1
gene 1 14 56 -0.623287 0 180 -0.623287 1
gene 1 56 28 -0.822975 0 181 -0.822975 1
gene 1 1 33 -0.544218 0 204 -0.544218 1
gene 1 10 33 0.865345 0 206 0.865345 1
gene 1 13 37 0.0337757 0 207 0.0337757 1
gene 1 33 37 -0.0284801 0 215 -0.0284801 1
gene 1 21 53 -0.0236937 0 230 -0.0236937 1
gene 1 5 67 0.562369 0 244 0.562369 1
gene 1 67 20 1.20035 0 245 1.20035 1
gene 1 35 35 0.367321 1 249 0.367321 1
gene 1 4 68 0.931594 0 255 0.931594 1
gene 1 68 35 0.368461 0 256 0.368461 1
gene 1 18 69 0.320101 0 258 0.320101 1
gene 1 69 28 0.238891 0 259 0.238891 1
gene 1 15 68 0.222416 0 288 0.222416 1
gene 1 13 81 -0.148082 0 322 -0.148082 1
gene 1 81 28 0.583281 0 323 0.583281 1
gene 1 10 90 0.503491 0 366 0.503491 1
gene 1 90 28 0.246837 0 367 0.246837 1
gene 1 28 36 -0.235062 0 368 -0.235062 1
genomeend 6748
genomestart 6777
trait 1 0.00711357 0.0161043 0.0858545 0.0656547 0.0493413 0.0768121 0.0218661 0.0590363 
node 1 1 1 1 0
node 2 1 1 1 0
node 3 1 1 1 0
node 4 1 1 1 0
node 5 1 1 1 0
node 6 1 1 1 0
node 7 1 1 1 0
node 8 1 1 1 0
node 9 1 1 1 0
node 10 1 1 1 0
node 11 1 1 1 0
node 12 1 1 1 0
node 13 1 1 1 0
node 14 1 1 1 0
node 15 1 1 1 0
node 16 1 1 1 0
node 17 1 1 1 0
node 18 1 1 1 0
node 19 1 1 3 0
node 20 1 0 2 0
node 21 1 0 2 0
node 28 1 0 0 0
node 33 1 0 0 0
node 35 1 0 0 0
node 36 1 0 0 0
node 37 1 0 0 0
node 53 1 0 0 0
node 56 1 0 0 0
node 68 1 0 0 0
node 69 1 0 0 0
gene 1 1 20 0.498493 0 1 0.498493 1
gene 1 2 20 -0.187395 0 2 -0.187395 1
gene 1 3 20 1.09755 0 3 1.09755 1
gene 1 4 20 0.79561 0 4 0.79561 1
gene 1 5 20 -0.166579 0 5 -0.166579 1
gene 1 6 20 -0.426789 0 6 -0.426789 1
gene 1 7 20 -0.602109 0 7 -0.602109 1
gene 1 8 20 0.873336 0 8 0.873336 1
gene 1 9 20 0.135761 0 9 0.135761 1
gene 1 10 20 0.377929 0 10 0.377929 1
gene 1 11 20 0.283835 0 11 0.283835 1
gene 1 12 20 0.750618 0 12 0.750618 1
gene 1 13 20 1.01665 0 13 1.01665 1
gene 1 14 20 -0.67675 0 14 -0.67675 1
gene 1 15 20 1.09093 0 15 1.09093 1
gene 1 16 20 0.089384 0 16 0.089384 1
gene 1 17 20 -0.0361509 0 17 -0.0361509 0
gene 1 18 20 -0.545551 0 18 -0.545551 1
gene 1 19 20 1.22035 0 19 1.22035 1
gene 1 1 21 -0.161611 0 20 -0.161611 1
gene 1 2 21 1.25304 0 21 1.25304 1
gene 1 3 21 -0.109999 0 22 -0.109999 1
gene 1 4 21 -1.50184 0 23 -1.50184 1
gene 1 5 21 2.19488 0 24 2.19488 1
gene 1 6 21 -0.54066 0 25 -0.54066 1
gene 1 7 21 -0.435071 0 26 -0.435071 1
gene 1 8 21 0.35962 0 27 0.35962 1
gene 1 9 21 -0.0150304 0 28 -0.0150304 1
gene 1 10 21 -0.0765071 0 29 -0.0765071 1
gene 1 11 21 -0.365985 0 30 -0.365985 1
gene 1 12 21 -1.16116 0 31 -1.16116 1
gene 1 13 21 0.0566423 0 32 0.0566423 1
gene 1 14 21 1.31585 0 33 1.31585 1
gene 1 15 21 1.44017 0 34 1.44017 1
gene 1 16 21 0.142671 0 35 0.142671 1
gene 1 17 21 -0.407612 0 36 -0.407612 1
gene 1 18 21 -0.720579 0 37 -0.720579 1
gene 1 19 21 -0.0450332 0 38 -0.0450332 1
gene 1 21 20 -0.939634 0 43 -0.939634 1
gene 1 18 28 -0.230566 0 56 -0.230566 1
gene 1 28 20 0.248657 0 57 0.248657 0
gene 1 13 28 0.740324 0 62 0.740324 1
gene 1 14 28 0.296049 0 66 0.296049 1
gene 1 10 28 0.330115 0 68 0.330115 1
gene 1 17 33 -0.0496467 0 73 -0.0496467 1
gene 1 33 20 -0.217298 0 74 -0.217298 1
gene 1 20 21 -0.613925 1 80 -0.613925 1
gene 1 18 35 0.157288 0 81 0.157288 1
gene 1 35 21 0.149246 0 82 0.149246 1
gene 1 6 36 0.304271 0 83 0.304271 1
gene 1 36 20 0.594834 0 84 0.594834 1
gene 1 28 37 0.0928645 0 86 0.0928645 1
gene 1 37 20 0.314813 0 87 0.314813 1
gene 1 37 35 -0.635629 0 133 -0.635629 1
gene 1 10 37 0.0984856 0 151 0.0984856 1
gene 1 4 28 0.205802 0 152 0.205802 1
gene 1 28 35 -0.00112359 0 160 -0.00112359 1
gene 1 4 35 1.14061 0 161 1.14061 0
gene 1 13 53 -1.22947 0 164 -1.22947 1
gene 1 53 20 -0.344487 0 165 -0.344487 1
gene 1 14 56 -0.247614 0 180 -0.247614 1
gene 1 56 28 0.804204 0 181 0.804204 1
gene 1 1 33 -0.12247 0 204 -0.12247 1
gene 1 10 33 0.203452 0 206 0.203452 1
gene 1 13 37 0.33667 0 207 0.33667 1
gene 1 33 37 -1.18538 0 215 -1.18538 1
gene 1 21 53 0.405803 0 230 0.405803 1
gene 1 35 35 -0.302548 1 249 -0.302548 1
gene 1 4 68 0.423374 0 255 0.423374 1
gene 1 68 35 -0.388213 0 256 -0.388213 1
gene 1 18 69 -0.384204 0 258 -0.384204 1
gene 1 69 28 0.273713 0 259 0.273713 1
gene 1 28 33 0.224469 0 267 0.224469 1
gene 1 15 68 -0.340202 0 288 -0.340202 1
gene 1 68 56 0.0647021 0 291 0.0647021 1
genomeend 6777
genomestart 6810
trait 1 0 0 0.0858545 0.0656547 0.0493413 0.0768121 0.0218661 0.414729 
node 1 1 1 1 0
node 2 1 1 1 0
node 3 1 1 1 0
node 4 1 1 1 0
node 5 1 1 1 0
node 6 1 1 1 0
node 7 1 1 1 0
node 8 1 1 1 0
node 9 1 1 1 0
node 10 1 1 1 0
node 11 1 1 1 0
node 12 1 1 1 0
node 13 1 1 1 0
node 14 1 1 1 0
node 15 1 1 1 0
node 16 1 1 1 0
node 17 1 1 1 0
node 18 1 1 1 0
node 19 1 1 3 0
node 20 1 0 2 0
node 21 1 0 2 0
node 28 1 0 0 0
node 33 1 0 0 0
node 35 1 0 0 0
node 36 1 0 0 0
node 37 1 0 0 0
node 53 1 0 0 0
node 56 1 0 0 0
node 68 1 0 0 0
node 69 1 0 0 0
gene 1 1 20 0.405024 0 1 0.405024 1
gene 1 2 20 0.238431 0 2 0.238431 1
gene 1 3 20 0.736788 0 3 0.736788 1
gene 1 4 20 0.0542232 0 4 0.0542232 1
gene 1 5 20 -0.499848 0 5 -0.499848 1
gene 1 6 20 -0.34047 0 6 -0.34047 1
gene 1 7 20 -0.330202 0 7 -0.330202 1
gene 1 8 20 1.4732 0 8 1.4732 1
gene 1 9 20 0.511693 0 9 0.511693 1
gene 1 10 20 0.393338 0 10 0.393338 1
gene 1 11 20 -0.0758987 0 11 -0.0758987 1
gene 1 12 20 0.89505 0 12 0.89505 1
gene 1 13 20 1.00033 0 13 1.00033 1
gene 1 14 20 -0.602043 0 14 -0.602043 1
gene 1 15 20 -0.0188553 0 15 -0.0188553 1
gene 1 16 20 0.319579 0 16 0.319579 1
gene 1 17 20 -0.00555544 0 17 -0.00555544 1
gene 1 18 20 -0.228207 0 18 -0.228207 1
gene 1 19 20 0.950657 0 19 0.950657 1
gene 1 1 21 0.410074 0 20 0.410074 1
gene 1 2 21 1.72657 0 21 1.72657 1
gene 1 3 21 -0.604016 0 22 -0.604016 1
gene 1 4 21 -2.36762 0 23 -2.36762 1
gene 1 5 21 2.18389 0 24 2.18389 1
gene 1 6 21 0.0248582 0 25 0.0248582 1
gene 1 7 21 -0.196782 0 26 -0.196782 1
gene 1 8 21 -0.460528 0 27 -0.460528 1
gene 1 9 21 0.717567 0 28 0.717567 1
gene 1 10 21 0.557437 0 29 0.557437 1
gene 1 11 21 -0.241664 0 30 -0.241664 1
gene 1 12 21 -0.889865 0 31 -0.889865 1
gene 1 13 21 -1.11035 0 32 -1.11035 1
gene 1 14 21 0.679983 0 33 0.679983 1
gene 1 15 21 0.856438 0 34 0.856438 1
gene 1 16 21 0.412281 0 35 0.412281 1
gene 1 17 21 0.119674 0 36 0.119674 1
gene 1 18 21 -1.43438 0 37 -1.43438 1
gene 1 19 21 -0.307216 0 38 -0.307216 1
gene 1 21 20 -1.45066 0 43 -1.45066 1
gene 1 18 28 0.0455669 0 56 0.0455669 1
gene 1 28 20 1.14355 0 57 1.14355 0
gene 1 13 28 0.649399 0 62 0.649399 1
gene 1 14 28 -0.440631 0 66 -0.440631 1
gene 1 10 28 1.12405 0 68 1.12405 1
gene 1 17 33 0.0850078 0 73 0.0850078 1
gene 1 33 20 -0.122667 0 74 -0.122667 1
gene 1 20 21 -1.10899 1 80 -1.10899 1
gene 1 18 35 0.215558 0 81 0.215558 1
gene 1 35 21 -0.135337 0 82 -0.135337 1
gene 1 6 36 0.0903622 0 83 0.0903622 1
gene 1 36 20 -0.0130321 0 84 -0.0130321 1
gene 1 28 37 0.0705696 0 86 0.0705696 1
gene 1 37 20 0.991504 0 87 0.991504 1
gene 1 37 35 -0.2589 0 133 -0.2589 1
gene 1 10 37 -0.583294 0 151 -0.583294 1
gene 1 4 28 0.331609 0 152 0.331609 1
gene 1 28 35 -0.21792 0 160 -0.21792 1
gene 1 4 35 0.930107 0 161 0.930107 0
gene 1 13 53 -0.732386 0 164 -0.732386 1
gene 1 53 20 -0.105103 0 165 -0.105103 1
gene 1 14 56 -0.303767 0 180 -0.303767 1
gene 1 56 28 0.810481 0 181 0.810481 1
gene 1 1 33 0.249529 0 204 0.249529 1
gene 1 10 33 -0.0110868 0 206 -0.0110868 1
gene 1 13 37 0.085492 0 207 0.085492 1
gene 1 33 37 -0.691292 0 215 -0.691292 1
gene 1 21 53 -0.101791 0 230 -0.101791 1
gene 1 35 35 -0.279694 1 249 -0.279694 1
gene 1 4 68 0.597688 0 255 0.597688 1
gene 1 68 35 -0.155165 0 256 -0.155165 1
gene 1 18 69 -0.0276695 0 258 -0.0276695 1
gene 1 69 28 -0.184085 0 259 -0.184085 1
gene 1 28 33 -0.479922 0 267 -0.479922 1
gene 1 15 68 -0.465328 0 288 -0.465328 1
gene 1 68 56 0.54837 0 291 0.54837 1
genomeend 6810
genomestart 6836
trait 1 0.00355678 0.00805217 0.0858545 0.0656547 0.0493413 0.0768121 0.0218661 0.236883 
node 1 1 1 1 0
node 2 1 1 1 0
node 3 1 1 1 0
node 4 1 1 1 0
node 5 1 1 1 0
node 6 1 1 1 0
node 7 1 1 1 0
node 8 1 1 1 0
node 9 1 1 1 0
node 10 1 1 1 0
node 11 1 1 1 0
node 12 1 1 1 0
node 13 1 1 1 0
node 14 1 1 1 0
node 15 1 1 1 0
node 16 1 1 1 0
node 17 1 1 1 0
node 18 1 1 1 0
node 19 1 1 3 0
node 20 1 0 2 0
node 21 1 0 2 0
node 28 1 0 0 0
node 33 1 0 0 0
node 35 1 0 0 0
node 36 1 0 0 0
node 37 1 0 0 0
node 53 1 0 0 0
node 56 1 0 0 0
node 68 1 0 0 0
node 69 1 0 0 0
gene 1 1 20 0.296948 0 1 0.296948 1
gene 1 2 20 0.597576 0 2 0.597576 1
gene 1 3 20 1.10142 0 3 1.10142 1
gene 1 4 20 0.58561 0 4 0.58561 1
gene 1 5 20 -0.353546 0 5 -0.353546 1
gene 1 6 20 -0.271593 0 6 -0.271593 0
gene 1 7 20 -0.698406 0 7 -0.698406 1
gene 1 8 20 0.83831 0 8 0.83831 1
gene 1 9 20 -0.055156 0 9 -0.055156 1
gene 1 10 20 0.709486 0 10 0.709486 1
gene 1 11 20 -0.363072 0 11 -0.363072 1
gene 1 12 20 0.982981 0 12 0.982981 1
gene 1 13 20 0.455944 0 13 0.455944 1
gene 1 14 20 -0.0469425 0 14 -0.0469425 1
gene 1 15 20 0.50317 0 15 0.50317 1
gene 1 16 20 0.311066 0 16 0.311066 1
gene 1 17 20 0.357932 0 17 0.357932 0
gene 1 18 20 -0.464537 0 18 -0.464537 1
gene 1 19 20 1.08729 0 19 1.08729 1
gene 1 1 21 0.519543 0 20 0.519543 1
gene 1 2 21 0.793208 0 21 0.793208 1
gene 1 3 21 -0.142375 0 22 -0.142375 1
gene 1 4 21 -1.98736 0 23 -1.98736 1
gene 1 5 21 2.13044 0 24 2.13044 1
gene 1 6 21 -0.222781 0 25 -0.222781 1
gene 1 7 21 0.195929 0 26 0.195929 1
gene 1 8 21 0.20496 0 27 0.20496 1
gene 1 9 21 0.404825 0 28 0.404825 1
gene 1 10 21 0.310131 0 29 0.310131 1
gene 1 11 21 -0.180017 0 30 -0.180017 1
gene 1 12 21 -1.04786 0 31 -1.04786 1
gene 1 13 21 -0.284145 0 32 -0.284145 1
gene 1 14 21 1.37764 0 33 1.37764 1
gene 1 15 21 1.08009 0 34 1.08009 1
gene 1 16 21 0.408375 0 35 0.408375 1
gene 1 17 21 -0.0337076 0 36 -0.0337076 1
gene 1 18 21 -1.01578 0 37 -1.01578 1
gene 1 19 21 -0.167298 0 38 -0.167298 1
gene 1 21 20 -0.982971 0 43 -0.982971 1
gene 1 18 28 -0.488536 0 56 -0.488536 1
gene 1 28 20 0.488516 0 57 0.488516 0
gene 1 13 28 0.751935 0 62 0.751935 1
gene 1 14 28 -0.193325 0 66 -0.193325 1
gene 1 10 28 0.582889 0 68 0.582889 1
gene 1 17 33 0.103884 0 73 0.103884 1
gene 1 33 20 -0.166524 0 74 -0.166524 1
gene 1 20 21 -0.542898 1 80 -0.542898 1
gene 1 18 35 0.576559 0 81 0.576559 1
gene 1 35 21 -0.382144 0 82 -0.382144 1
gene 1 6 36 0.30852 0 83 0.30852 1
gene 1 36 20 0.4446 0 84 0.4446 1
gene 1 28 37 -0.0404141 0 86 -0.0404141 1
gene 1 37 20 0.594102 0 87 0.594102 1
gene 1 37 35 -0.484047 0 133 -0.484047 1
gene 1 10 37 -0.302853 0 151 -0.302853 1
gene 1 4 28 -0.173985 0 152 -0.173985 1
gene 1 28 35 -0.133118 0 160 -0.133118 1
gene 1 4 35 1.02616 0 161 1.02616 0
gene 1 13 53 -0.807592 0 164 -0.807592 1
gene 1 53 20 -0.215517 0 165 -0.215517 1
gene 1 14 56 -0.792016 0 180 -0.792016 1
gene 1 56 28 0.482913 0 181 0.482913 1
gene 1 1 33 -0.676239 0 204 -0.676239 1
gene 1 10 33 -0.369472 0 206 -0.369472 1
gene 1 13 37 -0.316965 0 207 -0.316965 1
gene 1 33 37 -0.69886 0 215 -0.69886 1
gene 1 21 53 0.0847639 0 230 0.0847639 1
gene 1 35 35 -0.247674 1 249 -0.247674 1
gene 1 4 68 0.390683 0 255 0.390683 1
gene 1 68 35 -0.0521013 0 256 -0.0521013 1
gene 1 18 69 -0.11814 0 258 -0.11814 1
gene 1 69 28 0.116692 0 259 0.116692 1
gene 1 28 33 0.0867302 0 267 0.0867302 1
gene 1 15 68 -0.114384 0 288 -0.114384 1
gene 1 68 56 0.35656 0 291 0.35656 1
genomeend 6836
genomestart 6920
trait 1 0 0.445698 0.0686836 0.0137866 0.144242 0.489288 0.194333 0.0103389 
node 1 1 1 1 0
node 2 1 1 1 0
node 3 1 1 1 0
node 4 1 1 1 0
node 5 1 1 1 0
node 6 1 1 1 0
node 7 1 1 1 0
node 8 1 1 1 0
node 9 1 1 1 0
node 10 1 1 1 0
node 11 1 1 1 0
node 12 1 1 1 0
node 13 1 1 1 0
node 14 1 1 1 0
node 15 1 1 1 0
node 16 1 1 1 0
node 17 1 1 1 0
node 18 1 1 1 0
node 19 1 1 3 0
node 20 1 0 2 0
node 21 1 0 2 0
node 28 1 0 0 0
node 33 1 0 0 0
node 35 1 0 0 0
node 36 1 0 0 0
node 37 1 0 0 0
node 49 1 0 0 0
node 52 1 0 0 0
node 53 1 0 0 0
node 56 1 0 0 0
node 67 1 0 0 0
node 68 1 0 0 0
node 69 1 0 0 0
node 81 1 0 0 0
node 90 1 0 0 0
gene 1 1 20 -0.0253495 0 1 -0.0253495 1
gene 1 2 20 0.220023 0 2 0.220023 1
gene 1 3 20 0.386169 0 3 0.386169 1
gene 1 4 20 -0.268525 0 4 -0.268525 1
gene 1 5 20 0.481578 0 5 0.481578 1
gene 1 6 20 -0.159776 0 6 -0.159776 0
gene 1 7 20 0.151382 0 7 0.151382 1
gene 1 8 20 -0.36423 0 8 -0.36423 1
gene 1 9 20 -0.0241929 0 9 -0.0241929 1
gene 1 10 20 -0.780444 0 10 -0.780444 1
gene 1 11 20 0.216573 0 11 0.216573 1
gene 1 12 20 0.786053 0 12 0.786053 1
gene 1 13 20 0.21232 0 13 0.21232 1
gene 1 14 20 -0.071092 0 14 -0.071092 1
gene 1 15 20 -0.999669 0 15 -0.999669 1
gene 1 16 20 -0.74527 0 16 -0.74527 1
gene 1 17 20 0.138608 0 17 0.138608 1
gene 1 18 20 -0.0393226 0 18 -0.0393226 1
gene 1 19 20 2.80056 0 19 2.80056 1
gene 1 1 21 0.54108 0 20 0.54108 1
gene 1 2 21 0.562397 0 21 0.562397 1
gene 1 3 21 0.101039 0 22 0.101039 1
gene 1 4 21 -0.413113 0 23 -0.413113 1
gene 1 5 21 -0.751991 0 24 -0.751991 1
gene 1 6 21 -0.06979 0 25 -0.06979 1
gene 1 7 21 0.322821 0 26 0.322821 1
gene 1 8 21 0.000641031 0 27 0.000641031 1
gene 1 9 21 -1.22439 0 28 -1.22439 1
gene 1 10 21 -0.173276 0 29 -0.173276 1
gene 1 11 21 0.32887 0 30 0.32887 1
gene 1 12 21 -0.219573 0 31 -0.219573 1
gene 1 13 21 -1.55136 0 32 -1.55136 1
gene 1 14 21 -0.812838 0 33 -0.812838 1
gene 1 15 21 0.841092 0 34 0.841092 1
gene 1 16 21 -0.373891 0 35 -0.373891 1
gene 1 17 21 0.0507529 0 36 0.0507529 1
gene 1 18 21 -0.392825 0 37 -0.392825 1
gene 1 19 21 -0.277105 0 38 -0.277105 1
gene 1 21 20 -0.40469 0 43 -0.40469 1
gene 1 18 28 -0.337952 0 56 -0.337952 1
gene 1 28 20 1.0484 0 57 1.0484 1
gene 1 13 28 0.577829 0 62 0.577829 1
gene 1 14 28 -0.88761 0 66 -0.88761 1
gene 1 10 28 0.454777 0 68 0.454777 1
gene 1 17 33 1.48124 0 73 1.48124 1
gene 1 33 20 -0.104185 0 74 -0.104185 1
gene 1 20 21 0.647664 1 80 0.647664 1
gene 1 18 35 1.46147 0 81 1.46147 1
gene 1 35 21 -0.238267 0 82 -0.238267 1
gene 1 6 36 -0.00557908 0 83 -0.00557908 1
gene 1 36 20 -0.0788978 0 84 -0.0788978 1
gene 1 28 37 -0.780893 0 86 -0.780893 1
gene 1 37 20 -0.377898 0 87 -0.377898 1
gene 1 21 49 -0.235381 0 131 -0.235381 1
gene 1 49 20 0.419422 0 132 0.419422 1
gene 1 37 35 0.191871 0 133 0.191871 1
gene 1 10 37 -0.264299 0 151 -0.264299 1
gene 1 4 28 0.265402 0 152 0.265402 1
gene 1 14 52 -0.311633 0 158 -0.311633 1
gene 1 52 20 -0.549416 0 159 -0.549416 1
gene 1 28 35 -0.35352 0 160 -0.35352 1
gene 1 4 35 0.201797 0 161 0.201797 1
gene 1 13 53 -0.25944 0 164 -0.25944 1
gene 1 53 20 -0.649308 0 165 -0.649308 1
gene 1 14 56 -0.839158 0 180 -0.839158 1
gene 1 56 28 -1.2823 0 181 -1.2823 1
gene 1 1 33 -0.239623 0 204 -0.239623 1
gene 1 10 33 0.385458 0 206 0.385458 1
gene 1 13 37 0.201236 0 207 0.201236 1
gene 1 33 37 0.181351 0 215 0.181351 1
gene 1 21 53 0.184452 0 230 0.184452 1
gene 1 5 67 0.305786 0 244 0.305786 1
gene 1 67 20 -0.0924631 0 245 -0.0924631 1
gene 1 35 35 -0.0805622 1 249 -0.0805622 1
gene 1 4 68 1.04541 0 255 1.04541 1
gene 1 68 35 0.33573 0 256 0.33573 1
gene 1 18 69 0.339704 0 258 0.339704 1
gene 1 69 28 0.0731359 0 259 0.0731359 1
gene 1 15 68 0.349733 0 288 0.349733 1
gene 1 13 81 0.486429 0 322 0.486429 1
gene 1 81 28 0.245844 0 323 0.245844 1
gene 1 10 90 0.752885 0 366 0.752885 1
gene 1 90 28 0.0105273 0 367 0.0105273 1
gene 1 28 36 0.903198 0 368 0.903198 1
gene 1 9 68 -0.0836419 0 394 -0.0836419 1
gene 1 68 67 0.201803 0 399 0.201803 1
genomeend 6920
genomestart 6944
trait 1 0 0.445698 0.0686836 0.0137866 0.144242 0.489288 0.194333 0.0103389 
node 1 1 1 1 0
node 2 1 1 1 0
node 3 1 1 1 0
node 4 1 1 1 0
node 5 1 1 1 0
node 6 1 1 1 0
node 7 1 1 1 0
node 8 1 1 1 0
node 9 1 1 1 0
node 10 1 1 1 0
node 11 1 1 1 0
node 12 1 1 1 0
node 13 1 1 1 0
node 14 1 1 1 0
node 15 1 1 1 0
node 16 1 1 1 0
node 17 1 1 1 0
node 18 1 1 1 0
node 19 1 1 3 0
node 20 1 0 2 0
node 21 1 0 2 0
node 28 1 0 0 0
node 32 1 0 0 0
node 33 1 0 0 0
node 35 1 0 0 0
node 36 1 0 0 0
node 37 1 0 0 0
node 49 1 0 0 0
node 52 1 0 0 0
node 53 1 0 0 0
node 56 1 0 0 0
node 67 1 0 0 0
node 68 1 0 0 0
node 69 1 0 0 0
node 81 1 0 0 0
node 90 1 0 0 0
gene 1 1 20 0.296629 0 1 0.296629 1
gene 1 2 20 -0.0368232 0 2 -0.0368232 1
gene 1 3 20 0.384814 0 3 0.384814 1
gene 1 4 20 0.102834 0 4 0.102834 1
gene 1 5 20 0.0858512 0 5 0.0858512 1
gene 1 6 20 -0.427909 0 6 -0.427909 0
gene 1 7 20 0.151275 0 7 0.151275 1
gene 1 8 20 -0.780954 0 8 -0.780954 0
gene 1 9 20 0.705514 0 9 0.705514 1
gene 1 10 20 -0.742126 0 10 -0.742126 1
gene 1 11 20 0.278545 0 11 0.278545 1
gene 1 12 20 1.20574 0 12 1.20574 1
gene 1 13 20 -0.0310778 0 13 -0.0310778 1
gene 1 14 20 0.107423 0 14 0.107423 1
gene 1 15 20 -0.293988 0 15 -0.293988 1
gene 1 16 20 0.00674853 0 16 0.00674853 1
gene 1 17 20 -0.037366 0 17 -0.037366 1
gene 1 18 20 -0.246424 0 18 -0.246424 1
gene 1 19 20 2.46673 0 19 2.46673 1
gene 1 1 21 -0.208345 0 20 -0.208345 1
gene 1 2 21 1.73433 0 21 1.73433 1
gene 1 3 21 -0.254523 0 22 -0.254523 1
gene 1 4 21 -0.311345 0 23 -0.311345 1
gene 1 5 21 -0.630063 0 24 -0.630063 1
gene 1 6 21 0.392455 0 25 0.392455 1
gene 1 7 21 -0.247854 0 26 -0.247854 1
gene 1 8 21 -0.57456 0 27 -0.57456 1
gene 1 9 21 -1.98339 0 28 -1.98339 1
gene 1 10 21 0.200443 0 29 0.200443 1
gene 1 11 21 0.436281 0 30 0.436281 1
gene 1 12 21 -0.0760041 0 31 -0.0760041 1
gene 1 13 21 -1.46861 0 32 -1.46861 1
gene 1 14 21 -0.908368 0 33 -0.908368 1
gene 1 15 21 0.931993 0 34 0.931993 1
gene 1 16 21 -0.197763 0 35 -0.197763 1
gene 1 17 21 0.297878 0 36 0.297878 1
gene 1 18 21 -1.31894 0 37 -1.31894 1
gene 1 19 21 0.19526 0 38 0.19526 1
gene 1 21 20 -0.187122 0 43 -0.187122 1
gene 1 18 28 -0.700645 0 56 -0.700645 1
gene 1 28 20 1.13454 0 57 1.13454 1
gene 1 13 28 0.818301 0 62 0.818301 1
gene 1 14 28 -0.957346 0 66 -0.957346 1
gene 1 10 28 0.354022 0 68 0.354022 0
gene 1 8 32 1.16467 0 70 1.16467 1
gene 1 32 20 -0.210025 0 71 -0.210025 1
gene 1 17 33 1.64103 0 73 1.64103 1
gene 1 33 20 0.058272 0 74 0.058272 1
gene 1 20 21 -0.359564 1 80 -0.359564 1
gene 1 18 35 0.717081 0 81 0.717081 1
gene 1 35 21 -0.501014 0 82 -0.501014 1
gene 1 6 36 -0.370678 0 83 -0.370678 1
gene 1 36 20 -0.145754 0 84 -0.145754 1
gene 1 28 37 -0.581596 0 86 -0.581596 1
gene 1 37 20 -0.856341 0 87 -0.856341 1
gene 1 21 49 0.3468 0 131 0.3468 1
gene 1 49 20 0.716638 0 132 0.716638 1
gene 1 37 35 0.441948 0 133 0.441948 1
gene 1 10 37 0.373354 0 151 0.373354 1
gene 1 4 28 -0.553313 0 152 -0.553313 1
gene 1 14 52 0.0851742 0 158 0.0851742 1
gene 1 52 20 -0.305684 0 159 -0.305684 1
gene 1 28 35 0.0311791 0 160 0.0311791 1
gene 1 4 35 0.132526 0 161 0.132526 1
gene 1 13 53 -0.0654343 0 164 -0.0654343 1
gene 1 53 20 -0.208096 0 165 -0.208096 1
gene 1 14 56 -0.782961 0 180 -0.782961 1
gene 1 56 28 -1.25588 0 181 -1.25588 1
gene 1 1 33 -0.273532 0 204 -0.273532 1
gene 1 10 33 0.799156 0 206 0.799156 1
gene 1 13 37 -0.175953 0 207 -0.175953 1
gene 1 33 37 -0.0284801 0 215 -0.0284801 1
gene 1 21 53 0.244148 0 230 0.244148 1
gene 1 5 67 0.562369 0 244 0.562369 1
gene 1 67 20 -0.0423078 0 245 -0.0423078 1
gene 1 35 35 0.367321 1 249 0.367321 1
gene 1 4 68 0.931594 0 255 0.931594 1
gene 1 68 35 0.368461 0 256 0.368461 1
gene 1 18 69 -0.371395 0 258 -0.371395 1
gene 1 69 28 0.122362 0 259 0.122362 1
gene 1 15 68 0.177766 0 288 0.177766 1
gene 1 13 81 -0.148082 0 322 -0.148082 1
gene 1 81 28 0.370178 0 323 0.370178 1
gene 1 10 90 0.503491 0 366 0.503491 1
gene 1 90 28 0.51568 0 367 0.51568 1
gene 1 28 36 -0.235062 0 368 -0.235062 1
genomeend 6944
genomestart 6948
trait 1 0 0.445698 0.0686836 0.0137866 0.144242 0.489288 0.194333 0.0103389 
node 1 1 1 1 0
node 2 1 1 1 0
node 3 1 1 1 0
node 4 1 1 1 0
node 5 1 1 1 0
node 6 1 1 1 0
node 7 1 1 1 0
node 8 1 1 1 0
node 9 1 1 1 0
node 10 1 1 1 0
node 11 1 1 1 0
node 12 1 1 1 0
node 13 1 1 1 0
node 14 1 1 1 0
node 15 1 1 1 0
node 16 1 1 1 0
node 17 1 1 1 0
node 18 1 1 1 0
node 19 1 1 3 0
node 20 1 0 2 0
node 21 1 0 2 0
node 28 1 0 0 0
node 32 1 0 0 0
node 33 1 0 0 0
node 35 1 0 0 0
node 36 1 0 0 0
node 37 1 0 0 0
node 49 1 0 0 0
node 52 1 0 0 0
node 53 1 0 0 0
node 56 1 0 0 0
node 67 1 0 0 0
node 68 1 0 0 0
node 69 1 0 0 0
node 81 1 0 0 0
node 90 1 0 0 0
gene 1 1 20 -0.0491017 0 1 -0.0491017 1
gene 1 2 20 -0.126746 0 2 -0.126746 1
gene 1 3 20 0.191178 0 3 0.191178 1
gene 1 4 20 0.0126269 0 4 0.0126269 1
gene 1 5 20 0.954544 0 5 0.954544 1
gene 1 6 20 -0.153471 0 6 -0.153471 0
gene 1 7 20 0.290936 0 7 0.290936 1
gene 1 8 20 -0.297458 0 8 -0.297458 0
gene 1 9 20 0.263696 0 9 0.263696 1
gene 1 10 20 -0.346345 0 10 -0.346345 1
gene 1 11 20 0.287311 0 11 0.287311 1
gene 1 12 20 1.01103 0 12 1.01103 1
gene 1 13 20 0.137708 0 13 0.137708 1
gene 1 14 20 -0.740678 0 14 -0.740678 1
gene 1 15 20 -0.493796 0 15 -0.493796 1
gene 1 16 20 -0.181687 0 16 -0.181687 1
gene 1 17 20 0.497317 0 17 0.497317 1
gene 1 18 20 -0.637224 0 18 -0.637224 1
gene 1 19 20 2.80579 0 19 2.80579 1
gene 1 1 21 0.183042 0 20 0.183042 1
gene 1 2 21 1.5102 0 21 1.5102 1
gene 1 3 21 -0.0664149 0 22 -0.0664149 1
gene 1 4 21 -0.0965037 0 23 -0.0965037 1
gene 1 5 21 -0.779702 0 24 -0.779702 1
gene 1 6 21 0.306808 0 25 0.306808 1
gene 1 7 21 -0.111944 0 26 -0.111944 1
gene 1 8 21 -0.309285 0 27 -0.309285 1
gene 1 9 21 -2.0572 0 28 -2.0572 1
gene 1 10 21 0.271748 0 29 0.271748 1
gene 1 11 21 0.347706 0 30 0.347706 1
gene 1 12 21 -0.119725 0 31 -0.119725 1
gene 1 13 21 -1.56089 0 32 -1.56089 1
gene 1 14 21 -0.155246 0 33 -0.155246 1
gene 1 15 21 0.888953 0 34 0.888953 1
gene 1 16 21 -0.209763 0 35 -0.209763 1
gene 1 17 21 0.0431423 0 36 0.0431423 1
gene 1 18 21 -0.754738 0 37 -0.754738 1
gene 1 19 21 -0.300258 0 38 -0.300258 1
gene 1 21 20 -0.289613 0 43 -0.289613 1
gene 1 18 28 -0.41811 0 56 -0.41811 1
gene 1 28 20 0.791223 0 57 0.791223 1
gene 1 13 28 1.41525 0 62 1.41525 1
gene 1 14 28 -1.31136 0 66 -1.31136 1
gene 1 10 28 0.246943 0 68 0.246943 0
gene 1 8 32 1 0 70 0 1
gene 1 32 20 -0.0892373 0 71 0 1
gene 1 17 33 1.55928 0 73 1.55928 1
gene 1 33 20 -0.358321 0 74 -0.358321 1
gene 1 20 21 0.0859698 1 80 0.0859698 1
gene 1 18 35 0.794086 0 81 0.794086 1
gene 1 35 21 0.0682163 0 82 0.0682163 1
gene 1 6 36 -0.0657607 0 83 -0.0657607 1
gene 1 36 20 0.503125 0 84 0.503125 1
gene 1 28 37 -0.468132 0 86 -0.468132 1
gene 1 37 20 -0.434426 0 87 -0.434426 1
gene 1 21 49 0.0919331 0 131 0.0919331 1
gene 1 49 20 0.367099 0 132 0.367099 1
gene 1 37 35 1.05161 0 133 1.05161 1
gene 1 10 37 0.443115 0 151 0.443115 1
gene 1 4 28 0.12879 0 152 0.12879 1
gene 1 14 52 -0.279944 0 158 -0.279944 1
gene 1 52 20 -0.336691 0 159 -0.336691 1
gene 1 28 35 -0.437064 0 160 -0.437064 1
gene 1 4 35 0.171143 0 161 0.171143 1
gene 1 13 53 0.14454 0 164 0.14454 1
gene 1 53 20 -0.720812 0 165 -0.720812 1
gene 1 14 56 -0.623287 0 180 -0.623287 1
gene 1 56 28 -1.18189 0 181 -1.18189 1
gene 1 1 33 -0.544218 0 204 -0.544218 1
gene 1 10 33 0.865345 0 206 0.865345 1
gene 1 13 37 -0.367481 0 207 -0.367481 1
gene 1 33 37 -0.0284801 0 215 -0.0284801 1
gene 1 21 53 0.301851 0 230 0.301851 1
gene 1 5 67 0.562369 0 244 0.562369 1
gene 1 67 20 1.20035 0 245 1.20035 1
gene 1 35 35 0.143111 1 249 0.143111 1
gene 1 4 68 0.931594 0 255 0.931594 1
gene 1 68 35 0.368461 0 256 0.368461 1
gene 1 18 69 -0.397113 0 258 -0.397113 1
gene 1 69 28 0.0546788 0 259 0.0546788 1
gene 1 15 68 0.222416 0 288 0.222416 1
gene 1 13 81 -0.148082 0 322 -0.148082 1
gene 1 81 28 0.385349 0 323 0.385349 1
gene 1 10 90 0.503491 0 366 0.503491 1
gene 1 90 28 -0.167927 0 367 -0.167927 1
gene 1 28 36 -0.235062 0 368 -0.235062 1
genomeend 6948
genomestart 6999
trait 1 0 0.445698 0.0686836 0.0137866 0.144242 0.489288 0.194333 0.0103389 
node 1 1 1 1 0
node 2 1 1 1 0
node 3 1 1 1 0
node 4 1 1 1 0
node 5 1 1 1 0
node 6 1 1 1 0
node 7 1 1 1 0
node 8 1 1 1 0
node 9 1 1 1 0
node 10 1 1 1 0
node 11 1 1 1 0
node 12 1 1 1 0
node 13 1 1 1 0
node 14 1 1 1 0
node 15 1 1 1 0
node 16 1 1 1 0
node 17 1 1 1 0
node 18 1 1 1 0
node 19 1 1 3 0
node 20 1 0 2 0
node 21 1 0 2 0
node 28 1 0 0 0
node 32 1 0 0 0
node 33 1 0 0 0
node 35 1 0 0 0
node 36 1 0 0 0
node 37 1 0 0 0
node 49 1 0 0 0
node 52 1 0 0 0
node 53 1 0 0 0
node 56 1 0 0 0
node 67 1 0 0 0
node 68 1 0 0 0
node 69 1 0 0 0
node 81 1 0 0 0
node 90 1 0 0 0
gene 1 1 20 0.13564 0 1 0.13564 1
gene 1 2 20 0.0916001 0 2 0.0916001 1
gene 1 3 20 0.385491 0 3 0.385491 1
gene 1 4 20 -0.0828455 0 4 -0.0828455 1
gene 1 5 20 0.283715 0 5 0.283715 1
gene 1 6 20 -0.293842 0 6 -0.293842 0
gene 1 7 20 0.151328 0 7 0.151328 1
gene 1 8 20 -0.572592 0 8 -0.572592 1
gene 1 9 20 0.34066 0 9 0.34066 1
gene 1 10 20 -0.761285 0 10 -0.761285 1
gene 1 11 20 0.247559 0 11 0.247559 1
gene 1 12 20 0.995897 0 12 0.995897 1
gene 1 13 20 0.0906211 0 13 0.0906211 1
gene 1 14 20 0.0181653 0 14 0.0181653 1
gene 1 15 20 -0.646829 0 15 -0.646829 1
gene 1 16 20 -0.369261 0 16 -0.369261 1
gene 1 17 20 0.0506208 0 17 0.0506208 1
gene 1 18 20 -0.142873 0 18 -0.142873 1
gene 1 19 20 2.63365 0 19 2.63365 1
gene 1 1 21 0.166368 0 20 0.166368 1
gene 1 2 21 1.14836 0 21 1.14836 1
gene 1 3 21 -0.076742 0 22 -0.076742 1
gene 1 4 21 -0.362229 0 23 -0.362229 1
gene 1 5 21 -0.691027 0 24 -0.691027 1
gene 1 6 21 0.161333 0 25 0.161333 1
gene 1 7 21 0.0374835 0 26 0.0374835 1
gene 1 8 21 -0.28696 0 27 -0.28696 1
gene 1 9 21 -1.60389 0 28 -1.60389 1
gene 1 10 21 0.0135833 0 29 0.0135833 1
gene 1 11 21 0.382575 0 30 0.382575 1
gene 1 12 21 -0.147788 0 31 -0.147788 1
gene 1 13 21 -1.50998 0 32 -1.50998 1
gene 1 14 21 -0.860603 0 33 -0.860603 1
gene 1 15 21 0.886543 0 34 0.886543 1
gene 1 16 21 -0.285827 0 35 -0.285827 1
gene 1 17 21 0.174315 0 36 0.174315 1
gene 1 18 21 -0.85588 0 37 -0.85588 1
gene 1 19 21 -0.0409225 0 38 -0.0409225 1
gene 1 21 20 -0.295906 0 43 -0.295906 1
gene 1 18 28 -0.519298 0 56 -0.519298 1
gene 1 28 20 1.09147 0 57 1.09147 1
gene 1 13 28 0.698065 0 62 0.698065 1
gene 1 14 28 -0.922478 0 66 -0.922478 1
gene 1 10 28 0.4044 0 68 0.4044 0
gene 1 8 32 1.16467 0 70 1.16467 1
gene 1 32 20 -0.210025 0 71 -0.210025 1
gene 1 17 33 1.56114 0 73 1.56114 1
gene 1 33 20 -0.0229566 0 74 -0.0229566 1
gene 1 20 21 0.14405 1 80 0.14405 1
gene 1 18 35 1.08927 0 81 1.08927 1
gene 1 35 21 -0.36964 0 82 -0.36964 1
gene 1 6 36 -0.188129 0 83 -0.188129 1
gene 1 36 20 -0.112326 0 84 -0.112326 1
gene 1 28 37 -0.681245 0 86 -0.681245 1
gene 1 37 20 -0.61712 0 87 -0.61712 1
gene 1 21 49 0.0557094 0 131 0.0557094 1
gene 1 49 20 0.56803 0 132 0.56803 1
gene 1 37 35 0.316909 0 133 0.316909 1
gene 1 10 37 0.0545273 0 151 0.0545273 1
gene 1 4 28 -0.143955 0 152 -0.143955 1
gene 1 14 52 -0.113229 0 158 -0.113229 1
gene 1 52 20 -0.42755 0 159 -0.42755 1
gene 1 28 35 -0.16117 0 160 -0.16117 1
gene 1 4 35 0.167161 0 161 0.167161 1
gene 1 13 53 -0.162437 0 164 -0.162437 1
gene 1 53 20 -0.428702 0 165 -0.428702 1
gene 1 14 56 -0.81106 0 180 -0.81106 1
gene 1 56 28 -1.26909 0 181 -1.26909 1
gene 1 1 33 -0.256577 0 204 -0.256577 1
gene 1 10 33 0.592307 0 206 0.592307 1
gene 1 13 37 0.0126413 0 207 0.0126413 1
gene 1 33 37 0.0764354 0 215 0.0764354 1
gene 1 21 53 0.2143 0 230 0.2143 1
gene 1 5 67 0.434077 0 244 0.434077 1
gene 1 67 20 -0.0673855 0 245 -0.0673855 1
gene 1 35 35 0.14338 1 249 0.14338 1
gene 1 4 68 0.988504 0 255 0.988504 1
gene 1 68 35 0.352096 0 256 0.352096 1
gene 1 18 69 -0.0158455 0 258 -0.0158455 1
gene 1 69 28 0.0977491 0 259 0.0977491 1
gene 1 15 68 0.263749 0 288 0.263749 1
gene 1 13 81 0.169174 0 322 0.169174 1
gene 1 81 28 0.308011 0 323 0.308011 1
gene 1 10 90 0.628188 0 366 0.628188 1
gene 1 90 28 0.263104 0 367 0.263104 1
gene 1 28 36 0.334068 0 368 0.334068 1
gene 1 9 68 -0.0836419 0 394 -0.0836419 1
gene 1 68 67 0.201803 0 399 0.201803 1
genomeend 6999
genomestart 7015
trait 1 0 0.445698 0.0686836 0.0137866 0.144242 0.489288 0.194333 0.0103389 
node 1 1 1 1 0
node 2 1 1 1 0
node 3 1 1 1 0
node 4 1 1 1 0
node 5 1 1 1 0
node 6 1 1 1 0
node 7 1 1 1 0
node 8 1 1 1 0
node 9 1 1 1 0
node 10 1 1 1 0
node 11 1 1 1 0
node 12 1 1 1 0
node 13 1 1 1 0
node 14 1 1 1 0
node 15 1 1 1 0
node 16 1 1 1 0
node 17 1 1 1 0
node 18 1 1 1 0
node 19 1 1 3 0
node 20 1 0 2 0
node 21 1 0 2 0
node 28 1 0 0 0
node 32 1 0 0 0
node 33 1 0 0 0
node 35 1 0 0 0
node 36 1 0 0 0
node 37 1 0 0 0
node 49 1 0 0 0
node 52 1 0 0 0
node 53 1 0 0 0
node 56 1 0 0 0
node 67 1 0 0 0
node 68 1 0 0 0
node 69 1 0 0 0
node 81 1 0 0 0
node 90 1 0 0 0
gene 1 1 20 -0.0491017 0 1 -0.0491017 1
gene 1 2 20 0.578954 0 2 0.578954 1
gene 1 3 20 0.191178 0 3 0.191178 1
gene 1 4 20 0.0126269 0 4 0.0126269 1
gene 1 5 20 0.835061 0 5 0.835061 1
gene 1 6 20 0.151049 0 6 0.151049 0
gene 1 7 20 0.290936 0 7 0.290936 1
gene 1 8 20 -0.408838 0 8 -0.408838 0
gene 1 9 20 0.263696 0 9 0.263696 1
gene 1 10 20 -1.34575 0 10 -1.34575 1
gene 1 11 20 0.473154 0 11 0.473154 1
gene 1 12 20 1.01103 0 12 1.01103 1
gene 1 13 20 0.137708 0 13 0.137708 1
gene 1 14 20 -0.740678 0 14 -0.740678 1
gene 1 15 20 -0.493796 0 15 -0.493796 1
gene 1 16 20 -0.90186 0 16 -0.90186 1
gene 1 17 20 1.04157 0 17 1.04157 1
gene 1 18 20 -1.08684 0 18 -1.08684 1
gene 1 19 20 2.80579 0 19 2.80579 1
gene 1 1 21 -0.275504 0 20 -0.275504 1
gene 1 2 21 1.5102 0 21 1.5102 1
gene 1 3 21 0.165539 0 22 0.165539 1
gene 1 4 21 -0.0965037 0 23 -0.0965037 1
gene 1 5 21 -0.921523 0 24 -0.921523 1
gene 1 6 21 0.306808 0 25 0.306808 1
gene 1 7 21 0.238257 0 26 0.238257 1
gene 1 8 21 -0.0569381 0 27 -0.0569381 1
gene 1 9 21 -1.61583 0 28 -1.61583 1
gene 1 10 21 0.50461 0 29 0.50461 1
gene 1 11 21 0.347706 0 30 0.347706 1
gene 1 12 21 -0.317276 0 31 -0.317276 1
gene 1 13 21 -0.758501 0 32 -0.758501 1
gene 1 14 21 -0.155246 0 33 -0.155246 1
gene 1 15 21 0.888953 0 34 0.888953 1
gene 1 16 21 0.431321 0 35 0.431321 1
gene 1 17 21 0.0431423 0 36 0.0431423 1
gene 1 18 21 -1.3177 0 37 -1.3177 1
gene 1 19 21 -0.269246 0 38 -0.269246 1
gene 1 21 20 -0.384596 0 43 -0.384596 1
gene 1 18 28 -0.165531 0 56 -0.165531 1
gene 1 28 20 0.791223 0 57 0.791223 1
gene 1 13 28 1.41525 0 62 1.41525 1
gene 1 14 28 -1.74789 0 66 -1.74789 1
gene 1 10 28 0.908512 0 68 0.908512 0
gene 1 8 32 1 0 70 0 1
gene 1 32 20 -0.0892373 0 71 0 1
gene 1 17 33 0.879947 0 73 0.879947 1
gene 1 33 20 0.109064 0 74 0.109064 1
gene 1 20 21 0.376962 1 80 0.376962 1
gene 1 18 35 1.92051 0 81 1.92051 1
gene 1 35 21 -0.538713 0 82 -0.538713 1
gene 1 6 36 -0.0657607 0 83 -0.0657607 1
gene 1 36 20 0.503125 0 84 0.503125 1
gene 1 28 37 -0.257878 0 86 -0.257878 1
gene 1 37 20 -0.0212178 0 87 -0.0212178 1
gene 1 21 49 0.0919331 0 131 0.0919331 1
gene 1 49 20 1.03939 0 132 1.03939 1
gene 1 37 35 0.505148 0 133 0.505148 1
gene 1 10 37 0.260153 0 151 0.260153 1
gene 1 4 28 0.12879 0 152 0.12879 1
gene 1 14 52 -0.279944 0 158 -0.279944 1
gene 1 52 20 -0.336691 0 159 -0.336691 1
gene 1 28 35 -0.437064 0 160 -0.437064 1
gene 1 4 35 0.171143 0 161 0.171143 1
gene 1 13 53 0.212805 0 164 0.212805 1
gene 1 53 20 -0.852765 0 165 -0.852765 1
gene 1 14 56 -0.623287 0 180 -0.623287 1
gene 1 56 28 -1.18189 0 181 -1.18189 1
gene 1 1 33 -0.544218 0 204 -0.544218 1
gene 1 10 33 0.865345 0 206 0.865345 1
gene 1 13 37 -0.367481 0 207 -0.367481 1
gene 1 33 37 -0.446742 0 215 -0.446742 1
gene 1 21 53 -0.481042 0 230 -0.481042 1
gene 1 5 67 0.562369 0 244 0.562369 1
gene 1 67 20 1.20035 0 245 1.20035 1
gene 1 35 35 0.169787 1 249 0.169787 1
gene 1 4 68 0.931594 0 255 0.931594 1
gene 1 68 35 0.368461 0 256 0.368461 1
gene 1 18 69 -0.397113 0 258 -0.397113 1
gene 1 69 28 -0.357966 0 259 -0.357966 1
gene 1 15 68 0.222416 0 288 0.222416 1
gene 1 13 81 -0.148082 0 322 -0.148082 1
gene 1 81 28 0.704631 0 323 0.704631 1
gene 1 10 90 0.870757 0 366 0.870757 1
gene 1 90 28 -0.167927 0 367 -0.167927 1
gene 1 28 36 0.739778 0 368 0.739778 1
gene 1 9 68 -0.353185 0 394 -0.353185 1
gene 1 68 67 -0.05294 0 399 -0.05294 1
genomeend 7015
genomestart 7022
trait 1 0 0.445698 0.0686836 0.0137866 0.144242 0.489288 0.194333 0.0103389 
node 1 1 1 1 0
node 2 1 1 1 0
node 3 1 1 1 0
node 4 1 1 1 0
node 5 1 1 1 0
node 6 1 1 1 0
node 7 1 1 1 0
node 8 1 1 1 0
node 9 1 1 1 0
node 10 1 1 1 0
node 11 1 1 1 0
node 12 1 1 1 0
node 13 1 1 1 0
node 14 1 1 1 0
node 15 1 1 1 0
node 16 1 1 1 0
node 17 1 1 1 0
node 18 1 1 1 0
node 19 1 1 3 0
node 20 1 0 2 0
node 21 1 0 2 0
node 28 1 0 0 0
node 33 1 0 0 0
node 35 1 0 0 0
node 36 1 0 0 0
node 37 1 0 0 0
node 49 1 0 0 0
node 52 1 0 0 0
node 53 1 0 0 0
node 56 1 0 0 0
node 67 1 0 0 0
node 68 1 0 0 0
node 69 1 0 0 0
node 81 1 0 0 0
node 90 1 0 0 0
gene 1 1 20 0.457944 0 1 0.457944 1
gene 1 2 20 0.249555 0 2 0.249555 1
gene 1 3 20 0.262156 0 3 0.262156 1
gene 1 4 20 -0.407503 0 4 -0.407503 1
gene 1 5 20 1.28353 0 5 1.28353 1
gene 1 6 20 0.285688 0 6 0.285688 0
gene 1 7 20 0.389889 0 7 0.389889 1
gene 1 8 20 -0.89313 0 8 -0.89313 1
gene 1 9 20 -0.179188 0 9 -0.179188 1
gene 1 10 20 -0.69856 0 10 -0.69856 1
gene 1 11 20 0.658158 0 11 0.658158 1
gene 1 12 20 1.08941 0 12 1.08941 1
gene 1 13 20 -0.0390848 0 13 -0.0390848 1
gene 1 14 20 -0.175091 0 14 -0.175091 1
gene 1 15 20 -0.62617 0 15 -0.62617 1
gene 1 16 20 -0.473569 0 16 -0.473569 1
gene 1 17 20 0.65183 0 17 0.65183 1
gene 1 18 20 -0.59402 0 18 -0.59402 1
gene 1 19 20 2.32706 0 19 2.32706 1
gene 1 1 21 0.0218018 0 20 0.0218018 1
gene 1 2 21 0.583632 0 21 0.583632 1
gene 1 3 21 0.427922 0 22 0.427922 1
gene 1 4 21 0.654945 0 23 0.654945 1
gene 1 5 21 -1.16312 0 24 -1.16312 1
gene 1 6 21 -0.113122 0 25 -0.113122 1
gene 1 7 21 0.64962 0 26 0.64962 1
gene 1 8 21 -0.5564 0 27 -0.5564 1
gene 1 9 21 -1.94588 0 28 -1.94588 1
gene 1 10 21 0.99167 0 29 0.99167 1
gene 1 11 21 0.237084 0 30 0.237084 1
gene 1 12 21 -0.579139 0 31 -0.579139 1
gene 1 13 21 -1.20173 0 32 -1.20173 1
gene 1 14 21 -1.09836 0 33 -1.09836 1
gene 1 15 21 1.1581 0 34 1.1581 1
gene 1 16 21 -0.0252942 0 35 -0.0252942 1
gene 1 17 21 0.0619393 0 36 0.0619393 1
gene 1 18 21 -1.56104 0 37 -1.56104 1
gene 1 19 21 -0.159678 0 38 -0.159678 1
gene 1 21 20 -0.0527239 0 43 -0.0527239 1
gene 1 18 28 0.326603 0 56 0.326603 1
gene 1 28 20 1.06553 0 57 1.06553 1
gene 1 13 28 1.44305 0 62 1.44305 1
gene 1 14 28 -1.40658 0 66 -1.40658 1
gene 1 10 28 0.300847 0 68 0.300847 0
gene 1 17 33 0.841288 0 73 0.841288 1
gene 1 33 20 -0.213478 0 74 -0.213478 1
gene 1 20 21 -0.0613152 1 80 -0.0613152 1
gene 1 18 35 1.42324 0 81 1.42324 1
gene 1 35 21 -0.01199 0 82 -0.01199 1
gene 1 6 36 -0.604603 0 83 -0.604603 1
gene 1 36 20 0.989344 0 84 0.989344 1
gene 1 28 37 -0.13637 0 86 -0.13637 1
gene 1 37 20 -0.142531 0 87 -0.142531 1
gene 1 21 49 0.0894864 0 131 0.0894864 1
gene 1 49 20 1.00795 0 132 1.00795 1
gene 1 37 35 0.92017 0 133 0.92017 1
gene 1 10 37 0.662147 0 151 0.662147 1
gene 1 4 28 -0.294421 0 152 -0.294421 1
gene 1 14 52 -0.496292 0 158 -0.496292 1
gene 1 52 20 -0.704303 0 159 -0.704303 1
gene 1 28 35 0.0624534 0 160 0.0624534 1
gene 1 4 35 -0.0946261 0 161 -0.0946261 1
gene 1 13 53 0.340944 0 164 0.340944 1
gene 1 53 20 -1.32199 0 165 -1.32199 1
gene 1 14 56 -1.114 0 180 -1.114 1
gene 1 56 28 -1.36791 0 181 -1.36791 1
gene 1 1 33 -1.01271 0 204 -1.01271 1
gene 1 10 33 0.672553 0 206 0.672553 1
gene 1 13 37 0.329873 0 207 0.329873 1
gene 1 33 37 -0.284253 0 215 -0.284253 1
gene 1 21 53 -0.481042 0 230 -0.481042 1
gene 1 5 67 0.641647 0 244 0.641647 1
gene 1 67 20 -0.30049 0 245 -0.30049 1
gene 1 35 35 0.627818 1 249 0.627818 1
gene 1 4 68 0.931594 0 255 0.931594 1
gene 1 68 35 0.47814 0 256 0.47814 1
gene 1 18 69 -0.188371 0 258 -0.188371 1
gene 1 69 28 -0.197536 0 259 -0.197536 1
gene 1 15 68 -0.116779 0 288 -0.116779 1
gene 1 13 81 0.198264 0 322 0.198264 1
gene 1 81 28 0.946131 0 323 0.946131 1
gene 1 10 90 1.09827 0 366 1.09827 1
gene 1 90 28 0.255244 0 367 0.255244 1
gene 1 28 36 -0.303935 0 368 -0.303935 1
gene 1 9 68 -0.104917 0 394 -0.104917 1
gene 1 68 67 -0.490575 0 399 -0.490575 1
genomeend 7022
genomestart 7027
trait 1 0 0.445698 0.0686836 0.0137866 0.144242 0.489288 0.194333 0.0103389 
node 1 1 1 1 0
node 2 1 1 1 0
node 3 1 1 1 0
node 4 1 1 1 0
node 5 1 1 1 0
node 6 1 1 1 0
node 7 1 1 1 0
node 8 1 1 1 0
node 9 1 1 1 0
node 10 1 1 1 0
node 11 1 1 1 0
node 12 1 1 1 0
node 13 1 1 1 0
node 14 1 1 1 0
node 15 1 1 1 0
node 16 1 1 1 0
node 17 1 1 1 0
node 18 1 1 1 0
node 19 1 1 3 0
node 20 1 0 2 0
node 21 1 0 2 0
node 28 1 0 0 0
node 32 1 0 0 0
node 33 1 0 0 0
node 35 1 0 0 0
node 36 1 0 0 0
node 37 1 0 0 0
node 49 1 0 0 0
node 52 1 0 0 0
node 53 1 0 0 0
node 56 1 0 0 0
node 67 1 0 0 0
node 68 1 0 0 0
node 69 1 0 0 0
node 81 1 0 0 0
node 90 1 0 0 0
gene 1 1 20 0.213801 0 1 0.213801 1
gene 1 2 20 0.271066 0 2 0.271066 1
gene 1 3 20 0.319852 0 3 0.319852 1
gene 1 4 20 -0.0929801 0 4 -0.0929801 1
gene 1 5 20 0.460456 0 5 0.460456 1
gene 1 6 20 -0.13843 0 6 -0.13843 0
gene 1 7 20 0.275362 0 7 0.275362 1
gene 1 8 20 -0.594896 0 8 -0.594896 0
gene 1 9 20 -0.0704395 0 9 -0.0704395 1
gene 1 10 20 -1.04394 0 10 -1.04394 1
gene 1 11 20 0.375849 0 11 0.375849 1
gene 1 12 20 0.95116 0 12 0.95116 1
gene 1 13 20 0.101345 0 13 0.101345 1
gene 1 14 20 -0.119112 0 14 -0.119112 1
gene 1 15 20 -0.42054 0 15 -0.42054 1
gene 1 16 20 -0.447556 0 16 -0.447556 1
gene 1 17 20 0.5021 0 17 0.5021 1
gene 1 18 20 -0.66663 0 18 -0.66663 1
gene 1 19 20 2.55266 0 19 2.55266 1
gene 1 1 21 -0.241925 0 20 -0.241925 1
gene 1 2 21 1.35531 0 21 1.35531 1
gene 1 3 21 -0.0444921 0 22 -0.0444921 1
gene 1 4 21 0.040938 0 23 0.040938 1
gene 1 5 21 -0.775793 0 24 -0.775793 1
gene 1 6 21 0.256036 0 25 0.256036 1
gene 1 7 21 -0.00479834 0 26 -0.00479834 1
gene 1 8 21 -0.315749 0 27 -0.315749 1
gene 1 9 21 -1.79961 0 28 -1.79961 1
gene 1 10 21 0.352526 0 29 0.352526 1
gene 1 11 21 0.272282 0 30 0.272282 1
gene 1 12 21 -0.19664 0 31 -0.19664 1
gene 1 13 21 -1.11356 0 32 -1.11356 1
gene 1 14 21 -0.867704 0 33 -0.867704 1
gene 1 15 21 1.01154 0 34 1.01154 1
gene 1 16 21 0.116779 0 35 0.116779 1
gene 1 17 21 0.486646 0 36 0.486646 1
gene 1 18 21 -1.31832 0 37 -1.31832 1
gene 1 19 21 -0.036993 0 38 -0.036993 1
gene 1 21 20 -0.285859 0 43 -0.285859 1
gene 1 18 28 -0.433088 0 56 -0.433088 1
gene 1 28 20 0.650083 0 57 0.650083 1
gene 1 13 28 1.24643 0 62 1.24643 1
gene 1 14 28 -1.35262 0 66 -1.35262 1
gene 1 10 28 0.631267 0 68 0.631267 0
gene 1 8 32 1.16467 0 70 1.16467 1
gene 1 32 20 -0.210025 0 71 -0.210025 1
gene 1 17 33 1.26049 0 73 1.26049 1
gene 1 33 20 0.0836679 0 74 0.0836679 1
gene 1 20 21 0.00869914 1 80 0.00869914 1
gene 1 18 35 1.31879 0 81 1.31879 1
gene 1 35 21 -0.519863 0 82 -0.519863 1
gene 1 6 36 -0.369485 0 83 -0.369485 1
gene 1 36 20 0.334142 0 84 0.334142 1
gene 1 28 37 -0.419737 0 86 -0.419737 1
gene 1 37 20 -0.43878 0 87 -0.43878 1
gene 1 21 49 0.28035 0 131 0.28035 1
gene 1 49 20 0.878012 0 132 0.878012 1
gene 1 37 35 0.473548 0 133 0.473548 1
gene 1 10 37 0.316753 0 151 0.316753 1
gene 1 4 28 -0.365404 0 152 -0.365404 1
gene 1 14 52 -0.419975 0 158 -0.419975 1
gene 1 52 20 -0.359727 0 159 -0.359727 1
gene 1 28 35 -0.0853695 0 160 -0.0853695 1
gene 1 4 35 0.0431561 0 161 0.0431561 1
gene 1 13 53 0.0736853 0 164 0.0736853 1
gene 1 53 20 -0.530431 0 165 -0.530431 1
gene 1 14 56 -0.779716 0 180 -0.779716 1
gene 1 56 28 -0.977858 0 181 -0.977858 1
gene 1 1 33 -0.401649 0 204 -0.401649 1
gene 1 10 33 0.915225 0 206 0.915225 1
gene 1 13 37 0.435207 0 207 0.435207 1
gene 1 33 37 -0.237611 0 215 -0.237611 1
gene 1 21 53 -0.118447 0 230 -0.118447 1
gene 1 5 67 0.471507 0 244 0.471507 1
gene 1 67 20 -0.172943 0 245 -0.172943 1
gene 1 35 35 0.268554 1 249 0.268554 1
gene 1 4 68 0.931594 0 255 0.931594 1
gene 1 68 35 0.4233 0 256 0.4233 1
gene 1 18 69 -0.0256469 0 258 -0.0256469 1
gene 1 69 28 -0.117802 0 259 -0.117802 1
gene 1 15 68 0.233256 0 288 0.233256 1
gene 1 13 81 0.35328 0 322 0.35328 1
gene 1 81 28 0.537405 0 323 0.537405 1
gene 1 10 90 0.687124 0 366 0.687124 1
gene 1 90 28 0.385462 0 367 0.385462 1
gene 1 28 36 0.252358 0 368 0.252358 1
gene 1 9 68 -0.353185 0 394 -0.353185 1
gene 1 68 67 -0.05294 0 399 -0.05294 1
genomeend 7027
genomestart 7034
trait 1 0 0.445698 0.0686836 0.0137866 0.144242 0.489288 0.194333 0.0103389 
node 1 1 1 1 0
node 2 1 1 1 0
node 3 1 1 1 0
node 4 1 1 1 0
node 5 1 1 1 0
node 6 1 1 1 0
node 7 1 1 1 0
node 8 1 1 1 0
node 9 1 1 1 0
node 10 1 1 1 0
node 11 1 1 1 0
node 12 1 1 1 0
node 13 1 1 1 0
node 14 1 1 1 0
node 15 1 1 1 0
node 16 1 1 1 0
node 17 1 1 1 0
node 18 1 1 1 0
node 19 1 1 3 0
node 20 1 0 2 0
node 21 1 0 2 0
node 28 1 0 0 0
node 32 1 0 0 0
node 33 1 0 0 0
node 35 1 0 0 0
node 36 1 0 0 0
node 37 1 0 0 0
node 49 1 0 0 0
node 52 1 0 0 0
node 53 1 0 0 0
node 56 1 0 0 0
node 67 1 0 0 0
node 68 1 0 0 0
node 69 1 0 0 0
node 81 1 0 0 0
node 90 1 0 0 0
gene 1 1 20 0.216134 0 1 0.216134 1
gene 1 2 20 0.0273885 0 2 0.0273885 1
gene 1 3 20 0.385153 0 3 0.385153 1
gene 1 4 20 0.00999433 0 4 0.00999433 1
gene 1 5 20 0.184783 0 5 0.184783 1
gene 1 6 20 -0.360875 0 6 -0.360875 0
gene 1 7 20 0.151301 0 7 0.151301 1
gene 1 8 20 -0.676773 0 8 -0.676773 0
gene 1 9 20 0.523087 0 9 0.523087 1
gene 1 10 20 -0.751706 0 10 -0.751706 1
gene 1 11 20 0.263052 0 11 0.263052 1
gene 1 12 20 1.10082 0 12 1.10082 1
gene 1 13 20 0.0297717 0 13 0.0297717 1
gene 1 14 20 0.062794 0 14 0.062794 1
gene 1 15 20 -0.470408 0 15 -0.470408 1
gene 1 16 20 -0.181256 0 16 -0.181256 1
gene 1 17 20 0.00662739 0 17 0.00662739 1
gene 1 18 20 -0.194649 0 18 -0.194649 1
gene 1 19 20 2.55019 0 19 2.55019 1
gene 1 1 21 -0.0209886 0 20 -0.0209886 1
gene 1 2 21 1.44135 0 21 1.44135 1
gene 1 3 21 -0.165633 0 22 -0.165633 1
gene 1 4 21 -0.336787 0 23 -0.336787 1
gene 1 5 21 -0.660545 0 24 -0.660545 1
gene 1 6 21 0.276894 0 25 0.276894 1
gene 1 7 21 -0.105185 0 26 -0.105185 1
gene 1 8 21 -0.43076 0 27 -0.43076 1
gene 1 9 21 -1.79364 0 28 -1.79364 1
gene 1 10 21 0.107013 0 29 0.107013 1
gene 1 11 21 0.409428 0 30 0.409428 1
gene 1 12 21 -0.111896 0 31 -0.111896 1
gene 1 13 21 -1.4893 0 32 -1.4893 1
gene 1 14 21 -0.884486 0 33 -0.884486 1
gene 1 15 21 0.909268 0 34 0.909268 1
gene 1 16 21 -0.241795 0 35 -0.241795 1
gene 1 17 21 0.236096 0 36 0.236096 1
gene 1 18 21 -1.08741 0 37 -1.08741 1
gene 1 19 21 0.0771686 0 38 0.0771686 1
gene 1 21 20 -0.241514 0 43 -0.241514 1
gene 1 18 28 -0.609971 0 56 -0.609971 1
gene 1 28 20 1.11301 0 57 1.11301 1
gene 1 13 28 0.758183 0 62 0.758183 1
gene 1 14 28 -0.939912 0 66 -0.939912 1
gene 1 10 28 0.379211 0 68 0.379211 0
gene 1 8 32 1.16467 0 70 1.16467 1
gene 1 32 20 -0.210025 0 71 -0.210025 1
gene 1 17 33 1.60108 0 73 1.60108 1
gene 1 33 20 0.0176577 0 74 0.0176577 1
gene 1 20 21 -0.107757 1 80 -0.107757 1
gene 1 18 35 0.903178 0 81 0.903178 1
gene 1 35 21 -0.435327 0 82 -0.435327 1
gene 1 6 36 -0.279403 0 83 -0.279403 1
gene 1 36 20 -0.12904 0 84 -0.12904 1
gene 1 28 37 -0.63142 0 86 -0.63142 1
gene 1 37 20 -0.73673 0 87 -0.73673 1
gene 1 21 49 0.201255 0 131 0.201255 1
gene 1 49 20 0.642334 0 132 0.642334 1
gene 1 37 35 0.379428 0 133 0.379428 1
gene 1 10 37 0.21394 0 151 0.21394 1
gene 1 4 28 -0.348634 0 152 -0.348634 1
gene 1 14 52 -0.0140276 0 158 -0.0140276 1
gene 1 52 20 -0.366617 0 159 -0.366617 1
gene 1 28 35 -0.0649956 0 160 -0.0649956 1
gene 1 4 35 0.149844 0 161 0.149844 1
gene 1 13 53 -0.113936 0 164 -0.113936 1
gene 1 53 20 -0.318399 0 165 -0.318399 1
gene 1 14 56 -0.79701 0 180 -0.79701 1
gene 1 56 28 -1.26249 0 181 -1.26249 1
gene 1 1 33 -0.265055 0 204 -0.265055 1
gene 1 10 33 0.695732 0 206 0.695732 1
gene 1 13 37 -0.081656 0 207 -0.081656 1
gene 1 33 37 0.0239776 0 215 0.0239776 1
gene 1 21 53 0.229224 0 230 0.229224 1
gene 1 5 67 0.498223 0 244 0.498223 1
gene 1 67 20 -0.0548466 0 245 -0.0548466 1
gene 1 35 35 0.255351 1 249 0.255351 1
gene 1 4 68 0.960049 0 255 0.960049 1
gene 1 68 35 0.360278 0 256 0.360278 1
gene 1 18 69 -0.19362 0 258 -0.19362 1
gene 1 69 28 0.110056 0 259 0.110056 1
gene 1 15 68 0.220758 0 288 0.220758 1
gene 1 13 81 0.0105459 0 322 0.0105459 1
gene 1 81 28 0.339095 0 323 0.339095 1
gene 1 10 90 0.56584 0 366 0.56584 1
gene 1 90 28 0.389392 0 367 0.389392 1
gene 1 28 36 0.0495032 0 368 0.0495032 1
gene 1 9 68 -0.0836419 0 394 -0.0836419 1
gene 1 68 67 0.201803 0 399 0.201803 1
genomeend 7034
genomestart 7045
trait 1 0 0.445698 0.0686836 0.0137866 0.144242 0.489288 0.194333 0.0103389 
node 1 1 1 1 0
node 2 1 1 1 0
node 3 1 1 1 0
node 4 1 1 1 0
node 5 1 1 1 0
node 6 1 1 1 0
node 7 1 1 1 0
node 8 1 1 1 0
node 9 1 1 1 0
node 10 1 1 1 0
node 11 1 1 1 0
node 12 1 1 1 0
node 13 1 1 1 0
node 14 1 1 1 0
node 15 1 1 1 0
node 16 1 1 1 0
node 17 1 1 1 0
node 18 1 1 1 0
node 19 1 1 3 0
node 20 1 0 2 0
node 21 1 0 2 0
node 28 1 0 0 0
node 32 1 0 0 0
node 33 1 0 0 0
node 35 1 0 0 0
node 36 1 0 0 0
node 37 1 0 0 0
node 49 1 0 0 0
node 52 1 0 0 0
node 53 1 0 0 0
node 56 1 0 0 0
node 67 1 0 0 0
node 68 1 0 0 0
node 69 1 0 0 0
node 81 1 0 0 0
node 90 1 0 0 0
gene 1 1 20 -0.0491017 0 1 -0.0491017 1
gene 1 2 20 -0.126746 0 2 -0.126746 1
gene 1 3 20 0.191178 0 3 0.191178 1
gene 1 4 20 0.0126269 0 4 0.0126269 1
gene 1 5 20 0.58571 0 5 0.58571 1
gene 1 6 20 0.151049 0 6 0.151049 0
gene 1 7 20 0.290936 0 7 0.290936 1
gene 1 8 20 -0.297458 0 8 -0.297458 0
gene 1 9 20 0.263696 0 9 0.263696 1
gene 1 10 20 -0.424686 0 10 -0.424686 1
gene 1 11 20 0.473154 0 11 0.473154 1
gene 1 12 20 1.01103 0 12 1.01103 1
gene 1 13 20 0.137708 0 13 0.137708 1
gene 1 14 20 -0.740678 0 14 -0.740678 1
gene 1 15 20 -0.493796 0 15 -0.493796 1
gene 1 16 20 -0.90186 0 16 -0.90186 1
gene 1 17 20 0.172851 0 17 0.172851 1
gene 1 18 20 -1.08684 0 18 -1.08684 1
gene 1 19 20 2.80579 0 19 2.80579 1
gene 1 1 21 -0.275504 0 20 -0.275504 1
gene 1 2 21 1.24269 0 21 1.24269 1
gene 1 3 21 0.165539 0 22 0.165539 1
gene 1 4 21 -0.0965037 0 23 -0.0965037 1
gene 1 5 21 -0.921523 0 24 -0.921523 1
gene 1 6 21 0.306808 0 25 0.306808 1
gene 1 7 21 0.238257 0 26 0.238257 1
gene 1 8 21 -0.301509 0 27 -0.301509 1
gene 1 9 21 -1.63183 0 28 -1.63183 1
gene 1 10 21 0.50461 0 29 0.50461 1
gene 1 11 21 0.347706 0 30 0.347706 1
gene 1 12 21 -0.317276 0 31 -0.317276 1
gene 1 13 21 -1.64208 0 32 -1.64208 1
gene 1 14 21 -0.155246 0 33 -0.155246 1
gene 1 15 21 0.888953 0 34 0.888953 1
gene 1 16 21 0.431321 0 35 0.431321 1
gene 1 17 21 0.0431423 0 36 0.0431423 1
gene 1 18 21 -1.02137 0 37 -1.02137 1
gene 1 19 21 -0.269246 0 38 -0.269246 1
gene 1 21 20 -0.176122 0 43 -0.176122 1
gene 1 18 28 -0.165531 0 56 -0.165531 1
gene 1 28 20 0.791223 0 57 0.791223 1
gene 1 13 28 1.1267 0 62 1.1267 1
gene 1 14 28 -1.74789 0 66 -1.74789 1
gene 1 10 28 0.646184 0 68 0.646184 0
gene 1 8 32 1 0 70 0 1
gene 1 32 20 -0.0892373 0 71 0 1
gene 1 17 33 0.879947 0 73 0.879947 1
gene 1 33 20 -0.358321 0 74 -0.358321 1
gene 1 20 21 0.376962 1 80 0.376962 1
gene 1 18 35 0.794086 0 81 0.794086 1
gene 1 35 21 -0.538713 0 82 -0.538713 1
gene 1 6 36 -0.0657607 0 83 -0.0657607 1
gene 1 36 20 0.503125 0 84 0.503125 1
gene 1 28 37 -0.468132 0 86 -0.468132 1
gene 1 37 20 -0.591278 0 87 -0.591278 1
gene 1 21 49 0.0703226 0 131 0.0703226 1
gene 1 49 20 1.03939 0 132 1.03939 1
gene 1 37 35 0.777663 0 133 0.777663 1
gene 1 10 37 0.260153 0 151 0.260153 1
gene 1 4 28 0.12879 0 152 0.12879 1
gene 1 14 52 -0.279944 0 158 -0.279944 1
gene 1 52 20 -0.336691 0 159 -0.336691 1
gene 1 28 35 -0.437064 0 160 -0.437064 1
gene 1 4 35 0.171143 0 161 0.171143 1
gene 1 13 53 0.212805 0 164 0.212805 1
gene 1 53 20 -0.668389 0 165 -0.668389 1
gene 1 14 56 -0.623287 0 180 -0.623287 1
gene 1 56 28 -0.822975 0 181 -0.822975 1
gene 1 1 33 -0.544218 0 204 -0.544218 1
gene 1 10 33 0.865345 0 206 0.865345 1
gene 1 13 37 -0.367481 0 207 -0.367481 1
gene 1 33 37 -0.446742 0 215 -0.446742 1
gene 1 21 53 -0.0236937 0 230 -0.0236937 1
gene 1 5 67 0.562369 0 244 0.562369 1
gene 1 67 20 1.20035 0 245 1.20035 1
gene 1 35 35 0.367321 1 249 0.367321 1
gene 1 4 68 0.931594 0 255 0.931594 1
gene 1 68 35 0.368461 0 256 0.368461 1
gene 1 18 69 0.320101 0 258 0.320101 1
gene 1 69 28 0.238891 0 259 0.238891 1
gene 1 15 68 0.222416 0 288 0.222416 1
gene 1 13 81 -0.148082 0 322 -0.148082 1
gene 1 81 28 0.704631 0 323 0.704631 1
gene 1 10 90 0.870757 0 366 0.870757 1
gene 1 90 28 0.246837 0 367 0.246837 1
gene 1 28 36 0.739778 0 368 0.739778 1
gene 1 9 68 -0.353185 0 394 -0.353185 1
gene 1 68 67 -0.05294 0 399 -0.05294 1
genomeend 7045
genomestart 7050
trait 1 0 0.445698 0.0686836 0.0137866 0.144242 0.489288 0.194333 0.0103389 
node 1 1 1 1 0
node 2 1 1 1 0
node 3 1 1 1 0
node 4 1 1 1 0
node 5 1 1 1 0
node 6 1 1 1 0
node 7 1 1 1 0
node 8 1 1 1 0
node 9 1 1 1 0
node 10 1 1 1 0
node 11 1 1 1 0
node 12 1 1 1 0
node 13 1 1 1 0
node 14 1 1 1 0
node 15 1 1 1 0
node 16 1 1 1 0
node 17 1 1 1 0
node 18 1 1 1 0
node 19 1 1 3 0
node 20 1 0 2 0
node 21 1 0 2 0
node 28 1 0 0 0
node 32 1 0 0 0
node 33 1 0 0 0
node 35 1 0 0 0
node 36 1 0 0 0
node 37 1 0 0 0
node 49 1 0 0 0
node 52 1 0 0 0
node 53 1 0 0 0
node 56 1 0 0 0
node 67 1 0 0 0
node 68 1 0 0 0
node 69 1 0 0 0
node 81 1 0 0 0
node 90 1 0 0 0
gene 1 1 20 0.144836 0 1 0.144836 1
gene 1 2 20 0.512142 0 2 0.512142 1
gene 1 3 20 0.865273 0 3 0.865273 1
gene 1 4 20 -0.446377 0 4 -0.446377 1
gene 1 5 20 -0.176507 0 5 -0.176507 1
gene 1 6 20 -0.813658 0 6 -0.813658 0
gene 1 7 20 -0.475353 0 7 -0.475353 1
gene 1 8 20 -0.676773 0 8 -0.676773 0
gene 1 9 20 1.0168 0 9 1.0168 1
gene 1 10 20 -0.735612 0 10 -0.735612 1
gene 1 11 20 0.0996932 0 11 0.0996932 1
gene 1 12 20 1.58278 0 12 1.58278 1
gene 1 13 20 0.0297717 0 13 0.0297717 1
gene 1 14 20 0.062794 0 14 0.062794 1
gene 1 15 20 -0.127861 0 15 -0.127861 1
gene 1 16 20 -0.181256 0 16 -0.181256 1
gene 1 17 20 0.359901 0 17 0.359901 1
gene 1 18 20 -0.408695 0 18 -0.408695 1
gene 1 19 20 2.49103 0 19 2.49103 1
gene 1 1 21 -0.344185 0 20 -0.344185 1
gene 1 2 21 1.44135 0 21 1.44135 1
gene 1 3 21 -0.15381 0 22 -0.15381 1
gene 1 4 21 0.456098 0 23 0.456098 1
gene 1 5 21 -0.356704 0 24 -0.356704 1
gene 1 6 21 0.17971 0 25 0.17971 1
gene 1 7 21 -0.105185 0 26 -0.105185 1
gene 1 8 21 -0.43076 0 27 -0.43076 1
gene 1 9 21 -2.26399 0 28 -2.26399 1
gene 1 10 21 0.578105 0 29 0.578105 1
gene 1 11 21 0.19434 0 30 0.19434 1
gene 1 12 21 -0.602678 0 31 -0.602678 1
gene 1 13 21 -1.4893 0 32 -1.4893 1
gene 1 14 21 -0.923258 0 33 -0.923258 1
gene 1 15 21 0.526619 0 34 0.526619 1
gene 1 16 21 0.0177384 0 35 0.0177384 1
gene 1 17 21 0.356482 0 36 0.356482 1
gene 1 18 21 -1.08741 0 37 -1.08741 1
gene 1 19 21 -0.0840195 0 38 -0.0840195 1
gene 1 21 20 -0.43663 0 43 -0.43663 1
gene 1 18 28 -0.767374 0 56 -0.767374 1
gene 1 28 20 1.11301 0 57 1.11301 1
gene 1 13 28 0.664531 0 62 0.664531 1
gene 1 14 28 -0.915553 0 66 -0.915553 1
gene 1 10 28 -0.416645 0 68 -0.416645 0
gene 1 8 32 -0.105686 0 70 -0.105686 1
gene 1 32 20 0.108129 0 71 0.108129 1
gene 1 17 33 1.90766 0 73 1.90766 1
gene 1 33 20 0.220623 0 74 0.220623 1
gene 1 20 21 -0.236494 1 80 -0.236494 1
gene 1 18 35 1.16986 0 81 1.16986 1
gene 1 35 21 -0.0771898 0 82 -0.0771898 1
gene 1 6 36 -0.77323 0 83 -0.77323 1
gene 1 36 20 0.176974 0 84 0.176974 1
gene 1 28 37 -0.63142 0 86 -0.63142 1
gene 1 37 20 -0.878755 0 87 -0.878755 1
gene 1 21 49 0.386319 0 131 0.386319 1
gene 1 49 20 0.966598 0 132 0.966598 1
gene 1 37 35 -0.082289 0 133 -0.082289 1
gene 1 10 37 -0.0817683 0 151 -0.0817683 1
gene 1 4 28 -0.693171 0 152 -0.693171 1
gene 1 14 52 -0.0140276 0 158 -0.0140276 1
gene 1 52 20 -0.710087 0 159 -0.710087 1
gene 1 28 35 -0.370011 0 160 -0.370011 1
gene 1 4 35 0.380572 0 161 0.380572 1
gene 1 13 53 -0.0963341 0 164 -0.0963341 1
gene 1 53 20 0.0947519 0 165 0.0947519 1
gene 1 14 56 0.2679 0 180 0.2679 1
gene 1 56 28 -0.932398 0 181 -0.932398 1
gene 1 1 33 -0.448437 0 204 -0.448437 1
gene 1 10 33 0.664159 0 206 0.664159 1
gene 1 13 37 -0.1125 0 207 -0.1125 1
gene 1 33 37 -0.470379 0 215 -0.470379 1
gene 1 21 53 -0.0933385 0 230 -0.0933385 1
gene 1 5 67 0.211125 0 244 0.211125 1
gene 1 67 20 -0.104949 0 245 -0.104949 1
gene 1 35 35 0.678889 1 249 0.678889 1
gene 1 4 68 1.31932 0 255 1.31932 1
gene 1 68 35 -0.12974 0 256 -0.12974 1
gene 1 18 69 0.0869762 0 258 0.0869762 1
gene 1 69 28 0.449803 0 259 0.449803 1
gene 1 15 68 0.220758 0 288 0.220758 1
gene 1 13 81 0.483019 0 322 0.483019 1
gene 1 81 28 0.164916 0 323 0.164916 1
gene 1 10 90 0.711527 0 366 0.711527 1
gene 1 90 28 0.788001 0 367 0.788001 1
gene 1 28 36 -0.375308 0 368 -0.375308 1
gene 1 9 68 0.448608 0 394 0.448608 1
gene 1 68 67 0.201803 0 399 0.201803 1
genomeend 7050
genomestart 7058
trait 1 0 0.445698 0.0686836 0.0137866 0.144242 0.489288 0.194333 0.0103389 
node 1 1 1 1 0
node 2 1 1 1 0
node 3 1 1 1 0
node 4 1 1 1 0
node 5 1 1 1 0
node 6 1 1 1 0
node 7 1 1 1 0
node 8 1 1 1 0
node 9 1 1 1 0
node 10 1 1 1 0
node 11 1 1 1 0
node 12 1 1 1 0
node 13 1 1 1 0
node 14 1 1 1 0
node 15 1 1 1 0
node 16 1 1 1 0
node 17 1 1 1 0
node 18 1 1 1 0
node 19 1 1 3 0
node 20 1 0 2 0
node 21 1 0 2 0
node 28 1 0 0 0
node 32 1 0 0 0
node 33 1 0 0 0
node 35 1 0 0 0
node 36 1 0 0 0
node 37 1 0 0 0
node 49 1 0 0 0
node 52 1 0 0 0
node 53 1 0 0 0
node 56 1 0 0 0
node 67 1 0 0 0
node 68 1 0 0 0
node 69 1 0 0 0
node 81 1 0 0 0
node 90 1 0 0 0
gene 1 1 20 0.551696 0 1 0.551696 1
gene 1 2 20 -0.465682 0 2 -0.465682 1
gene 1 3 20 -0.265512 0 3 -0.265512 1
gene 1 4 20 -0.0106285 0 4 -0.0106285 1
gene 1 5 20 -0.0428262 0 5 -0.0428262 1
gene 1 6 20 -0.428369 0 6 -0.428369 0
gene 1 7 20 0.521215 0 7 0.521215 1
gene 1 8 20 -0.461021 0 8 -0.461021 0
gene 1 9 20 0.310052 0 9 0.310052 1
gene 1 10 20 -0.915959 0 10 -0.915959 1
gene 1 11 20 -0.117063 0 11 -0.117063 1
gene 1 12 20 0.712796 0 12 0.712796 1
gene 1 13 20 0.0194228 0 13 0.0194228 1
gene 1 14 20 0.157318 0 14 0.157318 1
gene 1 15 20 -0.537552 0 15 -0.537552 1
gene 1 16 20 0.0554017 0 16 0.0554017 1
gene 1 17 20 -0.325422 0 17 -0.325422 1
gene 1 18 20 0.123206 0 18 0.123206 1
gene 1 19 20 2.50307 0 19 2.50307 1
gene 1 1 21 0.457711 0 20 0.457711 1
gene 1 2 21 2.15633 0 21 2.15633 1
gene 1 3 21 0.00145018 0 22 0.00145018 1
gene 1 4 21 -0.063616 0 23 -0.063616 1
gene 1 5 21 -0.94347 0 24 -0.94347 1
gene 1 6 21 0.307406 0 25 0.307406 1
gene 1 7 21 0.21869 0 26 0.21869 1
gene 1 8 21 -0.255445 0 27 -0.255445 1
gene 1 9 21 -2.23344 0 28 -2.23344 1
gene 1 10 21 0.201371 0 29 0.201371 1
gene 1 11 21 0.21144 0 30 0.21144 1
gene 1 12 21 -0.690653 0 31 -0.690653 1
gene 1 13 21 -2.04903 0 32 -2.04903 1
gene 1 14 21 -1.05501 0 33 -1.05501 1
gene 1 15 21 0.237182 0 34 0.237182 1
gene 1 16 21 0.4564 0 35 0.4564 1
gene 1 17 21 0.0434354 0 36 0.0434354 1
gene 1 18 21 -0.742198 0 37 -0.742198 1
gene 1 19 21 -0.187115 0 38 -0.187115 1
gene 1 21 20 -0.291662 0 43 -0.291662 1
gene 1 18 28 -0.933153 0 56 -0.933153 1
gene 1 28 20 1.20722 0 57 1.20722 1
gene 1 13 28 1.28208 0 62 1.28208 1
gene 1 14 28 -0.87149 0 66 -0.87149 1
gene 1 10 28 0.838536 0 68 0.838536 1
gene 1 8 32 1.48093 0 70 1.48093 1
gene 1 32 20 -0.287968 0 71 -0.287968 1
gene 1 17 33 1.35912 0 73 1.35912 1
gene 1 33 20 -0.118722 0 74 -0.118722 1
gene 1 20 21 0.108009 1 80 0.108009 1
gene 1 18 35 0.953061 0 81 0.953061 1
gene 1 35 21 -0.7225 0 82 -0.7225 1
gene 1 6 36 0.0227191 0 83 0.0227191 1
gene 1 36 20 -0.0921203 0 84 -0.0921203 1
gene 1 28 37 -0.110014 0 86 -0.110014 1
gene 1 37 20 -0.642253 0 87 -0.642253 1
gene 1 21 49 0.0613639 0 131 0.0613639 1
gene 1 49 20 0.164387 0 132 0.164387 1
gene 1 37 35 0.868721 0 133 0.868721 1
gene 1 10 37 0.151966 0 151 0.151966 1
gene 1 4 28 -0.347386 0 152 -0.347386 1
gene 1 14 52 -0.0764101 0 158 -0.0764101 1
gene 1 52 20 -0.615988 0 159 -0.615988 1
gene 1 28 35 -0.530679 0 160 -0.530679 1
gene 1 4 35 0.495574 0 161 0.495574 1
gene 1 13 53 0.680542 0 164 0.680542 1
gene 1 53 20 -0.315732 0 165 -0.315732 1
gene 1 14 56 -0.562892 0 180 -0.562892 1
gene 1 56 28 -1.22277 0 181 -1.22277 1
gene 1 1 33 -0.253456 0 204 -0.253456 1
gene 1 10 33 0.651066 0 206 0.651066 1
gene 1 13 37 -0.290218 0 207 -0.290218 1
gene 1 33 37 -0.431475 0 215 -0.431475 1
gene 1 21 53 -0.433418 0 230 -0.433418 1
gene 1 5 67 0.910297 0 244 0.910297 1
gene 1 67 20 0.581191 0 245 0.581191 1
gene 1 35 35 -0.238371 1 249 -0.238371 1
gene 1 4 68 0.721087 0 255 0.721087 1
gene 1 68 35 0.913317 0 256 0.913317 1
gene 1 18 69 0.412798 0 258 0.412798 1
gene 1 69 28 0.493107 0 259 0.493107 1
gene 1 15 68 0.0264721 0 288 0.0264721 1
gene 1 13 81 0.0798119 0 322 0.0798119 1
gene 1 81 28 0.261617 0 323 0.261617 1
gene 1 10 90 0.131301 0 366 0.131301 1
gene 1 90 28 0.280072 0 367 0.280072 1
gene 1 28 36 -0.44689 0 368 -0.44689 1
genomeend 7058
genomestart 7059
trait 1 0 0.445698 0.0686836 0.0137866 0.144242 0.489288 0.194333 0.0103389 
node 1 1 1 1 0
node 2 1 1 1 0
node 3 1 1 1 0
node 4 1 1 1 0
node 5 1 1 1 0
node 6 1 1 1 0
node 7 1 1 1 0
node 8 1 1 1 0
node 9 1 1 1 0
node 10 1 1 1 0
node 11 1 1 1 0
node 12 1 1 1 0
node 13 1 1 1 0
node 14 1 1 1 0
node 15 1 1 1 0
node 16 1 1 1 0
node 17 1 1 1 0
node 18 1 1 1 0
node 19 1 1 3 0
node 20 1 0 2 0
node 21 1 0 2 0
node 28 1 0 0 0
node 32 1 0 0 0
node 33 1 0 0 0
node 35 1 0 0 0
node 36 1 0 0 0
node 37 1 0 0 0
node 49 1 0 0 0
node 52 1 0 0 0
node 53 1 0 0 0
node 56 1 0 0 0
node 67 1 0 0 0
node 68 1 0 0 0
node 69 1 0 0 0
node 72 1 0 0 0
node 81 1 0 0 0
node 90 1 0 0 0
gene 1 1 20 0.305825 0 1 0.305825 1
gene 1 2 20 0.46698 0 2 0.46698 1
gene 1 3 20 0.34481 0 3 0.34481 1
gene 1 4 20 0.312315 0 4 0.312315 1
gene 1 5 20 -0.0144788 0 5 -0.0144788 1
gene 1 6 20 0.126486 0 6 0.126486 0
gene 1 7 20 0.486193 0 7 0.486193 1
gene 1 8 20 -0.634676 0 8 -0.634676 0
gene 1 9 20 -0.257815 0 9 -0.257815 1
gene 1 10 20 -1.00148 0 10 -1.00148 1
gene 1 11 20 0.0931963 0 11 0.0931963 1
gene 1 12 20 1.22089 0 12 1.22089 1
gene 1 13 20 0.398048 0 13 0.398048 1
gene 1 14 20 0.15549 0 14 0.15549 1
gene 1 15 20 -0.591204 0 15 -0.591204 1
gene 1 16 20 -0.283823 0 16 -0.283823 1
gene 1 17 20 -0.232517 0 17 -0.232517 1
gene 1 18 20 -0.940465 0 18 -0.940465 1
gene 1 19 20 2.8586 0 19 2.8586 1
gene 1 1 21 0.444577 0 20 0.444577 1
gene 1 2 21 1.23973 0 21 1.23973 1
gene 1 3 21 0.136977 0 22 0.136977 1
gene 1 4 21 -0.594257 0 23 -0.594257 1
gene 1 5 21 -1.11314 0 24 -1.11314 1
gene 1 6 21 -0.0822166 0 25 -0.0822166 1
gene 1 7 21 0.340114 0 26 0.340114 1
gene 1 8 21 -0.708005 0 27 -0.708005 1
gene 1 9 21 -1.29501 0 28 -1.29501 1
gene 1 10 21 0.657956 0 29 0.657956 1
gene 1 11 21 0.051822 0 30 0.051822 1
gene 1 12 21 0.238772 0 31 0.238772 1
gene 1 13 21 -1.86827 0 32 -1.86827 1
gene 1 14 21 -0.938719 0 33 -0.938719 1
gene 1 15 21 0.721173 0 34 0.721173 1
gene 1 16 21 0.121137 0 35 0.121137 1
gene 1 17 21 0.438133 0 36 0.438133 1
gene 1 18 21 -1.05556 0 37 -1.05556 1
gene 1 19 21 -0.17519 0 38 -0.17519 1
gene 1 21 20 -0.239558 0 43 -0.239558 1
gene 1 18 28 -0.289617 0 56 -0.289617 1
gene 1 28 20 1.23566 0 57 1.23566 1
gene 1 13 28 1.35653 0 62 1.35653 1
gene 1 14 28 -1.35101 0 66 -1.35101 1
gene 1 10 28 0.392265 0 68 0.392265 0
gene 1 8 32 1.07892 0 70 1.07892 1
gene 1 32 20 0.14109 0 71 0.14109 1
gene 1 17 33 1.48324 0 73 1.48324 1
gene 1 33 20 0.0846863 0 74 0.0846863 1
gene 1 20 21 0.0346738 1 80 0.0346738 1
gene 1 18 35 0.97549 0 81 0.97549 1
gene 1 35 21 -0.340081 0 82 -0.340081 1
gene 1 6 36 0.237523 0 83 0.237523 1
gene 1 36 20 0.413737 0 84 0.413737 1
gene 1 28 37 -0.271721 0 86 -0.271721 1
gene 1 37 20 -0.0856293 0 87 -0.0856293 1
gene 1 21 49 0.285936 0 131 0.285936 1
gene 1 49 20 0.0815825 0 132 0.0815825 1
gene 1 37 35 0.89677 0 133 0.89677 1
gene 1 10 37 0.370829 0 151 0.370829 1
gene 1 4 28 0.0461182 0 152 0.0461182 1
gene 1 14 52 -0.124119 0 158 -0.124119 1
gene 1 52 20 -0.838469 0 159 -0.838469 1
gene 1 28 35 -0.700136 0 160 -0.700136 1
gene 1 4 35 0.258631 0 161 0.258631 1
gene 1 13 53 -0.515973 0 164 -0.515973 1
gene 1 53 20 -0.911762 0 165 -0.911762 1
gene 1 14 56 -0.405759 0 180 -0.405759 1
gene 1 56 28 -1.54274 0 181 -1.54274 1
gene 1 1 33 -0.499493 0 204 -0.499493 1
gene 1 10 33 0.724496 0 206 0.724496 1
gene 1 13 37 0.396536 0 207 0.396536 1
gene 1 33 37 0.378222 0 215 0.378222 1
gene 1 21 53 -0.296295 0 230 -0.296295 1
gene 1 5 67 0.139277 0 244 0.139277 1
gene 1 67 20 0.601371 0 245 0.601371 1
gene 1 35 35 0.131889 1 249 0.131889 1
gene 1 4 68 0.975185 0 255 0.975185 1
gene 1 68 35 0.360278 0 256 0.360278 1
gene 1 18 69 0.492673 0 258 0.492673 1
gene 1 69 28 -0.254252 0 259 -0.254252 1
gene 1 1 72 1 0 273 1 1
gene 1 72 33 -0.471734 0 274 -0.471734 1
gene 1 15 68 0.0669815 0 288 0.0669815 1
gene 1 13 81 0.312241 0 322 0.312241 1
gene 1 81 28 0.490746 0 323 0.490746 1
gene 1 10 90 0.56584 0 366 0.56584 1
gene 1 90 28 0.218147 0 367 0.218147 1
gene 1 28 36 0.293213 0 368 0.293213 1
gene 1 9 68 -0.335346 0 394 -0.335346 1
gene 1 68 67 0.0744317 0 399 0.0744317 1
genomeend 7059
genomestart 7063
trait 1 0 0.445698 0.0686836 0.0137866 0.144242 0.489288 0.194333 0.0103389 
node 1 1 1 1 0
node 2 1 1 1 0
node 3 1 1 1 0
node 4 1 1 1 0
node 5 1 1 1 0
node 6 1 1 1 0
node 7 1 1 1 0
node 8 1 1 1 0
node 9 1 1 1 0
node 10 1 1 1 0
node 11 1 1 1 0
node 12 1 1 1 0
node 13 1 1 1 0
node 14 1 1 1 0
node 15 1 1 1 0
node 16 1 1 1 0
node 17 1 1 1 0
node 18 1 1 1 0
node 19 1 1 3 0
node 20 1 0 2 0
node 21 1 0 2 0
node 28 1 0 0 0
node 32 1 0 0 0
node 33 1 0 0 0
node 35 1 0 0 0
node 36 1 0 0 0
node 37 1 0 0 0
node 49 1 0 0 0
node 52 1 0 0 0
node 53 1 0 0 0
node 56 1 0 0 0
node 67 1 0 0 0
node 68 1 0 0 0
node 69 1 0 0 0
node 72 1 0 0 0
node 81 1 0 0 0
node 90 1 0 0 0
gene 1 1 20 0.0410408 0 1 0.0410408 1
gene 1 2 20 0.0213129 0 2 0.0213129 1
gene 1 3 20 0.223034 0 3 0.223034 1
gene 1 4 20 -0.138084 0 4 -0.138084 1
gene 1 5 20 0.515283 0 5 0.515283 1
gene 1 6 20 0.0584182 0 6 0.0584182 0
gene 1 7 20 0.345192 0 7 0.345192 1
gene 1 8 20 -0.353148 0 8 -0.353148 0
gene 1 9 20 -0.0911524 0 9 -0.0911524 1
gene 1 10 20 -0.732328 0 10 -0.732328 1
gene 1 11 20 0.380232 0 11 0.380232 1
gene 1 12 20 0.838485 0 12 0.838485 1
gene 1 13 20 0.185738 0 13 0.185738 1
gene 1 14 20 -0.540334 0 14 -0.540334 1
gene 1 15 20 -0.464159 0 15 -0.464159 1
gene 1 16 20 -0.461374 0 16 -0.461374 1
gene 1 17 20 0.391392 0 17 0.391392 1
gene 1 18 20 -0.86203 0 18 -0.86203 1
gene 1 19 20 2.73024 0 19 2.73024 1
gene 1 1 21 -0.0462312 0 20 -0.0462312 1
gene 1 2 21 1.04827 0 21 1.04827 1
gene 1 3 21 0.180429 0 22 0.180429 1
gene 1 4 21 0.0808801 0 23 0.0808801 1
gene 1 5 21 -0.727404 0 24 -0.727404 1
gene 1 6 21 0.213212 0 25 0.213212 1
gene 1 7 21 0.00870706 0 26 0.00870706 1
gene 1 8 21 -0.179223 0 27 -0.179223 1
gene 1 9 21 -1.60469 0 28 -1.60469 1
gene 1 10 21 0.422527 0 29 0.422527 1
gene 1 11 21 0.393182 0 30 0.393182 1
gene 1 12 21 -0.212213 0 31 -0.212213 1
gene 1 13 21 -1.41972 0 32 -1.41972 1
gene 1 14 21 -0.532215 0 33 -0.532215 1
gene 1 15 21 0.990016 0 34 0.990016 1
gene 1 16 21 0.277411 0 35 0.277411 1
gene 1 17 21 0.359278 0 36 0.359278 1
gene 1 18 21 -1.16954 0 37 -1.16954 1
gene 1 19 21 -0.284752 0 38 -0.284752 1
gene 1 21 20 -0.144638 0 43 -0.144638 1
gene 1 18 28 -0.272707 0 56 -0.272707 1
gene 1 28 20 0.721004 0 57 0.721004 1
gene 1 13 28 1.32153 0 62 1.32153 1
gene 1 14 28 -1.33595 0 66 -1.33595 1
gene 1 10 28 0.777348 0 68 0.777348 1
gene 1 8 32 1 0 70 0 1
gene 1 32 20 -0.0892373 0 71 0 1
gene 1 17 33 0.946911 0 73 0.946911 1
gene 1 33 20 -0.301257 0 74 -0.301257 1
gene 1 20 21 0.145602 1 80 0.145602 1
gene 1 18 35 1.1154 0 81 1.1154 1
gene 1 35 21 -0.13455 0 82 -0.13455 1
gene 1 6 36 -0.137569 0 83 -0.137569 1
gene 1 36 20 0.579078 0 84 0.579078 1
gene 1 28 37 -0.363005 0 86 -0.363005 1
gene 1 37 20 -0.306248 0 87 -0.306248 1
gene 1 21 49 0.131882 0 131 0.131882 1
gene 1 49 20 0.482244 0 132 0.482244 1
gene 1 37 35 0.815931 0 133 0.815931 1
gene 1 10 37 0.130417 0 151 0.130417 1
gene 1 4 28 -0.160132 0 152 -0.160132 1
gene 1 14 52 -0.37108 0 158 -0.37108 1
gene 1 52 20 -0.328476 0 159 -0.328476 1
gene 1 28 35 -0.48258 0 160 -0.48258 1
gene 1 4 35 0.0221096 0 161 0.0221096 1
gene 1 13 53 0.093284 0 164 0.093284 1
gene 1 53 20 -0.760577 0 165 -0.760577 1
gene 1 14 56 -0.711699 0 180 -0.711699 1
gene 1 56 28 -0.937831 0 181 -0.937831 1
gene 1 1 33 -0.536992 0 204 -0.536992 0
gene 1 10 33 0.94832 0 206 0.94832 1
gene 1 13 37 0.349815 0 207 0.349815 1
gene 1 33 37 -0.237611 0 215 -0.237611 1
gene 1 21 53 -0.252368 0 230 -0.252368 1
gene 1 5 67 0.562369 0 244 0.562369 1
gene 1 67 20 1.20067 0 245 1.20067 1
gene 1 35 35 0.268554 1 249 0.268554 1
gene 1 4 68 0.931594 0 255 0.931594 1
gene 1 68 35 0.368461 0 256 0.368461 1
gene 1 18 69 0.320101 0 258 0.320101 1
gene 1 69 28 0.179099 0 259 0.179099 1
gene 1 1 72 1 0 273 0 1
gene 1 72 33 -0.161098 0 274 0 1
gene 1 15 68 0.255581 0 288 0.255581 1
gene 1 13 81 0.35328 0 322 0.35328 1
gene 1 81 28 0.673481 0 323 0.673481 1
gene 1 10 90 0.503491 0 366 0.503491 1
gene 1 90 28 0.17319 0 367 0.17319 1
gene 1 28 36 0.252358 0 368 0.252358 1
gene 1 9 68 -0.353185 0 394 -0.353185 1
gene 1 68 67 -0.05294 0 399 -0.05294 1
genomeend 7063
genomestart 7064
trait 1 0 0.445698 0.0686836 0.0137866 0.144242 0.489288 0.194333 0.0103389 
node 1 1 1 1 0
node 2 1 1 1 0
node 3 1 1 1 0
node 4 1 1 1 0
node 5 1 1 1 0
node 6 1 1 1 0
node 7 1 1 1 0
node 8 1 1 1 0
node 9 1 1 1 0
node 10 1 1 1 0
node 11 1 1 1 0
node 12 1 1 1 0
node 13 1 1 1 0
node 14 1 1 1 0
node 15 1 1 1 0
node 16 1 1 1 0
node 17 1 1 1 0
node 18 1 1 1 0
node 19 1 1 3 0
node 20 1 0 2 0
node 21 1 0 2 0
node 28 1 0 0 0
node 32 1 0 0 0
node 33 1 0 0 0
node 35 1 0 0 0
node 36 1 0 0 0
node 37 1 0 0 0
node 49 1 0 0 0
node 52 1 0 0 0
node 53 1 0 0 0
node 56 1 0 0 0
node 67 1 0 0 0
node 68 1 0 0 0
node 69 1 0 0 0
node 81 1 0 0 0
node 90 1 0 0 0
gene 1 1 20 0.151646 0 1 0.151646 1
gene 1 2 20 0.126721 0 2 0.126721 1
gene 1 3 20 0.0428629 0 3 0.0428629 1
gene 1 4 20 -0.466454 0 4 -0.466454 1
gene 1 5 20 0.578286 0 5 0.578286 1
gene 1 6 20 -0.51417 0 6 -0.51417 0
gene 1 7 20 0.487596 0 7 0.487596 1
gene 1 8 20 -1.03405 0 8 -1.03405 0
gene 1 9 20 -0.427688 0 9 -0.427688 1
gene 1 10 20 -0.0676763 0 10 -0.0676763 1
gene 1 11 20 0.524553 0 11 0.524553 1
gene 1 12 20 1.09317 0 12 1.09317 1
gene 1 13 20 -0.091819 0 13 -0.091819 1
gene 1 14 20 -0.949247 0 14 -0.949247 1
gene 1 15 20 -0.023551 0 15 -0.023551 1
gene 1 16 20 -0.601182 0 16 -0.601182 1
gene 1 17 20 1.01958 0 17 1.01958 1
gene 1 18 20 -0.175533 0 18 -0.175533 1
gene 1 19 20 2.73314 0 19 2.73314 1
gene 1 1 21 -0.446347 0 20 -0.446347 1
gene 1 2 21 1.49827 0 21 1.49827 1
gene 1 3 21 -0.304181 0 22 -0.304181 1
gene 1 4 21 0.373808 0 23 0.373808 1
gene 1 5 21 -0.922342 0 24 -0.922342 1
gene 1 6 21 -0.611029 0 25 -0.611029 1
gene 1 7 21 -0.175557 0 26 -0.175557 1
gene 1 8 21 -0.679649 0 27 -0.679649 1
gene 1 9 21 -2.19633 0 28 -2.19633 1
gene 1 10 21 0.65482 0 29 0.65482 1
gene 1 11 21 0.680936 0 30 0.680936 1
gene 1 12 21 -0.588833 0 31 -0.588833 1
gene 1 13 21 -0.935275 0 32 -0.935275 1
gene 1 14 21 -0.973896 0 33 -0.973896 1
gene 1 15 21 1.55513 0 34 1.55513 1
gene 1 16 21 0.0334218 0 35 0.0334218 1
gene 1 17 21 -0.0310571 0 36 -0.0310571 1
gene 1 18 21 -1.47539 0 37 -1.47539 1
gene 1 19 21 -0.280791 0 38 -0.280791 1
gene 1 21 20 -0.435961 0 43 -0.435961 1
gene 1 18 28 0.581071 0 56 0.581071 1
gene 1 28 20 1.46962 0 57 1.46962 1
gene 1 13 28 1.63998 0 62 1.63998 1
gene 1 14 28 -1.38382 0 66 -1.38382 1
gene 1 10 28 0.379082 0 68 0.379082 0
gene 1 8 32 1.36471 0 70 1.36471 1
gene 1 32 20 -0.359566 0 71 -0.359566 1
gene 1 17 33 1.38995 0 73 1.38995 1
gene 1 33 20 0.1101 0 74 0.1101 1
gene 1 20 21 0.239251 1 80 0.239251 1
gene 1 18 35 1.53934 0 81 1.53934 1
gene 1 35 21 0.106533 0 82 0.106533 1
gene 1 6 36 -0.445289 0 83 -0.445289 1
gene 1 36 20 0.537863 0 84 0.537863 1
gene 1 28 37 -0.357665 0 86 -0.357665 1
gene 1 37 20 0.257615 0 87 0.257615 1
gene 1 21 49 -0.403054 0 131 -0.403054 1
gene 1 49 20 -0.116275 0 132 -0.116275 1
gene 1 37 35 1.35514 0 133 1.35514 1
gene 1 10 37 0.638326 0 151 0.638326 1
gene 1 4 28 0.176761 0 152 0.176761 1
gene 1 14 52 -0.0621538 0 158 -0.0621538 1
gene 1 52 20 -0.752001 0 159 -0.752001 1
gene 1 28 35 -0.119195 0 160 -0.119195 1
gene 1 4 35 -0.284553 0 161 -0.284553 1
gene 1 13 53 -0.166081 0 164 -0.166081 1
gene 1 53 20 -1.48149 0 165 -1.48149 1
gene 1 14 56 -1.45854 0 180 -1.45854 1
gene 1 56 28 -1.61986 0 181 -1.61986 1
gene 1 1 33 -1.34347 0 204 -1.34347 1
gene 1 10 33 0.528576 0 206 0.528576 1
gene 1 13 37 -0.782291 0 207 -0.782291 1
gene 1 33 37 -0.284253 0 215 -0.284253 1
gene 1 21 53 0.171585 0 230 0.171585 1
gene 1 5 67 0.679385 0 244 0.679385 1
gene 1 67 20 -0.508365 0 245 -0.508365 1
gene 1 35 35 0.143111 1 249 0.143111 1
gene 1 4 68 0.931594 0 255 0.931594 1
gene 1 68 35 0.47814 0 256 0.47814 1
gene 1 18 69 0.0930466 0 258 0.0930466 1
gene 1 69 28 -0.156836 0 259 -0.156836 1
gene 1 15 68 -0.0251822 0 288 -0.0251822 1
gene 1 13 81 0.653614 0 322 0.653614 1
gene 1 81 28 0.946131 0 323 0.946131 1
gene 1 10 90 0.335906 0 366 0.335906 1
gene 1 90 28 0.255244 0 367 0.255244 1
gene 1 28 36 -0.616142 0 368 -0.616142 1
gene 1 9 68 -0.104917 0 394 -0.104917 1
gene 1 68 67 -0.490575 0 399 -0.490575 1
genomeend 7064
genomestart 7075
trait 1 0 0.445698 0.0686836 0.0137866 0.144242 0.489288 0.194333 0.0103389 
node 1 1 1 1 0
node 2 1 1 1 0
node 3 1 1 1 0
node 4 1 1 1 0
node 5 1 1 1 0
node 6 1 1 1 0
node 7 1 1 1 0
node 8 1 1 1 0
node 9 1 1 1 0
node 10 1 1 1 0
node 11 1 1 1 0
node 12 1 1 1 0
node 13 1 1 1 0
node 14 1 1 1 0
node 15 1 1 1 0
node 16 1 1 1 0
node 17 1 1 1 0
node 18 1 1 1 0
node 19 1 1 3 0
node 20 1 0 2 0
node 21 1 0 2 0
node 28 1 0 0 0
node 32 1 0 0 0
node 33 1 0 0 0
node 35 1 0 0 0
node 36 1 0 0 0
node 37 1 0 0 0
node 49 1 0 0 0
node 52 1 0 0 0
node 53 1 0 0 0
node 56 1 0 0 0
node 67 1 0 0 0
node 68 1 0 0 0
node 69 1 0 0 0
node 81 1 0 0 0
node 90 1 0 0 0
gene 1 1 20 0.582431 0 1 0.582431 1
gene 1 2 20 -0.442868 0 2 -0.442868 1
gene 1 3 20 0.00847163 0 3 0.00847163 1
gene 1 4 20 -0.179326 0 4 -0.179326 1
gene 1 5 20 -0.362367 0 5 -0.362367 1
gene 1 6 20 -0.382645 0 6 -0.382645 0
gene 1 7 20 0.629562 0 7 0.629562 1
gene 1 8 20 -1.25115 0 8 -1.25115 0
gene 1 9 20 1.04787 0 9 1.04787 1
gene 1 10 20 0.223371 0 10 0.223371 1
gene 1 11 20 -0.0228848 0 11 -0.0228848 1
gene 1 12 20 0.930845 0 12 0.930845 1
gene 1 13 20 -0.307792 0 13 -0.307792 1
gene 1 14 20 -1.05572 0 14 -1.05572 1
gene 1 15 20 -0.367415 0 15 -0.367415 1
gene 1 16 20 0.38347 0 16 0.38347 1
gene 1 17 20 -0.158201 0 17 -0.158201 1
gene 1 18 20 -0.177696 0 18 -0.177696 1
gene 1 19 20 2.89957 0 19 2.89957 1
gene 1 1 21 -0.362607 0 20 -0.362607 1
gene 1 2 21 0.596773 0 21 0.596773 1
gene 1 3 21 0.0323568 0 22 0.0323568 1
gene 1 4 21 -0.554447 0 23 -0.554447 1
gene 1 5 21 0.173633 0 24 0.173633 1
gene 1 6 21 0.707117 0 25 0.707117 1
gene 1 7 21 -0.424834 0 26 -0.424834 1
gene 1 8 21 0.458407 0 27 0.458407 1
gene 1 9 21 -1.2378 0 28 -1.2378 1
gene 1 10 21 0.183858 0 29 0.183858 1
gene 1 11 21 0.441309 0 30 0.441309 1
gene 1 12 21 0.0355715 0 31 0.0355715 1
gene 1 13 21 -0.0650853 0 32 -0.0650853 1
gene 1 14 21 -1.05965 0 33 -1.05965 1
gene 1 15 21 1.27719 0 34 1.27719 1
gene 1 16 21 -0.00250914 0 35 -0.00250914 1
gene 1 17 21 0.580909 0 36 0.580909 1
gene 1 18 21 -0.0950563 0 37 -0.0950563 1
gene 1 19 21 -0.284752 0 38 -0.284752 1
gene 1 21 20 0.291275 0 43 0.291275 1
gene 1 18 28 -0.761658 0 56 -0.761658 1
gene 1 28 20 0.000200558 0 57 0.000200558 1
gene 1 13 28 1.28894 0 62 1.28894 1
gene 1 14 28 -1.59836 0 66 -1.59836 1
gene 1 10 28 0.690843 0 68 0.690843 0
gene 1 8 32 1.24633 0 70 1.24633 1
gene 1 32 20 -0.104811 0 71 -0.104811 1
gene 1 17 33 -0.437451 0 73 -0.437451 1
gene 1 33 20 -0.487765 0 74 -0.487765 1
gene 1 20 21 -0.34009 1 80 -0.34009 1
gene 1 18 35 0.652376 0 81 0.652376 1
gene 1 35 21 0.447977 0 82 0.447977 1
gene 1 6 36 -0.104522 0 83 -0.104522 1
gene 1 36 20 0.274672 0 84 0.274672 1
gene 1 28 37 -0.581596 0 86 -0.581596 1
gene 1 37 20 -0.440237 0 87 -0.440237 1
gene 1 21 49 -0.0151549 0 131 -0.0151549 1
gene 1 49 20 0.432367 0 132 0.432367 1
gene 1 37 35 -0.197442 0 133 -0.197442 1
gene 1 10 37 0.837516 0 151 0.837516 1
gene 1 4 28 0.221176 0 152 0.221176 1
gene 1 14 52 0.244191 0 158 0.244191 1
gene 1 52 20 -0.305684 0 159 -0.305684 1
gene 1 28 35 -0.197464 0 160 -0.197464 1
gene 1 4 35 0.186048 0 161 0.186048 1
gene 1 13 53 0.355643 0 164 0.355643 1
gene 1 53 20 -0.452015 0 165 -0.452015 1
gene 1 14 56 -0.832263 0 180 -0.832263 1
gene 1 56 28 -1.43364 0 181 -1.43364 1
gene 1 1 33 -0.198879 0 204 -0.198879 1
gene 1 10 33 0.402444 0 206 0.402444 1
gene 1 13 37 0.147155 0 207 0.147155 1
gene 1 33 37 -0.538201 0 215 -0.538201 1
gene 1 21 53 0.36019 0 230 0.36019 1
gene 1 5 67 0.53164 0 244 0.53164 1
gene 1 67 20 -0.274037 0 245 -0.274037 1
gene 1 35 35 0.0288451 1 249 0.0288451 1
gene 1 4 68 0.931594 0 255 0.931594 1
gene 1 68 35 0.0890628 0 256 0.0890628 1
gene 1 18 69 -0.272056 0 258 -0.272056 1
gene 1 69 28 0.573249 0 259 0.573249 1
gene 1 15 68 0.649616 0 288 0.649616 1
gene 1 13 81 0.0499334 0 322 0.0499334 1
gene 1 81 28 0.0670861 0 323 0.0670861 1
gene 1 10 90 0.0643754 0 366 0.0643754 1
gene 1 90 28 0.131634 0 367 0.131634 1
gene 1 28 36 0.260943 0 368 0.260943 1
gene 1 9 68 -0.428506 0 394 -0.428506 1
gene 1 68 67 0.174535 0 399 0.174535 1
genomeend 7075
genomestart 7077
trait 1 0 0.445698 0.0686836 0.0137866 0.144242 0.489288 0.194333 0.0103389 
node 1 1 1 1 0
node 2 1 1 1 0
node 3 1 1 1 0
node 4 1 1 1 0
node 5 1 1 1 0
node 6 1 1 1 0
node 7 1 1 1 0
node 8 1 1 1 0
node 9 1 1 1 0
node 10 1 1 1 0
node 11 1 1 1 0
node 12 1 1 1 0
node 13 1 1 1 0
node 14 1 1 1 0
node 15 1 1 1 0
node 16 1 1 1 0
node 17 1 1 1 0
node 18 1 1 1 0
node 19 1 1 3 0
node 20 1 0 2 0
node 21 1 0 2 0
node 28 1 0 0 0
node 33 1 0 0 0
node 35 1 0 0 0
node 36 1 0 0 0
node 37 1 0 0 0
node 49 1 0 0 0
node 52 1 0 0 0
node 53 1 0 0 0
node 56 1 0 0 0
node 67 1 0 0 0
node 68 1 0 0 0
node 69 1 0 0 0
node 81 1 0 0 0
node 90 1 0 0 0
gene 1 1 20 -0.0253495 0 1 -0.0253495 1
gene 1 2 20 0.220023 0 2 0.220023 1
gene 1 3 20 0.386169 0 3 0.386169 1
gene 1 4 20 -0.268525 0 4 -0.268525 1
gene 1 5 20 0.481578 0 5 0.481578 1
gene 1 6 20 -0.159776 0 6 -0.159776 0
gene 1 7 20 0.151382 0 7 0.151382 1
gene 1 8 20 -0.36423 0 8 -0.36423 1
gene 1 9 20 -0.0241929 0 9 -0.0241929 1
gene 1 10 20 -0.780444 0 10 -0.780444 1
gene 1 11 20 0.216573 0 11 0.216573 1
gene 1 12 20 0.786053 0 12 0.786053 1
gene 1 13 20 0.21232 0 13 0.21232 1
gene 1 14 20 -0.071092 0 14 -0.071092 1
gene 1 15 20 -0.999669 0 15 -0.999669 1
gene 1 16 20 -0.74527 0 16 -0.74527 1
gene 1 17 20 0.138608 0 17 0.138608 1
gene 1 18 20 -0.0393226 0 18 -0.0393226 1
gene 1 19 20 2.80056 0 19 2.80056 1
gene 1 1 21 0.54108 0 20 0.54108 1
gene 1 2 21 0.562397 0 21 0.562397 1
gene 1 3 21 0.101039 0 22 0.101039 1
gene 1 4 21 -0.413113 0 23 -0.413113 1
gene 1 5 21 -0.751991 0 24 -0.751991 1
gene 1 6 21 -0.06979 0 25 -0.06979 1
gene 1 7 21 0.322821 0 26 0.322821 1
gene 1 8 21 0.000641031 0 27 0.000641031 1
gene 1 9 21 -1.22439 0 28 -1.22439 1
gene 1 10 21 -0.173276 0 29 -0.173276 1
gene 1 11 21 0.32887 0 30 0.32887 1
gene 1 12 21 -0.219573 0 31 -0.219573 1
gene 1 13 21 -1.55136 0 32 -1.55136 1
gene 1 14 21 -0.812838 0 33 -0.812838 1
gene 1 15 21 0.841092 0 34 0.841092 1
gene 1 16 21 -0.373891 0 35 -0.373891 1
gene 1 17 21 0.0507529 0 36 0.0507529 1
gene 1 18 21 -0.392825 0 37 -0.392825 1
gene 1 19 21 -0.277105 0 38 -0.277105 1
gene 1 21 20 -0.40469 0 43 -0.40469 1
gene 1 18 28 -0.337952 0 56 -0.337952 1
gene 1 28 20 1.0484 0 57 1.0484 1
gene 1 13 28 0.577829 0 62 0.577829 1
gene 1 14 28 -0.88761 0 66 -0.88761 1
gene 1 10 28 0.454777 0 68 0.454777 1
gene 1 17 33 1.48124 0 73 1.48124 1
gene 1 33 20 -0.104185 0 74 -0.104185 1
gene 1 20 21 0.647664 1 80 0.647664 1
gene 1 18 35 1.46147 0 81 1.46147 1
gene 1 35 21 -0.238267 0 82 -0.238267 1
gene 1 6 36 -0.00557908 0 83 -0.00557908 1
gene 1 36 20 -0.0788978 0 84 -0.0788978 1
gene 1 28 37 -0.780893 0 86 -0.780893 1
gene 1 37 20 -0.377898 0 87 -0.377898 1
gene 1 21 49 -0.235381 0 131 -0.235381 1
gene 1 49 20 0.419422 0 132 0.419422 1
gene 1 37 35 0.191871 0 133 0.191871 1
gene 1 10 37 -0.264299 0 151 -0.264299 1
gene 1 4 28 0.265402 0 152 0.265402 1
gene 1 14 52 -0.311633 0 158 -0.311633 1
gene 1 52 20 -0.549416 0 159 -0.549416 1
gene 1 28 35 -0.35352 0 160 -0.35352 1
gene 1 4 35 0.201797 0 161 0.201797 1
gene 1 13 53 -0.25944 0 164 -0.25944 1
gene 1 53 20 -0.649308 0 165 -0.649308 1
gene 1 14 56 -0.839158 0 180 -0.839158 1
gene 1 56 28 -1.2823 0 181 -1.2823 1
gene 1 1 33 -0.239623 0 204 -0.239623 1
gene 1 10 33 0.385458 0 206 0.385458 1
gene 1 13 37 0.201236 0 207 0.201236 1
gene 1 33 37 0.181351 0 215 0.181351 1
gene 1 21 53 0.184452 0 230 0.184452 1
gene 1 5 67 0.305786 0 244 0.305786 1
gene 1 67 20 -0.0924631 0 245 -0.0924631 1
gene 1 35 35 -0.0805622 1 249 -0.0805622 1
gene 1 4 68 1.04541 0 255 1.04541 1
gene 1 68 35 0.33573 0 256 0.33573 1
gene 1 18 69 0.339704 0 258 0.339704 1
gene 1 69 28 0.0731359 0 259 0.0731359 1
gene 1 15 68 0.349733 0 288 0.349733 1
gene 1 13 81 0.486429 0 322 0.486429 1
gene 1 81 28 0.245844 0 323 0.245844 1
gene 1 10 90 0.752885 0 366 0.752885 1
gene 1 90 28 0.0105273 0 367 0.0105273 1
gene 1 28 36 0.903198 0 368 0.903198 1
gene 1 9 68 -0.0836419 0 394 -0.0836419 1
gene 1 68 67 0.201803 0 399 0.201803 1
gene 1 69 49 0.604202 0 405 0.604202 1
genomeend 7077
genomestart 7079
trait 1 0 0.445698 0.0686836 0.0137866 0.144242 0.489288 0.194333 0.0103389 
node 1 1 1 1 0
node 2 1 1 1 0
node 3 1 1 1 0
node 4 1 1 1 0
node 5 1 1 1 0
node 6 1 1 1 0
node 7 1 1 1 0
node 8 1 1 1 0
node 9 1 1 1 0
node 10 1 1 1 0
node 11 1 1 1 0
node 12 1 1 1 0
node 13 1 1 1 0
node 14 1 1 1 0
node 15 1 1 1 0
node 16 1 1 1 0
node 17 1 1 1 0
node 18 1 1 1 0
node 19 1 1 3 0
node 20 1 0 2 0
node 21 1 0 2 0
node 28 1 0 0 0
node 32 1 0 0 0
node 33 1 0 0 0
node 35 1 0 0 0
node 36 1 0 0 0
node 37 1 0 0 0
node 49 1 0 0 0
node 52 1 0 0 0
node 53 1 0 0 0
node 56 1 0 0 0
node 67 1 0 0 0
node 68 1 0 0 0
node 69 1 0 0 0
node 81 1 0 0 0
node 90 1 0 0 0
gene 1 1 20 -0.300919 0 1 -0.300919 1
gene 1 2 20 -0.171807 0 2 -0.171807 1
gene 1 3 20 0.419584 0 3 0.419584 1
gene 1 4 20 0.199125 0 4 0.199125 1
gene 1 5 20 -0.265606 0 5 -0.265606 1
gene 1 6 20 -0.677327 0 6 -0.677327 0
gene 1 7 20 -0.547663 0 7 -0.547663 1
gene 1 8 20 -0.707084 0 8 -0.707084 0
gene 1 9 20 1.02835 0 9 1.02835 1
gene 1 10 20 -1.11971 0 10 -1.11971 1
gene 1 11 20 0.0920889 0 11 0.0920889 1
gene 1 12 20 1.16746 0 12 1.16746 1
gene 1 13 20 -0.384378 0 13 -0.384378 1
gene 1 14 20 -0.315054 0 14 -0.315054 1
gene 1 15 20 -0.829087 0 15 -0.829087 1
gene 1 16 20 0.315295 0 16 0.315295 1
gene 1 17 20 -0.0564124 0 17 -0.0564124 1
gene 1 18 20 -0.474123 0 18 -0.474123 1
gene 1 19 20 2.74964 0 19 2.74964 1
gene 1 1 21 0.0245008 0 20 0.0245008 1
gene 1 2 21 1.03484 0 21 1.03484 1
gene 1 3 21 -0.30838 0 22 -0.30838 1
gene 1 4 21 0.224399 0 23 0.224399 1
gene 1 5 21 -0.943113 0 24 -0.943113 1
gene 1 6 21 0.142327 0 25 0.142327 1
gene 1 7 21 -0.521784 0 26 -0.521784 1
gene 1 8 21 -0.415341 0 27 -0.415341 1
gene 1 9 21 -2.2873 0 28 -2.2873 1
gene 1 10 21 0.75868 0 29 0.75868 1
gene 1 11 21 0.592693 0 30 0.592693 1
gene 1 12 21 0.0926668 0 31 0.0926668 1
gene 1 13 21 -1.11982 0 32 -1.11982 1
gene 1 14 21 -0.634305 0 33 -0.634305 1
gene 1 15 21 0.676824 0 34 0.676824 1
gene 1 16 21 0.227475 0 35 0.227475 1
gene 1 17 21 0.0858031 0 36 0.0858031 1
gene 1 18 21 -0.713327 0 37 -0.713327 1
gene 1 19 21 -0.0352607 0 38 -0.0352607 1
gene 1 21 20 -0.161977 0 43 -0.161977 1
gene 1 18 28 -0.604964 0 56 -0.604964 1
gene 1 28 20 0.777588 0 57 0.777588 1
gene 1 13 28 0.953485 0 62 0.953485 1
gene 1 14 28 -0.75536 0 66 -0.75536 1
gene 1 10 28 -0.903466 0 68 -0.903466 0
gene 1 8 32 0.773535 0 70 0.773535 1
gene 1 32 20 -0.424304 0 71 -0.424304 1
gene 1 17 33 1.51363 0 73 1.51363 1
gene 1 33 20 -0.187918 0 74 -0.187918 1
gene 1 20 21 0.272635 1 80 0.272635 1
gene 1 18 35 1.17098 0 81 1.17098 1
gene 1 35 21 -0.616881 0 82 -0.616881 1
gene 1 6 36 -0.765334 0 83 -0.765334 1
gene 1 36 20 0.0297101 0 84 0.0297101 1
gene 1 28 37 -0.794928 0 86 -0.794928 1
gene 1 37 20 -0.854303 0 87 -0.854303 1
gene 1 21 49 0.284345 0 131 0.284345 1
gene 1 49 20 1.41777 0 132 1.41777 1
gene 1 37 35 0.117732 0 133 0.117732 1
gene 1 10 37 -0.2016 0 151 -0.2016 1
gene 1 4 28 -0.315338 0 152 -0.315338 1
gene 1 14 52 -0.00480773 0 158 -0.00480773 1
gene 1 52 20 -0.795528 0 159 -0.795528 1
gene 1 28 35 -0.237312 0 160 -0.237312 1
gene 1 4 35 0.244838 0 161 0.244838 1
gene 1 13 53 0.245566 0 164 0.245566 1
gene 1 53 20 -0.273263 0 165 -0.273263 1
gene 1 14 56 -0.362633 0 180 -0.362633 1
gene 1 56 28 -0.657409 0 181 -0.657409 1
gene 1 1 33 -0.643107 0 204 -0.643107 1
gene 1 10 33 0.951688 0 206 0.951688 1
gene 1 13 37 -0.102466 0 207 -0.102466 1
gene 1 33 37 0.0900336 0 215 0.0900336 1
gene 1 21 53 -0.352016 0 230 -0.352016 1
gene 1 5 67 0.149432 0 244 0.149432 1
gene 1 67 20 -0.469617 0 245 -0.469617 1
gene 1 35 35 0.809601 1 249 0.809601 1
gene 1 4 68 0.575275 0 255 0.575275 1
gene 1 68 35 -0.109854 0 256 -0.109854 1
gene 1 18 69 -0.405546 0 258 -0.405546 1
gene 1 69 28 0.908166 0 259 0.908166 1
gene 1 15 68 -0.355117 0 288 -0.355117 1
gene 1 13 81 0.483019 0 322 0.483019 1
gene 1 81 28 0.164916 0 323 0.164916 1
gene 1 10 90 0.711527 0 366 0.711527 1
gene 1 90 28 0.788001 0 367 0.788001 1
gene 1 28 36 -0.298125 0 368 -0.298125 1
gene 1 9 68 0.845286 0 394 0.845286 1
gene 1 68 67 0.138727 0 399 0.138727 1
genomeend 7079
genomestart 7081
trait 1 0 0.445698 0.0686836 0.0137866 0.144242 0.489288 0.194333 0.0103389 
node 1 1 1 1 0
node 2 1 1 1 0
node 3 1 1 1 0
node 4 1 1 1 0
node 5 1 1 1 0
node 6 1 1 1 0
node 7 1 1 1 0
node 8 1 1 1 0
node 9 1 1 1 0
node 10 1 1 1 0
node 11 1 1 1 0
node 12 1 1 1 0
node 13 1 1 1 0
node 14 1 1 1 0
node 15 1 1 1 0
node 16 1 1 1 0
node 17 1 1 1 0
node 18 1 1 1 0
node 19 1 1 3 0
node 20 1 0 2 0
node 21 1 0 2 0
node 28 1 0 0 0
node 32 1 0 0 0
node 33 1 0 0 0
node 35 1 0 0 0
node 36 1 0 0 0
node 37 1 0 0 0
node 49 1 0 0 0
node 52 1 0 0 0
node 53 1 0 0 0
node 56 1 0 0 0
node 67 1 0 0 0
node 68 1 0 0 0
node 69 1 0 0 0
node 81 1 0 0 0
node 90 1 0 0 0
gene 1 1 20 0.189765 0 1 0.189765 1
gene 1 2 20 -0.397627 0 2 -0.397627 1
gene 1 3 20 0.704099 0 3 0.704099 1
gene 1 4 20 -0.49055 0 4 -0.49055 1
gene 1 5 20 0.659257 0 5 0.659257 1
gene 1 6 20 0.388784 0 6 0.388784 0
gene 1 7 20 0.0663997 0 7 0.0663997 1
gene 1 8 20 -1.05735 0 8 -1.05735 1
gene 1 9 20 0.598994 0 9 0.598994 1
gene 1 10 20 -0.562287 0 10 -0.562287 1
gene 1 11 20 0.257984 0 11 0.257984 1
gene 1 12 20 0.504378 0 12 0.504378 1
gene 1 13 20 -0.172806 0 13 -0.172806 1
gene 1 14 20 -0.203288 0 14 -0.203288 1
gene 1 15 20 -0.27605 0 15 -0.27605 1
gene 1 16 20 -0.484927 0 16 -0.484927 1
gene 1 17 20 -0.306105 0 17 -0.306105 1
gene 1 18 20 -0.256965 0 18 -0.256965 1
gene 1 19 20 2.7326 0 19 2.7326 1
gene 1 1 21 -0.200454 0 20 -0.200454 1
gene 1 2 21 1.22181 0 21 1.22181 1
gene 1 3 21 -0.100934 0 22 -0.100934 1
gene 1 4 21 0.157293 0 23 0.157293 1
gene 1 5 21 -0.697463 0 24 -0.697463 1
gene 1 6 21 -0.244864 0 25 -0.244864 1
gene 1 7 21 0.0455628 0 26 0.0455628 1
gene 1 8 21 -0.455522 0 27 -0.455522 1
gene 1 9 21 -1.77397 0 28 -1.77397 1
gene 1 10 21 -0.118591 0 29 -0.118591 1
gene 1 11 21 0.367971 0 30 0.367971 1
gene 1 12 21 -0.140918 0 31 -0.140918 1
gene 1 13 21 -1.78034 0 32 -1.78034 1
gene 1 14 21 -0.905936 0 33 -0.905936 1
gene 1 15 21 0.468727 0 34 0.468727 1
gene 1 16 21 -0.53763 0 35 -0.53763 1
gene 1 17 21 0.483525 0 36 0.483525 1
gene 1 18 21 -0.479288 0 37 -0.479288 1
gene 1 19 21 -0.210102 0 38 -0.210102 1
gene 1 21 20 -0.752881 0 43 -0.752881 1
gene 1 18 28 -0.180924 0 56 -0.180924 1
gene 1 28 20 0.874754 0 57 0.874754 1
gene 1 13 28 0.639315 0 62 0.639315 1
gene 1 14 28 -1.38564 0 66 -1.38564 1
gene 1 10 28 0.553893 0 68 0.553893 0
gene 1 8 32 1.54795 0 70 1.54795 1
gene 1 32 20 -0.59534 0 71 -0.59534 1
gene 1 17 33 1.71388 0 73 1.71388 1
gene 1 33 20 0.0327253 0 74 0.0327253 1
gene 1 20 21 0.34848 1 80 0.34848 1
gene 1 18 35 1.1646 0 81 1.1646 1
gene 1 35 21 -0.543782 0 82 -0.543782 1
gene 1 6 36 -0.305159 0 83 -0.305159 1
gene 1 36 20 0.262152 0 84 0.262152 1
gene 1 28 37 -0.460611 0 86 -0.460611 1
gene 1 37 20 -0.18688 0 87 -0.18688 1
gene 1 21 49 0.549778 0 131 0.549778 1
gene 1 49 20 -0.0233073 0 132 -0.0233073 1
gene 1 37 35 0.694029 0 133 0.694029 1
gene 1 10 37 0.359766 0 151 0.359766 1
gene 1 4 28 -0.534769 0 152 -0.534769 1
gene 1 14 52 -0.598401 0 158 -0.598401 1
gene 1 52 20 -0.595537 0 159 -0.595537 1
gene 1 28 35 -0.443883 0 160 -0.443883 1
gene 1 4 35 -0.256649 0 161 -0.256649 1
gene 1 13 53 -0.202737 0 164 -0.202737 1
gene 1 53 20 -0.861273 0 165 -0.861273 1
gene 1 14 56 -0.947842 0 180 -0.947842 1
gene 1 56 28 -1.60448 0 181 -1.60448 1
gene 1 1 33 -0.537582 0 204 -0.537582 1
gene 1 10 33 0.476532 0 206 0.476532 1
gene 1 13 37 0.115821 0 207 0.115821 1
gene 1 33 37 0.357443 0 215 0.357443 1
gene 1 21 53 0.399546 0 230 0.399546 1
gene 1 5 67 0.434077 0 244 0.434077 1
gene 1 67 20 0.753975 0 245 0.753975 1
gene 1 35 35 0.14338 1 249 0.14338 1
gene 1 4 68 1.25094 0 255 1.25094 1
gene 1 68 35 0.618356 0 256 0.618356 1
gene 1 18 69 -0.0287045 0 258 -0.0287045 1
gene 1 69 28 0.126118 0 259 0.126118 1
gene 1 15 68 0.302657 0 288 0.302657 1
gene 1 13 81 0.224374 0 322 0.224374 1
gene 1 81 28 0.16997 0 323 0.16997 1
gene 1 10 90 0.628188 0 366 0.628188 1
gene 1 90 28 -0.175947 0 367 -0.175947 1
gene 1 28 36 0.655683 0 368 0.655683 1
gene 1 9 68 -0.0182081 0 394 -0.0182081 1
gene 1 68 67 0.124356 0 399 0.124356 1
genomeend 7081
genomestart 7091
trait 1 0.00533518 0.0120783 0.0858545 0.0656547 0.0493413 0.0768121 0.0218661 0.14796 
node 1 1 1 1 0
node 2 1 1 1 0
node 3 1 1 1 0
node 4 1 1 1 0
node 5 1 1 1 0
node 6 1 1 1 0
node 7 1 1 1 0
node 8 1 1 1 0
node 9 1 1 1 0
node 10 1 1 1 0
node 11 1 1 1 0
node 12 1 1 1 0
node 13 1 1 1 0
node 14 1 1 1 0
node 15 1 1 1 0
node 16 1 1 1 0
node 17 1 1 1 0
node 18 1 1 1 0
node 19 1 1 3 0
node 20 1 0 2 0
node 21 1 0 2 0
node 28 1 0 0 0
node 33 1 0 0 0
node 35 1 0 0 0
node 36 1 0 0 0
node 37 1 0 0 0
node 53 1 0 0 0
node 56 1 0 0 0
node 68 1 0 0 0
node 69 1 0 0 0
gene 1 1 20 0.281632 0 1 0.281632 1
gene 1 2 20 0.463013 0 2 0.463013 1
gene 1 3 20 1.17887 0 3 1.17887 1
gene 1 4 20 0.641773 0 4 0.641773 1
gene 1 5 20 -0.145329 0 5 -0.145329 1
gene 1 6 20 -0.403319 0 6 -0.403319 0
gene 1 7 20 -0.831659 0 7 -0.831659 1
gene 1 8 20 0.737216 0 8 0.737216 1
gene 1 9 20 -0.0944601 0 9 -0.0944601 1
gene 1 10 20 0.755932 0 10 0.755932 1
gene 1 11 20 -0.396618 0 11 -0.396618 1
gene 1 12 20 1.10991 0 12 1.10991 1
gene 1 13 20 0.345277 0 13 0.345277 1
gene 1 14 20 -0.0316763 0 14 -0.0316763 1
gene 1 15 20 0.514427 0 15 0.514427 1
gene 1 16 20 0.44484 0 16 0.44484 1
gene 1 17 20 0.367233 0 17 0.367233 0
gene 1 18 20 -0.639878 0 18 -0.639878 1
gene 1 19 20 1.02253 0 19 1.02253 1
gene 1 1 21 0.493896 0 20 0.493896 1
gene 1 2 21 0.540036 0 21 0.540036 1
gene 1 3 21 0.0894003 0 22 0.0894003 1
gene 1 4 21 -1.96296 0 23 -1.96296 1
gene 1 5 21 2.12803 0 24 2.12803 1
gene 1 6 21 -0.297348 0 25 -0.297348 1
gene 1 7 21 0.432456 0 26 0.432456 1
gene 1 8 21 0.389657 0 27 0.389657 1
gene 1 9 21 0.41044 0 28 0.41044 1
gene 1 10 21 0.153869 0 29 0.153869 1
gene 1 11 21 -0.322293 0 30 -0.322293 1
gene 1 12 21 -1.07851 0 31 -1.07851 1
gene 1 13 21 -0.0901371 0 32 -0.0901371 1
gene 1 14 21 1.53547 0 33 1.53547 1
gene 1 15 21 1.22538 0 34 1.22538 1
gene 1 16 21 0.540224 0 35 0.540224 1
gene 1 17 21 -0.0589579 0 36 -0.0589579 1
gene 1 18 21 -0.971367 0 37 -0.971367 1
gene 1 19 21 -0.122057 0 38 -0.122057 1
gene 1 21 20 -1.01623 0 43 -1.01623 1
gene 1 18 28 -0.44429 0 56 -0.44429 1
gene 1 28 20 0.460194 0 57 0.460194 1
gene 1 13 28 0.578665 0 62 0.578665 1
gene 1 14 28 -0.0650316 0 66 -0.0650316 1
gene 1 10 28 0.507826 0 68 0.507826 1
gene 1 17 33 0.0762705 0 73 0.0762705 1
gene 1 33 20 -0.0266169 0 74 -0.0266169 1
gene 1 20 21 -0.478057 1 80 -0.478057 1
gene 1 18 35 0.668345 0 81 0.668345 1
gene 1 35 21 -0.381506 0 82 -0.381506 1
gene 1 6 36 0.358716 0 83 0.358716 1
gene 1 36 20 0.43323 0 84 0.43323 1
gene 1 28 37 -0.222819 0 86 -0.222819 1
gene 1 37 20 0.47081 0 87 0.47081 1
gene 1 37 35 -0.510497 0 133 -0.510497 1
gene 1 10 37 -0.374761 0 151 -0.374761 1
gene 1 4 28 -0.265382 0 152 -0.265382 1
gene 1 28 35 -0.166029 0 160 -0.166029 1
gene 1 4 35 0.979828 0 161 0.979828 1
gene 1 13 53 -0.689143 0 164 -0.689143 1
gene 1 53 20 -0.235752 0 165 -0.235752 1
gene 1 14 56 -0.79335 0 180 -0.79335 1
gene 1 56 28 0.319129 0 181 0.319129 1
gene 1 1 33 -0.755465 0 204 -0.755465 1
gene 1 10 33 -0.467898 0 206 -0.467898 1
gene 1 13 37 -0.518193 0 207 -0.518193 1
gene 1 33 37 -0.678735 0 215 -0.678735 1
gene 1 21 53 0.176669 0 230 0.176669 1
gene 1 35 35 -0.268125 1 249 -0.268125 1
gene 1 4 68 0.260392 0 255 0.260392 1
gene 1 68 35 -0.0901166 0 256 -0.0901166 1
gene 1 18 69 0.0148923 0 258 0.0148923 1
gene 1 69 28 0.112807 0 259 0.112807 1
gene 1 28 33 -0.0628882 0 267 -0.0628882 1
gene 1 15 68 -0.199174 0 288 -0.199174 1
gene 1 68 56 0.272594 0 291 0.272594 1
genomeend 7091
genomestart 7093
trait 1 0 0.445698 0.0686836 0.0137866 0.144242 0.489288 0.194333 0.0103389 
node 1 1 1 1 0
node 2 1 1 1 0
node 3 1 1 1 0
node 4 1 1 1 0
node 5 1 1 1 0
node 6 1 1 1 0
node 7 1 1 1 0
node 8 1 1 1 0
node 9 1 1 1 0
node 10 1 1 1 0
node 11 1 1 1 0
node 12 1 1 1 0
node 13 1 1 1 0
node 14 1 1 1 0
node 15 1 1 1 0
node 16 1 1 1 0
node 17 1 1 1 0
node 18 1 1 1 0
node 19 1 1 3 0
node 20 1 0 2 0
node 21 1 0 2 0
node 28 1 0 0 0
node 32 1 0 0 0
node 33 1 0 0 0
node 35 1 0 0 0
node 36 1 0 0 0
node 37 1 0 0 0
node 49 1 0 0 0
node 52 1 0 0 0
node 53 1 0 0 0
node 56 1 0 0 0
node 67 1 0 0 0
node 68 1 0 0 0
node 69 1 0 0 0
node 81 1 0 0 0
node 90 1 0 0 0
gene 1 1 20 0.551696 0 1 0.551696 1
gene 1 2 20 -0.465682 0 2 -0.465682 1
gene 1 3 20 0.191178 0 3 0.191178 1
gene 1 4 20 -0.0106285 0 4 -0.0106285 1
gene 1 5 20 -0.0428262 0 5 -0.0428262 1
gene 1 6 20 0.151049 0 6 0.151049 0
gene 1 7 20 0.290936 0 7 0.290936 1
gene 1 8 20 -0.297458 0 8 -0.297458 0
gene 1 9 20 0.310052 0 9 0.310052 1
gene 1 10 20 -0.424686 0 10 -0.424686 1
gene 1 11 20 0.473154 0 11 0.473154 1
gene 1 12 20 0.712796 0 12 0.712796 1
gene 1 13 20 0.0194228 0 13 0.0194228 1
gene 1 14 20 0.157318 0 14 0.157318 1
gene 1 15 20 -0.537552 0 15 -0.537552 1
gene 1 16 20 -0.90186 0 16 -0.90186 1
gene 1 17 20 0.172851 0 17 0.172851 1
gene 1 18 20 -1.08684 0 18 -1.08684 1
gene 1 19 20 2.80579 0 19 2.80579 1
gene 1 1 21 -0.275504 0 20 -0.275504 1
gene 1 2 21 1.24269 0 21 1.24269 1
gene 1 3 21 0.165539 0 22 0.165539 1
gene 1 4 21 -0.063616 0 23 -0.063616 1
gene 1 5 21 -0.921523 0 24 -0.921523 1
gene 1 6 21 0.306808 0 25 0.306808 1
gene 1 7 21 0.21869 0 26 0.21869 1
gene 1 8 21 -0.301509 0 27 -0.301509 1
gene 1 9 21 -2.23344 0 28 -2.23344 1
gene 1 10 21 0.201371 0 29 0.201371 1
gene 1 11 21 0.347706 0 30 0.347706 1
gene 1 12 21 -0.317276 0 31 -0.317276 1
gene 1 13 21 -2.04903 0 32 -2.04903 1
gene 1 14 21 -1.05501 0 33 -1.05501 1
gene 1 15 21 0.237182 0 34 0.237182 1
gene 1 16 21 0.4564 0 35 0.4564 1
gene 1 17 21 0.0431423 0 36 0.0431423 1
