genomestart 5831
trait 1 0.0585563 0.397117 0.0480668 0.0863963 0.162957 0.461511 0.39333 0.18751 
node 1 1 1 1 0
node 2 1 1 1 0
node 3 1 1 1 0
node 4 1 1 1 0
node 5 1 1 1 0
node 6 1 1 1 0
node 7 1 1 1 0
node 8 1 1 1 0
node 9 1 1 1 0
node 10 1 1 1 0
node 11 1 1 1 0
node 12 1 1 1 0
node 13 1 1 1 0
node 14 1 1 1 0
node 15 1 1 1 0
node 16 1 1 1 0
node 17 1 1 1 0
node 18 1 1 1 0
node 19 1 1 3 0
node 20 1 0 2 0
node 21 1 0 2 0
node 28 1 0 0 0
node 32 1 0 0 0
node 33 1 0 0 0
node 35 1 0 0 0
node 36 1 0 0 0
node 37 1 0 0 0
node 49 1 0 0 0
node 52 1 0 0 0
node 53 1 0 0 0
node 56 1 0 0 0
node 67 1 0 0 0
node 68 1 0 0 0
node 69 1 0 0 0
node 81 1 0 0 0
node 90 1 0 0 0
node 91 1 0 0 0
node 92 1 0 0 0
node 104 1 0 0 0
node 115 1 0 0 0
node 132 1 0 0 0
gene 1 1 20 0.311351 0 1 0.311351 1
gene 1 2 20 0.137453 0 2 0.137453 1
gene 1 3 20 -0.251192 0 3 -0.251192 1
gene 1 4 20 1.71193 0 4 1.71193 1
gene 1 5 20 0.376098 0 5 0.376098 1
gene 1 6 20 -0.205808 0 6 -0.205808 1
gene 1 7 20 0.222696 0 7 0.222696 0
gene 1 8 20 -0.653954 0 8 -0.653954 0
gene 1 9 20 -0.886103 0 9 -0.886103 1
gene 1 10 20 0.237717 0 10 0.237717 1
gene 1 11 20 -0.954718 0 11 -0.954718 1
gene 1 12 20 1.14573 0 12 1.14573 1
gene 1 13 20 0.651616 0 13 0.651616 1
gene 1 14 20 -0.130903 0 14 -0.130903 1
gene 1 15 20 0.80387 0 15 0.80387 1
gene 1 16 20 0.566155 0 16 0.566155 0
gene 1 17 20 -0.643809 0 17 -0.643809 1
gene 1 18 20 -0.443426 0 18 -0.443426 1
gene 1 19 20 2.35491 0 19 2.35491 1
gene 1 1 21 0.696457 0 20 0.696457 1
gene 1 2 21 1.75991 0 21 1.75991 1
gene 1 3 21 -1.22101 0 22 -1.22101 1
gene 1 4 21 0.276568 0 23 0.276568 1
gene 1 5 21 -0.0644057 0 24 -0.0644057 1
gene 1 6 21 0.482756 0 25 0.482756 1
gene 1 7 21 0.13843 0 26 0.13843 1
gene 1 8 21 0.114579 0 27 0.114579 1
gene 1 9 21 -0.596011 0 28 -0.596011 1
gene 1 10 21 0.736453 0 29 0.736453 1
gene 1 11 21 0.787654 0 30 0.787654 1
gene 1 12 21 -0.732321 0 31 -0.732321 1
gene 1 13 21 -0.122977 0 32 -0.122977 1
gene 1 14 21 -0.236719 0 33 -0.236719 1
gene 1 15 21 1.94932 0 34 1.94932 1
gene 1 16 21 0.126737 0 35 0.126737 1
gene 1 17 21 -0.554919 0 36 -0.554919 1
gene 1 18 21 -0.756854 0 37 -0.756854 1
gene 1 19 21 -0.498398 0 38 -0.498398 1
gene 1 21 20 0.81554 0 43 0.81554 1
gene 1 18 28 -1.0026 0 56 -1.0026 1
gene 1 28 20 0.200352 0 57 0.200352 1
gene 1 13 28 1.21009 0 62 1.21009 1
gene 1 14 28 -2.50374 0 66 -2.50374 1
gene 1 10 28 -1.47203 0 68 -1.47203 0
gene 1 8 32 0.351663 0 70 0.351663 1
gene 1 32 20 0.574853 0 71 0.574853 1
gene 1 17 33 -0.278996 0 73 -0.278996 1
gene 1 33 20 -0.365273 0 74 -0.365273 1
gene 1 20 21 0.235316 1 80 0.235316 1
gene 1 18 35 1.68565 0 81 1.68565 1
gene 1 35 21 0.276645 0 82 0.276645 1
gene 1 6 36 1.99637 0 83 1.99637 1
gene 1 36 20 -0.639895 0 84 -0.639895 1
gene 1 28 37 -0.462709 0 86 -0.462709 1
gene 1 37 20 1.29984 0 87 1.29984 1
gene 1 21 49 -0.953906 0 131 -0.953906 1
gene 1 49 20 -0.231785 0 132 -0.231785 1
gene 1 37 35 -0.688626 0 133 -0.688626 1
gene 1 10 37 0.0548702 0 151 0.0548702 1
gene 1 4 28 -1.10594 0 152 -1.10594 1
gene 1 14 52 -0.609668 0 158 -0.609668 1
gene 1 52 20 -0.380726 0 159 -0.380726 1
gene 1 28 35 -0.0517691 0 160 -0.0517691 1
gene 1 4 35 0.0317316 0 161 0.0317316 1
gene 1 13 53 -0.268854 0 164 -0.268854 1
gene 1 53 20 -0.0505117 0 165 -0.0505117 1
gene 1 14 56 0.854206 0 180 0.854206 1
gene 1 56 28 -0.0754884 0 181 -0.0754884 1
gene 1 1 33 -1.47841 0 204 -1.47841 1
gene 1 10 33 0.0937326 0 206 0.0937326 1
gene 1 13 37 -0.0921747 0 207 -0.0921747 1
gene 1 33 37 -0.15578 0 215 -0.15578 1
gene 1 21 53 -0.51265 0 230 -0.51265 1
gene 1 5 67 0.275591 0 244 0.275591 1
gene 1 67 20 1.30381 0 245 1.30381 0
gene 1 35 35 0.0975141 1 249 0.0975141 1
gene 1 4 68 0.663889 0 255 0.663889 1
gene 1 68 35 0.35115 0 256 0.35115 1
gene 1 18 69 0.396776 0 258 0.396776 1
gene 1 69 28 -0.222737 0 259 -0.222737 1
gene 1 15 68 0.881207 0 288 0.881207 1
gene 1 13 81 -0.407313 0 322 -0.407313 1
gene 1 81 28 -0.281178 0 323 -0.281178 1
gene 1 10 90 -0.540216 0 366 -0.540216 1
gene 1 90 28 -0.0579157 0 367 -0.0579157 1
gene 1 28 36 -0.559427 0 368 -0.559427 1
gene 1 9 68 0.47616 0 394 0.47616 1
gene 1 68 67 -0.144927 0 399 -0.144927 1
gene 1 69 49 0.240279 0 405 0.240279 1
gene 1 32 91 0.00188426 0 407 0.00188426 1
gene 1 91 20 0.143568 0 408 0.143568 1
gene 1 17 92 -0.130675 0 409 -0.130675 1
gene 1 92 21 -0.221751 0 410 -0.221751 1
gene 1 8 90 0.247813 0 415 0.247813 1
gene 1 37 52 0.548338 0 451 0.387873 1
gene 1 7 104 0.741006 0 464 0.741006 1
gene 1 104 20 -0.253961 0 465 -0.253961 1
gene 1 5 91 -0.61798 0 476 -0.61798 1
gene 1 21 32 -0.213641 0 509 -0.213641 1
gene 1 67 115 -0.548369 0 514 -0.548369 1
gene 1 115 20 0.540155 0 515 0.540155 1
gene 1 16 132 1.40628 0 577 1.40628 1
gene 1 132 20 0.00570594 0 578 0.00570594 1
gene 1 35 32 0.0121103 0 616 0.0121103 1
genomeend 5831
genomestart 6422
trait 1 0.0585563 0.397117 0.0437751 0.0863963 0.228166 0.461511 0.39333 0.203124 
node 1 1 1 1 0
node 2 1 1 1 0
node 3 1 1 1 0
node 4 1 1 1 0
node 5 1 1 1 0
node 6 1 1 1 0
node 7 1 1 1 0
node 8 1 1 1 0
node 9 1 1 1 0
node 10 1 1 1 0
node 11 1 1 1 0
node 12 1 1 1 0
node 13 1 1 1 0
node 14 1 1 1 0
node 15 1 1 1 0
node 16 1 1 1 0
node 17 1 1 1 0
node 18 1 1 1 0
node 19 1 1 3 0
node 20 1 0 2 0
node 21 1 0 2 0
node 28 1 0 0 0
node 32 1 0 0 0
node 33 1 0 0 0
node 35 1 0 0 0
node 36 1 0 0 0
node 37 1 0 0 0
node 49 1 0 0 0
node 52 1 0 0 0
node 53 1 0 0 0
node 56 1 0 0 0
node 67 1 0 0 0
node 68 1 0 0 0
node 69 1 0 0 0
node 81 1 0 0 0
node 90 1 0 0 0
node 91 1 0 0 0
node 92 1 0 0 0
node 104 1 0 0 0
node 115 1 0 0 0
node 132 1 0 0 0
gene 1 1 20 0.58538 0 1 0.58538 1
gene 1 2 20 0.179547 0 2 0.179547 1
gene 1 3 20 -0.401813 0 3 -0.401813 1
gene 1 4 20 0.791897 0 4 0.791897 1
gene 1 5 20 0.457439 0 5 0.457439 1
gene 1 6 20 -0.207672 0 6 -0.207672 1
gene 1 7 20 0.884856 0 7 0.884856 0
gene 1 8 20 -1.03663 0 8 -1.03663 0
gene 1 9 20 -0.407897 0 9 -0.407897 1
gene 1 10 20 0.202798 0 10 0.202798 1
gene 1 11 20 -0.903178 0 11 -0.903178 1
gene 1 12 20 0.86533 0 12 0.86533 1
gene 1 13 20 0.851316 0 13 0.851316 1
gene 1 14 20 -0.014111 0 14 -0.014111 1
gene 1 15 20 0.302435 0 15 0.302435 1
gene 1 16 20 0.255467 0 16 0.255467 0
gene 1 17 20 -0.58607 0 17 -0.58607 1
gene 1 18 20 -0.498489 0 18 -0.498489 1
gene 1 19 20 2.24427 0 19 2.24427 1
gene 1 1 21 0.963594 0 20 0.963594 1
gene 1 2 21 1.82537 0 21 1.82537 1
gene 1 3 21 -1.42371 0 22 -1.42371 1
gene 1 4 21 -0.390011 0 23 -0.390011 1
gene 1 5 21 -0.333954 0 24 -0.333954 1
gene 1 6 21 0.549586 0 25 0.549586 1
gene 1 7 21 0.266947 0 26 0.266947 1
gene 1 8 21 0.124069 0 27 0.124069 1
gene 1 9 21 -0.698204 0 28 -0.698204 1
gene 1 10 21 0.527964 0 29 0.527964 1
gene 1 11 21 1.16264 0 30 1.16264 1
gene 1 12 21 -0.71586 0 31 -0.71586 1
gene 1 13 21 -0.118753 0 32 -0.118753 1
gene 1 14 21 -0.320179 0 33 -0.320179 1
gene 1 15 21 2.23709 0 34 2.23709 1
gene 1 16 21 0.113356 0 35 0.113356 1
gene 1 17 21 -0.557497 0 36 -0.557497 0
gene 1 18 21 -0.653873 0 37 -0.653873 1
gene 1 19 21 -0.0863151 0 38 -0.0863151 1
gene 1 21 20 0.831579 0 43 0.831579 1
gene 1 18 28 -1.5592 0 56 -1.5592 1
gene 1 28 20 0.646933 0 57 0.646933 1
gene 1 13 28 1.46459 0 62 1.46459 1
gene 1 14 28 -2.88522 0 66 -2.88522 1
gene 1 10 28 -2.03899 0 68 -2.03899 0
gene 1 8 32 0.607727 0 70 0.607727 1
gene 1 32 20 0.255618 0 71 0.255618 1
gene 1 17 33 -0.607368 0 73 -0.607368 1
gene 1 33 20 -0.359112 0 74 -0.359112 1
gene 1 20 21 -0.130237 1 80 -0.130237 1
gene 1 18 35 1.71771 0 81 1.71771 1
gene 1 35 21 0.428751 0 82 0.428751 1
gene 1 6 36 1.26095 0 83 1.26095 1
gene 1 36 20 -0.905859 0 84 -0.905859 1
gene 1 28 37 -0.125287 0 86 -0.125287 1
gene 1 37 20 1.35046 0 87 1.35046 1
gene 1 21 49 -0.727216 0 131 -0.727216 1
gene 1 49 20 -0.68022 0 132 -0.68022 1
gene 1 37 35 -0.390195 0 133 -0.390195 1
gene 1 10 37 0.545808 0 151 0.545808 1
gene 1 4 28 -0.694197 0 152 -0.694197 1
gene 1 14 52 -0.384694 0 158 -0.384694 1
gene 1 52 20 -0.174468 0 159 -0.174468 1
gene 1 28 35 -0.127273 0 160 -0.127273 1
gene 1 4 35 -0.664614 0 161 -0.664614 1
gene 1 13 53 -0.385552 0 164 -0.385552 1
gene 1 53 20 -0.127578 0 165 -0.127578 1
gene 1 14 56 0.590719 0 180 0.590719 1
gene 1 56 28 0.192734 0 181 0.192734 1
gene 1 1 33 -1.33443 0 204 -1.33443 1
gene 1 10 33 0.299177 0 206 0.299177 1
gene 1 13 37 -0.0241194 0 207 -0.0241194 1
gene 1 33 37 0.134286 0 215 0.134286 1
gene 1 21 53 -0.599685 0 230 -0.599685 1
gene 1 5 67 0.586553 0 244 0.586553 1
gene 1 67 20 1.01252 0 245 1.01252 1
gene 1 35 35 -0.185987 1 249 -0.185987 1
gene 1 4 68 0.510511 0 255 0.510511 1
gene 1 68 35 0.195252 0 256 0.195252 1
gene 1 18 69 -0.199888 0 258 -0.199888 1
gene 1 69 28 0.0513546 0 259 0.0513546 1
gene 1 15 68 0.946385 0 288 0.946385 1
gene 1 13 81 -0.0671319 0 322 -0.0671319 1
gene 1 81 28 -0.122558 0 323 -0.122558 1
gene 1 10 90 -0.749205 0 366 -0.749205 1
gene 1 90 28 0.26729 0 367 0.26729 1
gene 1 28 36 -0.266221 0 368 -0.266221 1
gene 1 9 68 0.145063 0 394 0.145063 1
gene 1 68 67 -0.12831 0 399 -0.12831 1
gene 1 69 49 0.174183 0 405 0.174183 1
gene 1 32 91 0.211061 0 407 0.211061 1
gene 1 91 20 0.0748739 0 408 0.0748739 1
gene 1 17 92 -0.241254 0 409 -0.241254 1
gene 1 92 21 -0.202551 0 410 -0.202551 1
gene 1 8 90 -0.226003 0 415 -0.226003 1
gene 1 37 52 0.26009 0 451 0.26009 1
gene 1 7 104 1.28084 0 464 1.28084 1
gene 1 104 20 -0.0536407 0 465 -0.0536407 1
gene 1 5 91 0.0890361 0 476 0.0890361 1
gene 1 21 32 0.0950649 0 509 0.0950649 1
gene 1 67 115 -0.421136 0 514 -0.421136 1
gene 1 115 20 0.533917 0 515 0.533917 1
gene 1 16 132 1.60694 0 577 1.60694 1
gene 1 132 20 -0.0767907 0 578 -0.0767907 1
gene 1 35 32 -0.0897282 0 616 -0.0897282 1
genomeend 6422
genomestart 6424
trait 1 0.153026 0.283777 0.057046 0.0830683 0.356204 0.342341 0.534127 0.192482 
node 1 1 1 1 0
node 2 1 1 1 0
node 3 1 1 1 0
node 4 1 1 1 0
node 5 1 1 1 0
node 6 1 1 1 0
node 7 1 1 1 0
node 8 1 1 1 0
node 9 1 1 1 0
node 10 1 1 1 0
node 11 1 1 1 0
node 12 1 1 1 0
node 13 1 1 1 0
node 14 1 1 1 0
node 15 1 1 1 0
node 16 1 1 1 0
node 17 1 1 1 0
node 18 1 1 1 0
node 19 1 1 3 0
node 20 1 0 2 0
node 21 1 0 2 0
node 28 1 0 0 0
node 32 1 0 0 0
node 33 1 0 0 0
node 35 1 0 0 0
node 36 1 0 0 0
node 37 1 0 0 0
node 49 1 0 0 0
node 52 1 0 0 0
node 53 1 0 0 0
node 56 1 0 0 0
node 67 1 0 0 0
node 68 1 0 0 0
node 69 1 0 0 0
node 81 1 0 0 0
node 90 1 0 0 0
node 91 1 0 0 0
node 92 1 0 0 0
node 94 1 0 0 0
node 97 1 0 0 0
node 104 1 0 0 0
node 112 1 0 0 0
node 114 1 0 0 0
node 115 1 0 0 0
node 132 1 0 0 0
gene 1 1 20 0.616442 0 1 0.616442 1
gene 1 2 20 0.385255 0 2 0.385255 1
gene 1 3 20 -0.498266 0 3 -0.498266 1
gene 1 4 20 1.83404 0 4 1.83404 1
gene 1 5 20 0.347581 0 5 0.347581 1
gene 1 6 20 0.082644 0 6 0.082644 1
gene 1 7 20 0.541477 0 7 0.541477 0
gene 1 8 20 -1.00108 0 8 -1.00108 0
gene 1 9 20 -1.47834 0 9 -1.47834 1
gene 1 10 20 0.43424 0 10 0.43424 1
gene 1 11 20 -0.907686 0 11 -0.907686 1
gene 1 12 20 0.904902 0 12 0.904902 1
gene 1 13 20 1.05634 0 13 1.05634 1
gene 1 14 20 -0.179643 0 14 -0.179643 1
gene 1 15 20 -0.0875792 0 15 -0.0875792 1
gene 1 16 20 0.354227 0 16 0.354227 0
gene 1 17 20 -0.262778 0 17 -0.262778 1
gene 1 18 20 -0.600213 0 18 -0.600213 1
gene 1 19 20 2.7025 0 19 2.7025 1
gene 1 1 21 0.4221 0 20 0.4221 1
gene 1 2 21 1.70564 0 21 1.70564 1
gene 1 3 21 -0.558853 0 22 -0.558853 1
gene 1 4 21 -0.165138 0 23 -0.165138 1
gene 1 5 21 -0.0946732 0 24 -0.0946732 1
gene 1 6 21 0.533973 0 25 0.533973 1
gene 1 7 21 0.0431653 0 26 0.0431653 1
gene 1 8 21 0.420302 0 27 0.420302 1
gene 1 9 21 -0.873609 0 28 -0.873609 1
gene 1 10 21 0.616427 0 29 0.616427 1
gene 1 11 21 0.715721 0 30 0.715721 1
gene 1 12 21 -0.463943 0 31 -0.463943 1
gene 1 13 21 -0.24694 0 32 -0.24694 1
gene 1 14 21 -0.174157 0 33 -0.174157 1
gene 1 15 21 2.0238 0 34 2.0238 1
gene 1 16 21 -0.229345 0 35 -0.229345 1
gene 1 17 21 -0.990425 0 36 -0.990425 0
gene 1 18 21 -0.436355 0 37 -0.436355 1
gene 1 19 21 -1.0518 0 38 -1.0518 1
gene 1 21 20 0.970476 0 43 0.970476 1
gene 1 18 28 -1.37089 0 56 -1.37089 1
gene 1 28 20 -0.266872 0 57 -0.266872 1
gene 1 13 28 0.636783 0 62 0.636783 1
gene 1 14 28 -1.83379 0 66 -1.83379 1
gene 1 10 28 -1.15811 0 68 -1.15811 1
gene 1 8 32 0.370754 0 70 0.370754 1
gene 1 32 20 0.592987 0 71 0.592987 1
gene 1 17 33 0.140123 0 73 0.140123 1
gene 1 33 20 -0.0415704 0 74 -0.0415704 1
gene 1 20 21 0.0513912 1 80 0.0513912 1
gene 1 18 35 1.68769 0 81 1.68769 1
gene 1 35 21 -0.120802 0 82 -0.120802 1
gene 1 6 36 2.76975 0 83 2.76975 1
gene 1 36 20 -1.31283 0 84 -1.31283 1
gene 1 28 37 -0.93116 0 86 -0.93116 1
gene 1 37 20 1.27221 0 87 1.27221 1
gene 1 21 49 -0.786993 0 131 -0.786993 1
gene 1 49 20 -0.279286 0 132 -0.279286 1
gene 1 37 35 -0.938785 0 133 -0.938785 1
gene 1 10 37 0.111719 0 151 0.111719 1
gene 1 4 28 -0.926509 0 152 -0.926509 1
gene 1 14 52 -0.514728 0 158 -0.514728 1
gene 1 52 20 -0.89851 0 159 -0.89851 1
gene 1 28 35 -0.188456 0 160 -0.188456 1
gene 1 4 35 -0.556487 0 161 -0.556487 1
gene 1 13 53 -0.303125 0 164 -0.303125 1
gene 1 53 20 0.784159 0 165 0.784159 1
gene 1 14 56 0.600863 0 180 0.600863 1
gene 1 56 28 -0.075751 0 181 -0.075751 1
gene 1 1 33 -1.27664 0 204 -1.27664 1
gene 1 10 33 0.356878 0 206 0.356878 1
gene 1 13 37 0.0591657 0 207 0.0591657 1
gene 1 33 37 -0.733638 0 215 -0.733638 1
gene 1 21 53 -0.581771 0 230 -0.581771 1
gene 1 5 67 0.175864 0 244 0.175864 1
gene 1 67 20 1.1143 0 245 1.1143 0
gene 1 35 35 0.11769 1 249 0.11769 1
gene 1 4 68 0.900533 0 255 0.900533 1
gene 1 68 35 0.202188 0 256 0.202188 1
gene 1 18 69 0.396233 0 258 0.396233 1
gene 1 69 28 -0.365982 0 259 -0.365982 1
gene 1 28 33 1.06819 0 267 1.06819 1
gene 1 15 68 0.72443 0 288 0.72443 1
gene 1 68 56 0.152895 0 291 0.152895 1
gene 1 13 81 -0.0548022 0 322 -0.0548022 1
gene 1 81 28 -0.217371 0 323 -0.217371 1
gene 1 10 90 -0.696839 0 366 -0.696839 1
gene 1 90 28 -0.202287 0 367 -0.202287 1
gene 1 28 36 -0.630013 0 368 -0.630013 1
gene 1 9 68 -0.227531 0 394 -0.227531 1
gene 1 68 67 -0.193223 0 399 -0.193223 1
gene 1 69 49 0.53788 0 405 0.53788 1
gene 1 32 91 0.025172 0 407 0.025172 1
gene 1 91 20 0.26048 0 408 0.26048 1
gene 1 17 92 -0.189048 0 409 -0.189048 1
gene 1 92 21 0.100142 0 410 0.100142 1
gene 1 8 90 0.2431 0 415 0.2431 1
gene 1 36 56 -0.616206 0 417 -0.616206 1
gene 1 33 94 0.215344 0 427 0.215344 1
gene 1 94 37 0.185424 0 428 0.185424 1
gene 1 18 97 -0.496559 0 440 -0.496559 1
gene 1 97 28 -0.443357 0 441 -0.443357 1
gene 1 37 52 -0.300688 0 451 -0.320746 1
gene 1 7 104 0.640914 0 464 0.640914 1
gene 1 104 20 -0.0647248 0 465 -0.0647248 1
gene 1 5 91 -0.384651 0 476 -0.384651 1
gene 1 33 33 0.0115559 1 483 0.0115559 1
gene 1 53 112 -0.489902 0 499 -0.489902 1
gene 1 112 20 0.0940274 0 500 0.0940274 1
gene 1 9 114 0.40286 0 504 0.40286 1
gene 1 114 20 -0.159127 0 505 -0.159127 1
gene 1 21 32 -0.127367 0 509 -0.127367 1
gene 1 67 115 -0.192606 0 514 -0.192606 1
gene 1 115 20 0.722821 0 515 0.722821 1
gene 1 2 28 0.0708505 0 539 0.0708505 1
gene 1 36 68 -0.489842 0 547 -0.489842 1
gene 1 16 132 0.0477849 0 577 0.0477849 1
gene 1 132 20 0.0259728 0 578 0.0259728 1
gene 1 6 28 0.498374 0 597 0.498374 1
gene 1 35 32 0.219307 0 616 0.219307 1
gene 1 56 56 -0.206757 1 736 -0.206757 1
gene 1 132 132 -0.898598 1 757 -0.898598 1
genomeend 6424
genomestart 6535
trait 1 0.103623 0.903134 0.10333 0.397103 0.536402 0.164238 0.838168 0.17161 
node 1 1 1 1 0
node 2 1 1 1 0
node 3 1 1 1 0
node 4 1 1 1 0
node 5 1 1 1 0
node 6 1 1 1 0
node 7 1 1 1 0
node 8 1 1 1 0
node 9 1 1 1 0
node 10 1 1 1 0
node 11 1 1 1 0
node 12 1 1 1 0
node 13 1 1 1 0
node 14 1 1 1 0
node 15 1 1 1 0
node 16 1 1 1 0
node 17 1 1 1 0
node 18 1 1 1 0
node 19 1 1 3 0
node 20 1 0 2 0
node 21 1 0 2 0
node 28 1 0 0 0
node 32 1 0 0 0
node 33 1 0 0 0
node 35 1 0 0 0
node 36 1 0 0 0
node 37 1 0 0 0
node 49 1 0 0 0
node 52 1 0 0 0
node 53 1 0 0 0
node 56 1 0 0 0
node 67 1 0 0 0
node 68 1 0 0 0
node 69 1 0 0 0
node 81 1 0 0 0
node 90 1 0 0 0
node 91 1 0 0 0
node 92 1 0 0 0
node 93 1 0 0 0
node 102 1 0 0 0
node 104 1 0 0 0
node 108 1 0 0 0
node 115 1 0 0 0
node 119 1 0 0 0
node 122 1 0 0 0
node 126 1 0 0 0
node 132 1 0 0 0
node 138 1 0 0 0
node 159 1 0 0 0
gene 1 1 20 0.506687 0 1 0.506687 1
gene 1 2 20 0.0955448 0 2 0.0955448 1
gene 1 3 20 -0.0766609 0 3 -0.0766609 1
gene 1 4 20 1.09267 0 4 1.09267 1
gene 1 5 20 1.18935 0 5 1.18935 1
gene 1 6 20 -0.31612 0 6 -0.31612 0
gene 1 7 20 1.44856 0 7 1.44856 1
gene 1 8 20 -1.34948 0 8 -1.34948 0
gene 1 9 20 0.135383 0 9 0.135383 1
gene 1 10 20 0.290337 0 10 0.290337 1
gene 1 11 20 0.162753 0 11 0.162753 1
gene 1 12 20 0.600809 0 12 0.600809 1
gene 1 13 20 0.782952 0 13 0.782952 1
gene 1 14 20 0.222617 0 14 0.222617 1
gene 1 15 20 -0.357824 0 15 -0.357824 1
gene 1 16 20 -0.28759 0 16 -0.28759 1
gene 1 17 20 -0.330445 0 17 -0.330445 1
gene 1 18 20 -1.41401 0 18 -1.41401 1
gene 1 19 20 2.60819 0 19 2.60819 1
gene 1 1 21 -0.206097 0 20 -0.206097 1
gene 1 2 21 0.620149 0 21 0.620149 1
gene 1 3 21 0.141219 0 22 0.141219 0
gene 1 4 21 -0.30274 0 23 -0.30274 1
gene 1 5 21 -0.279822 0 24 -0.279822 1
gene 1 6 21 -0.309914 0 25 -0.309914 1
gene 1 7 21 -0.347026 0 26 -0.347026 1
gene 1 8 21 0.574988 0 27 0.574988 1
gene 1 9 21 -1.58589 0 28 -1.58589 0
gene 1 10 21 0.0915967 0 29 0.0915967 0
gene 1 11 21 1.65467 0 30 1.65467 1
gene 1 12 21 -0.406287 0 31 -0.406287 1
gene 1 13 21 -0.194536 0 32 -0.194536 1
gene 1 14 21 0.322257 0 33 0.322257 1
gene 1 15 21 -1.18924 0 34 -1.18924 1
gene 1 16 21 -0.838708 0 35 -0.838708 1
gene 1 17 21 -1.06258 0 36 -1.06258 0
gene 1 18 21 -3 0 37 -3 0
gene 1 19 21 -0.257453 0 38 -0.257453 1
gene 1 21 20 -0.261217 0 43 -0.261217 1
gene 1 18 28 -0.352221 0 56 -0.352221 1
gene 1 28 20 -0.390609 0 57 -0.390609 1
gene 1 13 28 0.658479 0 62 0.658479 1
gene 1 14 28 -1.44377 0 66 -1.44377 1
gene 1 10 28 0.0489759 0 68 0.0489759 0
gene 1 8 32 0.510417 0 70 0.510417 1
gene 1 32 20 -0.875178 0 71 -0.875178 0
gene 1 17 33 0.372944 0 73 0.372944 1
gene 1 33 20 0.383596 0 74 0.383596 1
gene 1 20 21 0.376076 1 80 0.376076 1
gene 1 18 35 2.49003 0 81 2.49003 1
gene 1 35 21 0.28816 0 82 0.28816 0
gene 1 6 36 0.271893 0 83 0.271893 1
gene 1 36 20 0.306865 0 84 0.306865 1
gene 1 28 37 0.806677 0 86 0.806677 1
gene 1 37 20 1.02971 0 87 1.02971 1
gene 1 21 49 -0.499539 0 131 -0.499539 1
gene 1 49 20 0.445377 0 132 0.445377 1
gene 1 37 35 0.990918 0 133 0.990918 1
gene 1 10 37 -0.0295911 0 151 -0.0295911 1
gene 1 4 28 0.955375 0 152 0.955375 1
gene 1 14 52 0.254283 0 158 0.254283 1
gene 1 52 20 0.0560737 0 159 0.0560737 1
gene 1 28 35 0.0143821 0 160 0.0143821 1
gene 1 4 35 -0.598295 0 161 -0.598295 1
gene 1 13 53 -1.10451 0 164 -1.10451 1
gene 1 53 20 -0.156572 0 165 -0.156572 1
gene 1 14 56 0.0942903 0 180 0.0942903 1
gene 1 56 28 0.263676 0 181 0.263676 1
gene 1 1 33 -0.580343 0 204 -0.580343 1
gene 1 10 33 -0.156324 0 206 -0.156324 1
gene 1 13 37 0.704208 0 207 0.704208 1
gene 1 33 37 0.384436 0 215 0.384436 1
gene 1 21 53 -0.462967 0 230 -0.462967 1
gene 1 5 67 -0.759262 0 244 -0.759262 1
gene 1 67 20 0.622084 0 245 0.622084 0
gene 1 35 35 -0.177975 1 249 -0.177975 1
gene 1 4 68 0.0595877 0 255 0.0595877 1
gene 1 68 35 1.03357 0 256 1.03357 1
gene 1 18 69 -0.76664 0 258 -0.76664 1
gene 1 69 28 -0.285285 0 259 -0.285285 1
gene 1 15 68 -0.187764 0 288 -0.187764 0
gene 1 13 81 0.476302 0 322 0.476302 1
gene 1 81 28 0.21372 0 323 0.21372 1
gene 1 10 90 -0.708476 0 366 -0.708476 1
gene 1 90 28 0.399565 0 367 0.399565 1
gene 1 28 36 0.528653 0 368 0.528653 1
gene 1 9 68 -0.531045 0 394 -0.531045 1
gene 1 68 67 -0.467428 0 399 -0.467428 1
gene 1 69 49 0.560188 0 405 0.560188 1
gene 1 32 91 -0.479686 0 407 -0.479686 1
gene 1 91 20 -0.422064 0 408 -0.422064 1
gene 1 17 92 -1.63318 0 409 -1.63318 1
gene 1 92 21 0.0332472 0 410 0.0332472 1
gene 1 18 93 0.592704 0 411 0.592704 1
gene 1 93 21 -1.209 0 412 -1.209 1
gene 1 8 90 0.554354 0 415 0.554354 1
gene 1 37 52 -0.660729 0 451 -0.660729 1
gene 1 10 102 0.0416757 0 458 0.0416757 1
gene 1 102 21 1.46118 0 459 1.46118 1
gene 1 7 104 0.59983 0 464 0.59983 1
gene 1 104 20 -0.404031 0 465 -0.404031 1
gene 1 68 52 -0.83091 0 471 -0.83091 1
gene 1 5 91 -1.10707 0 476 -1.10707 1
gene 1 3 108 0.117355 0 480 0.117355 1
gene 1 108 21 -0.358489 0 481 -0.358489 1
gene 1 21 32 -0.448192 0 509 -0.448192 1
gene 1 67 115 -0.743448 0 514 -0.743448 1
gene 1 115 20 1.25521 0 515 1.25521 1
gene 1 9 119 0.348935 0 525 0.348935 1
gene 1 119 21 0.0941333 0 526 0.0941333 1
gene 1 17 102 -0.305013 0 530 -0.305013 1
gene 1 35 122 -0.658857 1 543 -0.658857 1
gene 1 122 35 0.00142103 0 544 0.00142103 1
gene 1 35 126 0.0337173 0 558 0.0337173 1
gene 1 126 21 0.218075 0 559 0.218075 1
gene 1 68 68 -0.439297 1 561 -0.439297 1
gene 1 16 132 0.319077 0 577 0.319077 1
gene 1 132 20 0.0942916 0 578 0.0942916 1
gene 1 2 32 -0.900425 0 587 -0.900425 1
gene 1 15 138 0.599401 0 606 0.599401 1
gene 1 138 68 -0.39975 0 607 -0.39975 1
gene 1 35 32 -0.514812 0 616 -0.514812 1
gene 1 53 53 -0.0308373 1 650 -0.0308373 1
gene 1 91 138 0.103051 0 653 0.103051 1
gene 1 28 21 -1.59791 0 657 -1.59791 1
gene 1 33 33 -0.0609322 1 692 -0.0609322 1
gene 1 17 68 1.10816 0 705 1.10816 1
gene 1 15 159 1.08226 0 732 1.08226 1
gene 1 159 21 -0.131615 0 733 -0.131615 1
genomeend 6535
genomestart 6611
trait 1 0 0.52211 0 0 0.158195 0.318585 0.388212 0.537874 
node 1 1 1 1 0
node 2 1 1 1 0
node 3 1 1 1 0
node 4 1 1 1 0
node 5 1 1 1 0
node 6 1 1 1 0
node 7 1 1 1 0
node 8 1 1 1 0
node 9 1 1 1 0
node 10 1 1 1 0
node 11 1 1 1 0
node 12 1 1 1 0
node 13 1 1 1 0
node 14 1 1 1 0
node 15 1 1 1 0
node 16 1 1 1 0
node 17 1 1 1 0
node 18 1 1 1 0
node 19 1 1 3 0
node 20 1 0 2 0
node 21 1 0 2 0
node 28 1 0 0 0
node 33 1 0 0 0
node 35 1 0 0 0
node 36 1 0 0 0
node 37 1 0 0 0
node 49 1 0 0 0
node 52 1 0 0 0
node 53 1 0 0 0
node 56 1 0 0 0
node 67 1 0 0 0
node 68 1 0 0 0
node 69 1 0 0 0
node 81 1 0 0 0
node 90 1 0 0 0
node 102 1 0 0 0
gene 1 1 20 0.540834 0 1 0.540834 1
gene 1 2 20 -0.171708 0 2 -0.171708 1
gene 1 3 20 0.84192 0 3 0.84192 1
gene 1 4 20 -0.0681188 0 4 -0.0681188 1
gene 1 5 20 1.59115 0 5 1.59115 1
gene 1 6 20 1.262 0 6 1.262 1
gene 1 7 20 -0.241961 0 7 -0.241961 1
gene 1 8 20 0.129503 0 8 0.129503 1
gene 1 9 20 -0.165187 0 9 -0.165187 1
gene 1 10 20 0.366106 0 10 0.366106 1
gene 1 11 20 1.90576 0 11 1.90576 1
gene 1 12 20 0.340425 0 12 0.340425 1
gene 1 13 20 0.367129 0 13 0.367129 1
gene 1 14 20 0.26581 0 14 0.26581 1
gene 1 15 20 0.0752043 0 15 0.0752043 1
gene 1 16 20 -0.21707 0 16 -0.21707 1
gene 1 17 20 0.658666 0 17 0.658666 1
gene 1 18 20 0.428997 0 18 0.428997 1
gene 1 19 20 2.57834 0 19 2.57834 1
gene 1 1 21 -0.0253978 0 20 -0.0253978 1
gene 1 2 21 0.219685 0 21 0.219685 1
gene 1 3 21 1.10353 0 22 1.10353 1
gene 1 4 21 0.074196 0 23 0.074196 1
gene 1 5 21 0.081795 0 24 0.081795 1
gene 1 6 21 -1.26629 0 25 -1.26629 1
gene 1 7 21 0.0829709 0 26 0.0829709 1
gene 1 8 21 0.182726 0 27 0.182726 1
gene 1 9 21 -0.0246613 0 28 -0.0246613 1
gene 1 10 21 -0.714939 0 29 -0.714939 0
gene 1 11 21 0.620152 0 30 0.620152 1
gene 1 12 21 0.269655 0 31 0.269655 1
gene 1 13 21 -0.821731 0 32 -0.821731 1
gene 1 14 21 -1.63691 0 33 -1.63691 1
gene 1 15 21 0.133529 0 34 0.133529 1
gene 1 16 21 -0.223403 0 35 -0.223403 1
gene 1 17 21 0.0215651 0 36 0.0215651 1
gene 1 18 21 -2.19651 0 37 -2.19651 1
gene 1 19 21 -0.452845 0 38 -0.452845 1
gene 1 21 20 -0.0485408 0 43 -0.0485408 1
gene 1 18 28 2.36314 0 56 2.36314 1
gene 1 28 20 1.78263 0 57 1.78263 1
gene 1 13 28 0.369767 0 62 0.369767 1
gene 1 14 28 -1.31473 0 66 -1.31473 1
gene 1 10 28 0.336875 0 68 0.336875 1
gene 1 17 33 -0.163508 0 73 -0.163508 1
gene 1 33 20 -0.4761 0 74 -0.4761 1
gene 1 20 21 1.38569 1 80 1.38569 1
gene 1 18 35 -0.399612 0 81 -0.399612 1
gene 1 35 21 0.108119 0 82 0.108119 1
gene 1 6 36 -0.330749 0 83 -0.330749 1
gene 1 36 20 -0.326936 0 84 -0.326936 1
gene 1 28 37 -0.199878 0 86 -0.199878 1
gene 1 37 20 0.151321 0 87 0.151321 1
gene 1 21 49 -0.85924 0 131 -0.85924 1
gene 1 49 20 1.5925 0 132 1.5925 1
gene 1 37 35 0.0203252 0 133 0.0203252 1
gene 1 10 37 -0.432876 0 151 -0.432876 1
gene 1 4 28 -0.702157 0 152 -0.702157 1
gene 1 14 52 -0.47568 0 158 -0.47568 1
gene 1 52 20 -0.144623 0 159 -0.144623 1
gene 1 28 35 0.166578 0 160 0.166578 1
gene 1 4 35 0.44645 0 161 0.44645 1
gene 1 13 53 0.0472091 0 164 0.0472091 1
gene 1 53 20 -0.00726444 0 165 -0.00726444 1
gene 1 14 56 0.159405 0 180 0.159405 1
gene 1 56 28 -1.43047 0 181 -1.43047 1
gene 1 1 33 -0.389136 0 204 -0.389136 1
gene 1 10 33 0.119595 0 206 0.119595 1
gene 1 13 37 -0.0524489 0 207 -0.0524489 1
gene 1 33 37 0.362009 0 215 0.362009 1
gene 1 21 53 -0.23753 0 230 -0.23753 1
gene 1 5 67 0.0839708 0 244 0.0839708 1
gene 1 67 20 0.215402 0 245 0.215402 1
gene 1 35 35 0.528422 1 249 0.528422 1
gene 1 4 68 0.534303 0 255 0.534303 1
gene 1 68 35 0.106622 0 256 0.106622 1
gene 1 18 69 -0.170222 0 258 -0.170222 1
gene 1 69 28 0.328784 0 259 0.328784 1
gene 1 15 68 -0.0864401 0 288 -0.0864401 1
gene 1 13 81 -0.35802 0 322 -0.35802 1
gene 1 81 28 0.766925 0 323 0.766925 1
gene 1 10 90 -0.479074 0 366 -0.479074 1
gene 1 90 28 0.120526 0 367 0.120526 1
gene 1 28 36 0.228616 0 368 0.228616 1
gene 1 9 68 0.758128 0 394 0.758128 1
gene 1 68 67 -0.15213 0 399 -0.15213 1
gene 1 10 102 -0.342075 0 458 -0.342075 1
gene 1 102 21 0.398197 0 459 0.398197 1
gene 1 33 33 -0.0604039 1 692 -0.0604039 1
genomeend 6611
genomestart 6667
trait 1 0.237806 0.198559 0.0470433 0.0859803 0.521141 0.446615 0.196665 0.319827 
node 1 1 1 1 0
node 2 1 1 1 0
node 3 1 1 1 0
node 4 1 1 1 0
node 5 1 1 1 0
node 6 1 1 1 0
node 7 1 1 1 0
node 8 1 1 1 0
node 9 1 1 1 0
node 10 1 1 1 0
node 11 1 1 1 0
node 12 1 1 1 0
node 13 1 1 1 0
node 14 1 1 1 0
node 15 1 1 1 0
node 16 1 1 1 0
node 17 1 1 1 0
node 18 1 1 1 0
node 19 1 1 3 0
node 20 1 0 2 0
node 21 1 0 2 0
node 28 1 0 0 0
node 32 1 0 0 0
node 33 1 0 0 0
node 35 1 0 0 0
node 36 1 0 0 0
node 37 1 0 0 0
node 49 1 0 0 0
node 52 1 0 0 0
node 53 1 0 0 0
node 56 1 0 0 0
node 67 1 0 0 0
node 68 1 0 0 0
node 69 1 0 0 0
node 81 1 0 0 0
node 90 1 0 0 0
node 91 1 0 0 0
node 92 1 0 0 0
node 94 1 0 0 0
node 97 1 0 0 0
node 104 1 0 0 0
node 112 1 0 0 0
node 114 1 0 0 0
node 115 1 0 0 0
node 132 1 0 0 0
gene 1 1 20 0.296182 0 1 0.296182 1
gene 1 2 20 0.43301 0 2 0.43301 1
gene 1 3 20 -0.0539955 0 3 -0.0539955 1
gene 1 4 20 1.50312 0 4 1.50312 1
gene 1 5 20 0.790414 0 5 0.790414 1
gene 1 6 20 -0.207672 0 6 -0.207672 1
gene 1 7 20 0.355685 0 7 0.355685 0
gene 1 8 20 -0.980093 0 8 -0.980093 0
gene 1 9 20 -0.750263 0 9 -0.750263 1
gene 1 10 20 0.202798 0 10 0.202798 1
gene 1 11 20 -0.572246 0 11 -0.572246 1
gene 1 12 20 0.753611 0 12 0.753611 1
gene 1 13 20 0.796795 0 13 0.796795 1
gene 1 14 20 -0.125278 0 14 -0.125278 1
gene 1 15 20 0.640659 0 15 0.640659 1
gene 1 16 20 0.236841 0 16 0.236841 0
gene 1 17 20 -1.05733 0 17 -1.05733 1
gene 1 18 20 -0.088607 0 18 -0.088607 1
gene 1 19 20 2.80256 0 19 2.80256 1
gene 1 1 21 0.635474 0 20 0.635474 1
gene 1 2 21 1.83536 0 21 1.83536 1
gene 1 3 21 -1.57313 0 22 -1.57313 1
gene 1 4 21 -0.0447807 0 23 -0.0447807 1
gene 1 5 21 0.0460732 0 24 0.0460732 1
gene 1 6 21 0.134292 0 25 0.134292 1
gene 1 7 21 0.175401 0 26 0.175401 1
gene 1 8 21 0.124069 0 27 0.124069 1
gene 1 9 21 -0.726677 0 28 -0.726677 1
gene 1 10 21 0.83954 0 29 0.83954 1
gene 1 11 21 1.11466 0 30 1.11466 1
gene 1 12 21 -0.447489 0 31 -0.447489 1
gene 1 13 21 -0.299718 0 32 -0.299718 1
gene 1 14 21 -0.780634 0 33 -0.780634 1
gene 1 15 21 1.49609 0 34 1.49609 1
gene 1 16 21 0.161148 0 35 0.161148 1
gene 1 17 21 -0.846963 0 36 -0.846963 0
gene 1 18 21 -1.19966 0 37 -1.19966 1
gene 1 19 21 -0.0863151 0 38 -0.0863151 1
gene 1 21 20 0.831278 0 43 0.831278 1
gene 1 18 28 -1.32715 0 56 -1.32715 1
gene 1 28 20 0.469095 0 57 0.469095 1
gene 1 13 28 1.8275 0 62 1.8275 1
gene 1 14 28 -2.19316 0 66 -2.19316 1
gene 1 10 28 -1.43366 0 68 -1.43366 0
gene 1 8 32 0.335595 0 70 0.335595 1
gene 1 32 20 0.952702 0 71 0.952702 1
gene 1 17 33 -0.126806 0 73 -0.126806 1
gene 1 33 20 -0.183911 0 74 -0.183911 1
gene 1 20 21 -0.298447 1 80 -0.298447 1
gene 1 18 35 -0.180138 0 81 -0.180138 1
gene 1 35 21 0.642633 0 82 0.642633 1
gene 1 6 36 1.14983 0 83 1.14983 1
gene 1 36 20 -0.703477 0 84 -0.703477 1
gene 1 28 37 -0.418807 0 86 -0.418807 1
gene 1 37 20 1.12746 0 87 1.12746 1
gene 1 21 49 -0.300688 0 131 -0.300688 1
gene 1 49 20 -0.407533 0 132 -0.407533 1
gene 1 37 35 -0.500203 0 133 -0.500203 1
gene 1 10 37 0.402213 0 151 0.402213 1
gene 1 4 28 -0.249995 0 152 -0.249995 1
gene 1 14 52 -0.226347 0 158 -0.226347 1
gene 1 52 20 -0.51201 0 159 -0.51201 1
gene 1 28 35 -0.238513 0 160 -0.238513 1
gene 1 4 35 -0.242132 0 161 -0.242132 1
gene 1 13 53 -0.307237 0 164 -0.307237 1
gene 1 53 20 -0.485274 0 165 -0.485274 1
gene 1 14 56 0.260594 0 180 0.260594 1
gene 1 56 28 -0.350984 0 181 -0.350984 1
gene 1 1 33 -0.274044 0 204 -0.274044 1
gene 1 10 33 0.276512 0 206 0.276512 1
gene 1 13 37 -0.294778 0 207 -0.294778 1
gene 1 33 37 -0.267766 0 215 -0.267766 1
gene 1 21 53 -0.220166 0 230 -0.220166 1
gene 1 5 67 0.0946178 0 244 0.0946178 1
gene 1 67 20 0.563986 0 245 0.563986 0
gene 1 35 35 0.0961014 1 249 0.0961014 1
gene 1 4 68 0.291615 0 255 0.291615 1
gene 1 68 35 0.193158 0 256 0.193158 1
gene 1 18 69 0.140268 0 258 0.140268 1
gene 1 69 28 0.45851 0 259 0.45851 1
gene 1 28 33 1.12115 0 267 1.12115 1
gene 1 15 68 1.34093 0 288 1.34093 1
gene 1 68 56 0.661501 0 291 0.661501 1
gene 1 13 81 -0.455305 0 322 -0.455305 1
gene 1 81 28 -0.372364 0 323 -0.372364 1
gene 1 10 90 -0.749205 0 366 -0.749205 1
gene 1 90 28 0.373537 0 367 0.373537 1
gene 1 28 36 0.15507 0 368 0.15507 1
gene 1 9 68 -0.275232 0 394 -0.275232 1
gene 1 68 67 0.197698 0 399 0.197698 1
gene 1 69 49 0.0347761 0 405 0.0347761 1
gene 1 32 91 0.317005 0 407 0.317005 1
gene 1 91 20 0.241926 0 408 0.241926 1
gene 1 17 92 -0.566103 0 409 -0.566103 1
gene 1 92 21 0.498046 0 410 0.498046 1
gene 1 8 90 0.211845 0 415 0.211845 1
gene 1 36 56 0.00503718 0 417 0.00503718 1
gene 1 33 94 -0.23663 0 427 -0.23663 1
gene 1 94 37 0.404983 0 428 0.404983 1
gene 1 18 97 0.393587 0 440 0.393587 1
gene 1 97 28 0.206422 0 441 0.206422 1
gene 1 37 52 0.497284 0 451 0.497284 1
gene 1 7 104 1.46195 0 464 1.46195 1
gene 1 104 20 -0.367025 0 465 -0.367025 1
gene 1 5 91 0.425241 0 476 0.425241 1
gene 1 33 33 -0.386468 1 483 -0.386468 1
gene 1 53 112 -0.9586 0 499 -0.9586 1
gene 1 112 20 0.632254 0 500 0.632254 1
gene 1 9 114 -0.462656 0 504 -0.462656 1
gene 1 114 20 -0.0796107 0 505 -0.0796107 1
gene 1 21 32 0.0823753 0 509 0.0823753 1
gene 1 67 115 -0.203123 0 514 -0.203123 1
gene 1 115 20 0.426481 0 515 0.426481 1
gene 1 2 28 -0.222648 0 539 -0.222648 1
gene 1 36 68 -0.7809 0 547 -0.7809 1
gene 1 16 132 1.56887 0 577 1.56887 1
gene 1 132 20 0.205835 0 578 0.205835 1
gene 1 6 28 0.146707 0 597 0.146707 1
gene 1 35 32 -0.453924 0 616 -0.453924 1
gene 1 56 56 -0.261485 1 736 -0.261485 1
gene 1 132 132 -0.0909546 1 757 -0.0909546 1
genomeend 6667
genomestart 6714
trait 1 0.00733482 0.614301 0.336364 0.0938608 0.158449 0.388334 0.347747 0.289799 
node 1 1 1 1 0
node 2 1 1 1 0
node 3 1 1 1 0
node 4 1 1 1 0
node 5 1 1 1 0
node 6 1 1 1 0
node 7 1 1 1 0
node 8 1 1 1 0
node 9 1 1 1 0
node 10 1 1 1 0
node 11 1 1 1 0
node 12 1 1 1 0
node 13 1 1 1 0
node 14 1 1 1 0
node 15 1 1 1 0
node 16 1 1 1 0
node 17 1 1 1 0
node 18 1 1 1 0
node 19 1 1 3 0
node 20 1 0 2 0
node 21 1 0 2 0
node 28 1 0 0 0
node 32 1 0 0 0
node 33 1 0 0 0
node 35 1 0 0 0
node 36 1 0 0 0
node 37 1 0 0 0
node 49 1 0 0 0
node 52 1 0 0 0
node 53 1 0 0 0
node 56 1 0 0 0
node 67 1 0 0 0
node 68 1 0 0 0
node 69 1 0 0 0
node 81 1 0 0 0
node 90 1 0 0 0
node 91 1 0 0 0
node 102 1 0 0 0
node 108 1 0 0 0
node 118 1 0 0 0
node 119 1 0 0 0
node 122 1 0 0 0
node 126 1 0 0 0
node 138 1 0 0 0
gene 1 1 20 0.43333 0 1 0.43333 1
gene 1 2 20 1.1289 0 2 1.1289 1
gene 1 3 20 0.666963 0 3 0.666963 1
gene 1 4 20 0.257164 0 4 0.257164 1
gene 1 5 20 0.140938 0 5 0.140938 1
gene 1 6 20 -0.272849 0 6 -0.272849 0
gene 1 7 20 -0.048201 0 7 -0.048201 1
gene 1 8 20 0.581871 0 8 0.581871 0
gene 1 9 20 0.325162 0 9 0.325162 1
gene 1 10 20 -1.12149 0 10 -1.12149 1
gene 1 11 20 0.164651 0 11 0.164651 1
gene 1 12 20 1.00825 0 12 1.00825 1
gene 1 13 20 0.467703 0 13 0.467703 1
gene 1 14 20 -0.462567 0 14 -0.462567 1
gene 1 15 20 1.18152 0 15 1.18152 1
gene 1 16 20 -0.282677 0 16 -0.282677 1
gene 1 17 20 0.742385 0 17 0.742385 1
gene 1 18 20 0.836839 0 18 0.836839 1
gene 1 19 20 2.23253 0 19 2.23253 1
gene 1 1 21 0.713168 0 20 0.713168 1
gene 1 2 21 0.552834 0 21 0.552834 1
gene 1 3 21 -0.459288 0 22 -0.459288 0
gene 1 4 21 -0.228603 0 23 -0.228603 1
gene 1 5 21 -0.717923 0 24 -0.717923 1
gene 1 6 21 -1.15289 0 25 -1.15289 1
gene 1 7 21 -0.616317 0 26 -0.616317 1
gene 1 8 21 0.341348 0 27 0.341348 1
gene 1 9 21 0.671408 0 28 0.671408 0
gene 1 10 21 -0.403775 0 29 -0.403775 0
gene 1 11 21 1.58277 0 30 1.58277 1
gene 1 12 21 -0.449181 0 31 -0.449181 1
gene 1 13 21 -0.760097 0 32 -0.760097 0
gene 1 14 21 -1.01178 0 33 -1.01178 1
gene 1 15 21 0.984048 0 34 0.984048 1
gene 1 16 21 -0.905277 0 35 -0.905277 1
gene 1 17 21 0.559413 0 36 0.559413 1
gene 1 18 21 -1.34231 0 37 -1.34231 1
gene 1 19 21 0.452374 0 38 0.452374 1
gene 1 21 20 0.933191 0 43 0.933191 1
gene 1 18 28 -0.0443021 0 56 -0.0443021 1
gene 1 28 20 1.11667 0 57 1.11667 1
gene 1 13 28 -0.609006 0 62 -0.609006 1
gene 1 14 28 0.167684 0 66 0.167684 1
gene 1 10 28 0.44745 0 68 0.44745 0
gene 1 8 32 0.0526321 0 70 0.0526321 1
gene 1 32 20 -0.464101 0 71 -0.464101 0
gene 1 17 33 -0.142125 0 73 -0.142125 1
gene 1 33 20 -0.533747 0 74 -0.533747 1
gene 1 20 21 0.666518 1 80 0.666518 1
gene 1 18 35 -0.425895 0 81 -0.425895 1
gene 1 35 21 -0.615025 0 82 -0.615025 0
gene 1 6 36 -0.873191 0 83 -0.873191 1
gene 1 36 20 0.113112 0 84 0.113112 1
gene 1 28 37 0.224166 0 86 0.224166 1
gene 1 37 20 1.20862 0 87 1.20862 1
gene 1 21 49 -0.132572 0 131 -0.132572 1
gene 1 49 20 0.482716 0 132 0.482716 1
gene 1 37 35 0.913003 0 133 0.913003 1
gene 1 10 37 -0.14561 0 151 -0.14561 1
gene 1 4 28 0.264292 0 152 0.264292 1
gene 1 14 52 0.39872 0 158 0.39872 1
gene 1 52 20 0.354445 0 159 0.354445 1
gene 1 28 35 -0.127748 0 160 -0.127748 1
gene 1 4 35 -0.0991759 0 161 -0.0991759 1
gene 1 13 53 0.105431 0 164 0.105431 1
gene 1 53 20 -0.123543 0 165 -0.123543 1
gene 1 14 56 0.686523 0 180 0.686523 1
gene 1 56 28 0.756175 0 181 0.756175 1
gene 1 1 33 -0.99939 0 204 -0.99939 1
gene 1 10 33 0.533223 0 206 0.533223 1
gene 1 13 37 0.234215 0 207 0.234215 1
gene 1 33 37 0.413214 0 215 0.413214 1
gene 1 21 53 -0.703897 0 230 -0.703897 1
gene 1 5 67 -0.0388957 0 244 -0.0388957 1
gene 1 67 20 0.651938 0 245 0.651938 1
gene 1 35 35 -0.2827 1 249 -0.2827 1
gene 1 4 68 0.268621 0 255 0.268621 1
gene 1 68 35 -0.291333 0 256 -0.291333 1
gene 1 18 69 -0.473308 0 258 -0.473308 1
gene 1 69 28 -0.169408 0 259 -0.169408 1
gene 1 15 68 0.819178 0 288 0.819178 0
gene 1 13 81 -0.611832 0 322 -0.611832 1
gene 1 81 28 0.617279 0 323 0.617279 1
gene 1 10 90 -0.43386 0 366 -0.43386 1
gene 1 90 28 -0.103657 0 367 -0.103657 1
gene 1 28 36 0.413135 0 368 0.413135 1
gene 1 9 68 1.21963 0 394 1.21963 1
gene 1 68 67 -0.138764 0 399 -0.138764 1
gene 1 32 91 -0.27647 0 407 -0.27647 1
gene 1 91 20 0.443211 0 408 0.443211 1
gene 1 10 102 0.555458 0 458 0.555458 1
gene 1 102 21 0.122106 0 459 0.122106 1
gene 1 68 52 -0.693975 0 471 -0.693975 1
gene 1 3 108 0.0698612 0 480 0.0698612 1
gene 1 108 21 -0.660508 0 481 -0.660508 1
gene 1 69 53 0.831758 0 487 0.831758 1
gene 1 13 118 1 0 523 0 1
gene 1 118 21 -0.228029 0 524 0 1
gene 1 9 119 0.417736 0 525 0.417736 1
gene 1 119 21 0.110082 0 526 0.110082 1
gene 1 17 102 -0.056081 0 530 -0.056081 1
gene 1 35 122 1.06908 1 543 1.06908 1
gene 1 122 35 -0.438278 0 544 -0.438278 1
gene 1 35 126 0.749085 0 558 0.749085 1
gene 1 126 21 -0.34033 0 559 -0.34033 1
gene 1 68 68 -0.413153 1 561 -0.413153 1
gene 1 2 32 -0.829665 0 587 -0.829665 1
gene 1 15 138 -1.03667 0 606 -1.03667 1
gene 1 138 68 -0.0300718 0 607 -0.0300718 1
gene 1 53 53 -0.970583 1 650 -0.970583 1
gene 1 91 138 -0.582644 0 653 -0.582644 1
gene 1 28 21 -0.428955 0 657 -0.428955 1
gene 1 33 33 -0.232778 1 692 -0.232778 1
gene 1 17 68 0.387913 0 705 0.387913 1
genomeend 6714
genomestart 6719
trait 1 0.0116923 0.590359 0.155556 0.135231 0.185824 0.515391 0.349016 0.159578 
node 1 1 1 1 0
node 2 1 1 1 0
node 3 1 1 1 0
node 4 1 1 1 0
node 5 1 1 1 0
node 6 1 1 1 0
node 7 1 1 1 0
node 8 1 1 1 0
node 9 1 1 1 0
node 10 1 1 1 0
node 11 1 1 1 0
node 12 1 1 1 0
node 13 1 1 1 0
node 14 1 1 1 0
node 15 1 1 1 0
node 16 1 1 1 0
node 17 1 1 1 0
node 18 1 1 1 0
node 19 1 1 3 0
node 20 1 0 2 0
node 21 1 0 2 0
node 28 1 0 0 0
node 32 1 0 0 0
node 33 1 0 0 0
node 35 1 0 0 0
node 36 1 0 0 0
node 37 1 0 0 0
node 49 1 0 0 0
node 52 1 0 0 0
node 53 1 0 0 0
node 56 1 0 0 0
node 67 1 0 0 0
node 68 1 0 0 0
node 69 1 0 0 0
node 81 1 0 0 0
node 90 1 0 0 0
node 91 1 0 0 0
node 102 1 0 0 0
node 108 1 0 0 0
node 119 1 0 0 0
node 122 1 0 0 0
node 126 1 0 0 0
node 138 1 0 0 0
gene 1 1 20 0.988543 0 1 0.988543 1
gene 1 2 20 0.868942 0 2 0.868942 1
gene 1 3 20 0.627937 0 3 0.627937 1
gene 1 4 20 0.534904 0 4 0.534904 1
gene 1 5 20 0.533397 0 5 0.533397 1
gene 1 6 20 -0.214757 0 6 -0.214757 1
gene 1 7 20 -0.238137 0 7 -0.238137 1
gene 1 8 20 -0.0828569 0 8 -0.0828569 0
gene 1 9 20 -0.0643099 0 9 -0.0643099 1
gene 1 10 20 -0.817852 0 10 -0.817852 1
gene 1 11 20 0.58064 0 11 0.58064 1
gene 1 12 20 1.00825 0 12 1.00825 1
gene 1 13 20 0.467703 0 13 0.467703 1
gene 1 14 20 -0.291053 0 14 -0.291053 1
gene 1 15 20 -0.986605 0 15 -0.986605 1
gene 1 16 20 -0.163697 0 16 -0.163697 1
gene 1 17 20 -0.839065 0 17 -0.839065 1
gene 1 18 20 -0.593749 0 18 -0.593749 1
gene 1 19 20 2.49768 0 19 2.49768 1
gene 1 1 21 0.568285 0 20 0.568285 1
gene 1 2 21 -0.214922 0 21 -0.214922 1
gene 1 3 21 -0.734017 0 22 -0.734017 0
gene 1 4 21 0.898365 0 23 0.898365 1
gene 1 5 21 -0.434291 0 24 -0.434291 1
gene 1 6 21 -0.951925 0 25 -0.951925 1
gene 1 7 21 0.507129 0 26 0.507129 1
gene 1 8 21 0.348078 0 27 0.348078 1
gene 1 9 21 -0.0888393 0 28 -0.0888393 0
gene 1 10 21 -0.857765 0 29 -0.857765 0
gene 1 11 21 1.3266 0 30 1.3266 1
gene 1 12 21 -0.0469481 0 31 -0.0469481 1
gene 1 13 21 -0.565076 0 32 -0.565076 1
gene 1 14 21 -1.50471 0 33 -1.50471 1
gene 1 15 21 0.663308 0 34 0.663308 1
gene 1 16 21 -0.550183 0 35 -0.550183 1
gene 1 17 21 -0.12621 0 36 -0.12621 1
gene 1 18 21 -1.36973 0 37 -1.36973 1
gene 1 19 21 0.339245 0 38 0.339245 1
gene 1 21 20 0.0311437 0 43 0.0311437 1
gene 1 18 28 -0.412057 0 56 -0.412057 1
gene 1 28 20 -0.139078 0 57 -0.139078 1
gene 1 13 28 -0.621436 0 62 -0.621436 1
gene 1 14 28 -0.79083 0 66 -0.79083 1
gene 1 10 28 0.459921 0 68 0.459921 1
gene 1 8 32 -0.249102 0 70 -0.249102 1
gene 1 32 20 -1.05037 0 71 -1.05037 0
gene 1 17 33 0.800308 0 73 0.800308 1
gene 1 33 20 0.209954 0 74 0.209954 1
gene 1 20 21 -0.456523 1 80 -0.456523 1
gene 1 18 35 0.310743 0 81 0.310743 1
gene 1 35 21 0.647953 0 82 0.647953 1
gene 1 6 36 0.156208 0 83 0.156208 1
gene 1 36 20 0.0383541 0 84 0.0383541 1
gene 1 28 37 0.268784 0 86 0.268784 1
gene 1 37 20 0.977593 0 87 0.977593 1
gene 1 21 49 -0.323731 0 131 -0.323731 1
gene 1 49 20 0.105015 0 132 0.105015 1
gene 1 37 35 0.913003 0 133 0.913003 1
gene 1 10 37 0.293848 0 151 0.293848 1
gene 1 4 28 0.235907 0 152 0.235907 1
gene 1 14 52 -0.227571 0 158 -0.227571 1
gene 1 52 20 -0.224053 0 159 -0.224053 1
gene 1 28 35 -0.0106592 0 160 -0.0106592 1
gene 1 4 35 -0.277571 0 161 -0.277571 1
gene 1 13 53 0.235148 0 164 0.235148 1
gene 1 53 20 -0.107011 0 165 -0.107011 1
gene 1 14 56 -0.1996 0 180 -0.1996 1
gene 1 56 28 0.713809 0 181 0.713809 1
gene 1 1 33 -1.78179 0 204 -1.78179 1
gene 1 10 33 0.193298 0 206 0.193298 1
gene 1 13 37 0.420826 0 207 0.420826 1
gene 1 33 37 0.341794 0 215 0.341794 1
gene 1 21 53 -0.167758 0 230 -0.167758 1
gene 1 5 67 -0.166552 0 244 -0.166552 1
gene 1 67 20 0.748944 0 245 0.748944 1
gene 1 35 35 1.04123 1 249 1.04123 1
gene 1 4 68 -0.365257 0 255 -0.365257 1
gene 1 68 35 -0.0563117 0 256 -0.0563117 1
gene 1 18 69 -0.111232 0 258 -0.111232 1
gene 1 69 28 -0.169408 0 259 -0.169408 1
gene 1 15 68 1.1679 0 288 1.1679 1
gene 1 13 81 -0.0717894 0 322 -0.0717894 1
gene 1 81 28 0.980851 0 323 0.980851 1
gene 1 10 90 -1.05149 0 366 -1.05149 1
gene 1 90 28 -0.550373 0 367 -0.550373 1
gene 1 28 36 0.194595 0 368 0.194595 1
gene 1 9 68 0.523151 0 394 0.523151 1
gene 1 68 67 0.302144 0 399 0.302144 1
gene 1 32 91 0.131771 0 407 0.131771 1
gene 1 91 20 0.0447969 0 408 0.0447969 1
gene 1 10 102 -0.0383519 0 458 -0.0383519 1
gene 1 102 21 0.800329 0 459 0.800329 1
gene 1 68 52 -0.218388 0 471 -0.218388 1
gene 1 3 108 0.517357 0 480 0.517357 1
gene 1 108 21 0.0502658 0 481 0.0502658 1
gene 1 9 119 0.82541 0 525 0.82541 1
gene 1 119 21 0.487063 0 526 0.487063 1
gene 1 17 102 -0.404607 0 530 -0.404607 1
gene 1 35 122 0.626392 1 543 0.626392 1
gene 1 122 35 -0.870905 0 544 -0.870905 1
gene 1 35 126 0.158874 0 558 0.158874 1
gene 1 126 21 -0.0461177 0 559 -0.0461177 1
gene 1 68 68 -0.329315 1 561 -0.329315 1
gene 1 2 32 -0.641795 0 587 -0.641795 1
gene 1 15 138 0.521574 0 606 0.521574 1
gene 1 138 68 0.585478 0 607 0.585478 1
gene 1 53 53 -0.970583 1 650 -0.970583 1
gene 1 91 138 0.361546 0 653 0.361546 1
gene 1 28 21 -0.0124045 0 657 -0.0124045 1
gene 1 33 33 0.268945 1 692 0.268945 1
gene 1 17 68 0.344559 0 705 0.344559 1
genomeend 6719
genomestart 6748
trait 1 0.103623 0.903134 0.10333 0.397103 0.536402 0.164238 0.838168 0.17161 
node 1 1 1 1 0
node 2 1 1 1 0
node 3 1 1 1 0
node 4 1 1 1 0
node 5 1 1 1 0
node 6 1 1 1 0
node 7 1 1 1 0
node 8 1 1 1 0
node 9 1 1 1 0
node 10 1 1 1 0
node 11 1 1 1 0
node 12 1 1 1 0
node 13 1 1 1 0
node 14 1 1 1 0
node 15 1 1 1 0
node 16 1 1 1 0
node 17 1 1 1 0
node 18 1 1 1 0
node 19 1 1 3 0
node 20 1 0 2 0
node 21 1 0 2 0
node 28 1 0 0 0
node 32 1 0 0 0
node 33 1 0 0 0
node 35 1 0 0 0
node 36 1 0 0 0
node 37 1 0 0 0
node 49 1 0 0 0
node 52 1 0 0 0
node 53 1 0 0 0
node 56 1 0 0 0
node 67 1 0 0 0
node 68 1 0 0 0
node 69 1 0 0 0
node 81 1 0 0 0
node 90 1 0 0 0
node 91 1 0 0 0
node 92 1 0 0 0
node 93 1 0 0 0
node 102 1 0 0 0
node 104 1 0 0 0
node 108 1 0 0 0
node 115 1 0 0 0
node 119 1 0 0 0
node 122 1 0 0 0
node 126 1 0 0 0
node 132 1 0 0 0
node 138 1 0 0 0
node 153 1 0 0 0
node 159 1 0 0 0
gene 1 1 20 0.715735 0 1 0.715735 1
gene 1 2 20 0.461581 0 2 0.461581 1
gene 1 3 20 -0.109591 0 3 -0.109591 1
gene 1 4 20 0.535843 0 4 0.535843 1
gene 1 5 20 1.44482 0 5 1.44482 1
gene 1 6 20 -0.86451 0 6 -0.86451 0
gene 1 7 20 0.228767 0 7 0.228767 1
gene 1 8 20 -0.0280251 0 8 -0.0280251 0
gene 1 9 20 -0.259655 0 9 -0.259655 1
gene 1 10 20 0.298733 0 10 0.298733 1
gene 1 11 20 0.792038 0 11 0.792038 1
gene 1 12 20 0.378613 0 12 0.378613 1
gene 1 13 20 -0.295936 0 13 -0.295936 1
gene 1 14 20 -0.212272 0 14 -0.212272 1
gene 1 15 20 0.286169 0 15 0.286169 1
gene 1 16 20 0.195604 0 16 0.195604 1
gene 1 17 20 -0.123121 0 17 -0.123121 1
gene 1 18 20 -0.409773 0 18 -0.409773 1
gene 1 19 20 3 0 19 3 1
gene 1 1 21 -0.0399031 0 20 -0.0399031 1
gene 1 2 21 0.414389 0 21 0.414389 1
gene 1 3 21 -0.53722 0 22 -0.53722 0
gene 1 4 21 -0.988175 0 23 -0.988175 1
gene 1 5 21 -0.84636 0 24 -0.84636 1
gene 1 6 21 -0.651773 0 25 -0.651773 1
gene 1 7 21 -0.727221 0 26 -0.727221 1
gene 1 8 21 0.125162 0 27 0.125162 1
gene 1 9 21 -1.67198 0 28 -1.67198 0
gene 1 10 21 0.0157594 0 29 0.0157594 0
gene 1 11 21 1.89397 0 30 1.89397 1
gene 1 12 21 -1.27202 0 31 -1.27202 1
gene 1 13 21 -0.0920433 0 32 -0.0920433 1
gene 1 14 21 -0.180405 0 33 -0.180405 1
gene 1 15 21 0.355596 0 34 0.355596 1
gene 1 16 21 0.121897 0 35 0.121897 1
gene 1 17 21 -1.14088 0 36 -1.14088 0
gene 1 18 21 -2.23461 0 37 -2.23461 0
gene 1 19 21 -0.341803 0 38 -0.341803 1
gene 1 21 20 -1.29462 0 43 -1.29462 1
gene 1 18 28 -0.479067 0 56 -0.479067 1
gene 1 28 20 -0.548263 0 57 -0.548263 1
gene 1 13 28 0.700796 0 62 0.700796 1
gene 1 14 28 0.471149 0 66 0.471149 1
gene 1 10 28 0.398541 0 68 0.398541 0
gene 1 8 32 0.590081 0 70 0.590081 1
gene 1 32 20 -0.675152 0 71 -0.675152 0
gene 1 17 33 -0.306914 0 73 -0.306914 1
gene 1 33 20 -0.541029 0 74 -0.541029 1
gene 1 20 21 -0.16963 1 80 -0.16963 1
gene 1 18 35 2.61801 0 81 2.61801 1
gene 1 35 21 1.0331 0 82 1.0331 1
gene 1 6 36 -0.561818 0 83 -0.561818 1
gene 1 36 20 0.35602 0 84 0.35602 1
gene 1 28 37 0.0120834 0 86 0.0120834 1
gene 1 37 20 1.35149 0 87 1.35149 1
gene 1 21 49 -0.911639 0 131 -0.911639 1
gene 1 49 20 -0.180598 0 132 -0.180598 1
gene 1 37 35 -0.224066 0 133 -0.224066 1
gene 1 10 37 0.109144 0 151 0.109144 1
gene 1 4 28 0.815994 0 152 0.815994 1
gene 1 14 52 -0.0249275 0 158 -0.0249275 1
gene 1 52 20 0.0657103 0 159 0.0657103 1
gene 1 28 35 -0.227026 0 160 -0.227026 1
gene 1 4 35 -0.371801 0 161 -0.371801 1
gene 1 13 53 0.3277 0 164 0.3277 1
gene 1 53 20 0.169418 0 165 0.169418 1
gene 1 14 56 0.394276 0 180 0.394276 1
gene 1 56 28 0.446359 0 181 0.446359 1
gene 1 1 33 -0.473167 0 204 -0.473167 1
gene 1 10 33 -0.236807 0 206 -0.236807 1
gene 1 13 37 -0.165524 0 207 -0.165524 1
gene 1 33 37 1.36262 0 215 1.36262 1
gene 1 21 53 0.0177537 0 230 0.0177537 1
gene 1 5 67 -0.49011 0 244 -0.49011 1
gene 1 67 20 0.292262 0 245 0.292262 0
gene 1 35 35 0.247395 1 249 0.247395 1
gene 1 4 68 -0.463355 0 255 -0.463355 1
gene 1 68 35 -0.191801 0 256 -0.191801 1
gene 1 18 69 -0.23032 0 258 -0.23032 1
gene 1 69 28 0.695583 0 259 0.695583 1
gene 1 15 68 -0.50613 0 288 -0.50613 0
gene 1 13 81 -0.370988 0 322 -0.370988 1
gene 1 81 28 -0.478353 0 323 -0.478353 1
gene 1 10 90 -0.652794 0 366 -0.652794 1
gene 1 90 28 0.112755 0 367 0.112755 1
gene 1 28 36 0.636681 0 368 0.636681 1
gene 1 9 68 -1.03892 0 394 -1.03892 1
gene 1 68 67 -0.0622822 0 399 -0.0622822 1
gene 1 69 49 -0.486217 0 405 -0.486217 1
gene 1 32 91 0.0415782 0 407 0.0415782 1
gene 1 91 20 0.30462 0 408 0.30462 1
gene 1 17 92 -1.90015 0 409 -1.90015 1
gene 1 92 21 0.281735 0 410 0.281735 1
gene 1 18 93 0.451759 0 411 0.451759 1
gene 1 93 21 -0.134252 0 412 -0.134252 1
gene 1 8 90 0.167775 0 415 0.167775 1
gene 1 37 52 0.424816 0 451 0.424816 1
gene 1 10 102 -0.0741066 0 458 -0.0741066 1
gene 1 102 21 1.29323 0 459 1.29323 1
gene 1 7 104 -0.0923963 0 464 -0.0923963 1
gene 1 104 20 -0.162974 0 465 -0.162974 1
gene 1 68 52 -0.490067 0 471 -0.490067 1
gene 1 5 91 -1.1797 0 476 -1.1797 1
gene 1 3 108 0.0746825 0 480 0.0746825 1
gene 1 108 21 -0.655767 0 481 -0.655767 1
gene 1 21 32 0.0130161 0 509 0.0130161 1
gene 1 67 115 -1.23124 0 514 -1.23124 1
gene 1 115 20 0.124942 0 515 0.124942 1
gene 1 9 119 0.975448 0 525 0.975448 1
gene 1 119 21 -0.25292 0 526 -0.25292 1
gene 1 17 102 -0.526661 0 530 -0.526661 1
gene 1 35 122 -0.837031 1 543 -0.837031 1
gene 1 122 35 0.463215 0 544 0.463215 1
gene 1 35 126 -0.718722 0 558 -0.718722 1
gene 1 126 21 0.831674 0 559 0.831674 1
gene 1 68 68 -0.405157 1 561 -0.405157 1
gene 1 16 132 0.201494 0 577 0.201494 0
gene 1 132 20 0.0865754 0 578 0.0865754 1
gene 1 2 32 -1.32115 0 587 -1.32115 1
gene 1 15 138 0.131748 0 606 0.131748 1
gene 1 138 68 -0.350753 0 607 -0.350753 1
gene 1 35 32 -0.92138 0 616 -0.92138 1
gene 1 53 53 0.466581 1 650 0.466581 1
gene 1 91 138 -0.514991 0 653 -0.514991 1
gene 1 28 21 -0.300481 0 657 -0.300481 1
gene 1 16 153 1.22509 0 689 1.22509 1
gene 1 153 132 0.41972 0 690 0.41972 1
gene 1 33 33 0.277357 1 692 0.277357 1
gene 1 17 68 1.3494 0 705 1.3494 1
gene 1 15 159 1.0365 0 732 1.0365 1
gene 1 159 21 -0.371391 0 733 -0.371391 1
genomeend 6748
genomestart 6754
trait 1 0.0585563 0.397117 0.0450626 0.0863963 0.208603 0.461511 0.39333 0.19844 
node 1 1 1 1 0
node 2 1 1 1 0
node 3 1 1 1 0
node 4 1 1 1 0
node 5 1 1 1 0
node 6 1 1 1 0
node 7 1 1 1 0
node 8 1 1 1 0
node 9 1 1 1 0
node 10 1 1 1 0
node 11 1 1 1 0
node 12 1 1 1 0
node 13 1 1 1 0
node 14 1 1 1 0
node 15 1 1 1 0
node 16 1 1 1 0
node 17 1 1 1 0
node 18 1 1 1 0
node 19 1 1 3 0
node 20 1 0 2 0
node 21 1 0 2 0
node 28 1 0 0 0
node 32 1 0 0 0
node 33 1 0 0 0
node 35 1 0 0 0
node 36 1 0 0 0
node 37 1 0 0 0
node 49 1 0 0 0
node 52 1 0 0 0
node 53 1 0 0 0
node 56 1 0 0 0
node 67 1 0 0 0
node 68 1 0 0 0
node 69 1 0 0 0
node 81 1 0 0 0
node 90 1 0 0 0
node 91 1 0 0 0
node 92 1 0 0 0
node 104 1 0 0 0
node 115 1 0 0 0
node 132 1 0 0 0
gene 1 1 20 0.631143 0 1 0.631143 1
gene 1 2 20 0.0957163 0 2 0.0957163 1
gene 1 3 20 -0.212875 0 3 -0.212875 1
gene 1 4 20 0.102748 0 4 0.102748 1
gene 1 5 20 0.681569 0 5 0.681569 1
gene 1 6 20 0.0436648 0 6 0.0436648 1
gene 1 7 20 0.647065 0 7 0.647065 0
gene 1 8 20 -1.46843 0 8 -1.46843 0
gene 1 9 20 -0.605713 0 9 -0.605713 1
gene 1 10 20 0.0573715 0 10 0.0573715 1
gene 1 11 20 -1.21324 0 11 -1.21324 1
gene 1 12 20 0.681671 0 12 0.681671 1
gene 1 13 20 0.909104 0 13 0.909104 1
gene 1 14 20 -0.201764 0 14 -0.201764 1
gene 1 15 20 0.365442 0 15 0.365442 1
gene 1 16 20 0.244402 0 16 0.244402 0
gene 1 17 20 -0.557036 0 17 -0.557036 1
gene 1 18 20 -0.20204 0 18 -0.20204 1
gene 1 19 20 2.10808 0 19 2.10808 1
gene 1 1 21 0.797024 0 20 0.797024 1
gene 1 2 21 1.77495 0 21 1.77495 1
gene 1 3 21 -1.28474 0 22 -1.28474 1
gene 1 4 21 -0.560787 0 23 -0.560787 1
gene 1 5 21 -0.0882317 0 24 -0.0882317 1
gene 1 6 21 0.496406 0 25 0.496406 1
gene 1 7 21 -0.0874501 0 26 -0.0874501 1
gene 1 8 21 0.302001 0 27 0.302001 1
gene 1 9 21 0.183287 0 28 0.183287 1
gene 1 10 21 0.114208 0 29 0.114208 1
gene 1 11 21 1.25759 0 30 1.25759 1
gene 1 12 21 -0.975349 0 31 -0.975349 1
gene 1 13 21 0.185786 0 32 0.185786 1
gene 1 14 21 -0.443619 0 33 -0.443619 1
gene 1 15 21 1.84997 0 34 1.84997 1
gene 1 16 21 -0.339055 0 35 -0.339055 1
gene 1 17 21 0.262184 0 36 0.262184 0
gene 1 18 21 -0.673692 0 37 -0.673692 1
gene 1 19 21 -0.0699588 0 38 -0.0699588 1
gene 1 21 20 1.74746 0 43 1.74746 1
gene 1 18 28 -1.08558 0 56 -1.08558 1
gene 1 28 20 0.923654 0 57 0.923654 1
gene 1 13 28 0.972851 0 62 0.972851 1
gene 1 14 28 -2.52539 0 66 -2.52539 1
gene 1 10 28 -2.20737 0 68 -2.20737 1
gene 1 8 32 0.701431 0 70 0.701431 1
gene 1 32 20 -0.14977 0 71 -0.14977 1
gene 1 17 33 -0.664235 0 73 -0.664235 1
gene 1 33 20 -0.391027 0 74 -0.391027 1
gene 1 20 21 -0.0381505 1 80 -0.0381505 1
gene 1 18 35 2.55963 0 81 2.55963 1
gene 1 35 21 0.509764 0 82 0.509764 1
gene 1 6 36 -0.342584 0 83 -0.342584 1
gene 1 36 20 -0.805007 0 84 -0.805007 1
gene 1 28 37 0.447035 0 86 0.447035 1
gene 1 37 20 1.79067 0 87 1.79067 1
gene 1 21 49 -0.49521 0 131 -0.49521 1
gene 1 49 20 -0.896169 0 132 -0.896169 1
gene 1 37 35 -0.116211 0 133 -0.116211 1
gene 1 10 37 0.789605 0 151 0.789605 1
gene 1 4 28 0.31839 0 152 0.31839 1
gene 1 14 52 -0.816902 0 158 -0.816902 1
gene 1 52 20 -0.0517519 0 159 -0.0517519 1
gene 1 28 35 -0.371314 0 160 -0.371314 1
gene 1 4 35 -0.204189 0 161 -0.204189 1
gene 1 13 53 -0.134442 0 164 -0.134442 1
gene 1 53 20 -0.272933 0 165 -0.272933 1
gene 1 14 56 0.0104425 0 180 0.0104425 1
gene 1 56 28 0.039616 0 181 0.039616 1
gene 1 1 33 -0.917368 0 204 -0.917368 1
gene 1 10 33 0.452841 0 206 0.452841 1
gene 1 13 37 0.123087 0 207 0.123087 1
gene 1 33 37 -0.0123402 0 215 -0.0123402 1
gene 1 21 53 -1.04037 0 230 -1.04037 1
gene 1 5 67 0.971757 0 244 0.971757 1
gene 1 67 20 0.851518 0 245 0.851518 0
gene 1 35 35 -0.505648 1 249 -0.505648 1
gene 1 4 68 0.536672 0 255 0.536672 1
gene 1 68 35 0.3121 0 256 0.3121 1
gene 1 18 69 -0.0757832 0 258 -0.0757832 1
gene 1 69 28 -0.209362 0 259 -0.209362 1
gene 1 15 68 1.18518 0 288 1.18518 1
gene 1 13 81 -0.470339 0 322 -0.470339 1
gene 1 81 28 -0.185397 0 323 -0.185397 1
gene 1 10 90 -1.19169 0 366 -1.19169 1
gene 1 90 28 0.701138 0 367 0.701138 1
gene 1 28 36 -0.191173 0 368 -0.191173 1
gene 1 9 68 0.145063 0 394 0.145063 1
gene 1 68 67 -0.0226262 0 399 -0.0226262 1
gene 1 69 49 0.107473 0 405 0.107473 1
gene 1 32 91 0.528153 0 407 0.528153 1
gene 1 91 20 0.407234 0 408 0.407234 1
gene 1 17 92 -0.094051 0 409 -0.094051 1
gene 1 92 21 -0.562324 0 410 -0.562324 1
gene 1 8 90 -0.25417 0 415 -0.25417 1
gene 1 37 52 -0.093144 0 451 -0.093144 1
gene 1 7 104 1.5501 0 464 1.5501 1
gene 1 104 20 -0.0536407 0 465 -0.0536407 1
gene 1 5 91 -0.119627 0 476 -0.119627 1
gene 1 21 32 0.406732 0 509 0.406732 1
gene 1 67 115 -0.716712 0 514 -0.716712 1
gene 1 115 20 0.209079 0 515 0.209079 1
gene 1 16 132 0.390412 0 577 0.390412 1
gene 1 132 20 -0.0767907 0 578 -0.0767907 1
gene 1 35 32 0.275564 0 616 0.275564 1
genomeend 6754
genomestart 6774
trait 1 0.0585563 0.397117 0.0437751 0.0863963 0.228166 0.461511 0.39333 0.203124 
node 1 1 1 1 0
node 2 1 1 1 0
node 3 1 1 1 0
node 4 1 1 1 0
node 5 1 1 1 0
node 6 1 1 1 0
node 7 1 1 1 0
node 8 1 1 1 0
node 9 1 1 1 0
node 10 1 1 1 0
node 11 1 1 1 0
node 12 1 1 1 0
node 13 1 1 1 0
node 14 1 1 1 0
node 15 1 1 1 0
node 16 1 1 1 0
node 17 1 1 1 0
node 18 1 1 1 0
node 19 1 1 3 0
node 20 1 0 2 0
node 21 1 0 2 0
node 28 1 0 0 0
node 32 1 0 0 0
node 33 1 0 0 0
node 35 1 0 0 0
node 36 1 0 0 0
node 37 1 0 0 0
node 49 1 0 0 0
node 52 1 0 0 0
node 53 1 0 0 0
node 56 1 0 0 0
node 67 1 0 0 0
node 68 1 0 0 0
node 69 1 0 0 0
node 81 1 0 0 0
node 90 1 0 0 0
node 91 1 0 0 0
node 92 1 0 0 0
node 104 1 0 0 0
node 115 1 0 0 0
node 132 1 0 0 0
gene 1 1 20 0.509066 0 1 0.509066 1
gene 1 2 20 0.191295 0 2 0.191295 1
gene 1 3 20 -0.278931 0 3 -0.278931 1
gene 1 4 20 0.618558 0 4 0.618558 1
gene 1 5 20 0.623927 0 5 0.623927 1
gene 1 6 20 -0.207672 0 6 -0.207672 1
gene 1 7 20 0.884856 0 7 0.884856 0
gene 1 8 20 -1.00836 0 8 -1.00836 0
gene 1 9 20 -0.57908 0 9 -0.57908 1
gene 1 10 20 0.202798 0 10 0.202798 1
gene 1 11 20 -0.737712 0 11 -0.737712 1
gene 1 12 20 0.902986 0 12 0.902986 1
gene 1 13 20 0.615782 0 13 0.615782 1
gene 1 14 20 -0.0696943 0 14 -0.0696943 1
gene 1 15 20 0.471547 0 15 0.471547 1
gene 1 16 20 0.246154 0 16 0.246154 1
gene 1 17 20 -0.821701 0 17 -0.821701 1
gene 1 18 20 -0.293548 0 18 -0.293548 1
gene 1 19 20 2.48671 0 19 2.48671 1
gene 1 1 21 0.799534 0 20 0.799534 1
gene 1 2 21 1.83037 0 21 1.83037 1
gene 1 3 21 -1.52841 0 22 -1.52841 1
gene 1 4 21 -0.532963 0 23 -0.532963 1
gene 1 5 21 -0.14394 0 24 -0.14394 1
gene 1 6 21 0.341939 0 25 0.341939 1
gene 1 7 21 0.221174 0 26 0.221174 1
gene 1 8 21 0.124069 0 27 0.124069 1
gene 1 9 21 -0.71244 0 28 -0.71244 1
gene 1 10 21 0.683752 0 29 0.683752 1
gene 1 11 21 1.13865 0 30 1.13865 1
gene 1 12 21 -0.481058 0 31 -0.481058 1
gene 1 13 21 0.071455 0 32 0.071455 1
gene 1 14 21 -0.394738 0 33 -0.394738 1
gene 1 15 21 2.23709 0 34 2.23709 1
gene 1 16 21 0.137252 0 35 0.137252 1
gene 1 17 21 -0.805807 0 36 -0.805807 0
gene 1 18 21 -0.492878 0 37 -0.492878 1
gene 1 19 21 -0.0863151 0 38 -0.0863151 1
gene 1 21 20 0.361326 0 43 0.361326 1
gene 1 18 28 -1.44318 0 56 -1.44318 1
gene 1 28 20 0.558014 0 57 0.558014 1
gene 1 13 28 1.64605 0 62 1.64605 1
gene 1 14 28 -2.94261 0 66 -2.94261 1
gene 1 10 28 -2.10139 0 68 -2.10139 1
gene 1 8 32 0.471661 0 70 0.471661 1
gene 1 32 20 0.443701 0 71 0.443701 1
gene 1 17 33 -0.159582 0 73 -0.159582 1
gene 1 33 20 0.0614889 0 74 0.0614889 1
gene 1 20 21 -0.285346 1 80 -0.285346 1
gene 1 18 35 0.768784 0 81 0.768784 1
gene 1 35 21 0.482198 0 82 0.482198 1
gene 1 6 36 1.20539 0 83 1.20539 1
gene 1 36 20 -0.804668 0 84 -0.804668 1
gene 1 28 37 -0.180099 0 86 -0.180099 1
gene 1 37 20 1.55973 0 87 1.55973 1
gene 1 21 49 -0.513952 0 131 -0.513952 1
gene 1 49 20 -0.543877 0 132 -0.543877 1
gene 1 37 35 -0.31099 0 133 -0.31099 1
gene 1 10 37 0.47401 0 151 0.47401 1
gene 1 4 28 -0.472096 0 152 -0.472096 1
gene 1 14 52 -0.25808 0 158 -0.25808 1
gene 1 52 20 -0.303155 0 159 -0.303155 1
gene 1 28 35 -0.182893 0 160 -0.182893 1
gene 1 4 35 -0.468745 0 161 -0.468745 1
gene 1 13 53 -0.346394 0 164 -0.346394 1
gene 1 53 20 0.0896474 0 165 0.0896474 1
gene 1 14 56 0.425657 0 180 0.425657 1
gene 1 56 28 0.141322 0 181 0.141322 1
gene 1 1 33 -0.804238 0 204 -0.804238 1
gene 1 10 33 0.123207 0 206 0.123207 1
gene 1 13 37 0.018706 0 207 0.018706 1
gene 1 33 37 -0.0667399 0 215 -0.0667399 1
gene 1 21 53 -0.409926 0 230 -0.409926 1
gene 1 5 67 0.71885 0 244 0.71885 1
gene 1 67 20 0.767474 0 245 0.767474 1
gene 1 35 35 -0.0449428 1 249 -0.0449428 1
gene 1 4 68 0.401063 0 255 0.401063 1
gene 1 68 35 0.194205 0 256 0.194205 1
gene 1 18 69 -0.0298099 0 258 -0.0298099 1
gene 1 69 28 0.254932 0 259 0.254932 1
gene 1 15 68 1.14366 0 288 1.14366 1
gene 1 13 81 -0.261218 0 322 -0.261218 1
gene 1 81 28 -0.247461 0 323 -0.247461 1
gene 1 10 90 -0.749205 0 366 -0.749205 1
gene 1 90 28 0.26729 0 367 0.26729 1
gene 1 28 36 -0.0555753 0 368 -0.0555753 1
gene 1 9 68 -0.0650846 0 394 -0.0650846 1
gene 1 68 67 0.0346941 0 399 0.0346941 1
gene 1 69 49 0.10448 0 405 0.10448 1
gene 1 32 91 0.264033 0 407 0.264033 1
gene 1 91 20 0.247364 0 408 0.247364 1
gene 1 17 92 -0.251019 0 409 -0.251019 1
gene 1 92 21 -0.0797604 0 410 -0.0797604 1
gene 1 8 90 -0.00707901 0 415 -0.00707901 1
gene 1 37 52 0.0369796 0 451 0.0369796 1
gene 1 7 104 1.3714 0 464 1.3714 1
gene 1 104 20 -0.210333 0 465 -0.210333 1
gene 1 5 91 0.257139 0 476 0.257139 1
gene 1 21 32 0.0887201 0 509 0.0887201 1
gene 1 67 115 -0.475879 0 514 -0.475879 1
gene 1 115 20 0.480199 0 515 0.480199 1
gene 1 16 132 1.5879 0 577 1.5879 1
gene 1 132 20 -0.142876 0 578 -0.142876 1
gene 1 35 32 -0.271826 0 616 -0.271826 1
genomeend 6774
genomestart 6881
trait 1 0.0137175 0.589151 0.0804335 0.10547 0.208496 0.498128 0.383678 0.0901127 
node 1 1 1 1 0
node 2 1 1 1 0
node 3 1 1 1 0
node 4 1 1 1 0
node 5 1 1 1 0
node 6 1 1 1 0
node 7 1 1 1 0
node 8 1 1 1 0
node 9 1 1 1 0
node 10 1 1 1 0
node 11 1 1 1 0
node 12 1 1 1 0
node 13 1 1 1 0
node 14 1 1 1 0
node 15 1 1 1 0
node 16 1 1 1 0
node 17 1 1 1 0
node 18 1 1 1 0
node 19 1 1 3 0
node 20 1 0 2 0
node 21 1 0 2 0
node 28 1 0 0 0
node 32 1 0 0 0
node 33 1 0 0 0
node 35 1 0 0 0
node 36 1 0 0 0
node 37 1 0 0 0
node 49 1 0 0 0
node 52 1 0 0 0
node 53 1 0 0 0
node 56 1 0 0 0
node 67 1 0 0 0
node 68 1 0 0 0
node 69 1 0 0 0
node 81 1 0 0 0
node 90 1 0 0 0
node 91 1 0 0 0
node 102 1 0 0 0
node 108 1 0 0 0
node 119 1 0 0 0
node 126 1 0 0 0
node 138 1 0 0 0
gene 1 1 20 -0.186701 0 1 -0.186701 1
gene 1 2 20 0.0103278 0 2 0.0103278 1
gene 1 3 20 0.86517 0 3 0.86517 1
gene 1 4 20 -0.915994 0 4 -0.915994 1
gene 1 5 20 1.77628 0 5 1.77628 1
gene 1 6 20 -0.0413022 0 6 -0.0413022 1
gene 1 7 20 -0.416877 0 7 -0.416877 1
gene 1 8 20 -0.879517 0 8 -0.879517 0
gene 1 9 20 0.0870131 0 9 0.0870131 1
gene 1 10 20 -1.26945 0 10 -1.26945 1
gene 1 11 20 1.32098 0 11 1.32098 1
gene 1 12 20 0.958309 0 12 0.958309 1
gene 1 13 20 0.403728 0 13 0.403728 1
gene 1 14 20 0.239252 0 14 0.239252 1
gene 1 15 20 -0.216019 0 15 -0.216019 1
gene 1 16 20 -0.169284 0 16 -0.169284 1
gene 1 17 20 -0.492597 0 17 -0.492597 1
gene 1 18 20 0.0661722 0 18 0.0661722 1
gene 1 19 20 2.67015 0 19 2.67015 1
gene 1 1 21 0.36972 0 20 0.36972 1
gene 1 2 21 1.00598 0 21 1.00598 1
gene 1 3 21 -0.195008 0 22 -0.195008 1
gene 1 4 21 0.276285 0 23 0.276285 1
gene 1 5 21 -0.286485 0 24 -0.286485 1
gene 1 6 21 -1.00666 0 25 -1.00666 1
gene 1 7 21 -0.353896 0 26 -0.353896 1
gene 1 8 21 0.239979 0 27 0.239979 1
gene 1 9 21 0.731909 0 28 0.731909 0
gene 1 10 21 -0.0489359 0 29 -0.0489359 0
gene 1 11 21 0.175762 0 30 0.175762 1
gene 1 12 21 -0.283919 0 31 -0.283919 1
gene 1 13 21 -2.21657 0 32 -2.21657 1
gene 1 14 21 0.188487 0 33 0.188487 1
gene 1 15 21 0.904072 0 34 0.904072 1
gene 1 16 21 -0.0230099 0 35 -0.0230099 1
gene 1 17 21 -0.0675269 0 36 -0.0675269 1
gene 1 18 21 -2.91916 0 37 -2.91916 1
gene 1 19 21 0.158383 0 38 0.158383 1
gene 1 21 20 -0.103328 0 43 -0.103328 1
gene 1 18 28 -0.341745 0 56 -0.341745 1
gene 1 28 20 1.58892 0 57 1.58892 1
gene 1 13 28 0.201358 0 62 0.201358 1
gene 1 14 28 -0.0995203 0 66 -0.0995203 1
gene 1 10 28 0.409046 0 68 0.409046 0
gene 1 8 32 0.408099 0 70 0.408099 1
gene 1 32 20 -0.256238 0 71 -0.256238 0
gene 1 17 33 0.924368 0 73 0.924368 1
gene 1 33 20 -0.551178 0 74 -0.551178 1
gene 1 20 21 -0.221118 1 80 -0.221118 1
gene 1 18 35 1.20318 0 81 1.20318 1
gene 1 35 21 -0.162536 0 82 -0.162536 0
gene 1 6 36 -0.386903 0 83 -0.386903 1
gene 1 36 20 -0.483989 0 84 -0.483989 1
gene 1 28 37 0.181266 0 86 0.181266 1
gene 1 37 20 0.642583 0 87 0.642583 1
gene 1 21 49 -0.117722 0 131 -0.117722 1
gene 1 49 20 0.599834 0 132 0.599834 1
gene 1 37 35 1.20074 0 133 1.20074 1
gene 1 10 37 0.313955 0 151 0.313955 1
gene 1 4 28 0.0974616 0 152 0.0974616 1
gene 1 14 52 0.156943 0 158 0.156943 1
gene 1 52 20 -0.310132 0 159 -0.310132 1
gene 1 28 35 -0.167606 0 160 -0.167606 1
gene 1 4 35 -0.0299228 0 161 -0.0299228 1
gene 1 13 53 0.140316 0 164 0.140316 1
gene 1 53 20 -0.859752 0 165 -0.859752 1
gene 1 14 56 0.868118 0 180 0.868118 1
gene 1 56 28 0.107221 0 181 0.107221 1
gene 1 1 33 -1.01629 0 204 -1.01629 1
gene 1 10 33 -0.496382 0 206 -0.496382 1
gene 1 13 37 0.0530306 0 207 0.0530306 1
gene 1 33 37 -0.15855 0 215 -0.15855 1
gene 1 21 53 -0.46459 0 230 -0.46459 1
gene 1 5 67 0.43786 0 244 0.43786 1
gene 1 67 20 -0.393955 0 245 -0.393955 1
gene 1 35 35 1.10944 1 249 1.10944 1
gene 1 4 68 0.215769 0 255 0.215769 1
gene 1 68 35 -0.168614 0 256 -0.168614 1
gene 1 18 69 0.285209 0 258 0.285209 1
gene 1 69 28 -0.498606 0 259 -0.498606 1
gene 1 15 68 -0.100169 0 288 -0.100169 1
gene 1 13 81 -0.736195 0 322 -0.736195 1
gene 1 81 28 0.432175 0 323 0.432175 1
gene 1 10 90 0.393681 0 366 0.393681 1
gene 1 90 28 -0.0531068 0 367 -0.0531068 1
gene 1 28 36 0.708057 0 368 0.708057 1
gene 1 9 68 0.0371902 0 394 0.0371902 1
gene 1 68 67 -0.431243 0 399 -0.431243 1
gene 1 32 91 0.298261 0 407 0.298261 1
gene 1 91 20 -0.22532 0 408 -0.22532 1
gene 1 10 102 0.43327 0 458 0.43327 1
gene 1 102 21 1.13933 0 459 1.13933 1
gene 1 68 52 0.419843 0 471 0.419843 1
gene 1 3 108 0.368522 0 480 0.368522 1
gene 1 108 21 0.0769679 0 481 0.0769679 1
gene 1 9 119 0.308354 0 525 0.308354 1
gene 1 119 21 0.379206 0 526 0.379206 1
gene 1 17 102 -0.530413 0 530 -0.530413 1
gene 1 35 126 -0.373144 0 558 -0.373144 1
gene 1 126 21 -0.437344 0 559 -0.437344 1
gene 1 68 68 1.54304 1 561 1.54304 1
gene 1 2 32 -0.262978 0 587 -0.262978 1
gene 1 15 138 0.921126 0 606 0.921126 1
gene 1 138 68 0.484595 0 607 0.484595 1
gene 1 33 33 0.555858 1 692 0.555858 1
genomeend 6881
genomestart 6949
trait 1 0.0806656 1 0.0532187 0.0839003 0.751041 0.429823 0.798224 0.331618 
node 1 1 1 1 0
node 2 1 1 1 0
node 3 1 1 1 0
node 4 1 1 1 0
node 5 1 1 1 0
node 6 1 1 1 0
node 7 1 1 1 0
node 8 1 1 1 0
node 9 1 1 1 0
node 10 1 1 1 0
node 11 1 1 1 0
node 12 1 1 1 0
node 13 1 1 1 0
node 14 1 1 1 0
node 15 1 1 1 0
node 16 1 1 1 0
node 17 1 1 1 0
node 18 1 1 1 0
node 19 1 1 3 0
node 20 1 0 2 0
node 21 1 0 2 0
node 28 1 0 0 0
node 32 1 0 0 0
node 33 1 0 0 0
node 35 1 0 0 0
node 36 1 0 0 0
node 37 1 0 0 0
node 49 1 0 0 0
node 52 1 0 0 0
node 53 1 0 0 0
node 56 1 0 0 0
node 67 1 0 0 0
node 68 1 0 0 0
node 69 1 0 0 0
node 81 1 0 0 0
node 90 1 0 0 0
node 91 1 0 0 0
node 92 1 0 0 0
node 94 1 0 0 0
node 97 1 0 0 0
node 104 1 0 0 0
node 112 1 0 0 0
node 114 1 0 0 0
node 115 1 0 0 0
node 132 1 0 0 0
gene 1 1 20 0.439946 0 1 0.439946 1
gene 1 2 20 -0.0746786 0 2 -0.0746786 1
gene 1 3 20 0.851624 0 3 0.851624 1
gene 1 4 20 -0.394617 0 4 -0.394617 1
gene 1 5 20 -0.713682 0 5 -0.713682 1
gene 1 6 20 -0.179174 0 6 -0.179174 1
gene 1 7 20 0.655366 0 7 0.655366 0
gene 1 8 20 -0.799528 0 8 -0.799528 1
gene 1 9 20 -0.529836 0 9 -0.529836 1
gene 1 10 20 -0.0459301 0 10 -0.0459301 1
gene 1 11 20 0.208607 0 11 0.208607 1
gene 1 12 20 0.906598 0 12 0.906598 1
gene 1 13 20 0.262457 0 13 0.262457 1
gene 1 14 20 0.677309 0 14 0.677309 1
gene 1 15 20 0.820617 0 15 0.820617 1
gene 1 16 20 -0.194403 0 16 -0.194403 0
gene 1 17 20 -0.600424 0 17 -0.600424 1
gene 1 18 20 0.77297 0 18 0.77297 1
gene 1 19 20 2.99359 0 19 2.99359 1
gene 1 1 21 0.530751 0 20 0.530751 1
gene 1 2 21 1.18564 0 21 1.18564 1
gene 1 3 21 -0.316561 0 22 -0.316561 1
gene 1 4 21 -0.476287 0 23 -0.476287 1
gene 1 5 21 0.837198 0 24 0.837198 1
gene 1 6 21 -0.434216 0 25 -0.434216 1
gene 1 7 21 -0.630798 0 26 -0.630798 1
gene 1 8 21 -0.606152 0 27 -0.606152 1
gene 1 9 21 -1.82199 0 28 -1.82199 1
gene 1 10 21 -0.105096 0 29 -0.105096 1
gene 1 11 21 0.517803 0 30 0.517803 1
gene 1 12 21 -0.432129 0 31 -0.432129 1
gene 1 13 21 0.101986 0 32 0.101986 1
gene 1 14 21 -1.03225 0 33 -1.03225 1
gene 1 15 21 2.44887 0 34 2.44887 1
gene 1 16 21 0.170367 0 35 0.170367 1
gene 1 17 21 -0.336025 0 36 -0.336025 0
gene 1 18 21 -0.468143 0 37 -0.468143 1
gene 1 19 21 -1.60857 0 38 -1.60857 1
gene 1 21 20 0.595384 0 43 0.595384 1
gene 1 18 28 -1.80753 0 56 -1.80753 1
gene 1 28 20 0.400168 0 57 0.400168 1
gene 1 13 28 0.817577 0 62 0.817577 1
gene 1 14 28 -1.40292 0 66 -1.40292 1
gene 1 10 28 -0.919973 0 68 -0.919973 0
gene 1 8 32 0.425944 0 70 0.425944 1
gene 1 32 20 1.13161 0 71 1.13161 1
gene 1 17 33 0.139431 0 73 0.139431 1
gene 1 33 20 0.10712 0 74 0.10712 1
gene 1 20 21 0.608089 1 80 0.608089 1
gene 1 18 35 1.33697 0 81 1.33697 1
gene 1 35 21 0.663235 0 82 0.663235 1
gene 1 6 36 0.41689 0 83 0.41689 1
gene 1 36 20 -1.55165 0 84 -1.55165 1
gene 1 28 37 -0.113007 0 86 -0.113007 1
gene 1 37 20 -0.0779926 0 87 -0.0779926 1
gene 1 21 49 -0.628172 0 131 -0.628172 1
gene 1 49 20 -0.0851858 0 132 -0.0851858 1
gene 1 37 35 -0.209922 0 133 -0.209922 1
gene 1 10 37 0.714671 0 151 0.714671 1
gene 1 4 28 0.00912397 0 152 0.00912397 1
gene 1 14 52 -0.0103238 0 158 -0.0103238 1
gene 1 52 20 -0.846471 0 159 -0.846471 1
gene 1 28 35 -1.23162 0 160 -1.23162 1
gene 1 4 35 0.200865 0 161 0.200865 1
gene 1 13 53 -0.52881 0 164 -0.52881 1
gene 1 53 20 0.980005 0 165 0.980005 1
gene 1 14 56 0.626715 0 180 0.626715 1
gene 1 56 28 0.411925 0 181 0.411925 1
gene 1 1 33 -0.963243 0 204 -0.963243 1
gene 1 10 33 -1.14289 0 206 -1.14289 1
gene 1 13 37 0.260868 0 207 0.260868 1
gene 1 33 37 -1.07621 0 215 -1.07621 1
gene 1 21 53 -0.207268 0 230 -0.207268 1
gene 1 5 67 0.322544 0 244 0.322544 1
gene 1 67 20 0.25504 0 245 0.25504 1
gene 1 35 35 0.0190145 1 249 0.0190145 1
gene 1 4 68 0.269256 0 255 0.269256 1
gene 1 68 35 0.828134 0 256 0.828134 1
gene 1 18 69 -0.264147 0 258 -0.264147 1
gene 1 69 28 0.303681 0 259 0.303681 1
gene 1 28 33 1.26215 0 267 1.26215 1
gene 1 15 68 0.269524 0 288 0.269524 1
gene 1 68 56 0.979248 0 291 0.979248 1
gene 1 13 81 0.269298 0 322 0.269298 1
gene 1 81 28 -0.906996 0 323 -0.906996 1
gene 1 10 90 0.104823 0 366 0.104823 1
gene 1 90 28 0.171269 0 367 0.171269 1
gene 1 28 36 -0.533327 0 368 -0.533327 1
gene 1 9 68 -0.798166 0 394 -0.798166 1
gene 1 68 67 -0.0285661 0 399 -0.0285661 1
gene 1 69 49 0.450894 0 405 0.450894 1
gene 1 32 91 0.74178 0 407 0.74178 1
gene 1 91 20 0.382073 0 408 0.382073 1
gene 1 17 92 0.0664785 0 409 0.0664785 1
gene 1 92 21 -0.00719014 0 410 -0.00719014 1
gene 1 8 90 -0.207438 0 415 -0.207438 1
gene 1 36 56 -0.766679 0 417 -0.766679 1
gene 1 33 94 -0.361214 0 427 -0.361214 1
gene 1 94 37 -0.199031 0 428 -0.199031 1
gene 1 18 97 -0.894843 0 440 -0.894843 1
gene 1 97 28 0.20604 0 441 0.20604 1
gene 1 37 52 -0.389309 0 451 -0.389309 1
gene 1 7 104 1.04527 0 464 1.04527 1
gene 1 104 20 -0.727176 0 465 -0.727176 1
gene 1 5 91 0.220905 0 476 0.220905 1
gene 1 33 33 0.24034 1 483 0.24034 1
gene 1 53 112 0.169416 0 499 0.169416 1
gene 1 112 20 0.29232 0 500 0.29232 1
gene 1 9 114 0.256299 0 504 0.256299 1
gene 1 114 20 0.246938 0 505 0.246938 1
gene 1 21 32 0.332847 0 509 0.332847 1
gene 1 67 115 -0.433609 0 514 -0.433609 1
gene 1 115 20 0.597454 0 515 0.597454 1
gene 1 2 28 -0.224666 0 539 -0.224666 1
gene 1 36 68 -1.28326 0 547 -1.28326 1
gene 1 16 132 0.25458 0 577 0.25458 1
gene 1 132 20 -0.223708 0 578 -0.223708 1
gene 1 6 28 -0.0272412 0 597 -0.0272412 1
gene 1 35 32 0.692547 0 616 0.692547 1
gene 1 56 56 0.500848 1 736 0.500848 1
gene 1 132 132 0.135376 1 757 0.135376 1
genomeend 6949
genomestart 6962
trait 1 0.042828 0.55563 0.0402167 0.0527349 0.183345 0.408357 0.385945 0.313993 
node 1 1 1 1 0
node 2 1 1 1 0
node 3 1 1 1 0
node 4 1 1 1 0
node 5 1 1 1 0
node 6 1 1 1 0
node 7 1 1 1 0
node 8 1 1 1 0
node 9 1 1 1 0
node 10 1 1 1 0
node 11 1 1 1 0
node 12 1 1 1 0
node 13 1 1 1 0
node 14 1 1 1 0
node 15 1 1 1 0
node 16 1 1 1 0
node 17 1 1 1 0
node 18 1 1 1 0
node 19 1 1 3 0
node 20 1 0 2 0
node 21 1 0 2 0
node 28 1 0 0 0
node 32 1 0 0 0
node 33 1 0 0 0
node 35 1 0 0 0
node 36 1 0 0 0
node 37 1 0 0 0
node 49 1 0 0 0
node 52 1 0 0 0
node 53 1 0 0 0
node 56 1 0 0 0
node 67 1 0 0 0
node 68 1 0 0 0
node 69 1 0 0 0
node 81 1 0 0 0
node 90 1 0 0 0
node 91 1 0 0 0
node 102 1 0 0 0
node 108 1 0 0 0
node 119 1 0 0 0
node 126 1 0 0 0
node 138 1 0 0 0
gene 1 1 20 0.823019 0 1 0.823019 1
gene 1 2 20 0.117107 0 2 0.117107 1
gene 1 3 20 1.19233 0 3 1.19233 1
gene 1 4 20 -0.8446 0 4 -0.8446 1
gene 1 5 20 1.47445 0 5 1.47445 1
gene 1 6 20 1.13614 0 6 1.13614 1
gene 1 7 20 0.273268 0 7 0.273268 1
gene 1 8 20 -0.414627 0 8 -0.414627 0
gene 1 9 20 0.187864 0 9 0.187864 1
gene 1 10 20 -0.636596 0 10 -0.636596 1
gene 1 11 20 2.16933 0 11 2.16933 1
gene 1 12 20 0.0374299 0 12 0.0374299 1
gene 1 13 20 0.877799 0 13 0.877799 1
gene 1 14 20 0.305893 0 14 0.305893 1
gene 1 15 20 -0.607053 0 15 -0.607053 1
gene 1 16 20 -0.178317 0 16 -0.178317 1
gene 1 17 20 0.779002 0 17 0.779002 1
gene 1 18 20 0.368167 0 18 0.368167 1
gene 1 19 20 2.43186 0 19 2.43186 1
gene 1 1 21 0.256399 0 20 0.256399 1
gene 1 2 21 0.287099 0 21 0.287099 1
gene 1 3 21 0.961504 0 22 0.961504 1
gene 1 4 21 -0.224532 0 23 -0.224532 1
gene 1 5 21 0.0150355 0 24 0.0150355 1
gene 1 6 21 -1.54571 0 25 -1.54571 1
gene 1 7 21 0.070229 0 26 0.070229 1
gene 1 8 21 -0.0513417 0 27 -0.0513417 1
gene 1 9 21 0.118283 0 28 0.118283 0
gene 1 10 21 0.182499 0 29 0.182499 0
gene 1 11 21 0.57288 0 30 0.57288 1
gene 1 12 21 0.662918 0 31 0.662918 1
gene 1 13 21 -0.988316 0 32 -0.988316 1
gene 1 14 21 -1.85847 0 33 -1.85847 1
gene 1 15 21 0.720492 0 34 0.720492 1
gene 1 16 21 -0.0913619 0 35 -0.0913619 1
gene 1 17 21 0.297954 0 36 0.297954 1
gene 1 18 21 -2.47436 0 37 -2.47436 1
gene 1 19 21 0.0521119 0 38 0.0521119 1
gene 1 21 20 -0.0553166 0 43 -0.0553166 1
gene 1 18 28 0.937747 0 56 0.937747 1
gene 1 28 20 1.25305 0 57 1.25305 1
gene 1 13 28 -0.128017 0 62 -0.128017 1
gene 1 14 28 -1.02858 0 66 -1.02858 1
gene 1 10 28 -0.146849 0 68 -0.146849 0
gene 1 8 32 -0.267334 0 70 -0.267334 1
gene 1 32 20 -0.810481 0 71 -0.810481 0
gene 1 17 33 0.269655 0 73 0.269655 1
gene 1 33 20 -0.609293 0 74 -0.609293 1
gene 1 20 21 0.190307 1 80 0.190307 1
gene 1 18 35 0.664929 0 81 0.664929 1
gene 1 35 21 -0.45405 0 82 -0.45405 0
gene 1 6 36 -0.542504 0 83 -0.542504 1
gene 1 36 20 0.026812 0 84 0.026812 1
gene 1 28 37 0.180785 0 86 0.180785 1
gene 1 37 20 0.303306 0 87 0.303306 1
gene 1 21 49 -0.32459 0 131 -0.32459 1
gene 1 49 20 1.58821 0 132 1.58821 1
gene 1 37 35 -0.061526 0 133 -0.061526 1
gene 1 10 37 0.0904692 0 151 0.0904692 1
gene 1 4 28 0.0745831 0 152 0.0745831 1
gene 1 14 52 -0.0261331 0 158 -0.0261331 1
gene 1 52 20 0.093759 0 159 0.093759 1
gene 1 28 35 0.141638 0 160 0.141638 1
gene 1 4 35 -0.518702 0 161 -0.518702 1
gene 1 13 53 -0.0236332 0 164 -0.0236332 1
gene 1 53 20 -0.161259 0 165 -0.161259 1
gene 1 14 56 0.627973 0 180 0.627973 1
gene 1 56 28 -1.39489 0 181 -1.39489 1
gene 1 1 33 -1.11274 0 204 -1.11274 1
gene 1 10 33 0.447765 0 206 0.447765 1
gene 1 13 37 0.386005 0 207 0.386005 1
gene 1 33 37 1.08687 0 215 1.08687 1
gene 1 21 53 -0.405346 0 230 -0.405346 1
gene 1 5 67 0.0723141 0 244 0.0723141 1
gene 1 67 20 -0.285296 0 245 -0.285296 1
gene 1 35 35 0.258124 1 249 0.258124 1
gene 1 4 68 0.563129 0 255 0.563129 1
gene 1 68 35 -0.584709 0 256 -0.584709 1
gene 1 18 69 0.0262273 0 258 0.0262273 1
gene 1 69 28 0.525904 0 259 0.525904 1
gene 1 15 68 -0.0542831 0 288 -0.0542831 1
gene 1 13 81 -0.131437 0 322 -0.131437 1
gene 1 81 28 1.12827 0 323 1.12827 1
gene 1 10 90 0.100398 0 366 0.100398 1
gene 1 90 28 -0.454578 0 367 -0.454578 1
gene 1 28 36 0.111861 0 368 0.111861 1
gene 1 9 68 0.0102377 0 394 0.0102377 1
gene 1 68 67 -0.156658 0 399 -0.156658 1
gene 1 32 91 0.533054 0 407 0.533054 1
gene 1 91 20 0.249697 0 408 0.249697 1
gene 1 10 102 0.0730051 0 458 0.0730051 1
gene 1 102 21 0.391978 0 459 0.391978 1
gene 1 68 52 0.612245 0 471 0.612245 1
gene 1 3 108 -0.357215 0 480 -0.357215 1
gene 1 108 21 -0.0221197 0 481 -0.0221197 1
gene 1 9 119 -0.197795 0 525 -0.197795 1
gene 1 119 21 0.621435 0 526 0.621435 1
gene 1 17 102 -0.364375 0 530 -0.364375 1
gene 1 35 126 0.41143 0 558 0.41143 1
gene 1 126 21 -0.117627 0 559 -0.117627 1
gene 1 68 68 1.41838 1 561 1.41838 1
gene 1 2 32 -0.675861 0 587 -0.675861 1
gene 1 15 138 0.921126 0 606 0.921126 1
gene 1 138 68 0.00614347 0 607 0.00614347 1
gene 1 33 33 0.437862 1 692 0.437862 1
genomeend 6962
genomestart 6968
trait 1 0.103623 0.903134 0.10333 0.397103 0.536402 0.164238 0.838168 0.17161 
node 1 1 1 1 0
node 2 1 1 1 0
node 3 1 1 1 0
node 4 1 1 1 0
node 5 1 1 1 0
node 6 1 1 1 0
node 7 1 1 1 0
node 8 1 1 1 0
node 9 1 1 1 0
node 10 1 1 1 0
node 11 1 1 1 0
node 12 1 1 1 0
node 13 1 1 1 0
node 14 1 1 1 0
node 15 1 1 1 0
node 16 1 1 1 0
node 17 1 1 1 0
node 18 1 1 1 0
node 19 1 1 3 0
node 20 1 0 2 0
node 21 1 0 2 0
node 28 1 0 0 0
node 32 1 0 0 0
node 33 1 0 0 0
node 35 1 0 0 0
node 36 1 0 0 0
node 37 1 0 0 0
node 49 1 0 0 0
node 52 1 0 0 0
node 53 1 0 0 0
node 56 1 0 0 0
node 67 1 0 0 0
node 68 1 0 0 0
node 69 1 0 0 0
node 81 1 0 0 0
node 90 1 0 0 0
node 91 1 0 0 0
node 92 1 0 0 0
node 93 1 0 0 0
node 102 1 0 0 0
node 104 1 0 0 0
node 108 1 0 0 0
node 115 1 0 0 0
node 119 1 0 0 0
node 122 1 0 0 0
node 126 1 0 0 0
node 132 1 0 0 0
node 138 1 0 0 0
node 153 1 0 0 0
node 159 1 0 0 0
gene 1 1 20 0.611211 0 1 0.611211 1
gene 1 2 20 0.278563 0 2 0.278563 1
gene 1 3 20 -0.0931258 0 3 -0.0931258 1
gene 1 4 20 0.814257 0 4 0.814257 1
gene 1 5 20 1.31708 0 5 1.31708 1
gene 1 6 20 -0.590315 0 6 -0.590315 0
gene 1 7 20 0.838664 0 7 0.838664 1
gene 1 8 20 -0.688751 0 8 -0.688751 0
gene 1 9 20 -0.0621358 0 9 -0.0621358 1
gene 1 10 20 0.294535 0 10 0.294535 1
gene 1 11 20 0.477396 0 11 0.477396 1
gene 1 12 20 0.489711 0 12 0.489711 1
gene 1 13 20 0.243508 0 13 0.243508 1
gene 1 14 20 0.00517241 0 14 0.00517241 1
gene 1 15 20 -0.0358279 0 15 -0.0358279 1
gene 1 16 20 -0.0459927 0 16 -0.0459927 1
gene 1 17 20 -0.226783 0 17 -0.226783 1
gene 1 18 20 -0.91189 0 18 -0.91189 1
gene 1 19 20 2.80409 0 19 2.80409 1
gene 1 1 21 -0.123 0 20 -0.123 1
gene 1 2 21 0.517269 0 21 0.517269 1
gene 1 3 21 -0.198 0 22 -0.198 0
gene 1 4 21 -0.645457 0 23 -0.645457 1
gene 1 5 21 -0.563091 0 24 -0.563091 1
gene 1 6 21 -0.480843 0 25 -0.480843 1
gene 1 7 21 -0.537123 0 26 -0.537123 1
gene 1 8 21 0.350075 0 27 0.350075 1
gene 1 9 21 -1.62894 0 28 -1.62894 0
gene 1 10 21 0.0536781 0 29 0.0536781 1
gene 1 11 21 1.77432 0 30 1.77432 1
gene 1 12 21 -0.839155 0 31 -0.839155 1
gene 1 13 21 -0.14329 0 32 -0.14329 1
gene 1 14 21 0.0709258 0 33 0.0709258 1
gene 1 15 21 -0.416824 0 34 -0.416824 1
gene 1 16 21 -0.358405 0 35 -0.358405 1
gene 1 17 21 -1.10173 0 36 -1.10173 0
gene 1 18 21 -2.61731 0 37 -2.61731 0
gene 1 19 21 -0.299628 0 38 -0.299628 1
gene 1 21 20 -0.777919 0 43 -0.777919 1
gene 1 18 28 -0.415644 0 56 -0.415644 1
gene 1 28 20 -0.469436 0 57 -0.469436 1
gene 1 13 28 0.679638 0 62 0.679638 1
gene 1 14 28 -0.48631 0 66 -0.48631 1
gene 1 10 28 0.223759 0 68 0.223759 0
gene 1 8 32 0.550249 0 70 0.550249 1
gene 1 32 20 -0.775165 0 71 -0.775165 0
gene 1 17 33 0.0330153 0 73 0.0330153 1
gene 1 33 20 -0.0787163 0 74 -0.0787163 1
gene 1 20 21 0.103223 1 80 0.103223 1
gene 1 18 35 2.55402 0 81 2.55402 1
gene 1 35 21 0.66063 0 82 0.66063 0
gene 1 6 36 -0.144963 0 83 -0.144963 1
gene 1 36 20 0.331443 0 84 0.331443 1
gene 1 28 37 0.40938 0 86 0.40938 1
gene 1 37 20 1.1906 0 87 1.1906 1
gene 1 21 49 -0.705589 0 131 -0.705589 1
gene 1 49 20 0.132389 0 132 0.132389 1
gene 1 37 35 0.383426 0 133 0.383426 1
gene 1 10 37 0.0397766 0 151 0.0397766 1
gene 1 4 28 0.885685 0 152 0.885685 1
gene 1 14 52 0.114678 0 158 0.114678 1
gene 1 52 20 0.060892 0 159 0.060892 1
gene 1 28 35 -0.106322 0 160 -0.106322 1
gene 1 4 35 -0.485048 0 161 -0.485048 1
gene 1 13 53 -0.388405 0 164 -0.388405 1
gene 1 53 20 0.00642269 0 165 0.00642269 1
gene 1 14 56 0.244283 0 180 0.244283 1
gene 1 56 28 0.355017 0 181 0.355017 1
gene 1 1 33 -0.526755 0 204 -0.526755 1
gene 1 10 33 -0.196566 0 206 -0.196566 1
gene 1 13 37 0.269342 0 207 0.269342 1
gene 1 33 37 0.873528 0 215 0.873528 1
gene 1 21 53 -0.222607 0 230 -0.222607 1
gene 1 5 67 -0.624686 0 244 -0.624686 1
gene 1 67 20 0.457173 0 245 0.457173 1
gene 1 35 35 0.0347099 1 249 0.0347099 1
gene 1 4 68 -0.201884 0 255 -0.201884 1
gene 1 68 35 0.420886 0 256 0.420886 1
gene 1 18 69 -0.49848 0 258 -0.49848 1
gene 1 69 28 0.205149 0 259 0.205149 1
gene 1 15 68 -0.346947 0 288 -0.346947 0
gene 1 13 81 0.0526565 0 322 0.0526565 1
gene 1 81 28 -0.132316 0 323 -0.132316 1
gene 1 10 90 -0.680635 0 366 -0.680635 1
gene 1 90 28 0.25616 0 367 0.25616 1
gene 1 28 36 0.582667 0 368 0.582667 1
gene 1 9 68 -0.78498 0 394 -0.78498 1
gene 1 68 67 -0.264855 0 399 -0.264855 1
gene 1 69 49 0.0369858 0 405 0.0369858 1
gene 1 32 91 -0.219054 0 407 -0.219054 1
gene 1 91 20 -0.058722 0 408 -0.058722 1
gene 1 17 92 -1.76666 0 409 -1.76666 1
gene 1 92 21 0.157491 0 410 0.157491 1
gene 1 18 93 0.522232 0 411 0.522232 1
gene 1 93 21 -0.671627 0 412 -0.671627 1
gene 1 8 90 0.361065 0 415 0.361065 1
gene 1 37 52 -0.117957 0 451 -0.117957 1
gene 1 10 102 -0.0162155 0 458 -0.0162155 1
gene 1 102 21 1.3772 0 459 1.3772 1
gene 1 7 104 0.253717 0 464 0.253717 1
gene 1 104 20 -0.283502 0 465 -0.283502 1
gene 1 68 52 -0.660489 0 471 -0.660489 1
gene 1 5 91 -1.14339 0 476 -1.14339 1
gene 1 3 108 0.0960187 0 480 0.0960187 1
gene 1 108 21 -0.507128 0 481 -0.507128 1
gene 1 21 32 -0.217588 0 509 -0.217588 1
gene 1 67 115 -0.987342 0 514 -0.987342 1
gene 1 115 20 0.690076 0 515 0.690076 1
gene 1 9 119 0.662192 0 525 0.662192 1
gene 1 119 21 -0.0793931 0 526 -0.0793931 1
gene 1 17 102 -0.415837 0 530 -0.415837 1
gene 1 35 122 -0.747944 1 543 -0.747944 1
gene 1 122 35 0.232318 0 544 0.232318 1
gene 1 35 126 -0.342502 0 558 -0.342502 1
gene 1 126 21 0.524874 0 559 0.524874 1
gene 1 68 68 -0.422227 1 561 -0.422227 1
gene 1 16 132 0.260285 0 577 0.260285 1
gene 1 132 20 0.0904335 0 578 0.0904335 1
gene 1 2 32 -1.11079 0 587 -1.11079 1
gene 1 15 138 0.365574 0 606 0.365574 1
gene 1 138 68 -0.375252 0 607 -0.375252 1
gene 1 35 32 -0.718096 0 616 -0.718096 1
gene 1 53 53 0.217872 1 650 0.217872 1
gene 1 91 138 -0.20597 0 653 -0.20597 1
gene 1 28 21 -0.949194 0 657 -0.949194 1
gene 1 16 153 1.22509 0 689 1.22509 1
gene 1 153 132 0.41972 0 690 0.41972 1
gene 1 33 33 0.108212 1 692 0.108212 1
gene 1 17 68 1.22878 0 705 1.22878 1
gene 1 15 159 1.05938 0 732 1.05938 1
gene 1 159 21 -0.251503 0 733 -0.251503 1
genomeend 6968
genomestart 7050
trait 1 0.0414779 0.556436 0.0902987 0.072576 0.168231 0.419865 0.362837 0.360303 
node 1 1 1 1 0
node 2 1 1 1 0
node 3 1 1 1 0
node 4 1 1 1 0
node 5 1 1 1 0
node 6 1 1 1 0
node 7 1 1 1 0
node 8 1 1 1 0
node 9 1 1 1 0
node 10 1 1 1 0
node 11 1 1 1 0
node 12 1 1 1 0
node 13 1 1 1 0
node 14 1 1 1 0
node 15 1 1 1 0
node 16 1 1 1 0
node 17 1 1 1 0
node 18 1 1 1 0
node 19 1 1 3 0
node 20 1 0 2 0
node 21 1 0 2 0
node 28 1 0 0 0
node 32 1 0 0 0
node 33 1 0 0 0
node 35 1 0 0 0
node 36 1 0 0 0
node 37 1 0 0 0
node 49 1 0 0 0
node 52 1 0 0 0
node 53 1 0 0 0
node 56 1 0 0 0
node 67 1 0 0 0
node 68 1 0 0 0
node 69 1 0 0 0
node 81 1 0 0 0
node 90 1 0 0 0
node 91 1 0 0 0
node 102 1 0 0 0
node 108 1 0 0 0
node 119 1 0 0 0
node 122 1 0 0 0
node 126 1 0 0 0
node 138 1 0 0 0
gene 1 1 20 0.911166 0 1 0.911166 1
gene 1 2 20 0.341158 0 2 0.341158 1
gene 1 3 20 0.794603 0 3 0.794603 1
gene 1 4 20 0.376493 0 4 0.376493 1
gene 1 5 20 0.675 0 5 0.675 1
gene 1 6 20 0.809106 0 6 0.809106 1
gene 1 7 20 0.0918314 0 7 0.0918314 1
gene 1 8 20 -0.158679 0 8 -0.158679 1
gene 1 9 20 0.163685 0 9 0.163685 1
gene 1 10 20 -0.379959 0 10 -0.379959 1
gene 1 11 20 1.30301 0 11 1.30301 1
gene 1 12 20 0.475018 0 12 0.475018 1
gene 1 13 20 0.359782 0 13 0.359782 1
gene 1 14 20 -0.0130131 0 14 -0.0130131 1
gene 1 15 20 -0.419955 0 15 -0.419955 1
gene 1 16 20 -0.00335819 0 16 -0.00335819 1
gene 1 17 20 0.389963 0 17 0.389963 1
gene 1 18 20 0.669856 0 18 0.669856 1
gene 1 19 20 2.30974 0 19 2.30974 1
gene 1 1 21 0.0150972 0 20 0.0150972 1
gene 1 2 21 0.391231 0 21 0.391231 1
gene 1 3 21 0.445548 0 22 0.445548 0
gene 1 4 21 -0.23743 0 23 -0.23743 1
gene 1 5 21 -0.0407035 0 24 -0.0407035 1
gene 1 6 21 -1.0694 0 25 -1.0694 1
gene 1 7 21 0.24038 0 26 0.24038 1
gene 1 8 21 0.385766 0 27 0.385766 1
gene 1 9 21 -0.112638 0 28 -0.112638 0
gene 1 10 21 -0.361201 0 29 -0.361201 0
gene 1 11 21 0.444389 0 30 0.444389 1
gene 1 12 21 0.144405 0 31 0.144405 1
gene 1 13 21 -0.683202 0 32 -0.683202 1
gene 1 14 21 -1.37671 0 33 -1.37671 1
gene 1 15 21 0.347517 0 34 0.347517 1
gene 1 16 21 0.122929 0 35 0.122929 1
gene 1 17 21 -0.425572 0 36 -0.425572 1
gene 1 18 21 -1.52089 0 37 -1.52089 1
gene 1 19 21 -0.163819 0 38 -0.163819 1
gene 1 21 20 0.0148528 0 43 0.0148528 1
gene 1 18 28 1.24514 0 56 1.24514 1
gene 1 28 20 1.61159 0 57 1.61159 1
gene 1 13 28 -0.262971 0 62 -0.262971 1
gene 1 14 28 -0.67702 0 66 -0.67702 1
gene 1 10 28 0.287587 0 68 0.287587 1
gene 1 8 32 -0.297676 0 70 -0.297676 1
gene 1 32 20 -0.815551 0 71 -0.815551 1
gene 1 17 33 0.130422 0 73 0.130422 1
gene 1 33 20 -0.11406 0 74 -0.11406 1
gene 1 20 21 0.830344 1 80 0.830344 1
gene 1 18 35 -0.0202656 0 81 -0.0202656 1
gene 1 35 21 0.00854076 0 82 0.00854076 1
gene 1 6 36 -0.448778 0 83 -0.448778 1
gene 1 36 20 -0.0453853 0 84 -0.0453853 1
gene 1 28 37 0.0517675 0 86 0.0517675 1
gene 1 37 20 0.75611 0 87 0.75611 1
gene 1 21 49 -0.552841 0 131 -0.552841 1
gene 1 49 20 0.933406 0 132 0.933406 1
gene 1 37 35 0.257135 0 133 0.257135 1
gene 1 10 37 0.0413911 0 151 0.0413911 1
gene 1 4 28 -0.590923 0 152 -0.590923 1
gene 1 14 52 0.151403 0 158 0.151403 1
gene 1 52 20 0.241396 0 159 0.241396 1
gene 1 28 35 0.104846 0 160 0.104846 1
gene 1 4 35 -0.574557 0 161 -0.574557 1
gene 1 13 53 0.319765 0 164 0.319765 1
gene 1 53 20 0.240197 0 165 0.240197 1
gene 1 14 56 0.385789 0 180 0.385789 1
gene 1 56 28 -0.684185 0 181 -0.684185 1
gene 1 1 33 -0.379517 0 204 -0.379517 1
gene 1 10 33 0.16115 0 206 0.16115 1
gene 1 13 37 -0.069692 0 207 -0.069692 1
gene 1 33 37 0.791509 0 215 0.791509 1
gene 1 21 53 0.282324 0 230 0.282324 1
gene 1 5 67 -0.000235914 0 244 -0.000235914 1
gene 1 67 20 0.17107 0 245 0.17107 1
gene 1 35 35 0.575236 1 249 0.575236 1
gene 1 4 68 0.0536246 0 255 0.0536246 1
gene 1 68 35 -0.06853 0 256 -0.06853 1
gene 1 18 69 -0.350297 0 258 -0.350297 1
gene 1 69 28 0.0902627 0 259 0.0902627 1
gene 1 15 68 0.148903 0 288 0.148903 1
gene 1 13 81 0.233406 0 322 0.233406 1
gene 1 81 28 0.746748 0 323 0.746748 1
gene 1 10 90 -0.394999 0 366 -0.394999 1
gene 1 90 28 -0.124934 0 367 -0.124934 1
gene 1 28 36 0.0450807 0 368 0.0450807 1
gene 1 9 68 0.772137 0 394 0.772137 1
gene 1 68 67 -0.116346 0 399 -0.116346 1
gene 1 32 91 -0.402359 0 407 -0.402359 1
gene 1 91 20 -0.0682226 0 408 -0.0682226 1
gene 1 10 102 -0.19247 0 458 -0.19247 1
gene 1 102 21 0.719006 0 459 0.719006 1
gene 1 68 52 -0.693975 0 471 -0.693975 1
gene 1 3 108 0.127743 0 480 0.127743 1
gene 1 108 21 0.265899 0 481 0.265899 1
gene 1 9 119 0.0647423 0 525 0.0647423 1
gene 1 119 21 -0.109108 0 526 -0.109108 1
gene 1 17 102 0.304198 0 530 0.304198 1
gene 1 35 122 1.06908 1 543 1.06908 1
gene 1 122 35 0.611121 0 544 0.611121 1
gene 1 35 126 0.264726 0 558 0.264726 1
gene 1 126 21 -0.270149 0 559 -0.270149 1
gene 1 68 68 -0.413153 1 561 -0.413153 1
gene 1 2 32 -0.907834 0 587 -0.907834 1
gene 1 15 138 0.850566 0 606 0.850566 1
gene 1 138 68 -0.0365065 0 607 -0.0365065 1
gene 1 53 53 -0.832921 1 650 -0.832921 1
gene 1 91 138 -0.4503 0 653 -0.4503 1
gene 1 28 21 0.262082 0 657 0.262082 1
gene 1 33 33 0.106917 1 692 0.106917 1
gene 1 17 68 0.387913 0 705 0.387913 1
genomeend 7050
genomestart 7052
trait 1 0.103623 0.903134 0.10333 0.397103 0.536402 0.164238 0.838168 0.17161 
node 1 1 1 1 0
node 2 1 1 1 0
node 3 1 1 1 0
node 4 1 1 1 0
node 5 1 1 1 0
node 6 1 1 1 0
node 7 1 1 1 0
node 8 1 1 1 0
node 9 1 1 1 0
node 10 1 1 1 0
node 11 1 1 1 0
node 12 1 1 1 0
node 13 1 1 1 0
node 14 1 1 1 0
node 15 1 1 1 0
node 16 1 1 1 0
node 17 1 1 1 0
node 18 1 1 1 0
node 19 1 1 3 0
node 20 1 0 2 0
node 21 1 0 2 0
node 28 1 0 0 0
node 32 1 0 0 0
node 33 1 0 0 0
node 35 1 0 0 0
node 36 1 0 0 0
node 37 1 0 0 0
node 49 1 0 0 0
node 52 1 0 0 0
node 53 1 0 0 0
node 56 1 0 0 0
node 67 1 0 0 0
node 68 1 0 0 0
node 69 1 0 0 0
node 81 1 0 0 0
node 90 1 0 0 0
node 91 1 0 0 0
node 92 1 0 0 0
node 93 1 0 0 0
node 102 1 0 0 0
node 104 1 0 0 0
node 108 1 0 0 0
node 115 1 0 0 0
node 119 1 0 0 0
node 122 1 0 0 0
node 126 1 0 0 0
node 132 1 0 0 0
node 138 1 0 0 0
node 153 1 0 0 0
node 159 1 0 0 0
gene 1 1 20 1.50245 0 1 1.50245 1
gene 1 2 20 0.616329 0 2 0.616329 1
gene 1 3 20 -0.0691409 0 3 -0.0691409 1
gene 1 4 20 1.15381 0 4 1.15381 1
gene 1 5 20 0.536229 0 5 0.536229 1
gene 1 6 20 -0.933279 0 6 -0.933279 0
gene 1 7 20 1.6972 0 7 1.6972 1
gene 1 8 20 -0.915828 0 8 -0.915828 1
gene 1 9 20 0.360636 0 9 0.360636 1
gene 1 10 20 0.51955 0 10 0.51955 1
gene 1 11 20 0.391501 0 11 0.391501 1
gene 1 12 20 0.723378 0 12 0.723378 1
gene 1 13 20 -0.338218 0 13 -0.338218 1
gene 1 14 20 0.564453 0 14 0.564453 1
gene 1 15 20 -0.0352177 0 15 -0.0352177 1
gene 1 16 20 0.27973 0 16 0.27973 1
gene 1 17 20 -0.331988 0 17 -0.331988 1
gene 1 18 20 -0.395573 0 18 -0.395573 1
gene 1 19 20 2.93798 0 19 2.93798 1
gene 1 1 21 0.304991 0 20 0.304991 1
gene 1 2 21 -0.334814 0 21 -0.334814 1
gene 1 3 21 -0.593072 0 22 -0.593072 0
gene 1 4 21 0.0262363 0 23 0.0262363 1
gene 1 5 21 -0.943534 0 24 -0.943534 1
gene 1 6 21 -0.830358 0 25 -0.830358 1
gene 1 7 21 0.242493 0 26 0.242493 1
gene 1 8 21 1.09585 0 27 1.09585 1
gene 1 9 21 -1.69702 0 28 -1.69702 0
gene 1 10 21 0.219983 0 29 0.219983 1
gene 1 11 21 1.82526 0 30 1.82526 1
gene 1 12 21 -1.07464 0 31 -1.07464 1
gene 1 13 21 -0.112596 0 32 -0.112596 1
gene 1 14 21 -0.639445 0 33 -0.639445 1
gene 1 15 21 0.214189 0 34 0.214189 1
gene 1 16 21 -1.15229 0 35 -1.15229 1
gene 1 17 21 -1.33205 0 36 -1.33205 0
gene 1 18 21 -3 0 37 -3 0
gene 1 19 21 -0.0406034 0 38 -0.0406034 1
gene 1 21 20 0.184506 0 43 0.184506 1
gene 1 18 28 -0.2999 0 56 -0.2999 1
gene 1 28 20 -0.471556 0 57 -0.471556 1
gene 1 13 28 1.1226 0 62 1.1226 1
gene 1 14 28 -0.732388 0 66 -0.732388 1
gene 1 10 28 1.13677 0 68 1.13677 0
gene 1 8 32 -0.135319 0 70 -0.135319 1
gene 1 32 20 -0.540702 0 71 -0.540702 0
gene 1 17 33 0.475829 0 73 0.475829 1
gene 1 33 20 -0.838631 0 74 -0.838631 1
gene 1 20 21 0.679875 1 80 0.679875 1
gene 1 18 35 2.26639 0 81 2.26639 1
gene 1 35 21 -0.427662 0 82 -0.427662 0
gene 1 6 36 0.56885 0 83 0.56885 1
gene 1 36 20 -0.13794 0 84 -0.13794 1
gene 1 28 37 0.391313 0 86 0.391313 1
gene 1 37 20 0.0982468 0 87 0.0982468 1
gene 1 21 49 -0.994188 0 131 -0.994188 1
gene 1 49 20 0.704815 0 132 0.704815 1
gene 1 37 35 0.567998 0 133 0.567998 1
gene 1 10 37 0.166916 0 151 0.166916 1
gene 1 4 28 0.37594 0 152 0.37594 1
gene 1 14 52 0.44622 0 158 0.44622 1
gene 1 52 20 0.544921 0 159 0.544921 1
gene 1 28 35 0.197098 0 160 0.197098 1
gene 1 4 35 -0.374438 0 161 -0.374438 1
gene 1 13 53 0.0280328 0 164 0.0280328 1
gene 1 53 20 -0.167114 0 165 -0.167114 1
gene 1 14 56 -0.362433 0 180 -0.362433 1
gene 1 56 28 0.672561 0 181 0.672561 1
gene 1 1 33 -0.948457 0 204 -0.948457 1
gene 1 10 33 0.417348 0 206 0.417348 1
gene 1 13 37 0.14053 0 207 0.14053 1
gene 1 33 37 0.591406 0 215 0.591406 1
gene 1 21 53 -0.32581 0 230 -0.32581 1
gene 1 5 67 -0.911628 0 244 -0.911628 1
gene 1 67 20 0.477599 0 245 0.477599 1
gene 1 35 35 0.0185516 1 249 0.0185516 1
gene 1 4 68 -0.336573 0 255 -0.336573 1
gene 1 68 35 0.623861 0 256 0.623861 1
gene 1 18 69 -1.2195 0 258 -1.2195 1
gene 1 69 28 -0.0397559 0 259 -0.0397559 1
gene 1 15 68 0.253644 0 288 0.253644 0
gene 1 13 81 -0.507339 0 322 -0.507339 1
gene 1 81 28 0.134789 0 323 0.134789 1
gene 1 10 90 -0.785704 0 366 -0.785704 1
gene 1 90 28 0.279216 0 367 0.279216 1
gene 1 28 36 0.911001 0 368 0.911001 1
gene 1 9 68 -1.1932 0 394 -1.1932 1
gene 1 68 67 -0.155587 0 399 -0.155587 1
gene 1 69 49 0.0122084 0 405 0.0122084 1
gene 1 32 91 -0.210442 0 407 -0.210442 1
gene 1 91 20 -0.138889 0 408 -0.138889 1
gene 1 17 92 -1.64155 0 409 -1.64155 1
gene 1 92 21 -0.583464 0 410 -0.583464 1
gene 1 18 93 0.543077 0 411 0.543077 1
gene 1 93 21 -0.910056 0 412 -0.910056 1
gene 1 8 90 0.430242 0 415 0.430242 1
gene 1 37 52 0.0192218 0 451 0.0192218 1
gene 1 10 102 0.0602597 0 458 0.0602597 1
gene 1 102 21 1.56154 0 459 1.56154 1
gene 1 7 104 0.0521526 0 464 0.0521526 1
gene 1 104 20 -0.00928433 0 465 -0.00928433 1
gene 1 68 52 -0.80567 0 471 -0.80567 1
gene 1 5 91 -0.562353 0 476 -0.562353 1
gene 1 3 108 0.68597 0 480 0.68597 1
gene 1 108 21 -0.666817 0 481 -0.666817 1
gene 1 21 32 -0.148433 0 509 -0.148433 1
gene 1 67 115 -0.982668 0 514 -0.982668 1
gene 1 115 20 -0.364905 0 515 -0.364905 1
gene 1 9 119 0.802668 0 525 0.802668 1
gene 1 119 21 0.495679 0 526 0.495679 1
gene 1 17 102 -0.0151604 0 530 -0.0151604 1
gene 1 35 122 -0.668518 1 543 -0.668518 1
gene 1 122 35 0.277573 0 544 0.277573 1
gene 1 35 126 -0.165491 0 558 -0.165491 1
gene 1 126 21 0.715974 0 559 0.715974 1
gene 1 68 68 -0.430762 1 561 -0.430762 1
gene 1 16 132 -0.100763 0 577 -0.100763 1
gene 1 132 20 0.226318 0 578 0.226318 1
gene 1 2 32 -1.17133 0 587 -1.17133 1
gene 1 15 138 -0.0570592 0 606 -0.0570592 1
gene 1 138 68 0.0558642 0 607 0.0558642 1
gene 1 35 32 -0.0273002 0 616 -0.0273002 1
gene 1 53 53 0.209817 1 650 0.209817 1
gene 1 91 138 -0.391663 0 653 -0.391663 1
gene 1 28 21 -0.934063 0 657 -0.934063 1
gene 1 16 153 1.22509 0 689 1.22509 1
gene 1 153 132 0.41972 0 690 0.41972 1
gene 1 33 33 -0.165237 1 692 -0.165237 1
gene 1 17 68 0.464865 0 705 0.464865 1
gene 1 15 159 0.812067 0 732 0.812067 1
gene 1 159 21 -0.294682 0 733 -0.294682 1
genomeend 7052
genomestart 7058
trait 1 0.0137175 0.589151 0.0804335 0.10547 0.208496 0.498128 0.383678 0.0901127 
node 1 1 1 1 0
node 2 1 1 1 0
node 3 1 1 1 0
node 4 1 1 1 0
node 5 1 1 1 0
node 6 1 1 1 0
node 7 1 1 1 0
node 8 1 1 1 0
node 9 1 1 1 0
node 10 1 1 1 0
node 11 1 1 1 0
node 12 1 1 1 0
node 13 1 1 1 0
node 14 1 1 1 0
node 15 1 1 1 0
node 16 1 1 1 0
node 17 1 1 1 0
node 18 1 1 1 0
node 19 1 1 3 0
node 20 1 0 2 0
node 21 1 0 2 0
node 28 1 0 0 0
node 32 1 0 0 0
node 33 1 0 0 0
node 35 1 0 0 0
node 36 1 0 0 0
node 37 1 0 0 0
node 49 1 0 0 0
node 52 1 0 0 0
node 53 1 0 0 0
node 56 1 0 0 0
node 67 1 0 0 0
node 68 1 0 0 0
node 69 1 0 0 0
node 81 1 0 0 0
node 90 1 0 0 0
node 91 1 0 0 0
node 102 1 0 0 0
node 108 1 0 0 0
node 119 1 0 0 0
node 126 1 0 0 0
node 138 1 0 0 0
gene 1 1 20 -0.186701 0 1 -0.186701 1
gene 1 2 20 0.0103278 0 2 0.0103278 1
gene 1 3 20 1.01952 0 3 1.01952 1
gene 1 4 20 -1.06778 0 4 -1.06778 1
gene 1 5 20 1.77628 0 5 1.77628 1
gene 1 6 20 -0.0413022 0 6 -0.0413022 1
gene 1 7 20 -0.416877 0 7 -0.416877 1
gene 1 8 20 -0.752144 0 8 -0.752144 0
gene 1 9 20 0.0870131 0 9 0.0870131 1
gene 1 10 20 -1.26945 0 10 -1.26945 1
gene 1 11 20 1.26412 0 11 1.26412 1
gene 1 12 20 0.670296 0 12 0.670296 1
gene 1 13 20 0.403728 0 13 0.403728 1
gene 1 14 20 -0.032089 0 14 -0.032089 1
gene 1 15 20 -0.216019 0 15 -0.216019 1
gene 1 16 20 -0.0427104 0 16 -0.0427104 1
gene 1 17 20 -0.108414 0 17 -0.108414 1
gene 1 18 20 0.0661722 0 18 0.0661722 1
gene 1 19 20 2.67015 0 19 2.67015 1
gene 1 1 21 0.36972 0 20 0.36972 1
gene 1 2 21 1.00598 0 21 1.00598 1
gene 1 3 21 -0.195008 0 22 -0.195008 1
gene 1 4 21 0.40971 0 23 0.40971 1
gene 1 5 21 -0.286485 0 24 -0.286485 1
gene 1 6 21 -1.00666 0 25 -1.00666 1
gene 1 7 21 -0.353896 0 26 -0.353896 1
gene 1 8 21 0.239979 0 27 0.239979 1
gene 1 9 21 0.731909 0 28 0.731909 0
gene 1 10 21 -0.0489359 0 29 -0.0489359 0
gene 1 11 21 0.471966 0 30 0.471966 1
gene 1 12 21 -0.283919 0 31 -0.283919 1
gene 1 13 21 -1.87964 0 32 -1.87964 1
gene 1 14 21 0.188487 0 33 0.188487 1
gene 1 15 21 0.620356 0 34 0.620356 1
gene 1 16 21 -0.0230099 0 35 -0.0230099 1
gene 1 17 21 -0.342023 0 36 -0.342023 1
gene 1 18 21 -2.91916 0 37 -2.91916 1
gene 1 19 21 0.158383 0 38 0.158383 1
gene 1 21 20 -0.103328 0 43 -0.103328 1
gene 1 18 28 -0.341745 0 56 -0.341745 1
gene 1 28 20 1.58892 0 57 1.58892 1
gene 1 13 28 0.447194 0 62 0.447194 1
gene 1 14 28 -0.0995203 0 66 -0.0995203 1
gene 1 10 28 0.0662353 0 68 0.0662353 0
gene 1 8 32 0.408099 0 70 0.408099 1
gene 1 32 20 -0.256238 0 71 -0.256238 0
gene 1 17 33 0.924368 0 73 0.924368 1
gene 1 33 20 -0.551178 0 74 -0.551178 1
gene 1 20 21 -0.221118 1 80 -0.221118 1
gene 1 18 35 0.995124 0 81 0.995124 1
gene 1 35 21 -0.245828 0 82 -0.245828 0
gene 1 6 36 -0.104596 0 83 -0.104596 1
gene 1 36 20 -0.483989 0 84 -0.483989 1
gene 1 28 37 0.181266 0 86 0.181266 1
gene 1 37 20 0.642583 0 87 0.642583 1
gene 1 21 49 -0.536241 0 131 -0.536241 1
gene 1 49 20 0.599834 0 132 0.599834 1
gene 1 37 35 0.996268 0 133 0.996268 1
gene 1 10 37 0.313955 0 151 0.313955 1
gene 1 4 28 0.0974616 0 152 0.0974616 1
gene 1 14 52 0.156943 0 158 0.156943 1
gene 1 52 20 -0.124418 0 159 -0.124418 1
gene 1 28 35 -0.167606 0 160 -0.167606 1
gene 1 4 35 0.186673 0 161 0.186673 1
gene 1 13 53 -0.121534 0 164 -0.121534 1
gene 1 53 20 -0.473069 0 165 -0.473069 1
gene 1 14 56 0.632662 0 180 0.632662 1
gene 1 56 28 0.107221 0 181 0.107221 1
gene 1 1 33 -1.01629 0 204 -1.01629 1
gene 1 10 33 -0.0901199 0 206 -0.0901199 1
gene 1 13 37 0.0530306 0 207 0.0530306 1
gene 1 33 37 -0.15855 0 215 -0.15855 1
gene 1 21 53 -0.46459 0 230 -0.46459 1
gene 1 5 67 -0.00207948 0 244 -0.00207948 1
gene 1 67 20 0.0898885 0 245 0.0898885 1
gene 1 35 35 1.10944 1 249 1.10944 1
gene 1 4 68 0.0816078 0 255 0.0816078 1
gene 1 68 35 -0.0736748 0 256 -0.0736748 1
gene 1 18 69 0.116058 0 258 0.116058 1
gene 1 69 28 0.198997 0 259 0.198997 1
gene 1 15 68 -0.100169 0 288 -0.100169 1
gene 1 13 81 -0.247661 0 322 -0.247661 1
gene 1 81 28 0.432175 0 323 0.432175 1
gene 1 10 90 -0.0499829 0 366 -0.0499829 1
gene 1 90 28 -0.0531068 0 367 -0.0531068 1
gene 1 28 36 0.708057 0 368 0.708057 1
gene 1 9 68 0.184713 0 394 0.184713 1
gene 1 68 67 -0.142393 0 399 -0.142393 1
gene 1 32 91 0.702014 0 407 0.702014 1
gene 1 91 20 -0.221431 0 408 -0.221431 1
gene 1 10 102 0.439268 0 458 0.439268 1
gene 1 102 21 1.0845 0 459 1.0845 1
gene 1 68 52 0.419843 0 471 0.419843 1
gene 1 3 108 0.0698612 0 480 0.0698612 1
gene 1 108 21 0.246702 0 481 0.246702 1
gene 1 9 119 0.308354 0 525 0.308354 1
gene 1 119 21 0.223316 0 526 0.223316 1
gene 1 17 102 -0.530413 0 530 -0.530413 1
gene 1 35 126 -0.373144 0 558 -0.373144 1
gene 1 126 21 -0.0163137 0 559 -0.0163137 1
gene 1 68 68 1.57398 1 561 1.57398 1
gene 1 2 32 -0.262978 0 587 -0.262978 1
gene 1 15 138 0.921126 0 606 0.921126 1
gene 1 138 68 0.00614347 0 607 0.00614347 1
gene 1 33 33 0.555858 1 692 0.555858 1
genomeend 7058
genomestart 7099
trait 1 0.103623 0.903134 0.10333 0.397103 0.536402 0.164238 0.838168 0.17161 
node 1 1 1 1 0
node 2 1 1 1 0
node 3 1 1 1 0
node 4 1 1 1 0
node 5 1 1 1 0
node 6 1 1 1 0
node 7 1 1 1 0
node 8 1 1 1 0
node 9 1 1 1 0
node 10 1 1 1 0
node 11 1 1 1 0
node 12 1 1 1 0
node 13 1 1 1 0
node 14 1 1 1 0
node 15 1 1 1 0
node 16 1 1 1 0
node 17 1 1 1 0
node 18 1 1 1 0
node 19 1 1 3 0
node 20 1 0 2 0
node 21 1 0 2 0
node 28 1 0 0 0
node 32 1 0 0 0
node 33 1 0 0 0
node 35 1 0 0 0
node 36 1 0 0 0
node 37 1 0 0 0
node 49 1 0 0 0
node 52 1 0 0 0
node 53 1 0 0 0
node 56 1 0 0 0
node 67 1 0 0 0
node 68 1 0 0 0
node 69 1 0 0 0
node 81 1 0 0 0
node 90 1 0 0 0
node 91 1 0 0 0
node 92 1 0 0 0
node 93 1 0 0 0
node 102 1 0 0 0
node 104 1 0 0 0
node 108 1 0 0 0
node 115 1 0 0 0
node 119 1 0 0 0
node 122 1 0 0 0
node 126 1 0 0 0
node 132 1 0 0 0
node 138 1 0 0 0
node 159 1 0 0 0
gene 1 1 20 0.599348 0 1 0.599348 1
gene 1 2 20 0.401414 0 2 0.401414 1
gene 1 3 20 -0.34726 0 3 -0.34726 1
gene 1 4 20 1.3482 0 4 1.3482 1
gene 1 5 20 0.801311 0 5 0.801311 1
gene 1 6 20 -0.025114 0 6 -0.025114 0
gene 1 7 20 1.05331 0 7 1.05331 1
gene 1 8 20 -1.55461 0 8 -1.55461 0
gene 1 9 20 0.259574 0 9 0.259574 1
gene 1 10 20 0.620207 0 10 0.620207 1
gene 1 11 20 -0.0187001 0 11 -0.0187001 1
gene 1 12 20 0.829263 0 12 0.829263 1
gene 1 13 20 0.925976 0 13 0.925976 1
gene 1 14 20 -0.0827616 0 14 -0.0827616 1
gene 1 15 20 -0.659219 0 15 -0.659219 1
gene 1 16 20 0.12313 0 16 0.12313 1
gene 1 17 20 -0.260957 0 17 -0.260957 1
gene 1 18 20 -1.00035 0 18 -1.00035 1
gene 1 19 20 2.79486 0 19 2.79486 1
gene 1 1 21 -0.569058 0 20 -0.569058 1
gene 1 2 21 0.159067 0 21 0.159067 1
gene 1 3 21 -0.185488 0 22 -0.185488 0
gene 1 4 21 -0.529539 0 23 -0.529539 1
gene 1 5 21 0.115433 0 24 0.115433 1
gene 1 6 21 0.138539 0 25 0.138539 1
gene 1 7 21 -0.00613987 0 26 -0.00613987 1
gene 1 8 21 0.472374 0 27 0.472374 1
gene 1 9 21 -1.13154 0 28 -1.13154 0
gene 1 10 21 -0.39738 0 29 -0.39738 0
gene 1 11 21 2.23299 0 30 2.23299 1
gene 1 12 21 -0.11258 0 31 -0.11258 1
gene 1 13 21 -0.0527533 0 32 -0.0527533 1
gene 1 14 21 -0.0815444 0 33 -0.0815444 1
gene 1 15 21 -0.701094 0 34 -0.701094 1
gene 1 16 21 -1.17934 0 35 -1.17934 1
gene 1 17 21 -1.34363 0 36 -1.34363 0
gene 1 18 21 -2.57831 0 37 -2.57831 0
gene 1 19 21 0.124831 0 38 0.124831 1
gene 1 21 20 0.120607 0 43 0.120607 1
gene 1 18 28 0.0311136 0 56 0.0311136 1
gene 1 28 20 -0.752026 0 57 -0.752026 1
gene 1 13 28 0.792574 0 62 0.792574 1
gene 1 14 28 -0.946792 0 66 -0.946792 1
gene 1 10 28 0.313231 0 68 0.313231 0
gene 1 8 32 0.420134 0 70 0.420134 1
gene 1 32 20 -1.16728 0 71 -1.16728 0
gene 1 17 33 0.667048 0 73 0.667048 1
gene 1 33 20 0.450434 0 74 0.450434 1
gene 1 20 21 0.330556 1 80 0.330556 1
gene 1 18 35 2.06093 0 81 2.06093 1
gene 1 35 21 0.622963 0 82 0.622963 0
gene 1 6 36 0.490277 0 83 0.490277 1
gene 1 36 20 0.491716 0 84 0.491716 1
gene 1 28 37 1.24087 0 86 1.24087 1
gene 1 37 20 0.768293 0 87 0.768293 1
gene 1 21 49 -0.757235 0 131 -0.757235 1
gene 1 49 20 0.894934 0 132 0.894934 1
gene 1 37 35 1.15596 0 133 1.15596 1
gene 1 10 37 0.441737 0 151 0.441737 1
gene 1 4 28 1.15807 0 152 1.15807 1
gene 1 14 52 0.648683 0 158 0.648683 1
gene 1 52 20 -0.120427 0 159 -0.120427 1
gene 1 28 35 -0.202943 0 160 -0.202943 1
gene 1 4 35 -0.663487 0 161 -0.663487 1
gene 1 13 53 -0.812092 0 164 -0.812092 1
gene 1 53 20 -0.188133 0 165 -0.188133 1
gene 1 14 56 0.177225 0 180 0.177225 1
gene 1 56 28 0.00598959 0 181 0.00598959 1
gene 1 1 33 -0.177083 0 204 -0.177083 1
gene 1 10 33 -0.627741 0 206 -0.627741 1
gene 1 13 37 0.286537 0 207 0.286537 1
gene 1 33 37 0.570705 0 215 0.570705 1
gene 1 21 53 -0.79469 0 230 -0.79469 1
gene 1 5 67 -0.406873 0 244 -0.406873 1
gene 1 67 20 0.652874 0 245 0.652874 0
gene 1 35 35 0.0513532 1 249 0.0513532 1
gene 1 4 68 0.0646034 0 255 0.0646034 1
gene 1 68 35 0.623217 0 256 0.623217 1
gene 1 18 69 -0.759408 0 258 -0.759408 1
gene 1 69 28 -0.546748 0 259 -0.546748 1
gene 1 15 68 0.0892961 0 288 0.0892961 0
gene 1 13 81 0.0742988 0 322 0.0742988 1
gene 1 81 28 0.365615 0 323 0.365615 1
gene 1 10 90 -0.266229 0 366 -0.266229 1
gene 1 90 28 0.665842 0 367 0.665842 1
gene 1 28 36 0.653017 0 368 0.653017 1
gene 1 9 68 -0.102443 0 394 -0.102443 1
gene 1 68 67 -0.292431 0 399 -0.292431 1
gene 1 69 49 0.401224 0 405 0.401224 1
gene 1 32 91 -0.101464 0 407 -0.101464 1
gene 1 91 20 -0.302803 0 408 -0.302803 1
gene 1 17 92 -1.17686 0 409 -1.17686 1
gene 1 92 21 0.499073 0 410 0.499073 1
gene 1 18 93 0.874969 0 411 0.874969 1
gene 1 93 21 -1.54982 0 412 -1.54982 1
gene 1 8 90 0.139679 0 415 0.139679 1
gene 1 37 52 -0.908642 0 451 -0.908642 1
gene 1 10 102 0.167631 0 458 0.167631 1
gene 1 102 21 1.01754 0 459 1.01754 1
gene 1 7 104 0.140788 0 464 0.140788 1
gene 1 104 20 -0.591805 0 465 -0.591805 1
gene 1 68 52 -0.774447 0 471 -0.774447 1
gene 1 5 91 -0.794548 0 476 -0.794548 1
gene 1 3 108 -0.0969365 0 480 -0.0969365 1
gene 1 108 21 -0.165648 0 481 -0.165648 1
gene 1 21 32 0.302908 0 509 0.302908 1
gene 1 67 115 -0.666067 0 514 -0.666067 1
gene 1 115 20 1.25521 0 515 1.25521 1
gene 1 9 119 0.502606 0 525 0.502606 1
gene 1 119 21 0.0641752 0 526 0.0641752 1
gene 1 17 102 -0.305013 0 530 -0.305013 1
gene 1 35 122 -0.396552 1 543 -0.396552 1
gene 1 122 35 -0.486382 0 544 -0.486382 1
gene 1 35 126 0.0337173 0 558 0.0337173 1
gene 1 126 21 0.218075 0 559 0.218075 1
gene 1 68 68 -0.439297 1 561 -0.439297 1
gene 1 16 132 -0.19851 0 577 -0.19851 1
gene 1 132 20 0.0942916 0 578 0.0942916 1
gene 1 2 32 -1.06455 0 587 -1.06455 1
gene 1 15 138 0.599401 0 606 0.599401 1
gene 1 138 68 -0.196861 0 607 -0.196861 1
gene 1 35 32 -0.173709 0 616 -0.173709 1
gene 1 53 53 0.382764 1 650 0.382764 1
gene 1 91 138 0.266977 0 653 0.266977 1
gene 1 28 21 -1.8314 0 657 -1.8314 1
